svm_type c_svc
kernel_type rbf
gamma 0.03125
nr_class 2
total_sv 1145
rho 6.89569
label 1 0
probA -3.36646
probB 0.895076
nr_sv 565 580
SV
512 1:0.077 2:0.2178 3:0.426 4:-0.0775 5:-0.2082 6:-0.3816 7:0.5362 8:0.8164 
512 1:0.9118 2:0.66976 3:0.282667 4:0.1945 5:0.7726 6:0.329867 7:0.332 8:-0.67 
512 1:-0.9376 2:-1 3:0.744667 4:-0.291 5:-0.9014 6:-0.18 7:0.7 8:-0.9538 
512 1:-0.4696 2:0.42212 3:0.0496667 4:0.1465 5:0.8904 6:-0.346667 7:0.5086 8:0.8028 
512 1:-0.9166 2:-1 3:-0.646667 4:-0.01375 5:-0.2082 6:0.186 7:0.1 8:-0.9538 
512 1:0.8938 2:0.86912 3:-0.044 4:0.3285 5:0.4849 6:-0.197467 7:0.386 8:-0.795 
512 1:0.9688 2:0.65724 3:-0.269333 4:0.12725 5:0.8904 6:-0.1556 7:0.3278 8:-0.8008 
512 1:0.9166 2:0.2542 3:0.71 4:0.28675 5:0.3979 6:0.110133 7:0.6852 8:-0.8968 
512 1:0.8796 2:0.74268 3:0.239 4:0.239 5:0.6391 6:-0.00506667 7:0.1606 8:-0.8422 
403.5148893935487 1:0.8948 2:0.79992 3:0.618667 4:0.39125 5:0.9957 6:-0.283467 7:0.4604 8:0.8946 
512 1:-0.5714 2:-0.56056 3:-0.253 4:0.58575 5:-0.6137 6:-0.527733 7:0.38 8:-0.9538 
512 1:0.6454 2:1 3:0.645667 4:0.0755 5:0.9444 6:-0.1708 7:0.7042 8:-0.6246 
512 1:0.647 2:0.05564 3:0.525333 4:0.33 5:0.1972 6:-0.115733 7:0.5542 8:-0.9478 
512 1:0.8948 2:0.4334 3:-0.0443333 4:0.0735 5:0.3026 6:-0.175867 7:0.3534 8:-0.8074 
512 1:0.579 2:0.08324 3:-0.407 4:0.17625 5:1 6:-0.350267 7:0.16 8:-0.658 
512 1:0.2 2:-0.56056 3:-0.633333 4:0.4435 5:-0.6137 6:0.688267 7:0.3266 8:-0.9538 
451.9543205802395 1:-0.4844 2:0.3986 3:0.216667 4:0.01875 5:0.9957 6:-0.281733 7:0.5704 8:0.9152 
512 2:-1 3:-0.153333 4:0.215 5:0.0794 6:-0.2252 7:0.36 8:-0.9538 
512 1:0.3158 2:0.28756 3:-0.250333 4:0.172 5:0.6391 6:-0.165733 7:0.5392 8:-0.6974 
512 2:-0.56056 3:0.177 4:-0.17575 5:0.5649 6:0.210933 7:0.6466 8:-0.5834 
512 1:0.25 2:-0.35624 3:-0.618667 4:0.6885 5:-0.3906 6:0.5048 7:0.364 8:-0.9582 
512 1:-0.3334 2:-1 3:0.790667 4:-0.24475 5:0.3026 6:-0.3152 7:0.92 8:-0.9538 
512 1:0.8518 2:0.727 3:-0.44 4:0.402 5:0.3026 6:-0.0726667 7:0.3302 8:-0.7722 
512 1:-0.3334 2:-1 3:0.326 4:0.239 5:0.1972 6:-0.388267 7:0.86 8:-0.9536 
512 1:0.25 2:-0.35624 3:0.420333 4:0.68175 5:-0.0541 6:-0.3792 7:0.536 8:-0.849 
432.0973359370938 1:0.7392 2:0.7528 3:-0.0423333 4:-0.14025 5:1 6:-0.103467 7:0.3976 8:-0.3556 
512 1:-0.8918 2:-0.72276 3:-0.391667 4:0.043 5:0.0794 6:-0.1864 7:0.12 8:0.7438 
512 2:0.30324 3:0.0913333 4:0.17125 5:0.0794 6:-0.269333 7:0.6336 8:0.7402 
512 1:0.6 2:-0.44548 3:-0.206333 4:0.04175 5:0.7726 6:-0.4476 7:0.405 8:-0.9832 
512 2:-0.72276 3:0.179333 4:0.5925 5:0.3979 6:-0.0245333 7:0.76 8:-0.9538 
512 1:-0.3846 2:-0.44548 3:0.0763333 4:0.43025 5:0.0794 6:-0.323867 7:0.32 8:0.5016 
512 2:-0.72276 3:0.157 4:0.4 5:0.4849 6:-0.0610667 7:0.68 8:-0.9538 
512 1:0.9306 2:0.9738 3:-0.406667 4:0.19175 5:0.7726 6:0.282933 7:0.3498 8:-0.783 
512 1:0.9024 2:0.74268 3:-0.371667 4:0.05675 5:1 6:-0.453733 7:0.2142 8:0.77 
512 1:0.875 2:0.36048 3:0.355333 4:0.14625 5:0.7081 6:-0.362533 7:0.1942 8:0.9942 
512 1:0.3734 2:0.61724 3:0.439 4:-0.038 5:1 6:0.0464 7:0.3628 8:-0.8254 
512 1:0.8852 2:0.89796 3:0.25 4:0.0375 5:0.9444 6:-0.0608 7:0.3322 8:0.8992 
512 1:0.8334 2:0.3986 3:-0.0946667 4:0.268 5:0.6391 6:-0.445067 7:0.3134 8:-1 
512 1:-0.0882 2:0.3736 3:0.482 4:-0.30675 5:-0.2082 6:-0.234 7:0.4646 8:-0.9842 
512 1:-0.6666 2:-0.72276 3:0.564667 4:-0.20425 5:-0.9014 6:0.363067 7:0.52 8:0.4618 
512 1:0.826 2:0.2178 3:-0.540667 4:-0.1425 5:0.3026 6:0.435733 7:0.1848 8:-0.959 
512 1:0.3572 2:0.73228 3:-0.88 4:0.1395 5:0.7726 6:-0.0472 7:0.2846 8:-0.1382 
512 1:-0.5144 2:0.49508 3:-0.026 4:0.0585 5:0.9957 6:-0.198 7:0.6148 8:0.944 
512 1:1 2:-1 3:-0.171333 4:0.66575 5:-0.3906 6:-0.305867 7:0.08 8:-0.3418 
512 1:0.7142 2:-0.00604 3:-0.406667 4:0.21325 5:0.3026 6:-0.0818667 7:0.1416 8:-0.7628 
512 1:-0.6 2:-1 3:-0.276667 4:0.33575 5:-0.2082 6:-0.3256 8:-0.9538 
512 1:1 2:-1 3:0.783 4:0.13325 5:-0.0541 6:-0.250667 7:0.76 8:-0.9538 
490.660251231074 1:-0.3846 2:-0.44548 3:0.450667 4:0.40075 5:0.4849 6:-0.398533 7:0.72 8:0.7414 
512 1:0.2424 2:0.48544 3:0.354667 4:0.12275 5:1 6:0.0353333 7:0.3444 8:-0.0672 
512 1:0.8236 2:0.3736 3:0.095 4:-0.0295 5:0.9957 6:-0.2376 7:0.1368 8:0.7396 
512 1:0.9152 2:1 3:-0.00333333 4:0.20775 5:0.8904 6:-0.580533 7:0.2596 8:0.7896 
512 1:-0.3334 2:-1 3:-0.998 4:-0.1735 5:0.1972 6:0.103467 7:0.52 8:-0.9522 
512 1:0.6 2:0.27124 3:-0.445667 4:0.15675 5:0.9957 6:-0.418667 7:0.5734 8:-0.9292 
512 1:0.5114 2:0.95612 3:-0.358333 4:0.0285 5:-0.9014 6:0.2444 7:0.233 8:0.1794 
512 1:0.875 2:0.36048 3:0.06 4:0.51075 5:0.0794 6:0.4584 7:0.2934 8:-0.9552 
512 1:-0.8182 2:-1 3:-0.570333 4:0.64175 5:0.3026 6:-0.6276 7:0.68 8:-0.9538 
512 2:-0.72276 3:-0.536 4:-0.047 5:0.8332 6:0.0113333 7:0.82 8:-0.9502 
512 2:-1 3:0.732 4:0.41075 5:0.1972 6:-0.270133 7:0.26 8:-0.8994 
512 1:0.6364 2:0.15616 3:-0.047 4:-0.065 5:0.1972 6:0.4692 7:0.3212 8:-0.8964 
512 1:-0.4286 2:-0.72276 3:0.129333 4:0.09975 5:0.3026 6:-0.256 7:0.07 8:-0.1512 
512 1:-0.7778 2:-1 3:-0.729 4:-0.07875 5:-0.3906 6:-0.346133 7:0.22 8:-0.9534 
512 1:0.3334 2:-0.44548 3:-0.079 4:0.3855 5:-0.0541 6:-0.0644 7:0.47 8:-0.6778 
512 1:0.5 2:-0.56056 3:0.419 4:0.673 5:-0.0541 6:-0.1968 7:0.8134 8:-0.9452 
512 1:1 2:-1 3:-0.59 4:0.11675 5:0.0794 6:-0.514133 7:0.28 8:-0.9536 
512 1:1 2:-0.72276 3:0.532667 4:0.48225 5:0.3026 6:-0.1916 7:0.61 8:-0.9538 
512 2:-1 3:-0.286 4:-0.13925 5:-0.0541 6:-0.1288 7:0.68 8:-0.9538 
60.99248046057394 1:0.5 2:-0.56056 3:0.362333 4:0.1865 5:0.9444 6:-0.212933 7:0.7334 8:-0.9538 
512 2:-1 3:0.403 4:0.648 5:-0.2082 6:-0.444667 7:0.84 8:-0.9538 
512 1:-0.875 2:-1 3:0.688667 4:-0.04275 5:0.1972 6:-0.545867 7:0.54 8:-0.9536 
512 1:1 2:-1 3:0.292667 4:-0.2215 5:-0.6137 6:0.531733 7:0.24 8:-0.9538 
9.386053081898371 1:0.8716 2:0.85 3:0.302333 4:-0.04075 5:-0.2082 6:0.198267 7:0.2004 8:0.7526 
512 1:-0.3334 2:-1 3:-0.00266667 4:0.484 5:-0.0541 6:-0.096 7:0.44 8:-0.9536 
512 1:-0.6 2:-0.56056 3:-0.224 4:0.397 5:0.4849 6:-0.115733 7:0.24 8:0.7394 
512 1:-0.3334 2:-1 3:-0.830333 4:0.50975 5:0.5649 6:-0.0116 7:0.04 8:-0.9538 
443.6525722976171 1:0.9118 2:0.66976 3:-0.261 4:-0.0525 5:0.9444 6:0.182933 7:0.5184 8:-0.8206 
512 2:-0.72276 3:0.378667 4:-0.16725 5:0.3026 6:-0.483733 7:0.56 8:-0.9538 
512 1:0.4146 2:0.34692 3:-0.915 4:-0.35175 5:0.4849 6:0.2924 7:0.4042 8:-0.8072 
512 1:0.077 2:0.05564 3:-0.620667 4:-0.1995 5:0.1972 6:0.0594667 7:0.2442 8:-0.9334 
512 2:-0.72276 3:-0.581667 4:0.05575 5:0.8904 6:-0.0301333 7:0.85 8:-0.9538 
512 1:0.807 2:0.85388 3:-0.608333 4:0.0255 5:0.9444 6:0.101733 7:0.312 8:-0.5628 
512 2:-1 3:-0.628 4:-0.20575 5:0.4849 6:-0.1188 7:0.36 8:-0.8746 
512 2:-1 3:-0.0163333 4:-0.107 5:-0.0541 6:-0.485867 7:0.42 8:-0.9264 
512 1:-0.5556 2:-0.72276 3:-0.971667 4:0.45125 5:0.6391 6:-0.5628 7:0.85 8:-0.2854 
512 1:-0.9906 2:-1 3:-0.0303333 4:0.2605 5:-0.6137 6:-0.424 8:-0.9536 
512 2:-0.72276 3:-0.520667 4:-0.03025 5:0.9444 6:-0.0522667 7:0.92 8:-0.9542 
512 1:0.9342 2:1 3:-0.525333 4:0.0825 5:1 6:-0.493467 7:0.2712 8:0.4582 
512 1:0.0232 2:0.2364 3:-0.255 4:-0.4065 5:0.0794 6:0.105733 7:0.3084 8:0.3892 
512 1:0.85 2:0.99888 3:-0.211667 4:0.00125 5:0.8904 6:-0.4368 7:0.4776 8:-0.7702 
512 1:0.8182 2:-0.07896 3:-0.280333 4:-0.19125 5:0.6391 6:-0.507867 7:0.156 8:-0.9682 
512 1:0.8298 2:0.50448 3:-0.448 4:0.33025 5:1 6:-0.300267 7:0.2638 8:-0.9482 
512 1:0.75 2:0.05564 3:0.248 4:0.479 5:0.3979 6:-0.499467 7:0.4986 8:-0.846 
512 1:1 2:-0.00604 3:-0.212 4:-0.097 5:0.7081 6:0.0329333 7:0.435 8:-0.9936 
512 1:0.3334 2:-0.00604 3:-0.0783333 4:0.536 5:0.5649 6:-0.257067 7:0.4616 8:-0.9216 
512 1:-0.7174 2:0.02596 3:0.386 4:0.44175 5:0.1972 6:-0.0004 7:0.7292 8:0.7442 
512 2:-1 3:-0.00666667 4:0.2685 5:-0.3906 6:0.0688 7:0.62 8:-0.9538 
512 1:-0.1304 2:0.36048 3:-0.224333 4:0.281 5:0.6391 6:-0.679867 7:0.388 8:-0.017 
512 1:-0.5 2:-0.16824 3:-0.869333 4:0.19025 5:0.3979 6:-0.24 7:0.175 8:-0.9744 
512 2:-1 3:0.233333 4:0.555 5:-0.2082 6:0.0184 7:0.8 8:-0.9538 
512 1:-0.7142 2:-1 3:-0.881667 4:-0.23225 5:-0.3906 6:-0.569333 7:0.18 8:-0.9536 
512 1:0.0286 2:0.15616 3:0.0326667 4:0.38575 5:0.3979 6:-0.4688 7:0.3086 8:0.681 
512 1:0.2858 2:-0.12112 3:-0.838333 4:0.26625 5:0.4849 6:-0.215333 7:0.34 8:-0.799 
512 1:0.8272 2:1 3:0.0583333 4:0.1145 5:0.6391 6:-0.7448 7:0.2094 8:0.8118 
512 1:0.1578 2:-0.04084 3:-0.837333 4:0.129 5:0.8904 6:-0.531733 7:0.5528 8:-0.731 
512 1:-0.5 2:-1 3:0.306667 4:0.22725 5:-0.9014 6:0.4084 7:0.24 8:-0.9538 
512 1:0.3846 2:-0.12112 3:-0.519 4:-0.52025 5:-0.3906 6:0.178667 7:0.3934 8:-0.5742 
512 1:-0.1112 2:-0.44548 3:-0.693333 4:0.17375 5:-0.2082 6:-0.212267 7:0.35 8:0.743 
512 1:-0.0492 2:0.34692 3:0.578333 4:-0.3995 5:-0.0541 6:0.215067 7:0.3524 8:-0.9578 
512 1:0.92 2:0.98792 3:-0.433667 4:0.2535 5:0.4849 6:-0.370533 7:0.399 8:-0.7058 
512 1:0.081 2:0.7528 3:-0.256333 4:0.135 5:-0.0541 6:-0.6156 7:0.618 8:0.9898 
512 2:-1 3:0.308667 4:0.23725 5:0.9444 6:-0.0665333 7:0.34 8:-0.9536 
512 1:0.9808 2:0.85388 3:-0.288333 4:0.11575 5:0.8332 6:-0.450133 7:0.4334 8:-0.7722 
512 1:0.9296 2:1 3:0.0526667 4:0.26225 5:1 6:-0.368667 7:0.3562 8:0.9346 
369.2188283363559 1:1 2:-0.72276 3:-0.936333 4:0.36875 5:0.6391 6:-0.363867 7:0.44 8:-0.9548 
512 1:-0.7142 2:-1 3:-0.07 4:0.2175 5:-0.3906 6:-0.574133 7:0.36 8:-0.9538 
512 1:1 2:-0.35624 3:-0.0903333 4:0.22675 5:0.5649 6:-0.43 7:0.312 8:-0.8604 
512 1:0.856 2:0.90144 3:-0.271 4:-0.06875 5:0.7726 6:-0.113867 7:0.2234 8:-0.3662 
512 1:0.077 2:-0.22164 3:0.207 4:0.12275 5:-0.2082 6:-0.493067 7:0.2858 8:-0.8808 
512 1:-0.6666 2:-0.22164 3:0.783333 4:-0.27875 5:-0.2082 6:-0.3244 7:0.58 8:0.6814 
512 1:0.1428 2:-0.44548 3:-0.0903333 4:0.089 5:-0.3906 6:0.141867 7:0.63 8:-0.9704 
512 1:0.909 2:0.49508 3:-0.812333 4:0.12125 5:0.1972 6:0.00933333 7:0.1444 8:-0.6764 
512 1:-0.862 2:-0.72276 3:-0.166333 4:-0.19425 5:-0.6137 6:-0.264933 7:0.17 8:-0.9538 
512 1:-0.5556 2:-0.44548 3:-0.899 4:-0.02025 5:0.0794 6:-0.151333 7:0.42 8:0.7418 
512 1:-0.6 2:-0.72276 3:0.559333 4:-0.043 5:0.4849 6:-0.167067 7:0.89 8:0.7468 
512 1:0.6 2:0.10904 3:-0.478667 4:0.365 5:1 6:-0.248933 7:0.14 8:0.8766 
512 2:-1 3:-0.252667 4:0.2865 5:0.5649 6:-0.277467 7:0.8 8:-0.9558 
512 2:-1 3:-0.0293333 4:0.408 5:0.3979 6:-0.301333 7:0.42 8:-0.9538 
512 1:-0.9376 2:-1 3:-0.147333 4:-0.9965 5:-0.9014 6:-0.683067 7:0.02 8:-0.9546 
512 1:-0.625 2:0.08324 3:-0.816 4:0.1595 5:1 6:-0.426267 7:0.6974 8:0.4554 
512 1:-0.1112 2:0.27124 3:0.309667 4:0.4835 5:-0.0541 6:-0.151067 7:0.2066 8:-0.0728 
199.2033197733202 1:0.8334 2:0.51368 3:0.05 4:-0.11925 5:0.7081 6:-0.1344 7:0.221 8:0.974 
94.47816512891627 1:0.894 2:0.98512 3:-0.372 4:0.011 5:0.7081 6:-0.1392 7:0.2374 8:0.7364 
512 1:-0.5 2:-1 3:0.572667 4:0.298 5:-0.2082 6:-0.62 7:0.86 8:-0.9538 
512 1:-0.5 2:-1 3:0.572667 4:-0.25675 5:-0.2082 6:0.437333 7:0.86 8:-0.9538 
512 1:-0.4736 2:-0.35624 3:-0.393 4:-0.28 5:-0.3906 6:-0.6168 7:0.628 8:0.962 
512 1:-0.2142 2:0.2364 3:0.223 4:-0.02275 5:0.3979 6:-0.137867 7:0.3454 8:-0.4554 
512 1:-0.9 2:-1 3:0.376 4:0.2705 5:-0.0541 6:-0.280533 7:0.48 8:-0.9538 
512 1:0.8948 2:0.87284 3:-0.0776667 4:-0.13175 5:0.8332 6:-0.393733 7:0.4306 8:-0.9068 
512 2:-1 3:0.311667 4:0.21025 5:0.9444 6:-0.141067 7:0.72 8:-0.9536 
512 1:0.8834 2:0.82988 3:-0.291667 4:0.01075 5:1 6:-0.179067 7:0.289 8:-0.9614 
512 1:-0.25 2:-0.56056 3:0.492 4:0.05225 5:0.6391 6:-0.4212 7:0.8534 8:-0.5722 
512 1:0.0322 2:0.38628 3:0.301333 4:-0.077 5:0.9444 6:0.297067 7:0.5812 8:-0.9634 
512 1:0.9454 2:0.86912 3:0.246667 4:0.226 5:0.9444 6:-0.0925333 7:0.4092 8:0.9766 
512 1:-0.7334 2:-0.72276 3:-0.986 4:0.2405 5:0.3026 6:-0.0350667 7:0.27 8:0.742 
512 1:-0.6 2:-1 3:-0.110333 4:0.134 5:-0.0541 6:-0.6124 7:0.4 8:-0.9536 
512 1:-0.7778 2:-0.72276 3:0.0233333 4:0.056 5:-0.9014 6:0.0382667 7:0.52 8:0.7422 
512 1:0.6666 2:0.08324 3:-0.0493333 4:0.0445 5:0.9957 6:-0.227733 7:0.3066 8:-0.9726 
512 1:-0.9474 2:-1 3:-0.387 4:-0.1355 5:0.0794 6:-0.0181333 7:0.8 8:-0.9502 
512 1:0.25 2:-0.35624 3:0.189 4:0.69275 5:-0.0541 6:0.150267 7:0.436 8:-0.6886 
512 1:-0.3334 2:-0.35624 3:0.404333 4:0.225 5:0.4849 6:-0.0564 7:0.764 8:-0.898 
512 1:0.569 2:0.80436 3:0.164333 4:0.363 5:0.7726 6:-0.1768 7:0.4656 8:-0.544 
512 1:-0.0816 2:0.52268 3:-0.00533333 4:0.17275 5:0.7726 6:-0.3372 7:0.435 8:-0.053 
512 1:0.8182 2:0.6994 3:-0.118667 4:-0.05125 5:1 6:-0.107333 7:0.5298 8:-0.8844 
512 1:1 2:-0.44548 3:0.202667 4:0.186 5:0.5649 6:-0.200667 7:0.285 8:-0.9486 
512 1:-0.4444 2:-0.07896 3:0.580333 4:0.09825 5:0.6391 6:-0.361733 7:0.612 8:-0.4694 
512 1:0.9264 2:0.95008 3:0.397333 4:0.03775 5:0.4849 6:-0.2456 7:0.4022 8:-0.6758 
512 1:-0.0256 2:0.45504 3:-0.791 4:0.3 5:0.4849 6:-0.1352 7:0.4952 8:0.977 
512 1:0.6 2:-0.44548 3:-0.176333 4:-0.03975 5:-0.9014 6:-0.696 7:0.47 8:-0.7156 
512 1:-0.087 2:0.2178 3:-0.377667 4:0.298 5:0.8332 6:-0.4948 7:0.32 8:0.646 
512 1:0.8096 2:0.17776 3:0.106 4:0.5995 5:0.1972 6:0.342533 7:0.5056 8:-0.9134 
512 1:0.3044 2:0.08324 3:-0.0176667 4:0.12175 5:0.5649 6:-0.249867 7:0.456 8:-0.6972 
512 1:-0.8334 2:-1 3:-0.003 4:0.2905 5:-0.6137 6:-0.561733 7:0.52 8:-0.9538 
512 1:0.6154 2:0.2178 3:-0.125333 4:0.181 5:1 6:-0.0989333 7:0.4734 8:-0.893 
512 1:-0.3334 2:-0.72276 3:-0.619 4:0.183 5:-0.3906 6:0.0234667 7:0.22 8:-0.7508 
512 1:-0.9822 2:-1 3:-0.505667 4:0.58 5:0.0794 6:-0.2324 7:0.04 8:-0.9506 
512 1:-0.492 2:0.10904 3:-0.138333 4:0.27725 5:-0.2082 6:0.7616 7:0.5888 8:-0.8906 
512 1:-0.8334 2:-1 3:0.595 4:0.46275 5:0.1972 6:0.226133 7:0.5 8:-0.9538 
512 1:-0.6262 2:0.19828 3:0.116333 4:0.17 5:0.3979 6:0.272 7:0.668 8:0.74 
512 1:0.875 2:0.08324 3:-0.584667 4:0.32 5:1 6:-0.128267 7:0.1626 8:0.9648 
512 2:-1 3:0.618 4:0.431 5:-0.0541 6:-0.453467 7:0.92 8:-0.9538 
512 1:-0.6512 2:0.08324 3:0.366 4:0.2795 5:0.6391 6:0.343333 7:0.6066 8:0.6404 
512 1:1 2:-1 3:-0.789 4:0.27175 5:0.4849 6:-0.125333 8:-0.9536 
505.6806137584938 1:1 2:-1 3:0.594 4:0.31125 5:0.8332 6:-0.4136 7:0.56 8:-0.9538 
512 1:0.8374 2:0.89096 3:0.393667 4:-0.0455 5:0.6391 6:-0.0852 7:0.4358 8:-0.8772 
512 1:0.8462 2:0.63772 3:-0.503667 4:0.4715 5:0.3026 6:-0.0297333 7:0.3032 8:-0.9824 
512 1:-0.25 2:-0.00604 3:-0.675 4:0.23375 5:0.8904 6:-0.482133 7:0.7384 8:-0.2142 
512 1:1 2:0.05564 3:-0.611 4:-0.07125 5:0.8904 6:-0.308267 7:0.3258 8:-0.9596 
512 2:-1 3:-0.193667 4:0.40625 5:-0.0541 6:0.2448 7:0.02 8:-0.9524 
512 2:-1 3:0.494333 4:0.202 5:-0.0541 6:-0.3848 7:0.86 8:-0.9536 
310.6101846705803 1:1 2:-0.35624 3:0.41 4:0.1895 5:0.7081 6:-0.1928 7:0.56 8:-0.9538 
512 1:1 2:-1 3:-0.966 4:0.19075 5:0.1972 6:-0.2952 7:0.28 8:-0.9538 
512 1:-0.1112 2:-0.16824 3:-0.303667 4:0.53825 5:-0.2082 6:0.00426667 7:0.3628 8:-0.3552 
512 1:0.9474 2:1 3:0.155667 4:0.114 5:0.4849 6:-0.421333 7:0.3806 8:-0.9576 
512 1:0.7648 2:0.63772 3:0.615667 4:-0.105 5:0.4849 6:-0.107733 7:0.6478 8:-0.8232 
512 1:0.5294 2:0.02596 3:-0.295333 4:0.36075 5:0.4849 6:-0.326267 7:0.4262 8:-0.6388 
512 1:-0.1326 2:0.4334 3:0.469667 4:0.11775 5:0.3026 6:0.511467 7:0.4012 8:-0.9042 
512 1:-0.0834 2:0.3986 3:0.0553333 4:-0.486 5:0.3979 6:-0.204267 7:0.3488 8:0.7394 
512 1:-0.7778 2:-1 3:0.678333 4:0.30075 5:-0.3906 6:-0.8224 7:0.66 8:-0.9536 
512 1:0.6666 2:-0.35624 3:-0.859 4:0.2335 5:0.4849 6:-0.413867 7:0.356 8:-1 
512 1:0.3334 2:-0.44548 3:0.0966667 4:0.255 5:0.6391 6:-0.394933 7:0.34 8:-1 
512 2:-0.72276 3:-0.275667 4:0.1925 5:-0.9014 6:0.442667 7:0.29 8:-0.8534 
512 1:-0.392 2:0.45504 3:-0.578333 4:0.2265 5:0.4849 6:0.0696 7:0.3872 8:0.9306 
512 1:-0.1112 2:-0.44548 3:0.256667 4:0.02625 5:0.8332 6:-0.614933 7:0.72 8:-0.875 
512 1:-0.7552 2:-0.28328 3:-0.0386667 4:0.024 5:0.3979 6:-0.430533 7:0.31 8:0.7388 
512 1:-0.3334 2:-1 3:-0.003 4:-0.28825 5:-0.2082 6:-0.0617333 7:0.16 8:-0.954 
512 2:-1 3:-0.773667 4:0.36125 5:0.7726 6:-0.375733 7:0.32 8:-0.9538 
512 1:0.4286 2:-0.35624 3:0.0823333 4:-0.35125 5:0.0794 6:0.123333 7:0.524 8:-0.8292 
512 1:-0.25 2:-0.28328 3:-0.129 4:0.158 5:0.8904 6:-0.399467 7:0.5966 8:-0.5092 
512 1:-0.9412 2:-1 3:0.738667 4:0.60025 5:-0.9014 6:0.0124 7:0.84 8:-0.9538 
512 1:0.9254 2:1 3:-0.295333 4:0.11925 5:1 6:-0.3864 7:0.287 8:0.742 
512 2:-1 3:0.151333 4:0.04175 5:-0.9014 6:-0.024 7:0.4 8:-0.9538 
507.0439788410757 1:-0.093 2:0.46544 3:-0.682333 4:-0.3055 5:0.5649 6:-0.0068 7:0.2824 8:0.8702 
512 1:1 2:-0.72276 3:-0.517 4:-0.41925 5:-0.9014 6:-0.48 7:0.01 8:-0.8374 
512 1:0.3846 2:-0.12112 3:0.298 4:0.164 5:-0.0541 6:-0.0689333 7:0.5244 8:-0.908 
512 1:-0.8572 2:-1 3:0.308667 4:-0.27375 5:-0.3906 6:-0.6144 7:0.18 8:-0.953 
512 1:0.6 2:-0.44548 3:-0.696333 4:0.1905 5:1 6:-0.455467 7:0.295 8:-0.9538 
512 2:-1 3:0.413333 4:0.329 5:0.8332 6:0.00133333 7:0.9 8:-0.9538 
512 1:1 2:-1 3:0.293333 4:0.53725 5:-0.6137 6:0.232667 7:0.86 8:-0.9534 
512 1:0.8182 2:-0.07896 3:0.472667 4:0.31875 5:1 6:-0.159467 7:0.446 8:-0.9216 
512 1:-0.4546 2:-0.28328 3:0.518 4:0.06775 5:0.3026 6:-0.1752 7:0.6334 8:-0.9382 
512 1:1 2:-1 3:-0.970333 4:0.01625 5:-0.0541 6:-0.668933 7:0.3 8:-0.953 
512 1:-0.7142 2:-1 3:-0.669 4:0.2305 5:-0.6137 6:-0.347733 7:0.54 8:-0.9538 
512 1:-0.25 2:-0.56056 3:-0.149 4:0.07225 5:0.3026 6:0.643733 7:0.2666 8:-0.9736 
224.7745775899766 1:0.0624 2:0.13328 3:0.239667 4:-0.35125 5:0.8332 6:0.259467 7:0.5058 8:-0.4154 
512 1:1 2:-0.56056 3:0.196667 4:0.10775 5:-0.3906 6:-0.575467 7:0.2734 8:-0.7308 
44.98580490406928 1:0.1764 2:-0.07896 3:0.573 4:0.16625 5:-0.9014 6:-0.372 7:0.8156 8:0.741 
512 1:-0.6666 2:-1 3:0.320333 4:0.27075 5:-0.2082 6:-0.41 7:0.14 8:-0.9538 
512 1:-0.2 2:-0.72276 3:0.493333 4:-0.3175 5:-0.6137 6:-0.71 7:0.31 8:-0.9236 
474.0789682028441 1:0.75 2:-0.22164 3:-0.295667 4:0.671 5:-0.0541 6:1 7:0.1228 8:-0.865 
512 1:0.5556 2:-0.22164 3:-0.408667 4:0.11625 5:0.0794 6:-0.320667 7:0.1086 8:-0.9688 
512 1:-0.0286 2:0.13328 3:0.440333 4:0.00375 5:-0.2082 6:-0.0970667 7:0.4588 8:0.7984 
512 1:-0.5692 2:0.05564 3:0.110333 4:-0.84375 5:-0.3906 6:0.2392 7:0.3614 8:-0.449 
512 1:0.2 2:-0.56056 3:-0.240333 4:0.01675 5:0.6391 6:-0.314533 7:0.4 8:-0.8238 
512 1:-0.8824 2:-0.72276 3:0.531667 4:0.2435 5:0.0794 6:0.0241333 7:0.72 8:0.6022 
512 2:-1 3:-0.979333 4:0.464 5:0.7726 6:-0.118267 7:0.36 8:-0.9538 
512 1:0.75 2:0.55672 3:-0.419667 4:0.109 5:0.9444 6:-0.576933 7:0.3804 8:-1 
512 1:1 2:-1 3:0.462333 4:-0.08425 5:-0.3906 6:-0.1168 8:-0.9538 
96.76690839103632 1:0.2432 2:0.2542 3:0.509 4:0.372 5:-0.2082 6:-0.542933 7:0.4142 8:0.7416 
512 1:-0.25 2:-0.56056 3:0.472333 4:0.06025 5:0.5649 6:-0.438533 7:0.76 8:-0.5726 
512 1:-0.4118 2:-0.35624 3:-0.312667 4:-0.00275 5:-0.2082 6:0.7316 7:0.592 8:0.7422 
19.61166885735902 1:0.9194 2:0.98512 3:-0.878 4:-0.14375 5:0.7081 6:-0.175867 7:0.2592 8:0.9168 
512 1:0.76 2:0.2364 3:-0.0863333 4:0.10975 5:1 6:-0.2936 7:0.4648 8:-0.8698 
512 1:0.5 2:-0.56056 3:0.786667 4:0.45225 5:-0.0541 6:-0.3572 7:0.4334 8:-0.9276 
512 1:-0.7142 2:-1 3:-0.412 4:-0.396 5:-0.9014 6:-0.472933 7:0.04 8:-0.9538 
512 1:0.3 2:0.30324 3:0.266333 4:0.205 5:0.7081 6:-0.396133 7:0.1976 8:0.0724 
512 1:0.5652 2:0.4334 3:-0.545667 4:0.0215 5:0.7726 6:-0.649067 7:0.3256 8:-0.9912 
512 1:1 2:-1 3:-0.978 4:0.34675 5:0.0794 6:0.0197333 7:0.38 8:-0.9538 
512 1:-0.6098 2:0.10904 3:-0.842 4:0.12 5:0.0794 6:-0.204267 7:0.175 8:-0.4238 
512 1:0.7392 2:0.47556 3:-0.201 4:-0.1185 5:0.7081 6:0.409333 7:0.1698 8:-0.8392 
512 1:-0.3334 2:-1 3:0.293 4:0.05125 5:0.1972 6:-0.3076 7:0.94 8:-0.9534 
512 1:0.9422 2:1 3:-0.348 4:-0.138 5:1 6:-0.125067 7:0.2684 8:0.889 
512 2:-1 3:0.625333 4:0.4065 5:-0.3906 6:-0.598933 7:0.62 8:-0.9538 
512 1:-0.2 2:-0.72276 3:-0.398333 4:0.30975 5:-0.6137 6:-0.128667 7:0.34 8:-0.7668 
512 1:-0.6 2:-1 3:-0.623333 4:-0.258 5:-0.9014 6:-0.3004 7:0.26 8:-0.9536 
512 1:-0.4194 2:-0.12112 3:-0.572333 4:0.39425 5:0.7081 6:-0.259867 7:0.3156 8:0.91 
512 1:0.3334 2:-0.44548 3:-0.475667 4:0.57825 5:-0.9014 6:-0.657333 7:0.7666 8:-0.7554 
512 2:-0.72276 3:0.229333 4:-0.20625 5:0.3979 6:-0.2752 7:0.31 8:-0.9538 
512 1:-0.3334 2:-0.56056 3:-0.659 4:-0.2595 5:-0.3906 6:-0.535467 7:0.62 8:0.7108 
512 1:0.7872 2:0.49508 3:-0.193667 4:0.22625 5:1 6:-0.175467 7:0.6136 8:-0.9752 
512 1:0.9474 2:0.72164 3:-0.295 4:0.22775 5:0.4849 6:-0.0233333 7:0.3488 8:-0.7404 
512 1:0.8204 2:1 3:-0.403333 4:0.12475 5:0.1972 6:-0.246133 7:0.4766 8:-0.9886 
512 1:0.4286 2:-0.35624 3:0.0286667 4:-0.064 5:-0.0541 6:-0.0188 7:0.432 8:-0.8292 
512 1:-0.125 2:-0.22164 3:0.135333 4:0.60325 5:0.1972 6:-0.2812 7:0.4286 8:0.7344 
512 1:-0.7634 2:-0.04084 3:0.0216667 4:-0.00925 5:0.0794 6:0.1956 7:0.1218 8:0.7428 
512 1:0.7948 2:0.42212 3:-0.647333 4:0.12775 5:0.4849 6:-0.387067 7:0.365 8:-0.9444 
512 1:0.2196 2:0.28756 3:0.0723333 4:0.46175 5:0.3979 6:-0.102 7:0.388 8:-1 
512 1:0.7484 2:0.95312 3:0.229667 4:0.09925 5:0.9444 6:-0.185067 7:0.6436 8:-0.9048 
512 1:-0.4286 2:-0.28328 3:-0.977 4:0.56825 5:-0.0541 6:-0.449333 7:0.3034 8:0.4038 
512 1:1 2:-0.04084 3:-0.939667 4:-0.2905 5:-0.2082 6:-0.382 7:0.38 8:-0.8224 
512 1:0.7142 2:0.27124 3:-0.126667 4:0.1135 5:1 6:0.038 7:0.4558 8:-0.7852 
512 1:-0.4444 2:-0.35624 3:-0.0886667 4:-0.46825 5:-0.6137 6:-0.293333 7:0.66 8:0.7458 
512 1:0.5 2:-0.56056 3:0.585667 4:0.50075 5:-0.0541 6:-0.465733 7:0.6134 8:-0.7304 
512 1:-0.0256 2:0.17776 3:0.572333 4:-0.3325 5:-0.9014 6:0.156933 7:0.2222 8:-0.9362 
512 1:-0.3272 2:0.44436 3:0.114333 4:-0.02875 5:0.3026 6:0.0762667 7:0.2336 8:0.968 
512 1:-0.92 2:-1 3:0.532667 4:0.18525 5:-0.2082 6:-0.0782667 7:0.78 8:-0.9432 
512 1:0.5172 2:0.2364 3:-0.0653333 4:0.19925 5:0.4849 6:-0.328667 7:0.6564 8:-0.9672 
512 1:-0.92 2:-1 3:-0.814667 4:0.07675 5:0.8332 6:-0.242267 7:0.4 8:0.6128 
512 1:-0.3334 2:-1 3:-0.825667 4:0.15975 5:-0.9014 6:0.351067 7:0.38 8:-0.9538 
512 1:-0.0666 2:-0.22164 3:-0.849 4:0.09075 5:0.9444 6:0.0604 7:0.2228 8:-0.5344 
512 1:0.8494 2:0.78172 3:-0.148667 4:0.3185 5:0.5649 6:-0.207067 7:0.2266 8:-0.0426 
512 1:-0.1666 2:-0.35624 3:-0.0923333 4:0.419 5:0.4849 6:-0.669867 7:0.492 8:-0.6178 
512 1:-0.5 2:-0.72276 3:0.177667 4:0.14375 5:-0.0541 6:-0.0878667 7:0.71 8:-0.9556 
96.93023270760487 1:-0.077 2:-0.28328 3:0.348 4:0.51575 5:0.4849 6:-0.212933 7:0.2166 8:0.5106 
512 1:-0.4 2:0.08324 3:0.204 4:0.37125 5:0.7081 6:-0.407333 7:0.3174 8:0.4728 
512 1:-0.875 2:-1 3:-0.701667 4:0.081 5:-0.6137 6:-0.854667 7:0.5 8:-0.9538 
512 1:0.434 2:0.45504 3:0.075 4:0.2535 5:0.5649 6:-0.546267 7:0.4516 8:-0.9284 
512 1:0.2 2:-0.56056 3:-0.366667 4:0.156 5:0.3026 6:-0.3724 7:0.4466 8:-0.7782 
512 1:-0.923 2:-1 3:0.463667 4:0.25275 5:0.3026 6:-0.247467 7:0.42 8:-0.8482 
512 1:-0.22 2:0.46544 3:-0.396 4:0.03975 5:0.5649 6:0.0324 7:0.3006 8:0.7426 
512 1:1 2:-0.72276 3:-0.724333 4:0.5755 5:-0.3906 6:0.221333 7:0.14 8:-1 
512 1:-0.8666 2:-0.72276 3:0.452 4:0.50575 5:-0.0541 6:-0.4988 7:0.39 8:0.7434 
512 1:-0.9334 2:-1 3:0.665667 4:-0.05325 5:-0.6137 6:-0.522667 7:0.78 8:-0.9536 
512 1:1 2:-1 3:-0.0966667 4:-0.106 5:0.0794 6:0.153867 7:0.46 8:-0.9536 
512 1:0.4616 2:0.17776 3:-0.654667 4:-0.05425 5:0.4849 6:0.135867 7:0.3534 8:-0.7942 
512 1:0.3024 2:0.33288 3:-0.819667 4:0.10575 5:0.3026 6:0.3432 7:0.1482 8:-0.728 
512 1:0.0304 2:0.13328 3:0.141333 4:0.183 5:0.7081 6:-0.3452 7:0.1918 8:0.738 
512 1:0.8206 2:0.70508 3:0.229667 4:-0.05325 5:1 6:-0.4776 7:0.5328 8:-0.9736 
512 1:-0.9592 2:-0.72276 3:-0.513333 4:-0.13725 5:0.0794 6:-0.478133 7:0.12 8:0.4144 
512 1:-0.2476 2:0.74776 3:0.178667 4:0.05775 5:0.1972 6:-0.461867 7:0.469 8:0.656 
512 1:-0.2676 2:0.58048 3:-0.510667 4:0.2305 5:0.3979 6:0.134667 7:0.352 8:0.7298 
512 1:0.077 2:-0.22164 3:-0.673333 4:0.395 5:-0.2082 6:-0.316 7:0.535 8:0.743 
512 1:-0.9764 2:-1 3:0.598 4:0.20425 5:0.0794 6:-0.4296 7:0.62 8:-0.9536 
512 2:-0.04084 3:-0.0456667 4:0.36675 5:0.8332 6:-0.100267 7:0.3254 8:-0.941 
512 1:1 2:-1 3:0.702 4:0.39125 5:-0.2082 6:-0.606667 7:0.62 8:-0.9538 
512 1:-0.7648 2:-0.28328 3:-0.627 4:0.32375 5:0.7726 6:-0.524133 7:0.4066 8:-0.8432 
418.5793242822034 1:1 2:-1 3:0.686667 4:-0.5805 5:-0.6137 6:-0.672 7:0.74 8:-0.9538 
512 1:-0.9512 2:-1 3:-0.617667 4:0.2055 5:-0.9014 6:-0.3436 7:0.46 8:-0.9538 
512 1:0.2572 2:0.2364 3:-0.180333 4:-0.12925 5:0.3979 6:-0.322 7:0.4958 8:-0.7426 
512 1:0.825 2:0.7162 3:0.341333 4:0.0305 5:1 6:-0.1204 7:0.2906 8:0.9222 
512 1:0.6456 2:1 3:-0.418333 4:0.14225 5:0.8332 6:-0.270667 7:0.4072 8:-0.6852 
512 2:0.54004 3:-0.0376667 4:-0.27 5:0.6391 6:-0.307467 7:0.4828 8:-0.0462 
512 2:-1 3:0.308667 4:0.57325 5:-0.2082 6:0.2604 7:0.7 8:-0.9538 
512 1:1 2:-1 3:-0.610667 4:-0.052 5:-0.6137 6:0.207333 7:0.52 8:-0.954 
512 1:-0.1666 2:-0.35624 3:0.129333 4:0.2165 5:-0.0541 6:-0.146133 7:0.7 8:-0.7376 
391.9446372323586 1:-0.1744 2:0.82988 3:-0.267667 4:0.39025 5:1 6:-0.444133 7:0.322 8:0.7392 
512 1:-0.3334 2:-0.72276 3:0.513 4:0.112 5:-0.9014 6:-0.512 7:0.77 8:-0.9412 
512 1:0.5472 2:0.48544 3:-0.844667 4:0.02725 5:1 6:-0.589467 7:0.6552 8:-0.9474 
512 1:0.8644 2:0.8802 3:0.049 4:-0.00075 5:0.8332 6:-0.3136 7:0.4636 8:-0.9724 
304.7055318933331 1:0.6924 2:-0.04084 3:-0.306667 4:0.38425 5:-0.3906 6:-0.569067 7:0.25 8:-0.3556 
512 1:-0.4286 2:-0.72276 3:0.617 4:0.089 5:0.1972 6:0.133467 7:0.71 8:-0.9538 
301.2300208799805 1:-0.3334 2:-1 3:-0.877 4:0.417 5:0.1972 6:-0.1784 7:0.64 8:-0.1438 
512 1:-0.0666 2:-0.22164 3:-0.278333 4:-0.04775 5:0.7081 6:-0.355333 7:0.3566 8:-0.7652 
512 2:-1 3:0.356667 4:0.033 5:-0.3906 6:-0.0152 7:0.74 8:-0.9556 
512 1:0.3334 2:-0.72276 3:0.140333 4:-0.1245 5:-0.3906 6:-0.675467 7:0.73 8:-0.9256 
512 1:-0.0144 2:0.6878 3:-0.448 4:0.02 5:0.3979 6:-0.318533 7:0.466 8:0.8076 
512 1:-0.2122 2:0.02596 3:-0.184667 4:0.13575 5:0.4849 6:-0.3192 7:0.645 8:0.9958 
512 1:-0.8888 2:-0.72276 3:-0.578 4:0.36125 5:-0.2082 6:0.142 7:0.38 8:-0.0232 
512 1:0.8282 2:1 3:-0.261333 4:0.11875 5:1 6:-0.0362667 7:0.1882 8:0.7414 
512 1:-0.1912 2:0.72164 3:-0.214 4:0.1075 5:0.5649 6:-0.4532 7:0.4532 8:0.9256 
512 1:1 2:-1 3:-0.279667 4:-0.044 5:0.1972 6:0.26 7:0.46 8:-0.954 
512 1:-0.229 2:0.38628 3:0.177333 4:0.06075 5:0.6391 6:-0.2088 7:0.2894 8:0.8434 
512 1:-0.2308 2:-0.35624 3:-0.0546667 4:0.4695 5:0.3979 6:-0.351733 7:0.456 8:0.7452 
512 1:-0.3334 2:-1 3:0.546667 4:0.18025 5:0.3979 6:-0.333067 7:0.82 8:-0.9538 
512 1:-0.4444 2:-0.35624 3:-0.425667 4:-0.0305 5:0.0794 6:0.143333 7:0.232 8:-0.4516 
512 1:-0.2632 2:-0.22164 3:-0.380333 4:-0.018 5:0.3026 6:-0.283733 7:0.2142 8:0.7426 
512 1:1 2:-0.28328 3:-0.229667 4:0.35825 5:0.1972 6:0.404533 7:0.4034 8:-0.9844 
512 1:0.1666 2:0.05564 3:-0.489667 4:-0.206 5:0.4849 6:0.143333 7:0.6372 8:-0.9796 
512 1:-0.8462 2:-0.44548 3:-0.276333 4:0.334 5:-0.3906 6:0.2872 7:0.325 8:-0.9844 
512 1:0.3334 2:-0.72276 3:-0.0586667 4:0.1065 5:-0.6137 6:-0.223333 7:0.68 8:-0.674 
512 1:-0.091 2:-0.07896 3:-0.339667 4:-0.1115 5:0.0794 6:0.526533 7:0.2644 8:-0.6692 
512 1:-0.0546 2:0.30324 3:-0.380667 4:0.1305 5:0.3979 6:-0.311733 7:0.4046 8:0.7562 
512 1:0.8572 2:0.85776 3:0.4 4:-0.18025 5:0.3979 6:-0.255333 7:0.4454 8:-0.5108 
512 1:0.4286 2:-0.07896 3:0.418 4:0.3655 5:-0.0541 6:0.2112 7:0.768 8:-0.964 
512 1:0.875 2:0.08324 3:-0.0926667 4:0.1195 5:0.6391 6:-0.312533 7:0.1946 8:-0.9914 
512 1:0.0548 2:0.73752 3:0.146333 4:-0.19725 5:0.0794 6:-0.2232 7:0.6818 8:0.7422 
512 1:0.2572 2:0.2364 3:-0.115333 4:0.289 5:0.7081 6:-0.110533 7:0.21 8:-0.6692 
512 2:-1 3:-0.0386667 4:-0.064 5:-0.9014 6:-0.174267 7:0.34 8:-0.9536 
512 2:-1 3:-0.0233333 4:-0.3825 5:-0.0541 6:-0.514267 7:0.58 8:-0.954 
512 1:-0.5 2:-1 3:-0.654333 4:0.4875 5:-0.3906 6:-0.586667 7:0.28 8:-0.9538 
512 1:-0.3334 2:-1 3:-0.112333 4:0.2195 5:0.0794 6:-0.423333 7:0.38 8:-0.9536 
512 1:-0.7142 2:-0.35624 3:0.00766667 4:0.25975 5:0.5649 6:-0.5912 7:0.776 8:0.7876 
512 1:-0.7778 2:-1 3:0.011 4:0.182 5:-0.3906 6:0.0701333 7:0.12 8:-0.9536 
512 1:-0.7778 2:-1 3:0.0206667 4:0.104 5:-0.6137 6:0.169733 7:0.74 8:-0.9536 
512 1:-0.5526 2:0.13328 3:0.0306667 4:0.201 5:0.5649 6:-0.410267 7:0.4966 8:0.8026 
512 1:-0.875 2:-1 3:-0.466 4:0.146 5:-0.3906 6:-0.217333 7:0.68 8:-0.9538 
512 1:1 2:-0.12112 3:-0.515 4:0.2535 5:-0.0541 6:-0.173733 7:0.2888 8:-0.935 
512 1:0.7022 2:0.47556 3:-0.186333 4:-0.07025 5:0.9957 6:-0.450267 7:0.5498 8:-0.9456 
512 1:-0.8948 2:-0.44548 3:0.646333 4:0.361 5:-0.6137 6:-0.076 7:0.39 8:0.742 
512 1:0.3334 2:-0.72276 3:-0.346667 4:0.1655 5:0.6391 6:-0.0508 7:0.27 8:-0.9538 
512 1:-0.5294 2:-0.44548 3:-0.678 4:0.22775 5:-0.0541 6:0.0768 7:0.26 8:-0.9538 
512 1:0.92 2:0.27124 3:-0.067 4:0.14525 5:0.8332 6:-0.0944 7:0.4908 8:-0.909 
512 1:0.1666 2:0.2178 3:-0.11 4:0.165 5:0.7081 6:-0.3704 7:0.2342 8:-0.7186 
512 2:-1 3:0.595333 4:0.13625 5:0.3026 6:-0.0268 7:0.58 8:-0.9538 
512 1:0.3846 2:-0.12112 3:0.0906667 4:-0.00325 5:0.3026 6:0.116533 7:0.5934 8:-0.8048 
512 1:0.2 2:-0.56056 3:0.44 4:-0.05125 5:0.6391 6:-0.2912 7:0.48 8:-0.8374 
512 1:-0.1578 2:0.10904 3:0.379667 4:-0.05175 5:-0.2082 6:-0.232933 7:0.4324 8:-0.8974 
512 1:0.7692 2:0.53144 3:0.737333 4:0.171 5:0.6391 6:-0.489333 7:0.5056 8:-0.9782 
512 1:-0.6 2:-0.72276 3:-0.81 4:-0.09425 5:0.0794 6:0.0929333 7:0.09 8:-0.9536 
512 2:-0.72276 3:-0.607333 4:0.03675 5:0.8904 6:-0.0516 7:0.85 8:-0.9502 
512 1:0.7 2:0.41056 3:0.069 4:0.02 5:-0.3906 6:-0.5848 7:0.1974 8:-0.9722 
512 1:0.849 2:0.834 3:-0.250333 4:0.175 5:0.8904 6:0.136667 7:0.3122 8:-0.5188 
512 2:-0.72276 3:-0.722667 4:0.66475 5:-0.9014 6:0.388933 7:0.39 8:-0.9536 
512 1:-0.5938 2:0.02596 3:-0.41 4:0.309 5:1 6:-0.261333 7:0.4784 8:-0.6018 
512 2:-1 3:0.227333 4:0.1755 5:-0.6137 6:-0.191067 7:0.8 8:-0.9538 
512 1:0.9036 2:0.74776 3:0.500333 4:-0.152 5:-0.2082 6:0.154667 7:0.6178 8:-0.964 
512 1:1 2:-0.35624 3:-0.332 4:-0.2945 5:-0.3906 6:-0.334933 7:0.476 8:-0.9732 
512 1:-0.971 2:-1 3:0.618 4:-0.071 5:0.3026 6:-0.376933 7:0.72 8:-0.9304 
512 1:-0.5 2:-1 3:0.488667 4:0.52225 5:-0.0541 6:-0.730267 7:0.5 8:-0.9466 
512 1:-0.3334 2:-1 3:0.627 4:0.213 5:-0.3906 6:-0.292267 7:0.8 8:-0.3576 
512 1:0.9734 2:0.72164 3:-0.130333 4:-0.09425 5:0.7081 6:-0.342 7:0.2128 8:0.929 
512 1:-0.554 2:0.3986 3:0.564 4:0.16475 5:1 6:-0.338267 7:0.6224 8:0.7992 
512 1:-0.9592 2:-1 3:0.439333 4:0.12725 5:-0.2082 6:0.241733 7:0.72 8:-0.9488 
512 1:1 2:-1 3:0.577667 4:0.52225 5:-0.6137 6:-0.702933 7:0.7 8:-0.9538 
512 1:-0.0732 2:0.17776 3:0.398667 4:-0.0275 5:-0.6137 6:-0.4036 7:0.4452 8:-0.3118 
512 1:0.873 2:1 3:0.208333 4:0.14175 5:0.8904 6:-0.0405333 7:0.6944 8:-0.9756 
512 1:-0.0526 2:0.15616 3:0.274667 4:0.196 5:0.9957 6:-0.362933 7:0.6444 8:-0.3666 
512 2:-0.72276 3:-0.279 4:0.19375 5:0.4849 6:-0.521067 7:0.45 8:-0.9538 
512 1:-0.347 2:0.66356 3:0.392667 4:-0.02275 5:1 6:0.254133 7:0.6152 8:-0.9358 
512 1:-0.75 2:-1 3:0.288 4:0.19825 5:0.3026 6:-0.533467 7:0.62 8:-0.9538 
512 1:-0.9266 2:-0.44548 3:0.248 4:0.3735 5:-0.9014 6:0.148933 7:0.22 8:0.7418 
512 1:0.5136 2:0.33288 3:-0.998 4:0.1095 5:0.6391 6:0.105333 7:0.2496 8:-0.8156 
512 1:0.1892 2:0.2364 3:0.365 4:0.1745 5:-0.6137 6:-0.3264 7:0.7246 8:0.8166 
512 1:-0.1952 2:0.3986 3:-0.314333 4:0.10825 5:0.8904 6:-0.187467 7:0.275 8:-0.843 
512 1:-0.5 2:-0.72276 3:0.148667 4:0.33925 5:-0.9014 6:0.560933 7:0.72 8:-0.9722 
512 2:-1 3:0.614 4:0.1435 5:-0.6137 6:-0.0696 7:0.56 8:-0.9538 
512 1:0.9458 2:1 3:-0.150333 4:0.14575 5:0.3026 6:0.088 7:0.422 8:-0.767 
512 1:-0.6666 2:-1 3:-0.193 4:0.27675 5:0.1972 6:-0.449333 7:0.34 8:-0.9538 
512 1:1 2:-0.72276 3:0.482 4:-0.274 5:-0.2082 6:-0.360933 7:0.57 8:-0.9538 
512 1:-0.122 2:0.4334 3:0.324667 4:0.244 5:0.3026 6:-0.2648 7:0.7428 8:0.7416 
512 1:-0.3334 2:-1 3:0.456333 4:0.6765 5:-0.9014 6:0.112 7:0.36 8:-0.9538 
512 1:-0.7778 2:-1 3:-0.413 4:-0.0315 5:-0.9014 6:0.238667 7:0.2 8:-0.9538 
512 1:1 2:-1 3:0.06 4:-0.1185 5:-0.3906 6:0.00453333 7:0.64 8:-0.9536 
512 1:-0.5 2:-0.72276 3:0.446667 4:0.1515 5:0.5649 6:-0.214133 7:0.43 8:-0.955 
452.2828986269434 1:-0.2 2:-0.72276 3:-0.673 4:0.1625 5:-0.6137 6:0.00826667 7:0.02 8:0.7418 
512 1:0.6364 2:-0.12112 3:-0.264 4:-0.38225 5:-0.0541 6:0.4468 7:0.4044 8:-0.9874 
512 1:0.4 2:0.33288 3:0.348 4:-0.2055 5:0.0794 6:0.0514667 7:0.3092 8:-0.5266 
512 1:0.931 2:0.77232 3:-0.275 4:0.0595 5:0.7081 6:-0.0344 7:0.4248 8:-0.976 
512 1:-0.875 2:-1 3:-0.620333 4:0.2945 5:-0.2082 6:-0.232267 7:0.74 8:-0.9538 
512 1:1 2:-1 3:-0.824667 4:-0.07975 5:-0.6137 6:-0.141067 7:0.3 8:-0.9532 
512 2:-1 3:-0.154667 4:0.08425 5:-0.2082 6:0.341333 7:0.02 8:-0.9538 
512 1:1 2:-0.72276 3:0.47 4:0.32025 5:0.7726 6:-0.560933 7:0.27 8:-0.9538 
512 1:0.926 2:0.30324 3:-0.122667 4:0.429 5:0.9957 6:-0.172933 7:0.274 8:0.7618 
512 1:-0.3334 2:-0.35624 3:-0.841333 4:0.4085 5:0.3979 6:-0.602933 7:0.496 8:-0.8382 
512 1:-0.8666 2:-1 3:-0.847 4:0.38175 5:-0.0541 6:-0.552133 7:0.42 8:-0.9538 
512 1:0.4722 2:0.58812 3:-0.113667 4:-0.089 5:0.7726 6:0.0997333 7:0.3608 8:-0.8158 
512 2:-0.72276 3:-0.633333 4:0.08575 5:0.8332 6:-0.125867 7:0.9 8:-0.9538 
512 1:1 2:-0.35624 3:-0.572667 4:0.25625 5:-0.6137 6:-0.106 7:0.308 8:-0.836 
512 1:-0.25 2:-0.56056 3:-0.7 4:0.3155 5:0.6391 6:-0.4628 7:0.56 8:-0.9562 
512 2:-1 3:-0.731667 4:0.472 5:0.6391 6:-0.1528 7:0.86 8:-0.9536 
512 1:-0.4202 2:0.47556 3:-0.448 4:-0.036 5:0.9444 6:0.638933 7:0.5324 8:-0.9818 
512 1:0.8572 2:0.58048 3:-0.468333 4:-0.135 5:0.6391 6:0.0216 7:0.2948 8:-0.5168 
512 1:0.3334 2:-0.72276 3:0.0953333 4:-0.4195 5:0.0794 6:-0.168933 7:0.7 8:-0.8496 
512 1:-0.8334 2:-1 3:-0.151333 4:-0.0015 5:-0.9014 6:-0.498667 7:0.78 8:-0.9536 
512 1:0.5556 2:0.05564 3:0.192333 4:0.343 5:0.3979 6:-0.335467 7:0.5958 8:-0.8372 
512 1:-0.3824 2:0.49508 3:-0.531333 4:-0.0255 5:0.5649 6:0.0128 7:0.4028 8:0.7352 
512 1:-0.3334 2:-0.72276 3:-0.141333 4:-0.202 5:-0.9014 6:-0.418267 7:0.31 8:-0.992 
509.6607147568761 1:0.6666 2:0.28756 3:0.452667 4:0.3625 5:0.6391 6:0.2372 7:0.2096 8:0.0326 
512 1:-0.4228 2:0.50448 3:-0.524333 4:0.0265 5:0.6391 6:0.556267 7:0.6252 8:-0.2974 
512 1:-0.5 2:-1 3:-0.351333 4:0.31725 5:0.0794 6:0.0636 7:0.68 8:-0.9512 
512 1:0.7778 2:0.54848 3:-0.393667 4:0.06825 5:1 6:-0.242933 7:0.1946 8:0.8644 
512 1:-0.1428 2:-0.28328 3:-0.792333 4:-0.018 5:0.0794 6:-0.822133 7:0.6566 8:0.3062 
512 1:0.8 2:0.87284 3:-0.576667 4:0.113 5:0.6391 6:-0.324667 7:0.238 8:0.0992 
512 1:-0.3334 2:0.05564 3:0.316333 4:0.36075 5:0.8332 6:-0.357467 7:0.4014 8:0.9136 
512 1:-0.0476 2:-0.07896 3:-0.488667 4:-0.231 5:-0.3906 6:-0.616 7:0.2356 8:0.7376 
512 1:0.375 2:-0.04084 3:-0.822667 4:0.39325 5:0.4849 6:-0.3368 7:0.2836 8:-0.9732 
512 1:0.262 2:0.58812 3:-0.798667 4:-0.00975 5:0.0794 6:-0.167467 7:0.2008 8:0.751 
512 1:-0.421 2:0.51368 3:-0.209667 4:0.34 5:0.8904 6:-0.373867 7:0.6572 8:0.6568 
512 1:0.6 2:-0.44548 3:0.432 4:-0.1905 5:-0.0541 6:0.379867 7:0.67 8:-0.899 
512 1:0.8838 2:1 3:0.074 4:0.0195 5:-0.3906 6:0.142133 7:0.309 8:-0.811 
512 1:0.4782 2:0.13328 3:-0.138667 4:0.154 5:1 6:-0.183867 7:0.647 8:-0.9582 
512 1:1 2:-0.44548 3:-0.61 4:0.6635 5:-0.3906 6:0.5048 7:0.235 8:-0.9562 
158.9051244817931 1:-0.0496 2:0.54848 3:0.714667 4:-0.111 5:0.4849 6:-0.0804 7:0.5324 8:0.188 
512 2:-1 3:-0.0443333 4:0.00525 5:-0.9014 6:-0.656933 7:0.98 8:-0.9536 
512 1:-0.0572 2:0.3986 3:0.03 4:-0.35925 5:-0.0541 6:-0.344 7:0.2612 8:-0.9478 
512 1:-0.077 2:-0.28328 3:-0.463 4:0.25875 5:0.0794 6:-0.319333 7:0.312 8:0.5342 
512 1:1 2:-0.28328 3:-0.759 4:-0.0245 5:-0.0541 6:-0.0937333 7:0.2966 8:-0.8052 
512 1:0.52 2:0.61724 3:0.026 4:0.286 5:0.8904 6:-0.198533 7:0.331 8:-0.8914 
512 1:-0.4872 2:-0.07896 3:0.737 4:-0.17325 5:0.3979 6:0.0348 7:0.86 8:-0.967 
512 1:-0.3422 2:0.28756 3:0.324 4:0.01775 5:0.3979 6:-0.224133 7:0.2356 8:0.7 
512 1:0.5798 2:1 3:0.0703333 4:-0.89375 5:-0.9014 6:1 7:0.3084 8:0.69 
512 1:0.9376 2:0.3736 3:0.364333 4:0.24625 5:0.7081 6:0.227733 7:0.2194 8:-0.2202 
512 1:-0.5518 2:0.02596 3:-0.397333 4:0.417 5:1 6:-0.300267 7:0.3692 8:-0.0726 
512 1:-0.9412 2:-0.56056 3:0.297333 4:0.17675 5:-0.2082 6:0.0393333 7:0.6534 8:0.7452 
512 1:-0.9354 2:-0.72276 3:0.415333 4:0.32225 5:-0.6137 6:-0.632667 7:0.05 8:0.7422 
512 1:-0.2712 2:0.79992 3:0.292667 4:0.39725 5:0.6391 6:-0.346533 7:0.4386 8:0.74 
512 1:-0.4958 2:0.36048 3:0.255667 4:0.26925 5:0.6391 6:-0.0265333 7:0.595 8:0.7394 
512 1:0.0746 2:0.4334 3:0.483333 4:0.0595 5:0.5649 6:-0.383867 7:0.3828 8:-0.5244 
512 1:-0.6886 2:0.30324 3:-0.226 4:-0.19875 5:0.8332 6:-0.108667 7:0.2666 8:-0.5418 
512 1:-0.4188 2:0.41056 3:-0.814 4:-0.0995 5:0.1972 6:0.115467 7:0.283 8:0.2194 
447.0144435159492 1:0.2942 2:0.3986 3:-0.682333 4:0.49475 5:0.4849 6:-0.5032 7:0.3872 8:0.9294 
21.19075940495471 1:-0.5542 2:0.44436 3:0.422 4:0.087 5:1 6:-0.213733 7:0.5892 8:0.871 
512 1:0.5862 2:0.2542 3:0.152667 4:0.26325 5:0.9957 6:-0.431333 7:0.6626 8:-0.9458 
512 1:0.5676 2:0.34692 3:-0.091 4:0.1445 5:1 6:-0.395867 7:0.4914 8:-0.988 
512 1:0.9536 2:1 3:-0.496333 4:0.1335 5:0.9444 6:-0.237467 7:0.4114 8:-0.6938 
512 1:0.8 2:0.15616 3:0.277333 4:0.1695 5:0.5649 6:-0.196667 7:0.4578 8:-0.7994 
512 1:0.0204 2:0.28756 3:0.0543333 4:-0.15175 5:0.0794 6:-0.0154667 7:0.1638 8:-0.4228 
512 1:0.7334 2:0.30324 3:-0.538667 4:0.3185 5:0.9444 6:-0.6208 7:0.5008 8:-0.9506 
512 1:0.7142 2:0.63772 3:0.379667 4:0.31025 5:0.7726 6:-0.3512 7:0.3596 8:-0.7024 
512 1:0.767 2:1 3:-0.427333 4:0.24225 5:0.4849 6:0.4012 7:0.4304 8:-0.9642 
512 1:0.7334 2:0.98512 3:0.363667 4:0.3565 5:0.7081 6:-0.4864 7:0.5782 8:-0.7292 
512 2:-1 3:0.432333 4:0.3005 5:0.8332 6:-0.228 7:0.82 8:-0.9538 
512 1:-0.25 2:-0.56056 3:0.497 4:0.01175 5:0.6391 6:-0.452933 7:0.78 8:-0.5708 
512 1:1 2:-1 3:-0.470667 4:0.41525 5:-0.0541 6:-0.294533 7:0.56 8:-0.9536 
512 1:-0.5 2:-0.56056 3:-0.018 4:-0.0265 5:-0.6137 6:-0.455333 7:0.2134 8:0.7392 
512 1:-0.8334 2:-1 3:-0.647667 4:0.481 5:-0.9014 6:-0.42 7:0.16 8:-0.9538 
512 1:-0.5 2:-1 3:0.32 4:-0.06575 5:0.5649 6:-0.164667 7:0.96 8:-0.9538 
512 1:-0.6666 2:-0.35624 3:0.0653333 4:-0.449 5:0.1972 6:-0.363067 7:0.204 8:-0.9806 
512 1:-0.3684 2:-0.28328 3:0.341333 4:0.274 5:-0.3906 6:-0.5224 7:0.308 8:0.7422 
512 1:-0.4 2:-0.28328 3:-0.0303333 4:0.22475 5:0.0794 6:-0.2916 7:0.2534 8:-0.063 
512 2:-1 3:-0.863667 4:-0.431 5:-0.9014 6:-0.654667 7:0.32 8:-0.9546 
512 2:-1 3:0.184 4:0.17025 5:-0.6137 6:-0.618 7:0.52 8:-0.9538 
512 1:-0.1516 2:0.05564 3:0.225667 4:-0.154 5:0.4849 6:0.0236 7:0.2672 8:-0.9796 
512 1:-0.1112 2:-0.44548 3:0.173667 4:0.28325 5:0.6391 6:-0.618533 7:0.6 8:-0.952 
512 1:0.4 2:-0.22164 3:-0.175667 4:0.2305 5:0.8332 6:0.0537333 7:0.46 8:-0.9934 
188.0722537828387 1:1 2:-1 3:-0.642667 4:0.29775 5:-0.0541 6:0.2808 7:0.52 8:-0.955 
512 1:-0.9726 2:-0.72276 3:-0.472333 4:0.35475 5:0.0794 6:-0.3664 7:0.62 8:0.742 
512 1:1 2:-1 3:0.465333 4:0.4335 5:0.3979 6:-0.371333 7:0.42 8:-0.8314 
512 1:-0.374 2:0.4334 3:0.00133333 4:0.362 5:1 6:-0.2476 7:0.4684 8:0.854 
512 1:1 2:-0.04084 3:-0.342 4:0.253 5:1 6:-0.0486667 7:0.129 8:0.744 
512 1:1 2:-1 3:0.1 4:0.3605 5:-0.3906 6:-0.575733 7:0.78 8:-0.9538 
512 1:-0.6 2:-1 3:0.212333 4:0.0595 5:0.0794 6:-0.7164 7:0.4 8:-0.9538 
512 2:-0.72276 3:-0.766333 4:0.37325 5:0.7081 6:0.243067 7:0.16 8:-0.9538 
154.2589229277563 1:-0.5 2:0.15616 3:0.247333 4:0.26075 5:0.6391 6:0.362 7:0.6478 8:0.6164 
512 2:-0.72276 3:-0.542667 4:0.081 5:0.8332 6:-0.158267 7:0.72 8:-0.9538 
512 1:0.9586 2:1 3:-0.590333 4:0.30775 5:0.7081 6:-0.468933 7:0.2834 8:0.8868 
512 1:-0.1112 2:-0.44548 3:0.331667 4:0.3145 5:0.3026 6:-0.169467 7:0.365 8:-0.4894 
512 1:-0.3178 2:0.51368 3:-0.389333 4:0.0325 5:0.6391 6:-0.215867 7:0.389 8:-0.6136 
512 1:-0.4286 2:-0.72276 3:0.372 4:0.51025 5:-0.2082 6:-0.0597333 7:0.82 8:-0.9538 
512 1:0.3334 2:-0.28328 3:0.277 4:0.508 5:-0.0541 6:0.365867 7:0.5066 8:-0.7054 
512 1:0.8102 2:0.98512 3:0.414667 4:0.52175 5:0.7726 6:-0.2472 7:0.6162 8:-0.8336 
512 1:0.7398 2:0.93768 3:0.0766667 4:-0.15275 5:0.9957 6:-0.131467 7:0.5016 8:-0.9106 
512 1:-0.3334 2:-0.56056 3:0.34 4:0.17775 5:-0.9014 6:0.134267 7:0.7866 8:0.7422 
512 2:-1 3:0.39 4:-0.081 5:-0.3906 6:0.191467 7:0.44 8:-0.94 
512 1:-0.6666 2:-0.56056 3:0.445333 4:-0.31775 5:-0.6137 6:-0.406 7:0.6534 8:0.741 
512 2:-0.56056 3:-0.829 4:0.276 5:0.9957 6:-0.212133 7:0.4934 8:-0.9536 
512 1:0.7778 2:0.54848 3:-0.084 4:0.094 5:0.3979 6:-0.475333 7:0.3616 8:-0.7814 
512 1:0.804 2:0.53144 3:0.191 4:0.2165 5:0.7726 6:0.1128 7:0.2648 8:-0.2678 
53.3435325867565 1:0.9184 2:1 3:-0.472 4:0.11575 5:1 6:-0.479067 7:0.2838 8:0.7394 
512 1:1 2:-1 3:0.65 4:-0.01775 5:0.4849 6:-0.435733 7:0.22 8:-0.9538 
512 1:0.3334 2:-0.72276 3:-0.927667 4:-0.3405 5:-0.9014 6:0.489333 7:0.27 8:-0.9536 
512 1:0.0408 2:0.57272 3:0.628667 4:0.037 5:-0.3906 6:-0.0208 7:0.5768 8:-0.3088 
512 1:0.8506 2:1 3:0.300333 4:0.18625 5:0.9957 6:0.180133 7:0.7432 8:-0.8712 
512 1:0.647 2:0.33288 3:-0.615333 4:0.2575 5:0.9957 6:-0.646533 7:0.5186 8:-0.946 
512 1:-0.3334 2:-1 3:0.156667 4:0.037 5:0.3979 6:-0.5392 7:0.7 8:-0.9492 
512 1:-0.5 2:-1 3:-0.404667 4:0.34175 5:0.0794 6:-0.540133 7:0.5 8:-0.849 
512 1:-0.5 2:-1 3:-0.965333 4:0.18575 5:-0.9014 6:-0.540933 7:0.48 8:-0.9538 
512 1:0.9108 2:0.86912 3:0.202 4:0.29925 5:0.7081 6:-0.411333 7:0.6102 8:-0.9898 
512 1:-0.7298 2:-0.35624 3:0.502667 4:-0.36475 5:0.7081 6:-0.332533 7:0.452 8:-0.8496 
512 1:-0.5 2:-1 3:-0.885667 4:0.4295 5:-0.6137 6:0.462667 7:0.16 8:-0.9538 
512 1:1 2:-1 3:-0.0196667 4:0.30275 5:0.1972 6:-0.464933 7:0.46 8:-0.9484 
512 1:-0.5322 2:0.47556 3:-0.380667 4:0.4085 5:0.9444 6:-0.578133 7:0.733 8:-0.2842 
512 1:1 2:-1 3:-0.193667 4:0.21625 5:0.0794 6:-0.553733 7:0.54 8:-0.9538 
512 2:-1 3:-0.900333 4:0.37725 5:0.4849 6:-0.301733 7:0.34 8:-0.9538 
512 1:0.875 2:1 3:-0.141667 4:0.0225 5:1 6:-0.442933 7:0.2522 8:0.9348 
512 1:-0.2084 2:0.17776 3:0.447 4:0.244 5:-0.3906 6:-0.501867 7:0.5768 8:0.7402 
512 2:-0.56056 3:0.378333 4:-0.2645 5:-0.6137 6:-0.420933 7:0.2534 8:-0.081 
512 1:-0.6666 2:-1 3:0.463333 4:0.3085 5:-0.2082 6:-0.464667 7:0.36 8:-0.9538 
512 1:-0.5 2:-0.72276 3:-0.458 4:0.09975 5:-0.3906 6:-0.661333 7:0.75 8:-0.9538 
512 1:-0.2 2:-0.72276 3:0.0433333 4:0.205 5:-0.2082 6:-0.109067 7:0.44 8:-0.1624 
512 1:-0.2 2:-0.72276 3:-0.173 4:-0.032 5:-0.2082 6:-0.0297333 7:0.05 8:-0.9604 
512 1:1 2:0.4334 3:-0.229667 4:-0.091 5:0.6391 6:0.00786667 7:0.327 8:-0.9288 
512 1:-0.5 2:-0.56056 3:-0.00733333 4:-0.126 5:0.0794 6:-0.0642667 7:0.5866 8:0.7422 
512 1:-0.2728 2:-0.44548 3:-0.904667 4:0.0215 5:0.6391 6:-0.3952 7:0.275 8:0.7482 
512 1:-0.2 2:-0.72276 3:0.632 4:-0.21275 5:0.1972 6:-0.1976 7:0.77 8:-0.9544 
512 2:-1 3:-0.602333 4:0.6075 5:-0.3906 6:-0.505067 7:0.62 8:-0.9538 
512 1:0.6982 2:0.52268 3:0.0723333 4:0.16375 5:0.8904 6:0.128667 7:0.2752 8:-0.7596 
512 1:-0.3334 2:-0.56056 3:0.682667 4:0.50625 5:-0.9014 6:-0.5924 7:0.7534 8:0.7468 
512 1:0.84 2:0.2542 3:-0.863667 4:0.11075 5:1 6:-0.199467 7:0.3286 8:-0.717 
512 1:0.913 2:0.67588 3:0.490667 4:0.07925 5:0.9957 6:0.1544 7:0.4534 8:-0.7464 
512 1:-0.5604 2:0.19828 3:0.280667 4:-0.2805 5:-0.0541 6:-0.154133 7:0.387 8:-0.109 
512 1:-0.3914 2:-0.22164 3:-0.206 4:0.43775 5:0.7081 6:-0.211333 7:0.4114 8:-0.4324 
512 1:-0.5334 2:-0.22164 3:0.112333 4:0.0395 5:0.5649 6:-0.193067 7:0.2714 8:0.742 
512 1:-0.2308 2:0.28756 3:-0.857 4:-0.052 5:0.1972 6:-0.208 7:0.34 8:0.7438 
512 1:-0.5 2:-0.72276 3:-0.666667 4:0.227 5:0.1972 6:-0.432533 7:0.32 8:-0.6548 
512 2:-0.44548 3:-0.431667 4:0.36675 5:0.6391 6:0.0592 7:0.415 8:-0.734 
512 1:-0.1594 2:0.34692 3:0.517667 4:0.076 5:0.5649 6:0.0604 7:0.3752 8:-0.986 
512 1:0.979 2:1 3:-0.496667 4:0.13725 5:0.7726 6:-0.319067 7:0.2574 8:0.7338 
512 1:-0.6364 2:-0.72276 3:0.622667 4:-0.20325 5:-0.2082 6:-0.3076 7:0.41 8:0.7424 
512 1:-0.5 2:-1 3:0.381667 4:0.11025 5:0.5649 6:-0.1828 7:0.72 8:-0.9604 
512 1:-0.4122 2:0.80872 3:-0.937 4:0.355 5:0.4849 6:-0.6816 7:0.3508 8:0.6236 
512 1:0.8888 2:0.13328 3:-0.879333 4:0.25225 5:0.8904 6:-0.3464 7:0.1988 8:-0.979 
512 1:-0.8796 2:-0.35624 3:0.600333 4:0.03325 5:0.3979 6:0.0854667 7:0.288 8:-0.9274 
512 1:1 2:-1 3:-0.392667 4:-0.30825 5:-0.2082 6:-0.480933 7:0.48 8:-0.9536 
512 1:1 2:-1 3:-0.626 4:-0.6365 5:-0.6137 6:0.3856 7:0.62 8:-0.9536 
512 2:-0.56056 3:-0.991333 4:-0.1935 5:0.3026 6:-0.395467 7:0.64 8:-0.9846 
512 1:-0.8206 2:-0.22164 3:0.398 4:-0.06875 5:0.7726 6:-0.298267 7:0.44 8:-0.8464 
512 1:0.579 2:0.36048 3:-0.294333 4:0.085 5:1 6:-0.0244 7:0.278 8:-0.5072 
512 1:-0.923 2:-1 3:-0.0743333 4:-0.56725 5:-0.9014 6:-0.2516 7:0.02 8:-0.949 
512 1:0.5438 2:0.79092 3:-0.338667 4:0.032 5:0.5649 6:-0.492 7:0.1614 8:0.741 
512 1:0.077 2:-0.22164 3:-0.101 4:0.1565 5:0.9444 6:-0.5412 7:0.0972 8:0.6318 
512 1:0.8182 2:0.63772 3:-0.297 4:0.15775 5:0.6391 6:-0.295333 7:0.199 8:-0.0134 
512 1:0.4358 2:0.33288 3:-0.158 4:0.09225 5:0.7726 6:0.400133 7:0.5208 8:-0.7496 
125.1443322208793 1:-0.3888 2:-0.04084 3:0.115333 4:-0.403 5:0.3026 6:0.316133 7:0.2146 8:0.7412 
512 1:-0.5 2:-1 3:-0.172 4:-0.612 5:-0.6137 6:-0.4936 7:0.84 8:-0.9536 
512 1:1 2:-1 3:-0.646667 4:0.33375 5:0.3026 6:-0.236267 7:0.5 8:-0.9538 
512 1:-0.9436 2:-0.44548 3:-0.06 4:-0.501 5:-0.6137 6:0.148933 7:0.24 8:0.5038 
512 1:0.6876 2:0.75776 3:-0.593667 4:-0.249 5:0.8904 6:0.3008 7:0.3202 8:-0.5642 
512 1:-0.7648 2:-0.72276 3:-0.762667 4:0.0875 5:-0.3906 6:-0.3344 7:0.4 8:-0.9438 
512 1:1 2:-1 3:-0.482333 4:0.64125 5:-0.9014 6:0.816 7:0.42 8:-0.9538 
512 1:-0.8334 2:-1 3:0.525 4:-0.6855 5:-0.9014 6:0.461333 7:0.18 8:-0.9414 
512 1:1 2:-0.22164 3:-0.031 4:0.15975 5:0.8332 6:-0.315467 7:0.4942 8:-1 
512 1:-0.6666 2:-0.72276 3:-0.650333 4:-0.35 5:0.0794 6:-0.244 7:0.62 8:0.7438 
512 1:-0.7142 2:-0.28328 3:-0.276667 4:-0.5985 5:-0.3906 6:0.504533 7:0.308 8:0.5938 
512 1:-0.8 2:-1 3:0.051 4:0.7095 5:-0.9014 6:-0.531067 7:0.06 8:-0.9538 
512 1:-0.3334 2:-1 3:-0.279667 4:0.6485 5:-0.6137 6:-0.320933 7:0.66 8:-0.958 
512 1:1 2:-1 3:-0.510667 4:0.6065 5:-0.6137 6:-0.0316 7:0.6 8:-0.9452 
-512 1:0.3636 2:0.79992 3:0.149667 4:-0.111 5:0.6391 6:0.165467 7:0.3898 8:-0.9618 
-512 2:0.02596 3:-0.523333 4:0.3 5:0.6391 6:0.0558667 7:0.3466 8:0.4752 
-512 1:-0.3334 2:-1 3:0.654667 4:0.2055 5:0.7726 6:-0.2236 7:0.74 8:-0.9872 
-512 1:0.5 2:-0.56056 3:-0.711 4:0.62875 5:0.3979 6:-0.734 7:0.41 8:-0.9934 
-512 1:-0.4166 2:-0.22164 3:0.0296667 4:0.17175 5:0.9957 6:-0.3296 7:0.6914 8:-0.9538 
-418.7405305450345 1:1 2:-1 3:-0.953667 4:0.28575 5:-0.3906 6:-0.449067 7:0.34 8:-0.9834 
-512 1:-0.5 2:-1 3:0.524333 4:-0.16375 5:0.7081 6:-0.0737333 7:0.88 8:-0.9538 
-512 1:0.5 2:-0.56056 3:-0.566 4:0.11375 5:0.3979 6:-0.599867 7:0.35 8:-0.9536 
-512 1:0.4 2:-0.22164 3:-0.550333 4:0.13175 5:0.4849 6:0.2192 7:0.1766 8:-0.9536 
-512 1:0.7334 2:0.02596 3:0.0163333 4:0.3975 5:-0.0541 6:0.0978667 7:0.2934 8:-0.9536 
-158.8944975035407 1:-0.3334 2:-1 3:0.497333 4:0.29425 5:-0.9014 6:-0.882667 7:0.86 8:-0.9554 
-512 1:0.3334 2:-0.72276 3:0.441 4:-0.1505 5:-0.9014 6:-0.809733 7:0.5 8:-0.9538 
-512 1:0.3438 2:0.78172 3:0.282 4:0.08825 5:0.5649 6:0.239067 7:0.6808 8:-0.959 
-512 1:-0.4202 2:0.19828 3:0.416667 4:-0.106 5:-0.0541 6:-0.675067 7:0.745 8:0.937 
-512 1:-0.3824 2:0.2178 3:0.347333 4:0.1035 5:-0.3906 6:-0.157067 7:0.6904 8:0.9362 
-512 1:-0.9944 2:-1 3:-0.3 4:0.16425 5:-0.9014 6:-0.3004 8:-0.9536 
-512 1:1 2:-1 3:-0.402333 4:0.49375 5:-0.9014 6:-0.416 7:0.86 8:-0.9656 
-512 1:-0.3334 2:-0.72276 3:0.253667 4:-0.00725 5:0.0794 6:-0.0708 7:0.76 8:-0.9562 
-512 1:-0.4366 2:0.19828 3:0.587333 4:0.06325 5:-0.2082 6:-0.623733 7:0.596 8:0.6582 
-512 1:0.9016 2:1 3:0.008 4:0.1515 5:0.9957 6:-0.419333 7:0.4344 8:-0.3038 
-512 1:-0.25 2:-0.56056 3:0.233333 4:0.51825 5:0.0794 6:-0.664133 7:0.56 8:-0.5426 
-512 1:-0.5 2:-0.72276 3:-0.969 4:0.10475 5:0.5649 6:-0.517733 7:0.54 8:-0.9538 
-25.68022790303053 1:-0.9922 2:-1 3:0.081 4:-0.37575 5:-0.9014 6:0.1164 7:0.1 8:-0.9502 
-512 1:0.8096 2:0.17776 3:0.0513333 4:-0.05475 5:0.5649 6:-0.407733 7:0.3554 8:-0.097 
-512 1:1 2:0.13328 3:0.574667 4:0.26125 5:0.3979 6:-0.3956 7:0.392 8:-0.969 
-512 2:-1 3:-0.433 4:0.182 5:-0.0541 6:0.543067 7:0.14 8:-0.9588 
-512 1:0.5136 2:0.33288 3:-0.365 4:0.06325 5:0.3026 6:-0.245333 7:0.1444 8:-0.871 
-127.0924359780513 1:-0.9954 2:-0.72276 3:0.730667 4:-0.26575 5:0.1972 6:-0.7036 7:0.46 8:-0.0474 
-216.8363692330312 1:-0.099 2:0.48544 3:-0.181667 4:-0.22725 5:1 6:-0.126933 7:0.5052 8:-0.968 
-512 1:-0.5 2:-1 3:-0.275 4:-0.4745 5:-0.2082 6:-0.181733 7:0.42 8:-0.9538 
-512 1:-0.5 2:-1 3:-0.275 4:-0.5405 5:-0.0541 6:-0.1948 7:0.36 8:-0.9538 
-512 1:-0.5 2:-1 3:-0.269333 4:-0.53675 5:-0.3906 6:-0.4408 7:0.42 8:-0.9538 
-512 1:-0.5 2:-1 3:-0.269333 4:-0.59725 5:-0.2082 6:-0.412933 7:0.42 8:-0.9538 
-512 1:0.2 2:-0.56056 3:0.515667 4:0.078 5:0.7726 6:0.211067 7:0.65 8:-0.9538 
-512 1:0.9018 2:1 3:0.449667 4:0.259 5:0.8332 6:-0.419867 7:0.725 8:-0.955 
-512 1:-0.2 2:-0.00604 3:0.063 4:0.22125 5:0.8332 6:0.034 7:0.4764 8:-0.7682 
-512 1:0.3334 2:-0.72276 3:0.451 4:0.28175 5:0.3979 6:-0.301733 7:0.38 8:-0.9544 
-512 1:0.4546 2:-0.16824 3:-0.266333 4:-0.02775 5:0.1972 6:0.459867 7:0.712 8:0.8276 
-404.9910011277353 1:1 2:-1 3:-0.618333 4:0.595 5:-0.9014 6:0.576 7:0.06 8:-0.9538 
-512 2:-1 3:-0.624667 4:0.06775 5:-0.6137 6:-0.345333 7:0.7 8:-0.9538 
-512 2:-1 3:-0.609 4:0.59925 5:-0.9014 6:0.576 7:0.18 8:-0.9538 
-118.432010594362 1:1 2:-1 3:0.669333 4:0.1265 5:-0.6137 6:0.0209333 7:0.52 8:-0.985 
-512 1:0.3846 2:-0.12112 3:0.252333 4:0.0225 5:0.0794 6:-0.2648 7:0.5572 8:-0.9536 
-512 1:0.8334 2:0.95312 3:0.282333 4:0.28825 5:0.1972 6:-0.618933 7:0.4492 8:-0.9534 
-512 1:-0.4694 2:0.30324 3:-0.038 4:0.17825 5:-0.2082 6:0.1096 7:0.4592 8:0.8708 
-512 1:1 2:-1 3:0.177333 4:0.40875 5:-0.2082 6:-0.00266667 7:0.92 8:-0.9546 
-512 1:-0.5 2:-1 3:0.326667 4:-0.076 5:-0.0541 6:-0.491467 7:0.68 8:-0.9542 
-512 1:-0.5 2:-1 3:0.466 4:0.13225 5:-0.3906 6:-0.2872 7:0.7 8:-0.9542 
-386.3567348596443 1:-0.995 2:-1 3:0.836 4:0.051 5:-0.3906 6:-0.184267 7:0.22 8:-0.9538 
-512 1:0.75 2:-0.22164 3:-0.97 4:0.3775 5:0.9957 6:-0.264133 7:0.2742 8:-0.9902 
-512 1:0.8 2:-0.12112 3:0.281 4:0.2555 5:0.1972 6:-0.272133 7:0.1866 8:-0.9206 
-512 1:0.6364 2:-0.12112 3:-0.972667 4:0.39375 5:0.4849 6:-0.529733 7:0.42 8:0.468 
-512 1:-0.5 2:-1 3:-0.510667 4:0.6035 5:0.0794 6:-0.167733 7:0.82 8:-0.9554 
-512 2:-1 3:0.723667 4:0.4095 5:0.4849 6:-0.3164 7:0.8 8:-0.9548 
-512 1:0.0834 2:0.30324 3:-0.821 4:0.284 5:1 6:-0.032 7:0.5746 8:-1 
-512 1:-0.4286 2:-0.28328 3:-0.299333 4:0.3605 5:0.3026 6:-0.232 7:0.288 8:0.8514 
-512 1:-0.5 2:-1 3:0.120333 4:0.0655 5:0.3979 6:-0.506 7:0.58 8:-0.957 
-512 1:-0.3334 2:-0.56056 3:-0.189667 4:0.21825 5:0.6391 6:-0.4928 7:0.54 8:-0.9536 
-512 2:-1 3:-0.286 4:0.28925 5:-0.6137 6:-0.687733 7:0.68 8:-0.954 
-512 1:-0.5 2:-1 3:0.42 4:0.414 5:-0.3906 6:-0.530133 7:0.76 8:-0.9596 
-512 2:-1 3:0.403 4:-0.501 5:-0.9014 6:-0.0564 7:0.84 8:-0.9538 
-512 1:-0.4616 2:-0.22164 3:0.063 4:0.41825 5:-0.2082 6:-0.608933 7:0.6142 8:-0.41 
-512 1:0.5 2:-0.56056 3:0.0723333 4:-0.06925 5:0.0794 6:0.0664 7:0.2866 8:-0.9566 
-32.95538888586023 1:-0.5 2:-1 3:0.171 4:-0.68275 5:-0.6137 6:-0.3696 7:0.98 8:-0.9536 
-512 1:-0.3334 2:-1 3:-0.0343333 4:0.5385 5:-0.6137 6:0.701333 7:0.66 8:-0.9538 
-512 2:0.08324 3:-0.76 4:-0.092 5:0.1972 6:-0.0424 7:0.26 8:0.7146 
-512 1:0.091 2:-0.00604 3:-0.733333 4:0.16475 5:0.9957 6:-0.144267 7:0.3284 8:-0.9256 
-512 1:-0.3334 2:-1 3:-0.00266667 4:0.176 5:-0.3906 6:-0.497867 7:0.44 8:-0.9538 
-512 1:-0.3334 2:-1 3:0.461 4:0.34875 5:0.1972 6:-0.748 7:0.66 8:-0.9538 
-512 1:0.2052 2:0.54004 3:-0.538 4:0.38625 5:0.8332 6:0.0484 7:0.451 8:-0.9534 
-512 1:-0.0666 2:-0.22164 3:-0.371333 4:-0.233 5:0.3026 6:0.153067 7:0.3534 8:-0.9582 
-512 1:1 2:-1 3:0.252333 4:-0.0525 5:-0.6137 6:0.120267 7:0.4 8:-0.9538 
-512 1:-0.968 2:-0.72276 3:-0.308667 4:0.38475 5:0.0794 6:-0.119467 7:0.42 8:0.9112 
-54.34868879262683 1:-0.9974 2:-1 3:0.769667 4:0.62125 5:-0.6137 6:-0.2896 7:0.14 8:-0.9546 
-512 1:-0.3334 2:-1 3:-0.865 4:0.2185 5:0.3026 6:0.098 7:0.24 8:-0.954 
-512 1:0.9334 2:0.78636 3:-0.317333 4:0.1845 5:1 6:-0.1136 7:0.5412 8:-0.87 
-512 1:0.8666 2:1 3:-0.14 4:0.11 5:1 6:-0.118933 7:0.318 8:0.2444 
-512 1:-0.9948 2:-1 3:-0.278 4:0.195 5:-0.9014 6:0.124933 7:0.02 8:-0.9536 
-512 1:0.9616 2:0.57272 3:-0.734333 4:0.1275 5:0.9957 6:-0.389733 7:0.6088 8:0.1756 
-221.7402278218795 1:-0.6242 2:0.33288 3:-0.117667 4:-0.005 5:0.3979 6:-0.399067 7:0.6486 8:0.6956 
-512 1:0.6908 2:1 3:-0.376 4:0.008 5:1 6:-0.0998667 7:0.347 8:-0.6988 
-512 1:0.7692 2:0.53144 3:0.313333 4:0.147 5:0.8332 6:-0.431067 7:0.654 8:0.6828 
-512 1:-0.88 2:-0.56056 3:0.529667 4:0.01125 5:-0.3906 6:-0.0581333 7:0.4734 8:-0.3922 
-512 1:0.921 2:1 3:-0.01 4:0.18975 5:1 6:-0.259333 7:0.55 8:0.8998 
-18.30589400929131 1:-0.5 2:-1 3:-0.501667 4:0.5895 5:0.0794 6:-0.134 7:0.94 8:-0.9554 
-512 1:-0.434 2:0.36048 3:0.619333 4:0.00725 5:0.0794 6:-0.2108 7:0.7046 8:-0.2124 
-512 1:0.8298 2:0.50448 3:-0.848 4:0.13675 5:0.8904 6:0.0889333 7:0.1568 8:0.879 
-512 1:-0.1924 2:0.2178 3:-0.182667 4:0.09975 5:0.0794 6:-0.198133 7:0.241 8:0.7476 
-512 1:-0.3334 2:-1 3:-0.126333 4:0.19925 5:0.3979 6:0.0508 7:0.54 8:-0.9542 
-512 1:0.6666 2:-0.35624 3:0.0316667 4:0.14 5:0.5649 6:0.0526667 7:0.3 8:0.2456 
-512 1:-0.7904 2:0.02596 3:0.154667 4:0.07275 5:0.5649 6:-0.439733 7:0.2884 8:0.7228 
-512 1:0.4074 2:0.17776 3:0.373 4:0.06325 5:0.5649 6:-0.084 7:0.3472 8:-0.9526 
-512 1:0.8948 2:0.87284 3:-0.468333 4:-0.00825 5:1 6:-0.3824 7:0.2238 8:0.2344 
-512 1:0.8396 2:1 3:0.269667 4:0.29425 5:1 6:-0.5508 7:0.4974 8:-0.9516 
-512 1:0.5 2:-0.56056 3:-0.537667 4:0.1975 5:0.4849 6:-0.565467 7:0.16 8:-0.8698 
-512 1:-0.9972 2:-1 3:0.768 4:-0.1065 5:-0.6137 6:-0.278267 7:0.12 8:-0.9548 
-512 1:0.898 2:0.81304 3:0.652 4:-0.04775 5:0.6391 6:0.0110667 7:0.455 8:-0.7346 
-288.1977753174264 1:-0.5 2:-1 3:0.273 4:0.276 5:-0.0541 6:-0.0894667 7:0.98 8:-0.9538 
-512 1:-0.875 2:-0.72276 3:0.187667 4:-0.69975 5:-0.9014 6:-0.116 7:0.52 8:0.9486 
-512 2:-1 3:0.422 4:0.34775 5:0.8332 6:-0.279867 7:0.8 8:-0.9548 
-512 2:-1 3:0.616333 4:0.066 5:0.6391 6:0.0184 7:0.92 8:-0.9548 
-512 1:-0.4546 2:-0.28328 3:0.092 4:0.41475 5:0.4849 6:0.164267 7:0.684 8:0.856 
-512 1:0.25 2:0.19828 3:-0.759333 4:0.32625 5:0.3979 6:-0.302 7:0.1822 8:0.2208 
-512 1:0.7142 2:-0.00604 3:0.403667 4:-0.079 5:-0.0541 6:0.145733 7:0.525 8:-0.9706 
-512 1:-0.9816 2:-1 3:0.912333 4:0.4185 5:-0.6137 6:-0.440667 7:0.08 8:-0.9544 
-512 1:0.7142 2:-0.28328 3:-0.703333 4:0.22375 5:0.5649 6:-0.134133 7:0.42 8:-0.9898 
-512 2:-1 3:0.302667 4:0.0255 5:0.9957 6:-0.233333 7:0.72 8:-0.9538 
-512 1:-0.0834 2:-0.04084 3:-0.0346667 4:0.01075 5:-0.2082 6:-0.5736 7:0.214 8:-0.486 
-512 2:-0.72276 3:0.357 4:-0.14425 5:0.1972 6:0.1948 7:0.47 8:-0.9538 
-512 1:-0.6924 2:-0.72276 3:-0.316667 4:0.1785 5:-0.6137 6:-0.528 7:0.41 8:-0.1342 
-512 1:0.9216 2:1 3:0.0456667 4:0.1295 5:1 6:-0.5052 7:0.5002 8:-0.9338 
-512 1:0.7514 2:1 3:0.284 4:-0.08525 5:0.5649 6:-0.4404 7:0.3666 8:-0.72 
-512 1:-0.2162 2:0.62416 3:-0.248667 4:0.43675 5:-0.2082 6:-0.648267 7:0.6116 8:0.359 
-83.34530382680782 1:-0.75 2:-1 3:-0.977 4:0.3535 5:0.3026 6:-0.543333 7:0.72 8:-0.9538 
-512 1:-0.5556 2:-0.72276 3:0.365667 4:0.5595 5:-0.6137 6:0.312267 7:0.68 8:-0.7204 
-512 1:-0.3334 2:-0.56056 3:-0.700667 4:0.2465 5:0.0794 6:-0.398667 7:0.33 8:0.5774 
-512 1:-0.3334 2:-0.56056 3:-0.677 4:0.38125 5:-0.3906 6:-0.5528 7:0.19 8:0.7956 
-512 1:-0.9972 2:-1 3:-0.479667 4:0.075 5:-0.9014 6:-0.542267 7:0.02 8:-0.9536 
-512 1:0.1428 2:-0.44548 3:-0.142667 4:0.4505 5:0.5649 6:0.142933 7:0.205 8:-0.83 
-512 1:-0.9826 2:-0.72276 3:-0.336333 4:-0.2265 5:0.1972 6:-0.185333 7:0.22 8:-0.0302 
-512 1:0.1428 2:0.27124 3:-0.255667 4:-0.137 5:0.6391 6:-0.6164 7:0.129 8:0.9744 
-512 1:-0.5 2:-1 3:-0.504333 4:0.1105 5:0.4849 6:-0.444133 7:0.6 8:-0.955 
-512 1:0.3334 2:-0.00604 3:-0.714333 4:0.32825 5:0.7081 6:-0.196667 7:0.3116 8:-0.9596 
-365.2179345764605 1:-0.409 2:0.02596 3:0.365 4:0.37175 5:-0.2082 6:1 7:0.3554 8:-0.9728 
-512 1:-0.1346 2:0.52268 3:0.604667 4:-0.239 5:-0.9014 6:0.2124 7:0.3168 8:0.6224 
-512 1:-0.9948 2:-1 3:-0.561667 4:-0.438 5:-0.9014 6:-0.850267 7:0.04 8:-0.9546 
-512 1:0.8368 2:0.52268 3:-0.225333 4:0.2425 5:0.5649 6:-0.513067 7:0.2332 8:0.8216 
-512 2:-1 3:-0.905 4:0.104 5:0.0794 6:-0.0977333 7:0.28 8:-0.9768 
-512 2:-1 3:-0.905 4:0.25675 5:0.0794 6:-0.192667 7:0.28 8:-0.9538 
-512 1:1 2:-0.56056 3:-0.438 4:0.1885 5:0.7081 6:-0.3232 7:0.16 8:-0.9772 
-512 1:0.5556 2:0.05564 3:0.244667 4:-0.04175 5:0.1972 6:0.264133 7:0.2658 8:-0.9536 
-512 1:0.657 2:1 3:-0.129333 4:-0.03475 5:1 6:-0.399867 7:0.216 8:0.7936 
-512 1:-0.4584 2:0.30324 3:0.662 4:0.245 5:-0.0541 6:-0.373733 7:0.7038 8:0.086 
-512 1:0.55 2:0.65084 3:-0.953 4:-0.12225 5:0.6391 6:-0.351467 7:0.4024 8:-0.9682 
-512 1:-0.6296 2:-0.07896 3:0.32 4:0.28825 5:0.5649 6:-0.487733 7:0.1956 8:0.5982 
-512 1:-0.3704 2:0.13328 3:0.258333 4:0.20175 5:-0.3906 6:0.0544 7:0.2138 8:0.896 
-512 1:-0.4418 2:0.27124 3:0.705667 4:0.12575 5:-0.0541 6:-0.403067 7:0.5166 8:0.4848 
-512 1:0.0588 2:-0.12112 3:0.145 4:-0.272 5:0.7726 6:-0.2836 7:0.7424 8:-0.9796 
-109.8893076562356 1:-0.9956 2:-1 3:0.704667 4:-0.435 5:-0.6137 6:0.237333 7:0.1 8:-0.9566 
-512 1:-0.2 2:-0.44548 3:0.395667 4:0.28625 5:0.1972 6:-0.335467 7:0.675 8:0.9148 
-512 1:-0.5 2:-1 3:0.572667 4:0.21475 5:-0.0541 6:-0.658267 7:0.86 8:-0.9894 
-512 1:-0.5 2:-1 3:0.572667 4:0.36025 5:-0.0541 6:-0.400533 7:0.86 8:-0.9538 
-72.88443028377014 1:0.3846 2:-0.12112 3:0.0863333 4:0.216 5:0.8332 6:-0.5228 7:0.2422 8:-0.976 
-512 1:-0.125 2:-0.22164 3:0.002 4:0.02375 5:0.6391 6:-0.3316 7:0.2542 8:-0.702 
-512 1:-0.1786 2:0.2542 3:0.165333 4:0.3995 5:0.4849 6:-0.286133 7:0.319 8:-0.1434 
-512 1:0.1 2:-0.04084 3:0.702333 4:0.044 5:0.0794 6:-0.0870667 7:0.5574 8:-0.9776 
-512 2:-1 3:0.311667 4:0.52375 5:-0.6137 6:-0.631333 7:0.72 8:-0.9624 
-512 1:1 2:-1 3:-0.264667 4:0.3435 5:-0.3906 6:-0.428267 7:0.48 8:-0.9536 
-512 1:-0.2 2:-0.44548 3:0.352 4:0.3565 5:0.0794 6:-0.522 7:0.56 8:0.9158 
-512 1:-0.5172 2:-0.22164 3:0.021 4:0.10575 5:0.0794 6:0.239333 7:0.3686 8:-0.6148 
-512 2:-0.72276 3:-0.0986667 4:-0.01875 5:0.8332 6:-0.4432 7:0.26 8:-0.9536 
-512 1:-0.9334 2:-0.56056 3:-0.044 4:0.0665 5:0.8904 6:-0.4536 7:0.26 8:0.7072 
-512 1:0.8462 2:-0.00604 3:0.174667 4:0.4985 5:0.1972 6:-0.5476 7:0.2284 8:-0.984 
-512 1:-0.6 2:-0.56056 3:0.374333 4:-0.114 5:-0.3906 6:-0.686133 7:0.7466 8:0.177 
-512 1:0.0606 2:0.42212 3:-0.771667 4:0.35175 5:1 6:0.0376 7:0.504 8:-0.9728 
-512 1:-0.1428 2:-0.56056 3:-0.536333 4:0.197 5:0.3026 6:0.138133 7:0.6466 8:-0.9758 
-512 1:1 2:-1 3:-0.932 4:0.012 5:-0.6137 6:-0.504 7:0.54 8:-0.9536 
-270.8368097719487 1:-0.9948 2:-1 3:-0.546667 4:-0.00475 5:-0.9014 6:-0.4396 8:-0.9538 
-449.6470668866981 1:-0.9772 2:-1 3:-0.720667 4:0.1715 5:-0.3906 6:0.587733 7:0.12 8:-0.9182 
-512 1:-0.25 2:-0.56056 3:-0.0933333 4:0.35125 5:-0.2082 6:-0.108267 7:0.6266 8:-0.8836 
-512 1:-0.4348 2:0.02596 3:-0.48 4:0.34175 5:0.6391 6:-0.228533 7:0.2062 8:0.5214 
-512 1:1 2:0.34692 3:-0.439333 4:0.31925 5:0.7726 6:-0.3072 7:0.1636 8:-0.954 
-512 1:-0.3334 2:-1 3:0.213333 4:-0.294 5:-0.3906 6:-0.354933 7:0.92 8:-0.9722 
-512 1:0.8416 2:1 3:-0.0726667 4:0.02575 5:-0.2082 6:0.834667 7:0.3328 8:-0.9538 
-512 1:1 2:-0.56056 3:-0.873 4:0.1015 5:0.5649 6:-0.191467 7:0.1466 8:-0.9538 
-512 1:-0.3334 2:-1 3:-0.952 4:0.271 5:-0.3906 6:0.480267 7:0.68 8:-0.9572 
-512 1:-0.577 2:-0.04084 3:0.0176667 4:0.19975 5:-0.2082 6:0.121067 7:0.4022 8:0.2466 
-512 1:0.8948 2:0.15616 3:-0.305667 4:0.44225 5:0.6391 6:0.0166667 7:0.2876 8:-0.9536 
-512 1:1 2:-0.07896 3:-0.462667 4:-0.52725 5:-0.6137 6:-0.0350667 7:0.128 8:-0.963 
-512 1:0.931 2:0.61016 3:0.173 4:0.00225 5:0.9957 6:-0.433733 7:0.4076 8:-0.9532 
-512 1:0.6364 2:0.52268 3:0.234333 4:-0.18125 5:0.1972 6:0.264267 7:0.328 8:-0.9728 
-512 1:0.76 2:0.67588 3:-0.262667 4:-0.02825 5:0.8904 6:0.0694667 7:0.3214 8:-0.9602 
-512 2:-1 3:0.618 4:-0.39375 5:-0.6137 6:-0.4124 7:0.92 8:-0.9538 
-512 1:0.2 2:0.3986 3:-0.739667 4:0.24425 5:-0.3906 6:-0.2064 7:0.2852 8:0.7834 
-512 2:-1 3:0.0446667 4:0.39275 5:-0.6137 6:-0.00933333 7:0.8 8:-0.9566 
-512 1:-0.0624 2:0.08324 3:-0.872667 4:-0.03175 5:0.4849 6:-0.2684 7:0.5458 8:-0.9796 
-512 1:-0.0196 2:0.28756 3:-0.773667 4:0.24275 5:1 6:0.0252 7:0.3928 8:-0.9526 
-512 2:-1 3:-0.930667 4:0.4305 5:-0.3906 6:-0.0957333 7:0.4 8:-0.9628 
-512 1:-0.409 2:0.02596 3:0.180667 4:-0.2395 5:-0.0541 6:-0.5088 7:0.3954 8:0.44 
-431.8571724382131 2:-1 3:0.494333 4:0.6755 5:-0.9014 6:0.068 7:0.86 8:-0.9536 
-512 1:0.25 2:-0.35624 3:0.280667 4:0.469 5:-0.3906 6:0.287733 7:0.432 8:-0.963 
-512 1:-0.3636 2:-0.22164 3:0.148 4:0.35225 5:0.7726 6:-0.0745333 7:0.3886 8:0.3994 
-512 1:0.8 2:0.4334 3:-0.199333 4:0.1655 5:0.7726 6:0.0953333 7:0.4778 8:-0.876 
-512 1:-0.557 2:0.3986 3:-0.0803333 4:0.21825 5:0.6391 6:-0.210133 7:0.6696 8:-0.1068 
-512 1:0.7894 2:0.57272 3:-0.324 4:-0.30375 5:0.0794 6:0.0866667 7:0.2396 8:-0.5514 
-512 1:-0.6078 2:0.19828 3:0.0113333 4:0.09225 5:0.8332 6:-0.2844 7:0.5106 8:0.7644 
-496.2754691392357 1:1 2:-1 3:0.157333 4:0.06575 5:-0.0541 6:0.318267 7:0.22 8:-0.9592 
-512 1:-0.1428 2:-0.56056 3:0.443 4:0.3325 5:-0.2082 6:0.245333 7:0.5534 8:-0.9548 
-512 1:-0.1428 2:-0.56056 3:0.386 4:-0.0405 5:0.6391 6:-0.2036 7:0.7266 8:-0.9538 
-512 1:0.5264 2:0.34692 3:0.047 4:-0.0215 5:0.1972 6:0.0112 7:0.2978 8:-0.297 
-512 1:-0.3334 2:-0.72276 3:-0.436667 4:0.108 5:-0.2082 6:-0.2984 7:0.51 8:0.8728 
-512 1:0.024 2:0.66356 3:-0.578333 4:0.1825 5:0.3979 6:-0.348133 7:0.3218 8:0.662 
-512 1:-0.5 2:-1 3:0.409 4:0.627 5:-0.3906 6:-0.5296 7:0.72 8:-0.9538 
-512 1:0.5 2:-0.28328 3:-0.963333 4:0.447 5:-0.2082 6:-0.549733 7:0.2266 8:-0.7656 
-512 1:0.3334 2:0.05564 3:-0.942667 4:0.18475 5:0.3026 6:-0.0996 7:0.2662 8:0.9676 
-512 1:-0.1112 2:-0.44548 3:-0.304 4:0.128 5:0.0794 6:-0.5344 7:0.15 8:0.2128 
-512 1:-0.6 2:-1 3:-0.463667 4:-0.23775 5:0.0794 6:-0.238667 7:0.5 8:-0.9538 
-512 1:0.6868 2:0.6994 3:-0.423667 4:0.006 5:-0.0541 6:0.1084 7:0.3612 8:-0.7696 
-512 1:-0.7064 2:0.10904 3:-0.166667 4:-0.141 5:1 6:-0.190533 7:0.712 8:0.4864 
-512 1:-0.0526 2:-0.12112 3:0.622333 4:-0.23775 5:0.3979 6:-0.2624 7:0.6178 8:-0.958 
-512 1:0.3334 2:-0.07896 3:0.526333 4:-0.16975 5:-0.2082 6:0.143333 7:0.76 8:-0.9538 
-512 1:-0.25 2:-0.28328 3:-0.243333 4:0.207 5:0.0794 6:-0.471733 7:0.57 8:-0.8932 
-512 2:-1 3:0.263 4:0.02725 5:0.1972 6:-0.237067 7:0.4 8:-0.9536 
-512 1:0.3334 2:-0.72276 3:0.474 4:-0.05825 5:0.5649 6:-0.07 7:0.39 8:-1 
-512 1:0.647 2:0.33288 3:0.688333 4:0.20825 5:0.5649 6:-0.159467 7:0.345 8:-0.0698 
-512 1:0.647 2:0.05564 3:-0.666 4:0.16325 5:0.5649 6:-0.282133 7:0.2642 8:-0.953 
-512 1:-0.4054 2:-0.04084 3:0.0703333 4:0.25925 5:0.8332 6:-0.0682667 7:0.229 8:0.6068 
-512 1:1 2:0.08324 3:-0.414333 4:-0.017 5:0.7726 6:-0.0156 7:0.2216 8:-1 
-512 1:-0.2666 2:-0.04084 3:0.318667 4:-0.04175 5:1 6:-0.633733 7:0.4928 8:-0.9536 
-512 1:-0.6 2:-1 3:-0.603667 4:0.102 5:0.5649 6:-0.534133 7:0.5 8:-0.9736 
-512 2:-1 3:0.602333 4:0.11725 5:0.6391 6:-0.139067 7:0.82 8:-0.9538 
-512 2:-1 3:-0.202667 4:0.367 5:-0.6137 6:-0.476667 7:0.58 8:-0.958 
-512 1:-0.4074 2:-0.16824 3:0.125333 4:0.0445 5:0.4849 6:-0.3072 7:0.6286 8:0.5864 
-512 1:-0.5644 2:0.2364 3:-0.370667 4:-0.34625 5:0.9444 6:-0.230533 7:0.741 8:-0.6884 
-512 1:1 2:-0.35624 3:0.234667 4:0.2465 5:-0.3906 6:-0.00666667 7:0.376 8:-0.9536 
-512 1:0.2728 2:0.05564 3:-0.232333 4:0.30125 5:1 6:-0.2576 7:0.1646 8:0.871 
-512 1:1 2:-0.44548 3:-0.125333 4:0.377 5:0.4849 6:-0.180267 7:0.465 8:-0.9536 
-512 1:1 2:-1 3:0.437 4:0.298 5:0.3979 6:-0.149067 7:0.76 8:-0.9542 
-512 1:-0.375 2:-0.35624 3:0.323333 4:0.67025 5:0.0794 6:-0.4584 7:0.48 8:0.8022 
-512 1:0.8164 2:0.79544 3:0.196333 4:-0.33725 5:0.4849 6:0.4784 7:0.3386 8:0.6864 
-512 1:-0.992 2:-0.72276 3:0.069 4:-0.11275 5:-0.6137 6:0.103333 7:0.32 
-512 1:0.8148 2:0.99616 3:-0.589 4:-0.163 5:1 6:-0.171733 7:0.336 8:0.165 
-512 1:-0.1764 2:-0.22164 3:0.57 4:0.23 5:0.0794 6:0.2132 7:0.8572 8:-0.953 
-512 1:-0.3334 2:-0.56056 3:0.384 4:0.12925 5:-0.2082 6:-0.506267 7:0.7134 8:-0.9538 
-512 1:0.86 2:0.81304 3:0.733667 4:0.33775 5:0.3979 6:-0.0689333 7:0.3874 8:-0.8274 
-512 1:0.853 2:0.93452 3:-0.254333 4:-0.08525 5:0.9444 6:-0.199067 7:0.4586 8:0.7962 
-512 1:0.2 2:-0.56056 3:-0.434333 4:-0.06775 5:-0.3906 6:-0.00853333 7:0.4134 8:-0.96 
-512 1:1 2:-1 3:0.091 4:-0.0425 5:-0.9014 6:-0.0342667 7:0.52 8:-0.9538 
-512 1:1 2:0.34692 3:-0.287333 4:0.67075 5:0.7081 6:-0.305333 7:0.1836 8:-0.9538 
-512 1:-0.6364 2:0.2364 3:-0.226 4:0.007 5:0.9444 6:-0.4744 7:0.701 8:-0.1034 
-512 1:-0.234 2:0.15616 3:-0.349333 4:-0.553 5:-0.3906 6:0.360267 7:0.7858 8:0.2132 
-366.0514268119999 1:-0.0744 2:0.61016 3:-0.559333 4:-0.103 5:0.0794 6:0.523867 7:0.4762 8:-0.9838 
-512 1:-0.641 2:0.2178 3:-0.286333 4:0.08475 5:0.7081 6:-0.579333 7:0.709 8:0.3006 
-512 1:-0.4414 2:0.3736 3:-0.288333 4:0.11375 5:0.1972 6:-0.380533 7:0.6748 8:-0.1974 
-512 1:0.7096 2:0.58812 3:-0.392333 4:0.1665 5:0.8904 6:-0.2924 7:0.358 8:-0.4646 
-512 1:-0.3334 2:-1 3:0.766 4:-0.20825 5:0.7081 6:-0.1008 7:0.78 8:-0.9538 
-512 1:0.9234 2:1 3:-0.191 4:0.0415 5:1 6:-0.138533 7:0.3962 8:-0.12 
-167.9956055852584 1:-0.25 2:-0.56056 3:0.513667 4:0.654 5:-0.2082 6:-0.13 7:0.4334 8:-0.8884 
-512 1:-0.1578 2:-0.16824 3:0.701667 4:-0.7985 5:-0.6137 6:-0.5104 7:0.8658 8:0.9908 
-464.5424620086385 1:-0.9946 2:-1 3:-0.551667 4:-0.25225 5:-0.6137 6:0.836933 7:0.02 8:-0.9592 
-204.675006046955 1:-0.989 2:-0.72276 3:-0.184667 4:0.448 5:0.3979 6:-0.262667 7:0.26 
-25.72170732975226 1:-0.9968 2:-1 3:-0.319667 4:-0.09375 5:-0.9014 6:-0.28 7:0.06 8:-0.9538 
-512 1:-0.4634 2:0.2364 3:-0.855 4:-0.063 5:0.1972 6:-0.06 7:0.31 8:0.2104 
-512 1:0.759 2:0.7162 3:-0.133667 4:-0.125 5:1 6:-0.2256 7:0.3712 8:-0.9858 
-512 1:-0.3334 2:-1 3:0.293 4:0.21125 5:0.1972 6:-0.394933 7:0.94 8:-0.9534 
-512 1:0.625 2:0.02596 3:0.0996667 4:-0.12225 5:0.8332 6:0.0913333 7:0.391 8:-0.4992 
-512 1:-0.6206 2:0.2364 3:0.111 4:0.0135 5:0.4849 6:-0.301467 7:0.706 8:0.1314 
-512 2:-1 3:0.625333 4:0.081 5:-0.9014 6:-0.5276 7:0.62 8:-0.9538 
-512 1:-0.7142 2:-0.72276 3:-0.0936667 4:0.27275 5:0.3979 6:-0.3888 7:0.32 8:-0.491 
-512 1:0.9528 2:1 3:-0.124667 4:0.146 5:1 6:-0.0788 7:0.4908 8:0.8146 
-512 2:-0.72276 3:0.171333 4:0.492 5:0.3979 6:-0.598 7:0.46 8:-0.9822 
-512 1:1 2:0.2364 3:0.138333 4:0.0345 5:0.3026 6:-0.306 7:0.5314 8:-0.9638 
-512 1:-0.3334 2:-0.56056 3:-0.659 4:0.31175 5:0.4849 6:-0.1604 7:0.62 8:-0.9542 
-512 1:0.6666 2:-0.07896 3:-0.183667 4:0.3785 5:0.3979 6:0.0190667 7:0.244 8:-0.991 
-512 1:-0.3186 2:0.53144 3:-0.413 4:0.298 5:0.4849 6:-0.359733 7:0.3206 8:0.0398 
-512 1:-0.0962 2:0.64436 3:-0.427333 4:0.3 5:-0.0541 6:-0.211867 7:0.238 
-205.4760309845799 1:-0.5 2:-1 3:-0.759 4:0.374 5:-0.3906 6:0.269867 7:0.42 8:-0.954 
-302.8940542271004 1:-0.2 2:-0.72276 3:0.578333 4:0.27075 5:-0.3906 6:-0.252267 7:0.58 8:-0.954 
-512 1:-0.375 2:0.08324 3:0.197333 4:-0.0025 5:-0.2082 6:-0.408667 7:0.3454 8:0.565 
-512 1:0.7614 2:1 3:-0.306 4:0.288 5:1 6:-0.475333 7:0.3412 8:0.5926 
-512 1:0.9262 2:1 3:-0.158 4:0.152 5:0.8332 6:-0.2248 7:0.2326 8:0.8776 
-512 1:0.7518 2:0.915 3:-0.081 4:-0.01 5:0.9957 6:-0.321867 7:0.2042 8:0.355 
-512 1:-0.1428 2:-0.12112 3:-0.937667 4:-0.1855 5:0.3979 6:-0.233733 7:0.3956 8:0.5818 
-387.9550317837358 1:-0.9952 2:-1 3:-0.404667 4:0.63 5:-0.9014 6:-0.348 8:-0.9538 
-512 1:-0.6 2:-0.72276 3:-0.903 4:-0.08225 5:-0.3906 6:-0.5816 7:0.72 8:-0.3584 
-512 1:-0.2 2:-0.72276 3:0.522333 4:0.1915 5:0.3026 6:-0.296533 7:0.81 8:-0.9538 
-317.4251782161941 1:-0.9956 2:-1 3:-0.375667 4:0.128 5:-0.9014 6:0.0182667 7:0.04 8:-0.9538 
-512 1:0.68 2:0.2178 3:-0.968333 4:0.071 5:0.7726 6:0.182533 7:0.245 8:0.1376 
-512 1:1 2:-1 3:-0.001 4:-0.0745 5:0.0794 6:-0.307467 7:0.18 8:-0.9544 
-512 1:-0.4286 2:-0.72276 3:-0.567667 4:0.01825 5:0.5649 6:-0.0802667 7:0.65 8:-0.9576 
-327.0235617123598 1:-0.353 2:-0.04084 3:-0.490667 4:-0.04725 5:-0.3906 6:-0.474933 7:0.749 8:0.8392 
-512 1:-0.6666 2:-0.72276 3:-0.063 4:0.04825 5:0.3979 6:-0.320667 7:0.6 8:-0.3004 
-512 1:0.6966 2:1 3:-0.251 4:-0.0365 5:1 6:-0.306533 7:0.3622 8:0.8862 
-512 1:0.9716 2:0.9738 3:-0.003 4:0.2335 5:1 6:-0.0845333 7:0.5054 8:-0.9466 
-512 1:0.5556 2:0.05564 3:-0.327333 4:-0.18 5:0.8332 6:0.0217333 7:0.2636 8:-0.953 
-512 1:-0.08 2:0.2542 3:0.0803333 4:0.29225 5:0.8904 6:-0.4976 7:0.306 8:0.9056 
-512 1:1 2:-1 3:-0.036 4:0.28275 5:0.7081 6:-0.235867 7:0.56 8:-0.9538 
-512 1:-0.968 2:-0.04084 3:0.499667 4:0.21925 5:0.8332 6:-0.255467 7:0.84 8:0.7398 
-512 1:-0.3334 2:-0.72276 3:0.177333 4:0.00325 5:0.3026 6:-0.4596 7:0.69 8:-0.9946 
-512 1:0.0434 2:0.27124 3:-0.396333 4:-0.42725 5:-0.0541 6:-0.190533 7:0.1322 8:-0.1214 
-512 1:0.5384 2:0.19828 3:-0.873 4:0.2275 5:0.4849 6:-0.551733 7:0.41 8:-0.9748 
-512 1:0.8666 2:0.05564 3:-0.416 4:0.143 5:-0.0541 6:-0.0973333 7:0.1572 8:-0.9714 
-512 1:-0.2 2:-0.00604 3:0.374 4:0.06825 5:-0.6137 6:-0.226 7:0.2366 8:-0.522 
-512 1:0.913 2:0.2364 3:-0.266667 4:0.3015 5:0.9957 6:-0.2196 7:0.4584 8:0.4786 
-512 1:-0.2122 2:0.02596 3:0.00133333 4:0.346 5:0.6391 6:-0.502933 7:0.197 8:-0.0646 
-512 1:0.4286 2:0.6994 3:-0.856333 4:-0.26425 5:-0.6137 6:-0.212667 7:0.1992 8:-0.2596 
-454.5062844198501 1:-0.419 2:0.64436 3:0.164 4:0.0595 5:0.0794 6:-0.693333 7:0.4278 8:0.8192 
-512 2:-1 3:0.125667 4:0.164 5:0.3979 6:-0.2428 7:0.56 8:-0.982 
-512 1:0.7692 2:0.2542 3:-0.677667 4:-0.27525 5:0.7726 6:-0.0644 7:0.5506 8:-0.9538 
-445.509204544515 1:-0.3334 2:-1 3:0.465333 4:-0.388 5:-0.9014 6:-0.5796 7:0.68 8:-0.9538 
-512 1:0.5294 2:0.46544 3:-0.855333 4:0.4645 5:0.9957 6:-0.478533 7:0.278 8:0.788 
-512 1:0.8718 2:1 3:-0.507667 4:0.12725 5:1 6:0.0126667 7:0.3338 8:-0.9542 
-512 1:-0.2858 2:-0.07896 3:0.172 4:0.12725 5:0.7081 6:-0.343867 7:0.222 8:0.4932 
-512 1:-0.6 2:-0.44548 3:-0.915 4:0.60075 5:0.0794 6:-0.4792 7:0.675 8:0.5188 
-512 1:-0.1898 2:0.38628 3:-0.209333 4:-0.257 5:0.0794 6:0.530933 7:0.5046 8:-0.9536 
-512 2:-0.72276 3:0.0103333 4:0.0245 5:0.9444 6:-0.360667 7:0.32 8:-0.9564 
-512 1:0.6818 2:0.44436 3:0.418333 4:0.276 5:0.9957 6:-0.464267 7:0.5206 8:-0.951 
-512 2:-1 3:0.261333 4:-0.0275 5:0.9957 6:-0.1644 7:0.42 8:-0.9538 
-512 1:1 2:-0.56056 3:-0.351 4:0.34775 5:0.7726 6:-0.4104 7:0.2534 8:-0.9564 
-512 1:-0.1666 2:-0.35624 3:-0.255333 4:-0.1945 5:0.0794 6:-0.3708 7:0.472 8:-0.7554 
-512 1:-0.9958 2:-1 3:-0.067 4:-0.093 5:-0.9014 6:0.0044 7:0.04 8:-0.9538 
-512 1:-0.353 2:-0.04084 3:0.236 4:0.2755 5:0.7081 6:-0.257867 7:0.2236 8:-0.4536 
-512 1:-0.3334 2:-0.12112 3:-0.00166667 4:0.41025 5:0.3979 6:-0.302533 7:0.2156 8:0.5738 
-512 1:0.6364 2:-0.12112 3:-0.340667 4:0.10225 5:0.8904 6:-0.0445333 7:0.2044 8:-0.9732 
-512 1:-0.3334 2:-1 3:-0.877 4:0.1625 5:0.6391 6:-0.136533 7:0.64 8:-0.9566 
-512 2:-1 3:0.231 4:0.03375 5:0.1972 6:-0.413867 7:0.34 8:-0.9538 
-512 1:-0.3334 2:-1 3:0.109333 4:0.66725 5:-0.6137 6:-0.208 7:0.72 8:-0.9256 
-512 1:-0.2174 2:0.5956 3:-0.573333 4:-0.041 5:0.4849 6:0.0396 7:0.4494 8:0.8062 
-512 1:-0.2728 2:-0.00604 3:-0.216667 4:0.142 5:-0.9014 6:0.2476 7:0.685 8:0.7976 
-512 1:-0.6364 2:-0.28328 3:-0.173 4:0.33775 5:0.4849 6:-0.3624 7:0.6634 8:0.9688 
-512 1:-0.3334 2:-1 3:0.476333 4:-0.51075 5:-0.3906 6:-0.476533 7:0.56 8:-0.954 
-512 1:1 2:-1 3:0.450333 4:-0.164 5:-0.2082 6:-0.731733 7:0.56 8:-0.954 
-512 1:-0.2 2:0.19828 3:-0.188333 4:0.26225 5:0.0794 6:-0.3424 7:0.6878 8:0.502 
-512 1:0.7836 2:1 3:-0.0676667 4:0.1485 5:1 6:-0.3472 7:0.4486 8:-0.9544 
-512 1:-0.1476 2:0.74268 3:-0.403333 4:0.11825 5:-0.0541 6:-0.0808 7:0.4136 8:0.8234 
-512 1:0.762 2:0.44436 3:-0.0776667 4:0.12725 5:0.1972 6:0.0914667 7:0.2036 8:-0.9572 
-512 1:1 2:-1 3:0.305 4:0.3325 5:-0.3906 6:-0.486133 7:0.44 8:-0.9544 
-512 1:-0.3334 2:-0.56056 3:-0.111667 4:0.3405 5:-0.2082 6:-0.264933 7:0.6134 8:-0.8964 
-512 1:0.8032 2:0.60292 3:-0.673333 4:0.19025 5:0.8332 6:-0.244533 7:0.4182 8:-0.9866 
-202.6160344231455 1:-0.2 2:-0.72276 3:-0.161333 4:-0.1645 5:-0.0541 6:0.160933 7:0.39 8:-0.97 
-512 1:0.3334 2:-0.72276 3:0.574333 4:0.63475 5:-0.9014 6:-0.401333 7:0.6 8:-0.9576 
-512 1:1 2:-0.56056 3:0.200333 4:0.11825 5:0.4849 6:-0.0426667 7:0.32 8:-0.9946 
-512 1:-0.3044 2:-0.16824 3:0.197667 4:0.19575 5:0.4849 6:-0.155467 7:0.155 8:0.38 
-512 1:-0.25 2:-0.12112 3:-0.447333 4:0.159 5:0.4849 6:-0.224267 7:0.5444 8:-0.912 
-512 1:0.7972 2:0.92812 3:-0.25 4:0.1585 5:1 6:-0.218533 7:0.2686 8:-0.4988 
-512 1:-0.2904 2:0.3986 3:-0.159667 4:0.31425 5:0.4849 6:-0.259067 7:0.4514 8:0.9706 
-512 1:-0.1428 2:-0.56056 3:-0.035 4:-0.16725 5:-0.3906 6:0.236 7:0.64 8:-0.9538 
-512 1:0.577 2:0.48544 3:-0.312333 4:0.237 5:0.7726 6:-0.6332 7:0.3012 8:0.909 
-512 1:-0.3334 2:-1 3:-0.985 4:0.227 5:0.0794 6:0.575333 7:0.08 8:-0.9544 
-512 1:0.85 2:0.8838 3:0.027 4:0.30175 5:0.4849 6:-0.1524 7:0.4414 8:-1 
-512 1:-0.871 2:-0.28328 3:-0.084 4:0.2945 5:-0.0541 6:0.507867 7:0.3666 8:-0.1542 
-512 1:0.837 2:1 3:-0.401667 4:0.338 5:1 6:-0.2748 7:0.2282 8:0.543 
-512 1:-0.5 2:-0.72276 3:0.373333 4:0.35575 5:0.4849 6:-0.00306667 7:0.42 8:-0.2318 
-512 1:-0.5 2:-1 3:0.178 4:0.2215 5:0.4849 6:-0.337067 7:0.82 8:-0.9562 
-512 1:0.3256 2:0.61724 3:-0.442667 4:0.3875 5:0.9957 6:-0.101333 7:0.3972 8:-1 
-1.035836234616221 1:-0.9958 2:-1 3:-0.391667 4:0.0505 5:-0.9014 6:-0.525733 7:0.02 8:-0.9538 
-493.889639340313 1:-0.463 2:0.34692 3:-0.393 4:-0.14375 5:0.6391 6:-0.228533 7:0.5682 8:-0.5744 
-512 1:0.6 2:0.33288 3:-0.522333 4:0.06125 5:0.3979 6:-0.259067 7:0.305 8:-0.9538 
-512 1:0.125 2:-0.12112 3:-0.564667 4:-0.1935 5:0.0794 6:0.00146667 7:0.2874 8:0.7298 
-512 1:1 2:-1 3:-0.376 4:0.387 5:-0.9014 6:-0.337733 7:0.78 8:-0.988 
-512 1:-0.9368 2:-0.56056 3:-0.0616667 4:0.11975 5:0.8904 6:-0.410933 7:0.4466 8:0.5716 
-512 1:0.6642 2:0.87652 3:-0.512333 4:0.176 5:0.8904 6:-0.2828 7:0.2438 8:0.9704 
-512 1:0.6578 2:0.65724 3:0.444667 4:0.20175 5:1 6:-0.439067 7:0.2316 8:0.2932 
-512 1:0.75 2:-0.22164 3:-0.214 4:0.64725 5:-0.3906 6:-0.330667 7:0.34 8:-1 
-512 1:-0.3334 2:-1 3:-0.306 4:-0.2895 5:0.3026 6:-0.1664 7:0.34 8:-0.9772 
-512 1:1 2:-1 3:0.082 4:0.46025 5:-0.6137 6:-0.413333 7:0.7 8:-0.9538 
-512 1:-0.5238 2:-0.35624 3:0.111333 4:0.4025 5:0.4849 6:0.328267 7:0.75 8:-0.777 
-165.0333422372084 1:-0.9906 2:-0.72276 3:0.703 4:-0.31 5:-0.9014 6:-0.424 7:0.11 8:0.797 
-512 1:-0.7648 2:-0.72276 3:-0.195667 4:-0.4025 5:-0.9014 6:-0.120933 7:0.41 8:0.7338 
-512 1:-0.647 2:-0.56056 3:-0.174 4:-0.52475 5:-0.3906 6:0.0493333 7:0.4066 8:0.8738 
-512 1:0.6 2:-0.44548 3:0.313333 4:-0.6905 5:-0.6137 6:0.326267 7:0.26 8:-0.8496 
-512 1:-0.25 2:-0.56056 3:-0.426333 4:0.19025 5:0.7081 6:-0.462267 7:0.2134 8:0.4866 
-512 1:0.4444 2:0.02596 3:0.153333 4:0.12125 5:-0.2082 6:0.375333 7:0.21 8:-0.874 
-512 1:0.037 2:0.05564 3:-0.475 4:0.215 5:0.8904 6:-0.0344 7:0.6314 8:-0.9732 
-512 1:1 2:0.05564 3:0.0313333 4:-0.1665 5:0.5649 6:-0.4596 7:0.422 8:-0.98 
-512 1:-0.5 2:-1 3:-0.583667 4:0.57225 5:0.0794 6:-0.134 7:0.76 8:-0.9554 
-454.1701514438824 1:-0.9808 2:-1 3:0.824333 4:-0.049 5:-0.6137 6:-0.610267 7:0.2 8:-0.9538 
-512 2:-0.12112 3:-0.363667 4:0.036 5:0.7081 6:-0.212933 7:0.6066 8:-0.8324 
-512 1:0.8884 2:1 3:0.32 4:0.21725 5:0.8904 6:-0.3252 7:0.4362 8:0.751 
-512 1:0.0526 2:0.47556 3:-0.804667 4:0.409 5:1 6:0.0877333 7:0.4804 8:-0.974 
-512 1:-0.9 2:-0.72276 3:0.499 4:0.457 5:-0.6137 6:-0.0713333 7:0.68 8:0.086 
-512 1:0.9148 2:0.79992 3:-0.545333 4:0.29925 5:1 6:-0.2004 7:0.4388 8:-0.9924 
-512 1:1 2:-1 3:-0.928 4:0.299 5:0.9444 6:-0.4284 7:0.24 8:-0.9548 
-512 1:-0.434 2:0.36048 3:0.619667 4:0.03825 5:-0.0541 6:-0.569867 7:0.738 8:-0.2262 
-512 1:0.3334 2:-0.00604 3:-0.797333 4:-0.4225 5:0.1972 6:0.161467 7:0.2134 8:-0.9526 
-512 1:0.3438 2:0.50448 3:-0.550333 4:0.105 5:0.0794 6:-0.5352 7:0.3496 8:-0.9538 
-512 2:-1 3:0.227333 4:0.148 5:-0.3906 6:-0.576 7:0.8 8:-0.9538 
-512 1:-0.3636 2:-0.22164 3:0.252667 4:0.21125 5:0.7726 6:-0.0586667 7:0.3514 8:0.2096 
-512 1:-0.2 2:-0.44548 3:0.302333 4:0.29 5:0.0794 6:-0.162933 7:0.565 8:-0.9634 
-512 1:1 2:-0.35624 3:-0.332667 4:0.17025 5:0.7081 6:-0.239467 7:0.356 8:-0.8302 
-512 1:0.3334 2:-0.72276 3:0.612667 4:0.2325 5:0.4849 6:-0.0266667 7:0.65 8:-0.9638 
-512 1:0.7648 2:0.36048 3:0.0736667 4:-0.051 5:0.5649 6:-0.365067 7:0.2042 8:-0.7196 
-512 1:-0.9488 2:-1 3:-0.101 4:0.58575 5:-0.6137 6:-0.340667 7:0.18 8:-0.8854 
-512 1:0.5136 2:0.8874 3:0.674 4:0.20825 5:0.5649 6:0.146533 7:0.6076 8:-0.9634 
-512 1:-0.3824 2:0.2178 3:0.401667 4:-0.243 5:0.0794 6:-0.336133 7:0.518 8:0.629 
-512 1:0.7142 2:0.49508 3:0.278667 4:-0.1195 5:0.4849 6:0.430533 7:0.3934 8:-0.9536 
-512 1:0.6924 2:0.2364 3:-0.682333 4:0.14175 5:0.5649 6:-0.568 7:0.3876 8:-0.9518 
-512 2:-1 3:0.195333 4:0.3005 5:-0.0541 6:0.0178667 7:0.4 8:-0.9538 
-512 2:-1 3:0.231 4:0.66375 5:-0.0541 6:-0.2788 7:0.56 8:-0.9538 
-512 2:-0.72276 3:0.729667 4:0.5325 5:-0.6137 6:-0.488667 7:0.76 8:-0.9536 
-512 1:1 2:-0.72276 3:0.068 4:0.08625 5:-0.2082 6:-0.375333 7:0.28 8:-0.6606 
-512 2:-0.72276 3:-0.279667 4:0.35525 5:0.3979 6:-0.617867 7:0.41 8:-0.9474 
-512 1:-0.9704 2:-0.72276 3:0.0823333 4:0.51475 5:-0.3906 6:-0.0106667 7:0.2 8:-0.1934 
-512 1:0.7894 2:0.77708 3:-0.344 4:0.20175 5:0.9957 6:-0.471067 7:0.2644 8:-0.8434 
-512 1:0.7248 2:0.81732 3:0.220667 4:0.13625 5:1 6:-0.572933 7:0.3128 8:0.8708 
-512 1:-0.3514 2:-0.00604 3:0.401333 4:0.2205 5:0.8904 6:-0.575467 7:0.6584 8:-0.9538 
-512 1:1 2:-1 3:0.1 4:0.44275 5:0.4849 6:-0.323067 7:0.26 8:-0.9622 
-512 1:1 2:-0.00604 3:0.160333 4:0.16125 5:0.7726 6:0.150533 7:0.4886 8:0.4716 
-512 1:0.6 2:-0.00604 3:0.164667 4:0.14275 5:0.8904 6:0.0904 7:0.5314 8:-0.9928 
-512 1:0.4444 2:0.02596 3:-0.805667 4:0.157 5:0.7081 6:-0.332533 7:0.428 8:-0.9534 
-512 1:0.6666 2:0.7528 3:-0.580667 4:-0.24775 5:0.3026 6:0.116933 7:0.293 8:-0.5194 
-303.8704884192545 1:-0.9974 2:-1 3:-0.429667 4:-0.45925 5:-0.9014 6:-0.939067 8:-0.9572 
-512 1:0.721 2:0.44436 3:0.123333 4:-0.03375 5:0.8904 6:-0.427867 7:0.1616 8:-0.572 
-512 1:0.8718 2:0.7162 3:0.0656667 4:0.15625 5:0.8904 6:-0.00293333 7:0.4232 8:-1 
-512 1:-0.6698 2:0.15616 3:0.16 4:0.21725 5:0.7081 6:-0.406267 7:0.43 8:0.7492 
-512 1:-0.6032 2:0.28756 3:-0.432667 4:0.06275 5:0.5649 6:-0.0933333 7:0.62 8:-0.1092 
-512 1:-0.2196 2:0.38628 3:0.323667 4:0.41475 5:0.4849 6:-0.1436 7:0.7388 8:-0.954 
-85.56052758055414 1:-0.3334 2:-1 3:0.029 4:0.3455 5:-0.9014 6:1 7:0.44 8:-0.9552 
-512 1:-0.4814 2:-0.22164 3:0.072 4:0.131 5:0.3979 6:-0.1976 7:0.7566 8:0.7294 
-512 1:-0.3334 2:-1 3:0.352667 4:0.21125 5:-0.6137 6:-0.560933 7:0.5 8:-0.9538 
-512 1:0.7242 2:0.5648 3:0.414667 4:0.04425 5:0.3026 6:-0.371067 7:0.3216 8:-0.9534 
-512 1:-0.9758 2:-0.72276 3:0.460333 4:0.24725 5:-0.2082 6:-0.3224 7:0.38 8:0.2642 
-512 1:0.0424 2:0.78172 3:0.104333 4:0.00625 5:0.6391 6:0.123467 7:0.3258 8:0.7242 
-512 2:-1 3:-0.325 4:0.35775 5:-0.0541 6:-0.0822667 7:0.42 8:-0.954 
-318.3111667598408 1:-0.7772 2:0.46544 3:-0.144 4:0.373 5:0.4849 6:-0.379733 7:0.1222 8:0.988 
-512 1:-0.5 2:-1 3:0.042 4:-0.35975 5:-0.3906 6:0.242933 7:0.66 8:-0.9544 
-512 1:-0.9682 2:-0.72276 3:-0.388667 4:0.44175 5:-0.3906 6:0.1248 7:0.26 8:0.9082 
-512 1:0.7568 2:0.947 3:-0.813 4:-0.15325 5:-0.0541 6:0.150133 7:0.256 8:-0.9538 
-512 1:-0.3334 2:-1 3:0.0136667 4:0.03025 5:0.3026 6:-0.138533 7:0.46 8:-0.9536 
-512 1:1 2:-0.28328 3:0.284333 4:-0.1255 5:0.0794 6:0.2292 7:0.37 8:-0.995 
-479.7962819401304 1:-0.7142 2:-0.35624 3:-0.736667 4:0.3405 5:0.3026 6:-0.156933 7:0.336 8:-0.235 
-370.7913833523391 1:0.862 2:0.87284 3:0.334333 4:-0.21225 5:0.3979 6:0.4128 7:0.3096 8:-0.955 
-512 1:1 2:-1 3:-0.932667 4:-0.223 5:-0.6137 6:-0.252667 7:0.26 8:-0.9538 
-512 1:0.6924 2:0.2364 3:-0.730667 4:0.15975 5:0.3979 6:-0.1988 7:0.3896 8:-0.9492 
-512 1:1 2:-1 3:-0.035 4:0.28425 5:-0.2082 6:-0.678667 7:0.46 8:-0.9538 
-512 1:1 2:-0.56056 3:-0.531667 4:-0.05725 5:-0.3906 6:-0.2048 7:0.2734 8:-0.9536 
-512 1:-0.5 2:-1 3:-0.619 4:0.6195 5:0.0794 6:-0.196533 7:0.86 8:-0.9554 
-512 1:0.25 2:-0.35624 3:-0.698333 4:0.33225 5:-0.2082 6:-0.3956 7:0.5 8:-0.9536 
-512 2:-1 3:-0.731667 4:0.1235 5:-0.9014 6:-0.537333 7:0.86 8:-0.9536 
-512 1:0.75 2:0.2178 3:-0.242667 4:0.0225 5:0.7081 6:-0.0593333 7:0.317 8:-0.8408 
-512 1:-0.2 2:-0.44548 3:-0.00533333 4:0.16025 5:0.3026 6:-0.494667 7:0.665 8:-0.941 
-512 1:-0.1 2:-0.12112 3:0.178 4:0.058 5:0.8332 6:-0.154 7:0.5934 8:-0.9756 
-104.3767517555119 1:-0.997 2:-1 3:0.755333 4:0.14325 5:-0.6137 6:-0.505067 7:0.08 8:-0.9538 
-512 1:-0.9958 2:-1 3:-0.0723333 4:-0.357 5:-0.9014 6:0.102667 7:0.06 8:-0.9538 
-512 1:1 2:-1 3:-0.932333 4:-0.03625 5:-0.6137 6:0.500667 7:0.28 8:-0.9546 
-512 1:-0.0556 2:0.13328 3:-0.458 4:0.0345 5:0.3026 6:-0.4692 7:0.228 8:-0.2956 
-512 1:-0.103 2:0.64436 3:-0.552333 4:0.16125 5:0.5649 6:-0.219333 7:0.371 8:0.7154 
-512 1:0.6962 2:0.68188 3:0.461667 4:0.07875 5:0.8332 6:-0.0530667 7:0.3568 8:0.0918 
-224.7163195550666 1:-0.995 2:-1 3:-0.224 4:0.66325 5:-0.9014 6:0.0186667 8:-0.9536 
-512 1:-0.9962 2:-1 3:-0.248667 4:0.33675 5:-0.9014 6:-0.164 8:-0.9538 
-512 1:-0.6 2:-1 3:0.117333 4:-0.266 5:-0.2082 6:-0.378267 7:0.5 8:-0.9538 
-512 1:-0.5384 2:0.31832 3:-0.0636667 4:0.10775 5:0.9444 6:-0.3488 7:0.3284 8:-0.35 
-512 2:-1 3:-0.832333 4:0.14375 5:0.6391 6:-0.175067 7:0.22 8:-0.969 
-512 1:-0.983 2:-0.72276 3:-0.168333 4:-0.04525 5:0.0794 6:-0.0454667 7:0.27 8:-0.079 
-512 2:-1 3:-0.693667 4:0.4325 5:-0.6137 6:0.4944 7:0.1 8:-0.954 
-512 2:-1 3:-0.903333 4:0.52325 5:0.3979 6:-0.585867 7:0.26 8:-0.954 
-512 1:-0.9016 2:-0.56056 3:-0.921667 4:0.23 5:0.7081 6:-0.337467 7:0.4266 8:0.6888 
-512 1:-0.1686 2:0.44436 3:-0.502333 4:0.1795 5:0.7081 6:-0.158667 7:0.4846 8:-0.2876 
-512 1:0.1112 2:-0.35624 3:-0.0916667 4:-0.20925 5:0.3979 6:-0.181067 7:0.52 8:-0.9876 
-512 1:0.1904 2:0.28756 3:0.184333 4:0.159 5:0.9957 6:-0.448533 7:0.32 8:-0.1466 
-100.8152491670712 1:-0.5724 2:0.90828 3:0.128333 4:0.12425 5:0.0794 6:0.4412 7:0.4376 8:-0.4844 
-512 1:-0.5 2:-1 3:-0.285333 4:0.46375 5:0.3026 6:-0.567333 7:0.8 8:-0.9558 
-512 1:-0.375 2:-0.35624 3:-0.827333 4:-0.01075 5:0.6391 6:-0.458933 7:0.248 8:0.8596 
-512 1:0.5142 2:0.58812 3:0.101667 4:0.30825 5:0.6391 6:-0.131867 7:0.2674 8:0.9488 
-512 1:-0.0244 2:0.19828 3:-0.139 4:-0.93825 5:-0.9014 6:0.576 7:0.1578 8:0.8766 
-512 1:-0.1708 2:0.13328 3:-0.139667 4:0.09925 5:-0.6137 6:0.49 7:0.1462 8:0.4118 
-512 1:-0.3334 2:-1 3:0.741667 4:-0.20575 5:0.3979 6:0.0072 7:0.9 8:-0.9538 
-512 1:0.054 2:0.46544 3:-0.476333 4:0.29725 5:1 6:-0.0597333 7:0.4928 8:-0.9698 
-512 1:0.9354 2:0.36048 3:-0.0196667 4:0.18725 5:0.7081 6:-0.183067 7:0.4968 8:0.824 
-512 1:0.6 2:-0.44548 3:0.501667 4:0.43775 5:0.3026 6:0.231333 7:0.515 8:-0.9538 
-512 1:1 2:-1 3:-0.420667 4:0.411 5:-0.2082 6:-0.00493333 7:0.52 8:-0.9536 
-512 1:-0.125 2:-0.22164 3:0.433333 4:-0.5785 5:-0.3906 6:0.4136 7:0.65 8:-0.943 
-512 1:0.3684 2:0.85776 3:-0.314 4:0.13525 5:0.3979 6:-0.267733 7:0.3618 8:-0.9618 
-486.9328076644812 1:-0.923 2:-0.72276 3:0.535667 4:0.15 5:-0.9014 6:-0.330667 7:0.74 8:0.983 
-512 1:-0.9284 2:-0.07896 3:0.0213333 4:-0.353 5:0.4849 6:0.338267 7:0.5734 8:0.88 
-512 1:-0.6522 2:-0.44548 3:-0.149333 4:0.22775 5:0.6391 6:-0.2884 7:0.6866 8:-0.6096 
-512 1:-0.5 2:-1 3:0.427 4:-0.456 5:-0.6137 6:-0.588933 7:0.62 8:-0.9592 
-512 2:-1 3:-0.796 4:-0.40975 5:-0.9014 6:0.0110667 7:0.64 8:-0.9544 
-512 1:-0.983 2:-1 3:0.860333 4:-0.45425 5:-0.6137 6:0.276 7:0.12 8:-0.954 
-512 1:-0.3428 2:0.2542 3:0.011 4:-0.40475 5:-0.0541 6:-0.157733 7:0.2248 8:-0.1542 
-512 1:0.85 2:0.72164 3:-0.632667 4:0.09325 5:1 6:-0.225467 7:0.4338 8:-0.9232 
-512 1:-0.1112 2:0.19828 3:0.408667 4:-0.07625 5:0.5649 6:0.6424 7:0.593 8:-0.9928 
-512 1:0.647 2:0.61016 3:0.536333 4:0.418 5:0.6391 6:0.636533 7:0.2432 8:-0.8076 
-512 1:0.8954 2:1 3:0.429 4:0.38425 5:1 6:-0.212 7:0.5204 8:0.9142 
-512 1:-0.394 2:-0.07896 3:-0.146667 4:0.3505 5:0.7726 6:-0.0502667 7:0.23 8:0.8596 
-512 1:-0.4736 2:0.19828 3:0.314 4:-0.03425 5:0.3979 6:0.288667 7:0.2 8:0.951 
-512 1:0.6272 2:0.54848 3:-0.914 4:-0.8145 5:-0.6137 6:0.282667 7:0.2 8:-0.5734 
-512 1:1 2:0.38628 3:0.286 4:0.06775 5:0.8904 6:-0.182267 7:0.49 8:-0.9542 
-126.2989404594163 1:-0.6666 2:-1 3:0.433333 4:0.29 5:-0.3906 6:-0.790667 7:0.76 8:-0.9538 
-512 1:0.8824 2:0.82572 3:0.357667 4:0.09625 5:0.1972 6:-0.299867 7:0.38 8:-0.9536 
-512 1:0.6666 2:-0.35624 3:-0.910333 4:0.001 5:0.0794 6:0.0669333 7:0.356 8:-0.986 
-512 1:-0.4492 2:0.17776 3:0.0703333 4:0.215 5:-0.0541 6:-0.236933 7:0.2758 8:0.6756 
-136.6500644837256 1:0.6666 2:-0.35624 3:0.062 4:-0.41175 5:0.1972 6:-0.391867 7:0.14 8:-0.985 
-512 1:0.2 2:-0.56056 3:-0.572333 4:0.51775 5:-0.0541 6:0.597733 7:0.2934 8:-1 
-512 1:0.9524 2:0.48544 3:0.0796667 4:0.24125 5:0.5649 6:-0.319867 7:0.3816 8:-0.9794 
-512 1:0.7142 2:-0.28328 3:0.439 4:0.25225 5:-0.6137 6:0.61 7:0.73 8:-0.9536 
-512 1:0.8462 2:0.27124 3:-0.274 4:-0.06875 5:0.3026 6:-0.410133 7:0.3052 8:-0.9506 
-512 1:1 2:-1 3:-0.341 4:0.37125 5:0.3979 6:-0.388 7:0.48 8:-0.9284 
-512 1:0.494 2:0.92812 3:0.483333 4:-0.0675 5:0.7081 6:0.249067 7:0.5522 8:-0.964 
-512 1:-0.6666 2:-1 3:0.695667 4:0.3605 5:-0.2082 6:-0.5444 7:0.56 8:-0.954 
-119.1669475086836 1:-0.5 2:-0.72276 3:0.677 4:0.4295 5:0.0794 6:-0.583333 7:0.69 8:-0.9536 
-202.5499685873417 1:-0.1464 2:0.42212 3:0.132667 4:0.172 5:0.8332 6:0.0514667 7:0.5642 8:-0.97 
-512 1:-0.2858 2:-0.35624 3:-0.951 4:0.446 5:0.1972 6:-0.278667 7:0.315 8:0.6806 
-512 1:0.3914 2:0.10904 3:0.0403333 4:-0.23975 5:-0.2082 6:0.1164 7:0.14 8:-0.4202 
-512 1:-0.3334 2:-1 3:0.167 4:0.387 5:0.0794 6:-0.3336 7:0.74 8:-0.959 
-512 1:0.7426 2:1 3:-0.420333 4:0.0065 5:1 6:-0.155867 7:0.3116 8:-0.3978 
-512 1:0.7858 2:0.28756 3:0.118 4:0.04 5:0.7726 6:-0.0644 7:0.6482 8:0.0372 
-512 1:-0.3334 2:-1 3:-0.928333 4:-0.43725 5:-0.3906 6:-0.706667 7:0.5 8:-0.9538 
-512 1:0.6494 2:0.7528 3:0.669333 4:0.35075 5:0.9957 6:-0.285067 7:0.3836 8:0.8124 
-512 1:0.2666 2:0.17776 3:-0.382333 4:0.2325 5:0.8332 6:-0.271467 7:0.1748 8:0.0658 
-512 1:-0.8 2:-0.72276 3:-0.107333 4:-0.17375 5:-0.0541 6:-0.227467 7:0.14 8:-0.4962 
-26.24005680660262 2:-1 3:-0.863667 4:-0.1095 5:-0.9014 6:0.264933 7:0.32 8:-0.9546 
-512 1:0.5 2:-0.56056 3:-0.847667 4:0.57875 5:-0.6137 6:0.215733 7:0.5466 8:-0.9782 
-512 1:-0.4546 2:-0.12112 3:0.294333 4:0.214 5:-0.3906 6:-0.546933 7:0.135 8:0.7876 
-512 1:-0.1112 2:-0.44548 3:0.173667 4:0.24825 5:0.0794 6:-0.501867 7:0.6 8:-0.952 
-512 1:-0.4286 2:-0.72276 3:-0.580667 4:0.23875 5:-0.3906 6:0.716267 7:0.33 8:-0.9538 
-512 1:1 2:-0.72276 3:-0.243 4:0.36175 5:-0.3906 6:0.0549333 7:0.31 8:-0.9568 
-512 1:-0.25 2:-0.12112 3:0.370333 4:0.325 5:0.8332 6:0.1104 7:0.7512 8:-0.9646 
-512 1:1 2:-0.56056 3:0.416667 4:0.544 5:0.5649 6:0.0702667 7:0.42 8:-0.988 
-512 1:0.917 2:1 3:0.637333 4:0.09625 5:0.8332 6:-0.1208 7:0.5728 8:-0.9714 
-512 1:-0.5 2:-0.28328 3:-0.0566667 4:-0.0325 5:0.7081 6:-0.150267 7:0.66 8:-0.2772 
-512 1:-0.9166 2:-0.56056 3:0.430667 4:0.35725 5:0.3026 6:0.0781333 7:0.5266 8:-0.3914 
-512 1:-0.2858 2:-0.35624 3:-0.949667 4:0.4265 5:0.1972 6:0.0257333 7:0.665 8:0.858 
-512 1:0.4 2:0.2178 3:0.640667 4:0.2125 5:0.3026 6:-0.6116 7:0.3526 8:-0.7922 
-512 1:-0.5 2:-1 3:-0.521 4:0.571 5:0.0794 6:-0.159733 7:0.88 8:-0.9554 
-512 1:0.5384 2:-0.07896 3:0.246 4:0.34575 5:0.6391 6:-0.396 7:0.534 8:-0.942 
-512 1:-0.9926 2:-1 3:-0.957 4:0.14325 5:-0.2082 6:-0.917733 7:0.12 8:-0.9538 
-512 1:-0.4286 2:-0.72276 3:-0.154333 4:0.01775 5:-0.2082 6:-0.172933 7:0.44 8:0.1766 
-512 1:-0.8182 2:-1 3:-0.923333 4:0.2625 5:-0.9014 6:-0.574667 7:0.04 8:-0.8314 
-512 1:1 2:-0.07896 3:0.341333 4:0.44375 5:0.6391 6:-0.137333 7:0.516 8:-0.858 
-512 1:1 2:-0.56056 3:-0.980333 4:0.18225 5:0.6391 6:-0.0890667 7:0.5134 8:-0.9542 
-512 2:-1 3:0.434 4:-0.00175 5:0.7726 6:-0.3768 7:0.36 8:-0.9538 
-512 1:1 2:-0.28328 3:0.551333 4:0.31725 5:0.0794 6:-0.605867 7:0.2266 8:0.5244 
-512 1:-0.5 2:-1 3:0.731 4:0.25075 5:-0.2082 6:-0.579733 7:0.44 8:-0.9544 
-512 1:0.891 2:0.58048 3:0.0476667 4:-0.16425 5:0.3979 6:-0.186533 7:0.1958 8:0.7644 
-512 1:0.8064 2:0.33288 3:-0.114 4:0.185 5:0.6391 6:-0.329333 7:0.1664 8:-0.6546 
-512 1:0.8914 2:1 3:0.0583333 4:0.12325 5:1 6:-0.170267 7:0.6826 8:-0.9548 
-512 2:-1 3:0.39 4:-0.80925 5:-0.3906 6:-0.175733 7:0.44 8:-0.9574 
-512 1:-0.7778 2:-0.72276 3:0.451333 4:0.38925 5:-0.9014 6:0.032 7:0.74 8:0.6582 
-347.233944482171 1:-0.6666 2:-1 3:-0.519 4:-0.03875 5:0.1972 6:-0.3132 7:0.74 8:-0.9574 
-35.0936284885079 1:-0.9428 2:-0.44548 3:-0.087 4:0.65775 5:-0.9014 6:0.7724 7:0.195 8:0.5704 
-512 1:-0.3334 2:-0.44548 3:0.102333 4:0.11475 5:0.6391 6:-0.435467 7:0.645 8:0.9154 
-402.3667644698533 1:-0.9912 2:-1 3:-0.835333 4:0.05775 5:-0.9014 6:-0.972 7:0.04 8:-0.9582 
-512 1:-0.9968 2:-1 3:-0.31 4:0.08325 5:-0.9014 6:-0.106267 7:0.04 8:-0.9538 
-512 1:0.884 2:0.66976 3:-0.245 4:0.0095 5:1 6:-0.0654667 7:0.314 8:-1 
-512 1:1 2:-1 3:0.164 4:-0.05525 5:-0.9014 6:-0.0217333 7:0.7 8:-0.9558 
-512 1:0.2 2:0.36048 3:0.237333 4:0.16675 5:0.9957 6:-0.0952 7:0.264 8:0.831 
-512 1:0.3334 2:-0.72276 3:-0.102 4:0.2125 5:-0.3906 6:-0.406133 7:0.36 8:-0.9558 
-512 1:1 2:-1 3:-0.0186667 4:-0.0565 5:-0.9014 6:0.3556 7:0.4 8:-0.9536 
-512 2:-0.56056 3:0.0176667 4:0.3445 5:0.7726 6:-0.3692 7:0.4334 8:-0.9536 
-512 2:-0.56056 3:-0.0113333 4:0.4015 5:0.4849 6:-0.209733 7:0.44 8:-0.9536 
-512 1:0.75 2:0.61016 3:0.256667 4:0.10525 5:1 6:-0.105333 7:0.2558 8:-0.0324 
-512 1:0.3334 2:-0.72276 3:-0.357333 4:0.29675 5:0.3979 6:0.0528 7:0.3 8:-0.9534 
-512 1:0.8696 2:0.50448 3:0.009 4:0.10175 5:1 6:-0.4392 7:0.3534 8:-1 
-192.1793509799414 1:-0.5 2:-1 3:-0.572333 4:0.221 5:-0.6137 6:-0.987333 7:0.92 8:-0.9562 
-512 1:0.4594 2:0.31832 3:-0.319 4:-0.0135 5:1 6:-0.190533 7:0.2184 8:0.297 
-512 1:0.6 2:0.38628 3:-0.721 4:-0.22175 5:0.4849 6:0.1036 7:0.3234 8:-0.7376 
-512 1:0.4854 2:0.93768 3:-0.453333 4:-0.086 5:0.7726 6:-0.195867 7:0.4144 8:-0.9586 
-512 2:-1 3:-0.779667 4:0.1705 5:0.3026 6:-0.305467 7:0.38 8:-0.9764 
-512 1:0.753 2:1 3:-0.529333 4:0.079 5:1 6:-0.0704 7:0.4012 8:0.6212 
-512 1:0.8878 2:1 3:-0.281333 4:0.118 5:1 6:-0.00346667 7:0.3402 8:-0.9228 
-512 2:-0.56056 3:0.432333 4:0.134 5:0.3979 6:0.0209333 7:0.8334 8:-0.9666 
-512 1:-0.5 2:-0.72276 3:-0.458 4:0.1385 5:0.7081 6:-0.2188 7:0.75 8:-0.9538 
-512 2:-1 3:-0.538667 4:0.0895 5:0.3026 6:-0.361333 7:0.28 8:-0.9538 
-512 2:-1 3:-0.602333 4:-0.41 5:-0.9014 6:-0.257733 7:0.62 8:-0.9666 
-484.285489945838 1:0.8322 2:1 3:0.162 4:0.21975 5:0.9957 6:0.576533 7:0.39 8:-0.954 
-512 1:0.9454 2:1 3:0.523333 4:0.131 5:0.7726 6:-0.192533 7:0.5594 8:-0.879 
-512 1:0.913 2:0.67588 3:0.194667 4:0.26925 5:0.6391 6:-0.504533 7:0.5582 8:-0.959 
-512 1:1 2:0.42212 3:0.0773333 4:0.07175 5:0.9957 6:-0.0576 7:0.5682 8:-0.2402 
-512 1:0.8598 2:1 3:0.136 4:0.0605 5:1 6:-0.266133 7:0.4918 8:-0.9854 
-512 1:-0.3334 2:-1 3:0.369 4:0.279 5:-0.2082 6:-0.4336 7:0.7 8:-0.954 
-512 1:0.5556 2:-0.22164 3:0.354667 4:0.5335 5:-0.6137 6:0.902933 7:0.22 8:-0.8872 
-512 2:-0.72276 3:0.532 4:0.1785 5:-0.9014 6:0.146667 7:0.84 8:-0.5922 
-512 1:-0.5 2:-1 3:0.381667 4:0.5145 5:-0.2082 6:-0.407733 7:0.72 8:-0.9548 
-512 1:-0.5 2:-1 3:0.381667 4:0.36 5:-0.0541 6:-0.2916 7:0.72 8:-0.9548 
-512 1:-0.1438 2:0.95912 3:-0.905333 4:0.3705 5:0.7081 6:-0.233333 7:0.3666 8:-0.2832 
-512 1:0.9662 2:1 3:0.476 4:0.0475 5:0.7726 6:0.0721333 7:0.6202 8:-0.2552 
-512 1:0.9048 2:0.47556 3:-0.187 4:0.288 5:0.7081 6:-0.260933 7:0.1618 8:0.775 
-512 1:0.2 2:-0.56056 3:-0.278333 4:0.385 5:0.5649 6:-0.222133 7:0.5666 8:-0.9536 
-512 1:-0.6 2:-1 3:0.0976667 4:0.18825 5:0.6391 6:-0.442 7:0.88 8:-0.9538 
-512 1:0.8334 2:-0.04084 3:-0.405667 4:0.21675 5:0.3979 6:0.108933 7:0.3378 8:-0.9532 
-512 1:1 2:-1 3:-0.722667 4:0.17725 5:-0.0541 6:-0.675067 7:0.32 8:-0.9618 
-512 1:1 2:-1 3:-0.811667 4:-0.2585 5:-0.0541 6:-0.225867 7:0.22 8:-0.9538 
-512 1:-0.5 2:-1 3:-0.901667 4:0.6415 5:-0.3906 6:0.6992 7:0.36 8:-0.954 
-512 1:1 2:0.61016 3:-0.08 4:0.565 5:0.0794 6:-0.495733 7:0.4022 8:0.4178 
-227.8441799393112 1:-0.5 2:-1 3:-0.851 4:0.01725 5:0.0794 6:-0.430133 7:0.32 8:-0.956 
-512 1:0.8028 2:0.9408 3:-0.24 4:0.09325 5:0.1972 6:-0.3288 7:0.2818 8:0.946 
-391.8475038896654 1:-0.9504 2:-0.44548 3:0.211 4:0.094 5:-0.3906 6:0.3096 7:0.43 8:0.161 
-512 1:1 2:-0.72276 3:0.53 4:0.5335 5:-0.6137 6:-0.2756 7:0.33 8:0.3712 
-512 1:1 2:-0.44548 3:-0.552 4:0.34575 5:0.7726 6:-0.517333 7:0.19 8:-0.9574 
-512 2:-0.04084 3:-0.270333 4:0.131 5:0.8904 6:-0.0853333 7:0.5164 8:-0.8112 
-512 1:1 2:-0.56056 3:-0.167 4:0.2555 5:0.4849 6:-0.4236 7:0.1734 8:-0.9568 
-512 1:0.4546 2:-0.16824 3:-0.147333 4:-0.00275 5:0.1972 6:0.0916 7:0.2224 8:-0.9902 
-512 1:-0.4762 2:-0.04084 3:-0.159667 4:-0.259 5:-0.3906 6:-0.0584 7:0.1436 8:0.219 
-512 2:-1 3:0.359333 4:0.6625 5:0.3026 6:0.328933 7:0.8 8:-0.9596 
-512 2:-1 3:0.359333 4:0.5345 5:0.5649 6:-0.106 7:0.8 8:-0.9538 
-512 1:0.8286 2:0.66356 3:0.049 4:-0.14575 5:0.4849 6:-0.0506667 7:0.2222 8:-0.5024 
-512 1:-0.9298 2:-0.72276 3:-0.964 4:0.12375 5:0.8332 6:-0.159867 7:0.59 8:0.8602 
-512 1:-0.5868 2:0.28756 3:0.0776667 4:-0.14675 5:0.7726 6:-0.2856 7:0.6818 8:-0.3122 
-512 1:0.9048 2:0.47556 3:-0.0186667 4:0.1485 5:0.8904 6:0.0114667 7:0.4942 8:-0.9652 
