svm_type c_svc
kernel_type rbf
gamma 0.03125
nr_class 2
total_sv 1583
rho 8.14418
label 1 0
probA -3.20423
probB 0.921838
nr_sv 785 798
SV
512 1:0.077 2:0.2178 3:0.426 4:-0.0775 5:-0.2082 6:-0.3816 7:0.5362 
324.8633414339808 1:0.804 2:1 3:0.631 4:0.12 5:0.8904 6:-0.0664 7:0.503 
512 1:0.1428 2:-0.16824 3:0.461333 4:0.3035 5:0.6391 6:-0.0801333 7:0.4276 
512 1:0.9118 2:0.66976 3:0.282667 4:0.1945 5:0.7726 6:0.329867 7:0.332 
512 1:-0.9376 2:-1 3:0.744667 4:-0.291 5:-0.9014 6:-0.18 7:0.7 
512 1:-0.4696 2:0.42212 3:0.0496667 4:0.1465 5:0.8904 6:-0.346667 7:0.5086 
512 1:-0.3334 2:-1 3:0.654667 4:0.257 5:0.7081 6:-0.304 7:0.74 
512 1:1 2:-1 3:-0.791333 4:-0.43875 5:-0.6137 6:-0.1544 7:0.04 
512 1:-0.9166 2:-1 3:-0.646667 4:-0.01375 5:-0.2082 6:0.186 7:0.1 
512 1:0.2308 2:0.47556 3:0.113667 4:-0.046 5:0.7081 6:-0.3304 7:0.1898 
512 1:0.9688 2:0.65724 3:-0.269333 4:0.12725 5:0.8904 6:-0.1556 7:0.3278 
512 1:0.8796 2:0.74268 3:0.239 4:0.239 5:0.6391 6:-0.00506667 7:0.1606 
512 1:0.0834 2:0.02596 3:-0.367667 4:0.1145 5:0.1972 6:-0.608133 7:0.66 
512 1:-0.3334 2:-0.44548 3:0.0906667 4:0.2135 5:0.0794 6:0.557467 7:0.7734 
512 1:0.8948 2:0.79992 3:0.618667 4:0.39125 5:0.9957 6:-0.283467 7:0.4604 
512 1:-0.5714 2:-0.56056 3:-0.253 4:0.58575 5:-0.6137 6:-0.527733 7:0.38 
512 1:-0.3334 2:-0.72276 3:0.488333 4:0.1155 5:1 6:-0.279467 7:0.6 
512 1:-0.5334 2:0.05564 3:0.392667 4:0.0435 5:0.6391 6:0.3748 7:0.4786 
512 1:-0.1112 2:-0.44548 3:0.148667 4:0.149 5:0.0794 6:-0.1968 7:0.7934 
512 2:-0.72276 3:-0.0973333 4:0.1315 5:0.1972 6:-0.08 7:0.35 
512 1:1 2:-1 3:-0.794333 4:-0.51275 5:-0.6137 6:-0.101733 7:0.5 
512 1:0.9644 2:1 3:0.0566667 4:0.40025 5:0.5649 6:0.318267 7:0.3128 
512 1:0.579 2:0.08324 3:-0.407 4:0.17625 5:1 6:-0.350267 7:0.16 
512 1:0.2 2:-0.56056 3:-0.633333 4:0.4435 5:-0.6137 6:0.688267 7:0.3266 
512 1:-0.4844 2:0.3986 3:0.216667 4:0.01875 5:0.9957 6:-0.281733 7:0.5704 
512 1:-0.0374 2:0.85388 3:-0.255667 4:0.34125 5:1 6:-0.3724 7:0.4368 
512 2:-1 3:-0.153333 4:0.215 5:0.0794 6:-0.2252 7:0.36 
512 1:0.3334 2:-0.16824 3:-0.282667 4:0.09375 5:0.1972 6:-0.311467 7:0.3874 
512 2:-0.56056 3:0.177 4:-0.17575 5:0.5649 6:0.210933 7:0.6466 
240.9811914452863 1:0.2632 2:0.27124 3:0.121 4:-0.3835 5:0.6391 6:0.206267 7:0.3724 
512 1:0.25 2:-0.35624 3:-0.618667 4:0.6885 5:-0.3906 6:0.5048 7:0.364 
512 1:-0.3334 2:-1 3:0.790667 4:-0.24475 5:0.3026 6:-0.3152 7:0.92 
512 1:0.8554 2:0.73752 3:-0.722333 4:-0.22375 5:0.8904 6:-0.430533 7:0.2496 
512 1:-0.3334 2:-1 3:0.326 4:0.239 5:0.1972 6:-0.388267 7:0.86 
512 1:0.5454 2:0.13328 3:0.0753333 4:-0.23475 5:0.5649 6:-0.0890667 7:0.1826 
512 1:0.25 2:-0.35624 3:0.420333 4:0.68175 5:-0.0541 6:-0.3792 7:0.536 
512 1:1 2:-0.44548 3:-0.482333 4:0.3115 5:-0.2082 6:-0.0849333 7:0.165 
512 1:0.9586 2:1 3:-0.206 4:0.37675 5:0.9957 6:-0.470133 7:0.3606 
512 1:1 2:0.46544 3:-0.318333 4:0.34375 5:0.4849 6:-0.4852 7:0.2114 
512 2:-0.44548 3:0.065 4:0.20325 5:0.6391 6:-0.0678667 7:0.565 
512 1:0.1578 2:-0.04084 3:0.196 4:-0.62175 5:-0.6137 6:0.224 7:0.614 
512 1:1 2:-1 3:0.559 4:0.3315 5:0.3979 6:-0.00333333 7:0.64 
512 1:0.25 2:-0.35624 3:-0.213667 4:-0.63375 5:-0.3906 6:-0.310667 7:0.32 
512 1:-0.8918 2:-0.72276 3:-0.391667 4:0.043 5:0.0794 6:-0.1864 7:0.12 
512 2:0.30324 3:0.0913333 4:0.17125 5:0.0794 6:-0.269333 7:0.6336 
512 1:-0.1648 2:0.45504 3:-0.248667 4:0.33175 5:1 6:-0.1284 7:0.7406 
512 2:-0.72276 3:0.179333 4:0.5925 5:0.3979 6:-0.0245333 7:0.76 
512 1:1 2:-0.07896 3:0.333 4:-0.32575 5:-0.0541 6:-0.153733 7:0.2488 
512 1:-0.3846 2:-0.44548 3:0.0763333 4:0.43025 5:0.0794 6:-0.323867 7:0.32 
512 2:-0.72276 3:0.157 4:0.4 5:0.4849 6:-0.0610667 7:0.68 
512 1:1 2:-0.72276 3:0.122667 4:0.33075 5:-0.3906 6:0.0725333 7:0.27 
512 1:0.28 2:0.10904 3:0.241 4:0.344 5:0.4849 6:-0.0184 7:0.2086 
512 1:-0.0256 2:0.82156 3:-0.396 4:0.07675 5:1 6:-0.0310667 7:0.397 
512 1:0.9024 2:0.74268 3:-0.371667 4:0.05675 5:1 6:-0.453733 7:0.2142 
512 1:1 2:-0.44548 3:0.302667 4:0.331 5:-0.0541 6:-0.332533 7:0.29 
512 1:0.1428 2:-0.44548 3:0.309667 4:-0.3725 5:0.3026 6:0.26 7:0.67 
512 1:0.875 2:0.36048 3:0.355333 4:0.14625 5:0.7081 6:-0.362533 7:0.1942 
512 1:-0.2 2:-0.72276 3:0.477333 4:-0.153 5:0.1972 6:-0.1232 7:0.8 
512 1:-0.1428 2:-0.12112 3:-0.119667 4:-0.38975 5:-0.0541 6:1 7:0.53 
512 1:-0.1556 2:0.17776 3:-0.889667 4:0.23775 5:0.9444 6:-0.413733 7:0.6652 
512 1:0.8852 2:0.89796 3:0.25 4:0.0375 5:0.9444 6:-0.0608 7:0.3322 
512 1:-0.0882 2:0.3736 3:0.482 4:-0.30675 5:-0.2082 6:-0.234 7:0.4646 
512 1:-0.3334 2:-0.44548 3:0.0813333 4:-0.09625 5:0.0794 6:0.142133 7:0.84 
512 1:-0.6666 2:-0.72276 3:0.564667 4:-0.20425 5:-0.9014 6:0.363067 7:0.52 
512 1:0.3572 2:0.73228 3:-0.88 4:0.1395 5:0.7726 6:-0.0472 7:0.2846 
512 1:0.3334 2:-0.72276 3:0.769333 4:0.382 5:1 6:-0.2552 7:0.44 
512 1:-0.5144 2:0.49508 3:-0.026 4:0.0585 5:0.9957 6:-0.198 7:0.6148 
512 1:1 2:-1 3:-0.171333 4:0.66575 5:-0.3906 6:-0.305867 7:0.08 
512 1:0.2 2:-0.56056 3:0.674 4:0.305 5:0.5649 6:-0.0821333 7:0.6066 
512 1:-0.1428 2:-0.56056 3:0.598333 4:0.3175 5:0.5649 6:-0.0821333 7:0.64 
512 1:0.7142 2:-0.00604 3:-0.406667 4:0.21325 5:0.3026 6:-0.0818667 7:0.1416 
512 1:-0.6 2:-1 3:-0.276667 4:0.33575 5:-0.2082 6:-0.3256 
512 1:0.0476 2:0.2364 3:0.266333 4:-0.3045 5:0.7081 6:0.143067 7:0.42 
512 1:-0.3846 2:-0.44548 3:0.450667 4:0.40075 5:0.4849 6:-0.398533 7:0.72 
481.913978832443 1:0.2424 2:0.48544 3:0.354667 4:0.12275 5:1 6:0.0353333 7:0.3444 
512 1:0.087 2:0.28756 3:0.329667 4:-0.28625 5:0.5649 6:0.2376 7:0.3826 
512 1:0.174 2:0.31832 3:-0.857333 4:0.14175 5:1 6:-0.0474667 7:0.3962 
512 1:0.8236 2:0.3736 3:0.095 4:-0.0295 5:0.9957 6:-0.2376 7:0.1368 
512 1:0.0408 2:0.57272 3:-0.05 4:0.3125 5:1 6:-0.3352 7:0.4186 
512 1:0.9152 2:1 3:-0.00333333 4:0.20775 5:0.8904 6:-0.580533 7:0.2596 
512 1:-0.3334 2:-1 3:-0.998 4:-0.1735 5:0.1972 6:0.103467 7:0.52 
165.4965905086032 1:1 2:-0.22164 3:-0.000666667 4:0.442 5:-0.0541 6:-0.332933 7:0.35 
512 1:0.7648 2:0.08324 3:-0.885 4:0.14525 5:0.9444 6:-0.1948 7:0.2534 
512 1:0.7142 2:-0.28328 3:0.00833333 4:0.15625 5:-0.3906 6:-0.124267 7:0.33 
512 2:-0.72276 3:0.396333 4:0.20025 5:0.7081 6:-0.356267 7:0.69 
512 1:0.5114 2:0.95612 3:-0.358333 4:0.0285 5:-0.9014 6:0.2444 7:0.233 
512 1:-0.8182 2:-1 3:-0.570333 4:0.64175 5:0.3026 6:-0.6276 7:0.68 
512 2:-1 3:0.732 4:0.41075 5:0.1972 6:-0.270133 7:0.26 
512 1:-0.4286 2:-0.72276 3:0.129333 4:0.09975 5:0.3026 6:-0.256 7:0.07 
512 1:-0.7778 2:-1 3:-0.729 4:-0.07875 5:-0.3906 6:-0.346133 7:0.22 
512 1:-0.125 2:0.2178 3:-0.823 4:0.1135 5:0.9957 6:-0.210267 7:0.7276 
512 1:0.3334 2:-0.44548 3:-0.079 4:0.3855 5:-0.0541 6:-0.0644 7:0.47 
512 1:0.4286 2:0.08324 3:-0.295667 4:0.008 5:0.7081 6:-0.273333 7:0.23 
512 1:1 2:-1 3:-0.59 4:0.11675 5:0.0794 6:-0.514133 7:0.28 
512 2:-1 3:-0.286 4:-0.13925 5:-0.0541 6:-0.1288 7:0.68 
512 1:0.0882 2:0.98232 3:-0.272 4:0.15 5:1 6:-0.385867 7:0.4664 
512 2:-1 3:0.403 4:0.648 5:-0.2082 6:-0.444667 7:0.84 
512 1:0.077 2:-0.22164 3:-0.0163333 4:-0.01375 5:0.3979 6:0.0481333 7:0.504 
512 1:0.5 2:-0.56056 3:-0.119 4:0.26075 5:0.0794 6:0.142133 7:0.3666 
512 1:0.25 2:-0.07896 3:0.269 4:0.12175 5:-0.2082 6:-0.435333 7:0.452 
512 1:-0.875 2:-1 3:0.688667 4:-0.04275 5:0.1972 6:-0.545867 7:0.54 
512 1:1 2:-1 3:0.292667 4:-0.2215 5:-0.6137 6:0.531733 7:0.24 
512 1:-0.2728 2:-0.16824 3:-0.639 4:-0.04175 5:0.9444 6:-0.280533 7:0.655 
457.1826002569442 1:0.8716 2:0.85 3:0.302333 4:-0.04075 5:-0.2082 6:0.198267 7:0.2004 
512 1:-0.3334 2:-1 3:-0.00266667 4:0.484 5:-0.0541 6:-0.096 7:0.44 
512 1:-0.282 2:0.33288 3:-0.569333 4:0.22025 5:0.9957 6:0.229467 7:0.6436 
512 1:-0.0392 2:0.55672 3:-0.796 4:0.0905 5:1 6:-0.5196 7:0.562 
512 1:-0.6 2:-0.56056 3:-0.224 4:0.397 5:0.4849 6:-0.115733 7:0.24 
512 1:0.1482 2:0.3736 3:-0.00666667 4:-0.28475 5:0.3026 6:0.318933 7:0.4178 
512 1:-0.3334 2:-1 3:-0.830333 4:0.50975 5:0.5649 6:-0.0116 7:0.04 
512 2:-0.72276 3:0.378667 4:-0.16725 5:0.3026 6:-0.483733 7:0.56 
512 1:-0.0232 2:0.2178 3:0.0123333 4:0.1915 5:1 6:-0.123867 7:0.4886 
512 1:0.077 2:0.05564 3:-0.620667 4:-0.1995 5:0.1972 6:0.0594667 7:0.2442 
512 1:0.9604 2:0.83804 3:0.671 4:-0.1045 5:0.3979 6:0.334267 7:0.592 
512 2:-1 3:-0.628 4:-0.20575 5:0.4849 6:-0.1188 7:0.36 
512 2:-1 3:-0.0163333 4:-0.107 5:-0.0541 6:-0.485867 7:0.42 
512 1:0.4334 2:0.50448 3:-0.349667 4:0.07675 5:1 6:-0.156667 7:0.2622 
512 1:0.5 2:-0.00604 3:-0.195667 4:0.41675 5:-0.6137 6:-0.456 7:0.442 
512 1:-0.5556 2:-0.72276 3:-0.971667 4:0.45125 5:0.6391 6:-0.5628 7:0.85 
512 2:-1 3:0.670333 4:-0.35925 5:-0.9014 6:-0.358667 7:0.76 
512 1:-0.9906 2:-1 3:-0.0303333 4:0.2605 5:-0.6137 6:-0.424 
512 1:0.9342 2:1 3:-0.525333 4:0.0825 5:1 6:-0.493467 7:0.2712 
512 1:-0.091 2:0.19828 3:-0.046 4:0.1225 5:1 6:-0.188533 7:0.641 
512 1:0.0232 2:0.2364 3:-0.255 4:-0.4065 5:0.0794 6:0.105733 7:0.3084 
512 1:0.8462 2:0.4334 3:-0.0436667 4:0.2285 5:0.7081 6:-0.315067 7:0.2262 
512 1:0.8182 2:-0.07896 3:-0.280333 4:-0.19125 5:0.6391 6:-0.507867 7:0.156 
512 1:0.0714 2:0.08324 3:0.557 4:-0.00375 5:0.8904 6:-0.472 7:0.4386 
512 1:0.5 2:-0.56056 3:-0.7 4:0.0815 5:-0.0541 6:-0.5228 7:0.2734 
512 1:0.8298 2:0.50448 3:-0.448 4:0.33025 5:1 6:-0.300267 7:0.2638 
512 1:0.8 2:0.15616 3:-0.317667 4:0.301 5:1 6:-0.232533 7:0.2412 
512 1:-0.7174 2:0.02596 3:0.386 4:0.44175 5:0.1972 6:-0.0004 7:0.7292 
512 2:-1 3:-0.00666667 4:0.2685 5:-0.3906 6:0.0688 7:0.62 
512 1:0.25 2:-0.07896 3:0.229667 4:0.309 5:-0.3906 6:-0.444 7:0.574 
512 1:0.3334 2:-0.72276 3:0.136333 4:-0.4935 5:-0.3906 6:-0.618667 7:0.24 
512 1:1 2:-1 3:0.313 4:0.558 5:0.0794 6:-0.3468 7:0.64 
512 1:0.772 2:1 3:-0.613333 4:-0.105 5:0.7081 6:-0.346133 7:0.2522 
512 1:0.2 2:-0.12112 3:0.0926667 4:-0.471 5:-0.6137 6:0.438667 7:0.6258 
512 1:-0.2 2:-0.72276 3:0.112 4:0.19025 5:-0.3906 6:-0.398667 7:0.55 
512 1:-0.1304 2:0.36048 3:-0.224333 4:0.281 5:0.6391 6:-0.679867 7:0.388 
512 1:-0.5 2:-0.16824 3:-0.869333 4:0.19025 5:0.3979 6:-0.24 7:0.175 
512 1:0.1192 2:0.64436 3:0.735667 4:0.1265 5:1 6:-0.457467 7:0.3512 
512 1:1 2:-0.22164 3:0.261667 4:0.41125 5:0.7081 6:-0.2748 7:0.3742 
512 2:-1 3:0.233333 4:0.555 5:-0.2082 6:0.0184 7:0.8 
512 1:-0.7142 2:-1 3:-0.881667 4:-0.23225 5:-0.3906 6:-0.569333 7:0.18 
512 1:0.0286 2:0.15616 3:0.0326667 4:0.38575 5:0.3979 6:-0.4688 7:0.3086 
512 1:0.2858 2:-0.12112 3:-0.838333 4:0.26625 5:0.4849 6:-0.215333 7:0.34 
512 1:0.8272 2:1 3:0.0583333 4:0.1145 5:0.6391 6:-0.7448 7:0.2094 
512 1:0.8462 2:0.4334 3:0.339667 4:0.19975 5:1 6:-0.0248 7:0.3524 
512 1:-0.5 2:-1 3:0.306667 4:0.22725 5:-0.9014 6:0.4084 7:0.24 
512 1:0.3846 2:-0.12112 3:-0.519 4:-0.52025 5:-0.3906 6:0.178667 7:0.3934 
512 1:-0.1112 2:-0.44548 3:-0.693333 4:0.17375 5:-0.2082 6:-0.212267 7:0.35 
512 1:-0.2592 2:-0.07896 3:0.431333 4:0.1265 5:0.8904 6:-0.614267 7:0.576 
512 1:0.5 2:-0.56056 3:0.029 4:-0.02275 5:-0.0541 6:-0.380533 7:0.3334 
512 1:-0.0492 2:0.34692 3:0.578333 4:-0.3995 5:-0.0541 6:0.215067 7:0.3524 
512 1:0.081 2:0.7528 3:-0.256333 4:0.135 5:-0.0541 6:-0.6156 7:0.618 
512 2:-1 3:0.308667 4:0.23725 5:0.9444 6:-0.0665333 7:0.34 
512 1:0.9296 2:1 3:0.0526667 4:0.26225 5:1 6:-0.368667 7:0.3562 
512 1:0.1334 2:0.13328 3:-0.0526667 4:0.01375 5:0.9444 6:-0.253067 7:0.353 
512 1:0.7434 2:1 3:-0.0733333 4:-0.08325 5:0.5649 6:-0.252667 7:0.2486 
512 1:0.2888 2:0.34692 3:0.535 4:-0.013 5:0.7726 6:-0.229067 7:0.3254 
512 1:-0.7142 2:-1 3:-0.07 4:0.2175 5:-0.3906 6:-0.574133 7:0.36 
512 1:1 2:-0.35624 3:-0.0903333 4:0.22675 5:0.5649 6:-0.43 7:0.312 
512 1:0.856 2:0.90144 3:-0.271 4:-0.06875 5:0.7726 6:-0.113867 7:0.2234 
512 1:0.077 2:-0.22164 3:0.207 4:0.12275 5:-0.2082 6:-0.493067 7:0.2858 
512 1:-0.6666 2:-0.22164 3:0.783333 4:-0.27875 5:-0.2082 6:-0.3244 7:0.58 
512 1:0.3334 2:-0.72276 3:0.340667 4:0.37075 5:0.3026 6:-0.39 7:0.16 
467.4552041989851 1:-0.1428 2:-0.56056 3:-0.952 4:-0.06275 5:0.3026 6:1 7:0.6266 
512 1:0.1428 2:-0.44548 3:-0.0903333 4:0.089 5:-0.3906 6:0.141867 7:0.63 
512 1:0.909 2:0.49508 3:-0.812333 4:0.12125 5:0.1972 6:0.00933333 7:0.1444 
512 1:-0.862 2:-0.72276 3:-0.166333 4:-0.19425 5:-0.6137 6:-0.264933 7:0.17 
512 1:-0.5556 2:-0.44548 3:-0.899 4:-0.02025 5:0.0794 6:-0.151333 7:0.42 
512 1:0.1364 2:0.28756 3:0.377 4:0.141 5:1 6:-0.405867 7:0.3056 
512 1:-0.6 2:-0.72276 3:0.559333 4:-0.043 5:0.4849 6:-0.167067 7:0.89 
512 1:-0.0576 2:0.55672 3:0.613667 4:0.18025 5:0.3026 6:0.2724 7:0.3676 
512 1:0.3334 2:-0.44548 3:0.629667 4:-0.45925 5:-0.9014 6:-0.615067 7:0.725 
512 1:0.6 2:0.10904 3:-0.478667 4:0.365 5:1 6:-0.248933 7:0.14 
80.36377103884269 1:0.5 2:-0.28328 3:-0.986 4:0.56675 5:-0.0541 6:-0.0838667 7:0.47 
512 2:-1 3:-0.252667 4:0.2865 5:0.5649 6:-0.277467 7:0.8 
512 2:-1 3:-0.0293333 4:0.408 5:0.3979 6:-0.301333 7:0.42 
512 1:-0.9376 2:-1 3:-0.147333 4:-0.9965 5:-0.9014 6:-0.683067 7:0.02 
512 1:0.6 2:-0.44548 3:0.481667 4:0.14675 5:-0.9014 6:-0.516933 7:0.51 
512 1:-0.0344 2:0.05564 3:0.153 4:0.276 5:0.6391 6:-0.248933 7:0.6558 
512 1:0.1264 2:0.55672 3:0.551667 4:0.14675 5:1 6:-0.2032 7:0.3628 
512 1:-0.625 2:0.08324 3:-0.816 4:0.1595 5:1 6:-0.426267 7:0.6974 
512 1:-0.1112 2:0.27124 3:0.309667 4:0.4835 5:-0.0541 6:-0.151067 7:0.2066 
512 1:0.8334 2:0.51368 3:0.05 4:-0.11925 5:0.7081 6:-0.1344 7:0.221 
512 1:-0.2942 2:-0.28328 3:0.160667 4:0.1055 5:0.7081 6:-0.538 7:0.82 
404.2172358154254 1:-0.0476 2:0.19828 3:0.108333 4:0.04225 5:0.8332 6:-0.4224 7:0.665 
512 2:-0.35624 3:0.343667 4:0.16375 5:0.5649 6:-0.374533 7:0.62 
512 1:0.894 2:0.98512 3:-0.372 4:0.011 5:0.7081 6:-0.1392 7:0.2374 
512 1:-0.5 2:-1 3:0.572667 4:0.298 5:-0.2082 6:-0.62 7:0.86 
512 1:-0.5 2:-1 3:0.572667 4:-0.25675 5:-0.2082 6:0.437333 7:0.86 
512 1:0.3334 2:-0.28328 3:-0.493 4:0.244 5:-0.0541 6:-0.2788 7:0.33 
512 1:0.2728 2:0.2178 3:-0.113667 4:-0.1105 5:0.3979 6:-0.4268 7:0.4266 
512 1:0.4118 2:0.54848 3:0.281667 4:-0.3615 5:0.0794 6:-0.229467 7:0.269 
512 1:0.8476 2:1 3:-0.527333 4:0.09325 5:0.6391 6:-0.513867 7:0.2398 
512 1:-0.4736 2:-0.35624 3:-0.393 4:-0.28 5:-0.3906 6:-0.6168 7:0.628 
512 1:-0.2142 2:0.2364 3:0.223 4:-0.02275 5:0.3979 6:-0.137867 7:0.3454 
512 1:1 2:-0.72276 3:-0.288333 4:0.18425 5:-0.0541 6:-0.464533 7:0.34 
512 1:-0.9 2:-1 3:0.376 4:0.2705 5:-0.0541 6:-0.280533 7:0.48 
512 2:-1 3:0.311667 4:0.21025 5:0.9444 6:-0.141067 7:0.72 
512 1:-0.1112 2:-0.44548 3:-0.158667 4:0.3495 5:0.9444 6:-0.138133 7:0.755 
512 1:0.8834 2:0.82988 3:-0.291667 4:0.01075 5:1 6:-0.179067 7:0.289 
512 2:-0.35624 3:0.310667 4:0.17125 5:0.5649 6:-0.385333 7:0.5 
512 1:-0.25 2:-0.56056 3:0.492 4:0.05225 5:0.6391 6:-0.4212 7:0.8534 
512 1:-0.0962 2:0.54004 3:0.0206667 4:0.37825 5:1 6:-0.408267 7:0.608 
512 1:0.9454 2:0.86912 3:0.246667 4:0.226 5:0.9444 6:-0.0925333 7:0.4092 
512 1:0.3794 2:0.19828 3:-0.274333 4:0.17225 5:0.9444 6:0.140667 7:0.2852 
512 1:-0.7334 2:-0.72276 3:-0.986 4:0.2405 5:0.3026 6:-0.0350667 7:0.27 
512 1:-0.6 2:-1 3:-0.110333 4:0.134 5:-0.0541 6:-0.6124 7:0.4 
512 1:-0.7778 2:-0.72276 3:0.0233333 4:0.056 5:-0.9014 6:0.0382667 7:0.52 
512 2:-0.72276 3:-0.092 4:0.19025 5:0.4849 6:-0.254267 7:0.15 
512 1:-0.9474 2:-1 3:-0.387 4:-0.1355 5:0.0794 6:-0.0181333 7:0.8 
512 1:0.25 2:-0.35624 3:0.189 4:0.69275 5:-0.0541 6:0.150267 7:0.436 
512 1:-0.3334 2:-0.35624 3:0.404333 4:0.225 5:0.4849 6:-0.0564 7:0.764 
512 1:-0.0816 2:0.52268 3:-0.00533333 4:0.17275 5:0.7726 6:-0.3372 7:0.435 
512 1:1 2:-0.44548 3:0.202667 4:0.186 5:0.5649 6:-0.200667 7:0.285 
512 1:-0.4444 2:-0.07896 3:0.580333 4:0.09825 5:0.6391 6:-0.361733 7:0.612 
512 1:-0.1212 2:0.34692 3:-0.536667 4:0.06375 5:1 6:0.262267 7:0.522 
512 1:0.9264 2:0.95008 3:0.397333 4:0.03775 5:0.4849 6:-0.2456 7:0.4022 
512 1:-0.1428 2:-0.56056 3:-0.536333 4:-0.12675 5:0.9957 6:-0.103333 7:0.6466 
512 2:-0.12112 3:-0.880667 4:-0.051 5:0.7726 6:-0.331067 7:0.6526 
512 1:-0.0256 2:0.45504 3:-0.791 4:0.3 5:0.4849 6:-0.1352 7:0.4952 
512 1:0.6 2:-0.44548 3:-0.176333 4:-0.03975 5:-0.9014 6:-0.696 7:0.47 
512 1:0.8864 2:0.76752 3:-0.394333 4:0.06675 5:0.7726 6:-0.3168 7:0.2374 
512 2:-0.44548 3:-0.101 4:0.062 5:0.7726 6:-0.6404 7:0.53 
512 1:-0.087 2:0.2178 3:-0.377667 4:0.298 5:0.8332 6:-0.4948 7:0.32 
512 1:0.1334 2:0.13328 3:-0.0303333 4:0.069 5:0.9444 6:-0.253067 7:0.3542 
512 1:-0.3334 2:-0.44548 3:0.426333 4:0.182 5:0.4849 6:-0.3904 7:0.74 
512 1:-0.8334 2:-1 3:-0.003 4:0.2905 5:-0.6137 6:-0.561733 7:0.52 
512 1:0.3334 2:-0.72276 3:-0.947333 4:0.6935 5:-0.6137 6:0.303333 7:0.61 
512 1:0.25 2:-0.35624 3:0.0496667 4:0.19775 5:0.0794 6:-0.2768 7:0.476 
512 1:-0.3334 2:-0.72276 3:-0.619 4:0.183 5:-0.3906 6:0.0234667 7:0.22 
512 1:-0.525 2:0.17776 3:0.215333 4:0.342 5:0.4849 6:0.475067 7:0.5506 
512 1:-0.9822 2:-1 3:-0.505667 4:0.58 5:0.0794 6:-0.2324 7:0.04 
512 1:-0.492 2:0.10904 3:-0.138333 4:0.27725 5:-0.2082 6:0.7616 7:0.5888 
512 1:0.6 2:-0.00604 3:-0.0153333 4:0.203 5:0.4849 6:-0.0142667 7:0.1854 
512 1:-0.8334 2:-1 3:0.595 4:0.46275 5:0.1972 6:0.226133 7:0.5 
512 1:-0.6262 2:0.19828 3:0.116333 4:0.17 5:0.3979 6:0.272 7:0.668 
512 1:0.875 2:0.08324 3:-0.584667 4:0.32 5:1 6:-0.128267 7:0.1626 
512 2:-1 3:0.618 4:0.431 5:-0.0541 6:-0.453467 7:0.92 
101.0695322045104 1:0.974 2:0.73228 3:0.036 4:0.3625 5:0.7081 6:0.582533 7:0.3336 
512 1:-0.6512 2:0.08324 3:0.366 4:0.2795 5:0.6391 6:0.343333 7:0.6066 
512 1:1 2:-1 3:-0.789 4:0.27175 5:0.4849 6:-0.125333 
512 1:-0.3334 2:-0.56056 3:-0.309667 4:-0.0975 5:-0.2082 6:0.439333 7:0.2734 
512 1:0.132 2:0.36048 3:0.555 4:0.05525 5:0.7081 6:-0.180267 7:0.401 
512 2:-1 3:0.0446667 4:0.161 5:0.5649 6:-0.434933 7:0.8 
512 1:-0.25 2:-0.00604 3:-0.675 4:0.23375 5:0.8904 6:-0.482133 7:0.7384 
512 1:-0.0196 2:0.28756 3:-0.586333 4:0.04625 5:0.9957 6:0.267867 7:0.4968 
512 2:-1 3:-0.193667 4:0.40625 5:-0.0541 6:0.2448 7:0.02 
512 1:0.3044 2:0.36048 3:-0.000333333 4:0.01125 5:0.5649 6:-0.1624 7:0.2878 
512 2:-1 3:0.494333 4:0.202 5:-0.0541 6:-0.3848 7:0.86 
512 1:1 2:-1 3:-0.966 4:0.19075 5:0.1972 6:-0.2952 7:0.28 
512 1:-0.1112 2:-0.16824 3:-0.303667 4:0.53825 5:-0.2082 6:0.00426667 7:0.3628 
512 1:1 2:-0.72276 3:-0.906 4:0.4725 5:-0.9014 6:-0.0986667 7:0.3 
433.4682944619651 1:0.9474 2:1 3:0.155667 4:0.114 5:0.4849 6:-0.421333 7:0.3806 
512 1:1 2:-0.56056 3:-0.241 4:0.39575 5:-0.0541 6:-0.421733 7:0.22 
512 1:-0.1666 2:-0.07896 3:0.519333 4:0.20175 5:0.8332 6:-0.661067 7:0.582 
512 1:-0.1326 2:0.4334 3:0.469667 4:0.11775 5:0.3026 6:0.511467 7:0.4012 
512 1:0.834 2:1 3:0.572333 4:0.28025 5:0.7726 6:0.185733 7:0.4194 
512 1:0.9338 2:1 3:-0.579 4:-0.0935 5:1 6:-0.464 7:0.2954 
512 1:-0.2142 2:-0.04084 3:0.411 4:0.18725 5:0.9957 6:-0.6164 7:0.6164 
512 1:-0.0834 2:0.3986 3:0.0553333 4:-0.486 5:0.3979 6:-0.204267 7:0.3488 
512 1:-0.7778 2:-1 3:0.678333 4:0.30075 5:-0.3906 6:-0.8224 7:0.66 
512 1:0.6666 2:-0.35624 3:-0.859 4:0.2335 5:0.4849 6:-0.413867 7:0.356 
512 1:0.3334 2:-0.44548 3:0.0966667 4:0.255 5:0.6391 6:-0.394933 7:0.34 
512 2:-0.72276 3:-0.275667 4:0.1925 5:-0.9014 6:0.442667 7:0.29 
512 1:-0.0952 2:0.17776 3:0.0953333 4:0.2 5:0.8904 6:-0.207867 7:0.641 
512 1:-0.392 2:0.45504 3:-0.578333 4:0.2265 5:0.4849 6:0.0696 7:0.3872 
512 1:1 2:-0.00604 3:-0.580667 4:0.2775 5:0.9444 6:0.132667 7:0.31 
512 1:1 2:0.54004 3:-0.22 4:0.075 5:0.9957 6:-0.238 7:0.3356 
512 1:-0.7552 2:-0.28328 3:-0.0386667 4:0.024 5:0.3979 6:-0.430533 7:0.31 
512 1:-0.3334 2:-1 3:-0.003 4:-0.28825 5:-0.2082 6:-0.0617333 7:0.16 
512 1:0.1352 2:0.2178 3:-0.0303333 4:-0.1155 5:0.3026 6:0.0774667 7:0.3912 
512 2:-1 3:-0.773667 4:0.36125 5:0.7726 6:-0.375733 7:0.32 
512 1:-0.25 2:-0.28328 3:-0.129 4:0.158 5:0.8904 6:-0.399467 7:0.5966 
512 1:0.2 2:-0.56056 3:-0.671333 4:0.237 5:0.3026 6:-0.2604 7:0.58 
512 1:-0.9412 2:-1 3:0.738667 4:0.60025 5:-0.9014 6:0.0124 7:0.84 
512 1:0.9386 2:1 3:-0.358667 4:-0.033 5:1 6:-0.4344 7:0.3112 
512 1:0.9254 2:1 3:-0.295333 4:0.11925 5:1 6:-0.3864 7:0.287 
512 1:0.4074 2:0.17776 3:0.464667 4:0.1995 5:-0.0541 6:-0.524133 7:0.3494 
512 2:-1 3:0.151333 4:0.04175 5:-0.9014 6:-0.024 7:0.4 
512 1:0.2432 2:0.2542 3:0.00766667 4:0.41325 5:0.7726 6:-0.361467 7:0.26 
512 1:-0.093 2:0.46544 3:-0.682333 4:-0.3055 5:0.5649 6:-0.0068 7:0.2824 
512 1:1 2:-0.72276 3:-0.517 4:-0.41925 5:-0.9014 6:-0.48 7:0.01 
512 1:1 2:-0.07896 3:-0.595 4:0.087 5:0.8904 6:0.0996 7:0.29 
512 1:-0.8572 2:-1 3:0.308667 4:-0.27375 5:-0.3906 6:-0.6144 7:0.18 
512 1:0.6 2:-0.44548 3:-0.696333 4:0.1905 5:1 6:-0.455467 7:0.295 
512 2:-1 3:0.413333 4:0.329 5:0.8332 6:0.00133333 7:0.9 
512 1:-0.1876 2:0.46544 3:0.173 4:0.25925 5:1 6:-0.104533 7:0.717 
512 1:1 2:-1 3:0.293333 4:0.53725 5:-0.6137 6:0.232667 7:0.86 
512 1:-0.4546 2:-0.28328 3:0.518 4:0.06775 5:0.3026 6:-0.1752 7:0.6334 
512 1:0.1428 2:-0.44548 3:-0.00666667 4:-0.3275 5:-0.0541 6:0.154667 7:0.15 
512 1:1 2:-1 3:-0.970333 4:0.01625 5:-0.0541 6:-0.668933 7:0.3 
512 1:0.125 2:-0.12112 3:0.091 4:0.15725 5:0.1972 6:-0.4312 7:0.5134 
512 1:-0.7142 2:-1 3:-0.669 4:0.2305 5:-0.6137 6:-0.347733 7:0.54 
512 1:-0.25 2:-0.56056 3:-0.149 4:0.07225 5:0.3026 6:0.643733 7:0.2666 
512 1:0.0624 2:0.13328 3:0.239667 4:-0.35125 5:0.8332 6:0.259467 7:0.5058 
512 1:1 2:-0.56056 3:0.196667 4:0.10775 5:-0.3906 6:-0.575467 7:0.2734 
512 1:0.1764 2:-0.07896 3:0.573 4:0.16625 5:-0.9014 6:-0.372 7:0.8156 
512 1:-0.1112 2:-0.44548 3:0.378667 4:0.41825 5:0.1972 6:-0.0761333 7:0.68 
512 1:-0.2 2:-0.72276 3:-0.451333 4:-0.022 5:-0.2082 6:0.652667 7:0.67 
512 1:-0.6666 2:-1 3:0.320333 4:0.27075 5:-0.2082 6:-0.41 7:0.14 
512 1:-0.2 2:-0.72276 3:0.493333 4:-0.3175 5:-0.6137 6:-0.71 7:0.31 
512 1:0.4694 2:0.4334 3:-0.391667 4:0.2105 5:0.9957 6:-0.318 7:0.2412 
512 1:-0.1112 2:-0.44548 3:0.104333 4:0.366 5:0.0794 6:0.134667 7:0.395 
512 1:0.5556 2:-0.22164 3:-0.408667 4:0.11625 5:0.0794 6:-0.320667 7:0.1086 
512 1:-0.0286 2:0.13328 3:0.440333 4:0.00375 5:-0.2082 6:-0.0970667 7:0.4588 
512 1:-0.5692 2:0.05564 3:0.110333 4:-0.84375 5:-0.3906 6:0.2392 7:0.3614 
512 1:0.9166 2:0.89796 3:-0.24 4:-0.13425 5:0.9957 6:-0.0745333 7:0.301 
382.3384875653589 1:0.5042 2:0.79092 3:-0.267667 4:-0.39175 5:0.3979 6:0.0774667 7:0.318 
512 1:0.2 2:-0.56056 3:-0.240333 4:0.01675 5:0.6391 6:-0.314533 7:0.4 
512 1:-0.2 2:-0.72276 3:0.556667 4:0.154 5:0.0794 6:-0.3832 7:0.61 
512 1:-0.8824 2:-0.72276 3:0.531667 4:0.2435 5:0.0794 6:0.0241333 7:0.72 
512 2:-1 3:-0.979333 4:0.464 5:0.7726 6:-0.118267 7:0.36 
512 1:1 2:-1 3:0.462333 4:-0.08425 5:-0.3906 6:-0.1168 
512 2:-0.56056 3:-0.647333 4:0.186 5:-0.0541 6:-0.366133 7:0.58 
512 1:-0.0248 2:0.631 3:-0.625667 4:0.1695 5:1 6:-0.298667 7:0.664 
512 1:0.2432 2:0.2542 3:0.509 4:0.372 5:-0.2082 6:-0.542933 7:0.4142 
512 1:-0.25 2:-0.56056 3:0.472333 4:0.06025 5:0.5649 6:-0.438533 7:0.76 
512 1:-0.25 2:-0.56056 3:0.465 4:0.143 5:0.5649 6:-0.5916 7:0.8534 
512 1:0.923 2:0.28756 3:0.457 4:0.149 5:0.1972 6:-0.296267 7:0.2384 
512 1:0.077 2:0.05564 3:-0.296333 4:0.08625 5:1 6:-0.133733 7:0.49 
512 1:-0.1176 2:0.08324 3:0.332 4:0.0775 5:-0.2082 6:0.5124 7:0.4546 
512 1:-0.4118 2:-0.35624 3:-0.312667 4:-0.00275 5:-0.2082 6:0.7316 7:0.592 
96.79097219087974 1:0.0588 2:-0.12112 3:-0.272333 4:-0.4375 5:-0.0541 6:0.620133 7:0.7044 
512 1:0.25 2:-0.35624 3:0.379667 4:0.28925 5:-0.2082 6:-0.6476 7:0.42 
512 1:0.8308 2:1 3:0.432333 4:0.0255 5:1 6:-0.182933 7:0.39 
512 1:0.122 2:0.2542 3:0.370333 4:-0.24875 5:0.3026 6:0.4532 7:0.4896 
512 1:0.9194 2:0.98512 3:-0.878 4:-0.14375 5:0.7081 6:-0.175867 7:0.2592 
512 1:0.5 2:-0.56056 3:0.786667 4:0.45225 5:-0.0541 6:-0.3572 7:0.4334 
512 1:-0.7142 2:-1 3:-0.412 4:-0.396 5:-0.9014 6:-0.472933 7:0.04 
512 1:0.3 2:0.30324 3:0.266333 4:0.205 5:0.7081 6:-0.396133 7:0.1976 
512 1:-0.0094 2:0.86536 3:-0.274333 4:0.208 5:1 6:-0.398133 7:0.4224 
512 1:0.077 2:-0.22164 3:0.233333 4:0.41275 5:0.4849 6:-0.273867 7:0.4058 
512 1:0.8576 2:1 3:0.367 4:0.16525 5:1 6:-0.0996 7:0.462 
512 1:1 2:-1 3:-0.978 4:0.34675 5:0.0794 6:0.0197333 7:0.38 
512 1:0.8438 2:1 3:0.477333 4:-0.02625 5:1 6:-0.0426667 7:0.467 
512 1:0.077 2:0.42212 3:-0.173333 4:-0.085 5:0.1972 6:0.317067 7:0.6962 
512 1:0.3334 2:-0.72276 3:-0.426667 4:-0.09675 5:0.0794 6:-0.218 7:0.57 
512 1:-0.6098 2:0.10904 3:-0.842 4:0.12 5:0.0794 6:-0.204267 7:0.175 
512 1:0.9054 2:0.97952 3:0.559667 4:-0.18625 5:0.5649 6:0.2976 7:0.5938 
512 1:-0.3334 2:-1 3:0.293 4:0.05125 5:0.1972 6:-0.3076 7:0.94 
512 1:0.9422 2:1 3:-0.348 4:-0.138 5:1 6:-0.125067 7:0.2684 
512 1:1 2:-0.72276 3:-0.00366667 4:0.08375 5:-0.9014 6:-0.0506667 7:0.56 
434.1559695915393 1:-0.0114 2:0.78172 3:-0.857667 4:0.25025 5:1 6:-0.4736 7:0.6794 
512 1:0.5454 2:0.77708 3:0.233 4:0.43425 5:0.4849 6:-0.116133 7:0.269 
512 2:-1 3:0.625333 4:0.4065 5:-0.3906 6:-0.598933 7:0.62 
512 1:-0.2 2:-0.72276 3:-0.398333 4:0.30975 5:-0.6137 6:-0.128667 7:0.34 
512 1:-0.6 2:-1 3:-0.623333 4:-0.258 5:-0.9014 6:-0.3004 7:0.26 
512 1:-0.4194 2:-0.12112 3:-0.572333 4:0.39425 5:0.7081 6:-0.259867 7:0.3156 
512 1:-0.1428 2:-0.28328 3:0.285 4:0.0715 5:0.8904 6:-0.5444 7:0.6966 
512 1:0.3334 2:-0.44548 3:-0.475667 4:0.57825 5:-0.9014 6:-0.657333 7:0.7666 
512 1:1 2:-0.56056 3:0.128333 4:0.315 5:0.8904 6:-0.507867 7:0.34 
512 1:0.04 2:0.02596 3:-0.138333 4:0.1885 5:1 6:-0.103733 7:0.44 
512 2:-0.72276 3:0.229333 4:-0.20625 5:0.3979 6:-0.2752 7:0.31 
512 1:-0.1904 2:0.41056 3:-0.516333 4:0.0865 5:1 6:-0.0056 7:0.5836 
512 1:-0.3334 2:-0.56056 3:-0.659 4:-0.2595 5:-0.3906 6:-0.535467 7:0.62 
512 1:0.2916 2:0.3736 3:0.296 4:0.249 5:0.1972 6:-0.5116 7:0.4264 
512 1:0.5038 2:0.84208 3:-0.660333 4:-0.19675 5:0.6391 6:0.241867 7:0.2394 
512 1:-0.125 2:-0.22164 3:0.135333 4:0.60325 5:0.1972 6:-0.2812 7:0.4286 
512 1:-0.7634 2:-0.04084 3:0.0216667 4:-0.00925 5:0.0794 6:0.1956 7:0.1218 
512 1:-0.2778 2:0.02596 3:0.3 4:0.1735 5:1 6:0.0428 7:0.597 
512 1:0.2196 2:0.28756 3:0.0723333 4:0.46175 5:0.3979 6:-0.102 7:0.388 
512 1:-0.4286 2:-0.28328 3:-0.977 4:0.56825 5:-0.0541 6:-0.449333 7:0.3034 
512 1:0.0526 2:-0.07896 3:-0.193667 4:0.113 5:0.3979 6:-0.187867 7:0.1866 
512 1:-0.4444 2:-0.35624 3:-0.0886667 4:-0.46825 5:-0.6137 6:-0.293333 7:0.66 
512 1:-0.0376 2:0.66356 3:-0.740333 4:0.33325 5:0.8904 6:0.1644 7:0.6394 
312.2911270247228 1:0.8198 2:1 3:-0.942 4:0.44875 5:0.4849 6:-0.2592 7:0.3468 
301.3557343205381 1:0.916 2:1 3:-0.384333 4:-0.15825 5:0.0794 6:-0.350533 7:0.3732 
512 1:0.2 2:-0.56056 3:-0.962667 4:-0.00125 5:-0.6137 6:-0.481333 7:0.42 
512 1:-0.0256 2:0.17776 3:0.572333 4:-0.3325 5:-0.9014 6:0.156933 7:0.2222 
512 1:0.8482 2:1 3:0.437 4:0.1085 5:1 6:-0.0472 7:0.4244 
512 1:-0.3272 2:0.44436 3:0.114333 4:-0.02875 5:0.3026 6:0.0762667 7:0.2336 
512 1:0.68 2:0.2178 3:-0.823667 4:0.26525 5:0.3979 6:-0.374667 7:0.2972 
512 1:-0.92 2:-1 3:0.532667 4:0.18525 5:-0.2082 6:-0.0782667 7:0.78 
512 1:0.683 2:0.69364 3:-0.764 4:0.14575 5:0.6391 6:-0.4116 7:0.22 
512 1:-0.92 2:-1 3:-0.814667 4:0.07675 5:0.8332 6:-0.242267 7:0.4 
512 1:-0.3334 2:-1 3:-0.825667 4:0.15975 5:-0.9014 6:0.351067 7:0.38 
512 1:-0.0666 2:-0.22164 3:-0.849 4:0.09075 5:0.9444 6:0.0604 7:0.2228 
512 1:0.8494 2:0.78172 3:-0.148667 4:0.3185 5:0.5649 6:-0.207067 7:0.2266 
0.159053114648 1:1 2:0.05564 3:-0.337 4:0.286 5:0.4849 6:0.329733 7:0.2292 
512 1:-0.1666 2:-0.35624 3:-0.0923333 4:0.419 5:0.4849 6:-0.669867 7:0.492 
512 1:-0.5 2:-0.72276 3:0.177667 4:0.14375 5:-0.0541 6:-0.0878667 7:0.71 
512 1:0.9076 2:0.92812 3:0.205333 4:0.19525 5:0.8904 6:0.0349333 7:0.3688 
512 1:-0.132 2:0.2542 3:0.417 4:0.28575 5:1 6:-0.315333 7:0.6052 
512 1:-0.077 2:-0.28328 3:0.348 4:0.51575 5:0.4849 6:-0.212933 7:0.2166 
512 1:-0.4 2:0.08324 3:0.204 4:0.37125 5:0.7081 6:-0.407333 7:0.3174 
512 1:-0.875 2:-1 3:-0.701667 4:0.081 5:-0.6137 6:-0.854667 7:0.5 
512 1:0.7242 2:0.5648 3:-0.315667 4:0.19625 5:1 6:-0.326133 7:0.2414 
512 1:0.2 2:-0.56056 3:-0.366667 4:0.156 5:0.3026 6:-0.3724 7:0.4466 
512 1:-0.923 2:-1 3:0.463667 4:0.25275 5:0.3026 6:-0.247467 7:0.42 
512 1:-0.22 2:0.46544 3:-0.396 4:0.03975 5:0.5649 6:0.0324 7:0.3006 
512 1:0.5556 2:-0.22164 3:-0.554 4:-0.509 5:0.3026 6:0.333467 7:0.1342 
512 1:1 2:-0.72276 3:-0.724333 4:0.5755 5:-0.3906 6:0.221333 7:0.14 
512 1:1 2:-0.35624 3:-0.525667 4:0.27325 5:0.7726 6:-0.140533 7:0.312 
512 1:-0.8666 2:-0.72276 3:0.452 4:0.50575 5:-0.0541 6:-0.4988 7:0.39 
512 1:-0.9334 2:-1 3:0.665667 4:-0.05325 5:-0.6137 6:-0.522667 7:0.78 
512 1:1 2:-1 3:-0.0966667 4:-0.106 5:0.0794 6:0.153867 7:0.46 
512 1:0.3024 2:0.33288 3:-0.819667 4:0.10575 5:0.3026 6:0.3432 7:0.1482 
512 1:0.0304 2:0.13328 3:0.141333 4:0.183 5:0.7081 6:-0.3452 7:0.1918 
512 1:0.098 2:0.33288 3:0.308 4:-0.362 5:0.1972 6:0.6368 7:0.4992 
512 1:-0.9592 2:-0.72276 3:-0.513333 4:-0.13725 5:0.0794 6:-0.478133 7:0.12 
512 1:-0.3 2:-0.22164 3:0.641 4:-0.41225 5:0.3026 6:-0.162533 7:0.5142 
512 1:-0.2476 2:0.74776 3:0.178667 4:0.05775 5:0.1972 6:-0.461867 7:0.469 
512 2:-1 3:0.125667 4:-0.138 5:-0.2082 6:-0.362667 7:0.56 
512 1:0.8824 2:0.10904 3:-0.28 4:0.26675 5:0.3979 6:-0.1032 7:0.2454 
512 1:-0.2676 2:0.58048 3:-0.510667 4:0.2305 5:0.3979 6:0.134667 7:0.352 
512 1:0.077 2:-0.22164 3:-0.673333 4:0.395 5:-0.2082 6:-0.316 7:0.535 
383.2806266776421 1:1 2:-0.72276 3:0.62 4:-0.49225 5:-0.9014 6:0.174267 7:0.87 
512 1:0.6364 2:-0.12112 3:0.107667 4:0.17825 5:0.4849 6:0.0705333 7:0.23 
512 1:-0.9764 2:-1 3:0.598 4:0.20425 5:0.0794 6:-0.4296 7:0.62 
512 2:-0.04084 3:-0.0456667 4:0.36675 5:0.8332 6:-0.100267 7:0.3254 
512 1:0.5 2:-0.56056 3:-0.520667 4:-0.0975 5:-0.3906 6:0.213067 7:0.4334 
512 1:1 2:-1 3:0.702 4:0.39125 5:-0.2082 6:-0.606667 7:0.62 
512 1:-0.7648 2:-0.28328 3:-0.627 4:0.32375 5:0.7726 6:-0.524133 7:0.4066 
512 1:0.0714 2:0.08324 3:0.187333 4:0.3625 5:0.6391 6:-0.100933 7:0.2386 
512 1:0.6924 2:-0.04084 3:-0.754667 4:0.5145 5:0.0794 6:0.0281333 7:0.27 
512 1:1 2:-0.56056 3:-0.0133333 4:-0.1245 5:-0.6137 6:-0.646933 7:0.3534 
512 1:0.5 2:-0.56056 3:0.398 4:0.60725 5:-0.6137 6:-0.184 7:0.4534 
512 1:0.8832 2:0.94392 3:0.231 4:0.44025 5:0.7726 6:0.1732 7:0.429 
388.7024301057663 1:0.76 2:0.2364 3:0.642333 4:-0.24075 5:0.5649 6:-0.348 7:0.242 
512 1:-0.9512 2:-1 3:-0.617667 4:0.2055 5:-0.9014 6:-0.3436 7:0.46 
512 1:0.825 2:0.7162 3:0.341333 4:0.0305 5:1 6:-0.1204 7:0.2906 
512 1:1 2:-0.72276 3:-0.0153333 4:-0.52275 5:-0.9014 6:-0.418267 7:0.41 
512 2:0.54004 3:-0.0376667 4:-0.27 5:0.6391 6:-0.307467 7:0.4828 
512 2:-1 3:0.308667 4:0.57325 5:-0.2082 6:0.2604 7:0.7 
512 1:0.7142 2:-0.28328 3:-0.039 4:-0.078 5:0.4849 6:0.209733 7:0.2634 
512 1:1 2:-1 3:-0.610667 4:-0.052 5:-0.6137 6:0.207333 7:0.52 
512 1:-0.1666 2:-0.35624 3:0.129333 4:0.2165 5:-0.0541 6:-0.146133 7:0.7 
512 1:0.5518 2:0.52268 3:-0.0826667 4:0.304 5:0.7081 6:-0.331867 7:0.2528 
512 1:-0.1744 2:0.82988 3:-0.267667 4:0.39025 5:1 6:-0.444133 7:0.322 
512 1:-0.3334 2:-0.72276 3:0.513 4:0.112 5:-0.9014 6:-0.512 7:0.77 
512 1:0.44 2:0.15616 3:0.256 4:0.3555 5:-0.9014 6:-0.1804 7:0.4234 
512 1:-0.0588 2:0.10904 3:0.318667 4:0.387 5:0.6391 6:-0.196533 7:0.1674 
512 1:0.2592 2:0.13328 3:0.142 4:0.23525 5:0.6391 6:-0.33 7:0.2636 
512 1:-0.081 2:0.13328 3:0.224667 4:0.5205 5:0.0794 6:0.307733 7:0.4314 
512 1:0.6924 2:-0.04084 3:-0.306667 4:0.38425 5:-0.3906 6:-0.569067 7:0.25 
512 1:-0.4286 2:-0.72276 3:0.617 4:0.089 5:0.1972 6:0.133467 7:0.71 
512 1:-0.0588 2:-0.16824 3:-0.636333 4:0.20525 5:0.9444 6:-0.341733 7:0.475 
512 1:-0.3334 2:-1 3:-0.877 4:0.417 5:0.1972 6:-0.1784 7:0.64 
512 1:-0.0666 2:-0.22164 3:-0.278333 4:-0.04775 5:0.7081 6:-0.355333 7:0.3566 
512 2:-1 3:0.356667 4:0.033 5:-0.3906 6:-0.0152 7:0.74 
512 1:-0.0144 2:0.6878 3:-0.448 4:0.02 5:0.3979 6:-0.318533 7:0.466 
512 1:-0.2122 2:0.02596 3:-0.184667 4:0.13575 5:0.4849 6:-0.3192 7:0.645 
512 1:0.0322 2:0.10904 3:-0.901333 4:0.091 5:0.8904 6:-0.380933 7:0.6062 
512 1:-0.8888 2:-0.72276 3:-0.578 4:0.36125 5:-0.2082 6:0.142 7:0.38 
512 1:0.8282 2:1 3:-0.261333 4:0.11875 5:1 6:-0.0362667 7:0.1882 
512 1:-0.1912 2:0.72164 3:-0.214 4:0.1075 5:0.5649 6:-0.4532 7:0.4532 
512 1:0.6 2:-0.44548 3:0.379333 4:0.2085 5:-0.2082 6:-0.5256 7:0.43 
512 1:-0.1112 2:-0.44548 3:-0.123333 4:0.206 5:0.7081 6:-0.375467 7:0.59 
512 1:1 2:-1 3:-0.279667 4:-0.044 5:0.1972 6:0.26 7:0.46 
512 1:-0.229 2:0.38628 3:0.177333 4:0.06075 5:0.6391 6:-0.2088 7:0.2894 
177.2810295408656 1:0.193 2:0.6878 3:0.674667 4:0.20725 5:1 6:-0.198133 7:0.3616 
512 1:-0.2308 2:-0.35624 3:-0.0546667 4:0.4695 5:0.3979 6:-0.351733 7:0.456 
512 1:-0.3334 2:-1 3:0.546667 4:0.18025 5:0.3979 6:-0.333067 7:0.82 
512 1:-0.4444 2:-0.35624 3:-0.425667 4:-0.0305 5:0.0794 6:0.143333 7:0.232 
512 1:-0.2632 2:-0.22164 3:-0.380333 4:-0.018 5:0.3026 6:-0.283733 7:0.2142 
512 1:0.2174 2:0.05564 3:0.305 4:0.3435 5:0.7081 6:-0.1964 7:0.26 
512 1:-0.0108 2:0.53144 3:-0.157333 4:0.012 5:0.4849 6:-0.221333 7:0.4614 
512 1:-0.8462 2:-0.44548 3:-0.276333 4:0.334 5:-0.3906 6:0.2872 7:0.325 
512 1:0.3334 2:-0.72276 3:-0.0586667 4:0.1065 5:-0.6137 6:-0.223333 7:0.68 
512 1:-0.091 2:-0.07896 3:-0.339667 4:-0.1115 5:0.0794 6:0.526533 7:0.2644 
512 1:-0.0546 2:0.30324 3:-0.380667 4:0.1305 5:0.3979 6:-0.311733 7:0.4046 
512 1:0.875 2:0.08324 3:-0.0926667 4:0.1195 5:0.6391 6:-0.312533 7:0.1946 
512 1:0.5 2:-0.28328 3:-0.530333 4:0.04025 5:0.8904 6:0.0829333 7:0.2634 
512 2:0.08324 3:-0.127 4:0.168 5:0.8332 6:-0.292 7:0.236 
512 1:0.0548 2:0.73752 3:0.146333 4:-0.19725 5:0.0794 6:-0.2232 7:0.6818 
512 1:0.2572 2:0.2364 3:-0.115333 4:0.289 5:0.7081 6:-0.110533 7:0.21 
512 2:-1 3:-0.0386667 4:-0.064 5:-0.9014 6:-0.174267 7:0.34 
512 2:-1 3:-0.0233333 4:-0.3825 5:-0.0541 6:-0.514267 7:0.58 
512 2:-0.72276 3:-0.115 4:-0.0185 5:-0.0541 6:-0.0781333 7:0.78 
512 1:-0.5 2:-1 3:-0.654333 4:0.4875 5:-0.3906 6:-0.586667 7:0.28 
512 1:-0.372 2:0.31832 3:-0.521667 4:0.13125 5:1 6:0.0254667 7:0.5518 
512 1:-0.3334 2:-1 3:-0.112333 4:0.2195 5:0.0794 6:-0.423333 7:0.38 
512 1:0.174 2:0.31832 3:0.0733333 4:0.27975 5:0.9957 6:-0.347333 7:0.3466 
512 1:-0.7142 2:-0.35624 3:0.00766667 4:0.25975 5:0.5649 6:-0.5912 7:0.776 
512 1:-0.7778 2:-1 3:0.011 4:0.182 5:-0.3906 6:0.0701333 7:0.12 
512 1:-0.7778 2:-1 3:0.0206667 4:0.104 5:-0.6137 6:0.169733 7:0.74 
512 1:-0.5526 2:0.13328 3:0.0306667 4:0.201 5:0.5649 6:-0.410267 7:0.4966 
512 1:-0.875 2:-1 3:-0.466 4:0.146 5:-0.3906 6:-0.217333 7:0.68 
512 1:0.178 2:0.50448 3:-0.756333 4:-0.10175 5:0.7081 6:0.184 7:0.2718 
512 1:-0.1162 2:0.45504 3:-0.003 4:0.191 5:1 6:-0.322133 7:0.7222 
512 1:-0.8948 2:-0.44548 3:0.646333 4:0.361 5:-0.6137 6:-0.076 7:0.39 
512 1:0.3334 2:-0.72276 3:-0.346667 4:0.1655 5:0.6391 6:-0.0508 7:0.27 
98.7428716046807 1:0.3334 2:-0.16824 3:-0.653 4:0.2385 5:0.9444 6:0.122533 7:0.3686 
512 1:0.3138 2:0.68188 3:-0.465 4:0.06 5:0.9957 6:-0.217067 7:0.1854 
512 1:-0.5294 2:-0.44548 3:-0.678 4:0.22775 5:-0.0541 6:0.0768 7:0.26 
512 1:-0.25 2:-0.56056 3:0.135 4:0.204 5:0.9957 6:-0.4448 7:0.5666 
512 1:0.7142 2:-0.28328 3:0.302667 4:-0.10225 5:0.3979 6:0.230133 7:0.2334 
512 1:0.1666 2:0.2178 3:-0.11 4:0.165 5:0.7081 6:-0.3704 7:0.2342 
512 1:-0.2592 2:-0.07896 3:-0.361667 4:0.01175 5:0.8332 6:-0.144267 7:0.806 
512 2:-1 3:0.595333 4:0.13625 5:0.3026 6:-0.0268 7:0.58 
512 1:0.2 2:-0.56056 3:0.44 4:-0.05125 5:0.6391 6:-0.2912 7:0.48 
512 1:-0.1578 2:0.10904 3:0.379667 4:-0.05175 5:-0.2082 6:-0.232933 7:0.4324 
512 1:-0.6 2:-0.72276 3:-0.81 4:-0.09425 5:0.0794 6:0.0929333 7:0.09 
512 1:-0.1112 2:-0.16824 3:-0.306333 4:0.3605 5:0.8332 6:0.0824 7:0.74 
512 1:0.7 2:0.41056 3:0.069 4:0.02 5:-0.3906 6:-0.5848 7:0.1974 
512 1:-0.1316 2:0.3986 3:-0.785333 4:0.37475 5:1 6:0.1156 7:0.6812 
512 1:-0.4 2:-0.56056 3:0.634 4:-0.2095 5:0.0794 6:0.301467 7:0.42 
512 1:0.2 2:0.27124 3:0.138667 4:0.01225 5:0.8904 6:-0.309067 7:0.3792 
512 2:-0.72276 3:-0.722667 4:0.66475 5:-0.9014 6:0.388933 7:0.39 
512 1:0.0304 2:0.13328 3:-0.262 4:-0.02325 5:0.0794 6:-0.162 7:0.8374 
512 1:0.9756 2:1 3:0.671 4:0.08625 5:0.6391 6:0.136533 7:0.7834 
512 1:-0.5938 2:0.02596 3:-0.41 4:0.309 5:1 6:-0.261333 7:0.4784 
512 2:-1 3:0.227333 4:0.1755 5:-0.6137 6:-0.191067 7:0.8 
512 2:-0.35624 3:0.265667 4:0.22675 5:0.6391 6:-0.4228 7:0.516 
512 1:0.9566 2:0.79992 3:0.662333 4:0.31225 5:0.3026 6:0.5884 7:0.503 
512 1:-0.971 2:-1 3:0.618 4:-0.071 5:0.3026 6:-0.376933 7:0.72 
512 1:-0.5 2:-1 3:0.488667 4:0.52225 5:-0.0541 6:-0.730267 7:0.5 
512 1:-0.3334 2:-1 3:0.627 4:0.213 5:-0.3906 6:-0.292267 7:0.8 
432.018994255885 2:-0.72276 3:0.330667 4:0.28175 5:0.8904 6:-0.365067 7:0.71 
512 1:0.9734 2:0.72164 3:-0.130333 4:-0.09425 5:0.7081 6:-0.342 7:0.2128 
512 1:-0.554 2:0.3986 3:0.564 4:0.16475 5:1 6:-0.338267 7:0.6224 
512 1:0.9148 2:1 3:-0.324333 4:-0.15925 5:1 6:-0.219867 7:0.3458 
512 1:0.2058 2:0.48544 3:0.352 4:0.45475 5:0.0794 6:-0.2112 7:0.5756 
512 1:-0.9592 2:-1 3:0.439333 4:0.12725 5:-0.2082 6:0.241733 7:0.72 
512 1:0.091 2:-0.28328 3:-0.914333 4:-0.0245 5:0.7081 6:-0.032 7:0.192 
512 1:1 2:-1 3:0.577667 4:0.52225 5:-0.6137 6:-0.702933 7:0.7 
512 1:-0.0732 2:0.17776 3:0.398667 4:-0.0275 5:-0.6137 6:-0.4036 7:0.4452 
512 1:0.1818 2:0.74268 3:0.503333 4:0.07025 5:0.9444 6:-0.098 7:0.3314 
512 2:-0.72276 3:0.73 4:0.18175 5:-0.3906 6:-0.676 7:0.76 
10.38162585113017 1:0.777 2:1 3:-0.738 4:-0.0605 5:0.8904 6:-0.370933 7:0.2694 
512 2:-0.72276 3:-0.279 4:0.19375 5:0.4849 6:-0.521067 7:0.45 
512 1:-0.347 2:0.66356 3:0.392667 4:-0.02275 5:1 6:0.254133 7:0.6152 
512 1:0.1112 2:-0.35624 3:0.331333 4:0.01 5:-0.0541 6:0.3284 7:0.17 
512 1:-0.75 2:-1 3:0.288 4:0.19825 5:0.3026 6:-0.533467 7:0.62 
512 1:1 2:-1 3:-0.733333 4:-0.2475 5:-0.0541 6:-0.390533 7:0.44 
512 1:-0.9266 2:-0.44548 3:0.248 4:0.3735 5:-0.9014 6:0.148933 7:0.22 
512 1:0.5136 2:0.33288 3:-0.998 4:0.1095 5:0.6391 6:0.105333 7:0.2496 
512 1:0.1892 2:0.2364 3:0.365 4:0.1745 5:-0.6137 6:-0.3264 7:0.7246 
512 1:0.625 2:0.80436 3:-0.571667 4:0.0625 5:0.1972 6:0.0252 7:0.2642 
512 1:-0.1952 2:0.3986 3:-0.314333 4:0.10825 5:0.8904 6:-0.187467 7:0.275 
512 1:-0.5 2:-0.72276 3:0.148667 4:0.33925 5:-0.9014 6:0.560933 7:0.72 
512 2:-1 3:0.614 4:0.1435 5:-0.6137 6:-0.0696 7:0.56 
512 1:-0.6666 2:-1 3:-0.193 4:0.27675 5:0.1972 6:-0.449333 7:0.34 
512 1:0.3988 2:0.89448 3:-0.347 4:0.2375 5:0.0794 6:-0.104533 7:0.306 
512 1:0.982 2:1 3:-0.455667 4:0.20675 5:1 6:-0.486133 7:0.341 
512 1:-0.122 2:0.4334 3:0.324667 4:0.244 5:0.3026 6:-0.2648 7:0.7428 
512 1:0.125 2:0.31832 3:-0.0183333 4:-0.014 5:0.1972 6:-0.1704 7:0.3984 
512 1:-0.3334 2:-1 3:0.456333 4:0.6765 5:-0.9014 6:0.112 7:0.36 
512 1:-0.7778 2:-1 3:-0.413 4:-0.0315 5:-0.9014 6:0.238667 7:0.2 
512 1:-0.5 2:-0.72276 3:0.446667 4:0.1515 5:0.5649 6:-0.214133 7:0.43 
512 1:0.6286 2:1 3:-0.157333 4:-0.42775 5:0.6391 6:-0.132133 7:0.2352 
512 1:-0.2 2:-0.72276 3:-0.673 4:0.1625 5:-0.6137 6:0.00826667 7:0.02 
512 1:1 2:-0.44548 3:-0.407 4:-0.15925 5:-0.0541 6:-0.196933 7:0.16 
512 1:0.4 2:0.33288 3:0.348 4:-0.2055 5:0.0794 6:0.0514667 7:0.3092 
512 1:0.2728 2:0.05564 3:0.224333 4:-0.3045 5:0.6391 6:-0.2008 7:0.3416 
512 1:0.2728 2:0.33288 3:-0.0996667 4:0.3415 5:0.5649 6:-0.229467 7:0.2984 
512 1:0.353 2:0.2542 3:0.104333 4:0.0595 5:0.3026 6:-0.0122667 7:0.32 
512 1:1 2:-0.35624 3:0.00633333 4:0.13725 5:0.4849 6:-0.366533 7:0.304 
512 1:-0.875 2:-1 3:-0.620333 4:0.2945 5:-0.2082 6:-0.232267 7:0.74 
512 1:1 2:-1 3:-0.824667 4:-0.07975 5:-0.6137 6:-0.141067 7:0.3 
512 2:-1 3:-0.154667 4:0.08425 5:-0.2082 6:0.341333 7:0.02 
512 1:1 2:-0.72276 3:0.47 4:0.32025 5:0.7726 6:-0.560933 7:0.27 
512 1:0.926 2:0.30324 3:-0.122667 4:0.429 5:0.9957 6:-0.172933 7:0.274 
512 1:-0.3334 2:-0.35624 3:-0.841333 4:0.4085 5:0.3979 6:-0.602933 7:0.496 
512 1:-0.8666 2:-1 3:-0.847 4:0.38175 5:-0.0541 6:-0.552133 7:0.42 
512 1:1 2:-0.72276 3:0.688333 4:0.12125 5:-0.0541 6:0.0952 7:0.47 
512 1:1 2:-0.35624 3:-0.572667 4:0.25625 5:-0.6137 6:-0.106 7:0.308 
512 1:-0.25 2:-0.56056 3:-0.7 4:0.3155 5:0.6391 6:-0.4628 7:0.56 
512 1:0.3334 2:0.27124 3:0.370667 4:-0.31025 5:0.3979 6:-0.452133 7:0.2182 
512 2:-1 3:-0.731667 4:0.472 5:0.6391 6:-0.1528 7:0.86 
512 2:-0.07896 3:0.152333 4:-0.33175 5:0.1972 6:-0.114267 7:0.682 
512 1:-0.08 2:0.53144 3:-0.590333 4:0.2135 5:1 6:-0.2504 7:0.6952 
512 1:-0.4202 2:0.47556 3:-0.448 4:-0.036 5:0.9444 6:0.638933 7:0.5324 
512 1:1 2:-1 3:-0.983333 4:0.54025 5:-0.6137 6:0.0149333 7:0.44 
512 1:1 2:-1 3:-0.769 4:0.28225 5:-0.6137 6:-0.413333 7:0.66 
512 1:-0.8334 2:-1 3:-0.151333 4:-0.0015 5:-0.9014 6:-0.498667 7:0.78 
512 1:0.25 2:-0.35624 3:0.320667 4:0.463 5:0.0794 6:-0.215867 7:0.544 
512 1:0.125 2:-0.12112 3:-0.611667 4:-0.27725 5:-0.6137 6:0.999333 7:0.2426 
512 1:-0.3824 2:0.49508 3:-0.531333 4:-0.0255 5:0.5649 6:0.0128 7:0.4028 
512 1:-0.3334 2:-0.72276 3:-0.141333 4:-0.202 5:-0.9014 6:-0.418267 7:0.31 
512 1:0.6666 2:0.28756 3:0.452667 4:0.3625 5:0.6391 6:0.2372 7:0.2096 
142.5521948182868 1:0.9438 2:1 3:-0.614333 4:0.17 5:1 6:-0.121733 7:0.3414 
512 1:-0.4228 2:0.50448 3:-0.524333 4:0.0265 5:0.6391 6:0.556267 7:0.6252 
512 1:-0.0666 2:-0.22164 3:-0.177 4:0.32325 5:0.0794 6:-0.415867 7:0.6142 
512 1:-0.5 2:-1 3:-0.351333 4:0.31725 5:0.0794 6:0.0636 7:0.68 
512 1:0.8024 2:0.7162 3:-0.711333 4:-0.03225 5:0.9957 6:-0.3584 7:0.2486 
512 1:0.3334 2:-0.72276 3:-0.298 4:0.41425 5:0.0794 6:-0.339333 7:0.45 
512 1:0.7778 2:0.54848 3:-0.393667 4:0.06825 5:1 6:-0.242933 7:0.1946 
512 1:-0.1428 2:-0.28328 3:-0.792333 4:-0.018 5:0.0794 6:-0.822133 7:0.6566 
512 1:-0.3334 2:-0.72276 3:0.581 4:0.10175 5:-0.6137 6:-0.152267 7:0.34 
512 1:0.4 2:-0.22164 3:-0.926667 4:0.11 5:0.6391 6:0.293733 7:0.14 
512 1:0.8 2:0.87284 3:-0.576667 4:0.113 5:0.6391 6:-0.324667 7:0.238 
512 1:0.3334 2:-0.72276 3:0.397 4:0.2305 5:0.1972 6:-0.458667 7:0.49 
512 1:1 2:0.834 3:-0.401667 4:0.19375 5:1 6:-0.3088 7:0.3772 
512 1:0.3192 2:0.3736 3:-0.315 4:0.11925 5:0.7081 6:-0.386533 7:0.278 
512 1:0.1428 2:-0.44548 3:-0.193333 4:0.0845 5:0.8332 6:-0.4732 7:0.405 
512 1:0.2 2:0.2178 3:0.295 4:-0.09925 5:0.3026 6:-0.0138667 7:0.371 
512 1:-0.1208 2:0.47556 3:-0.576 4:0.05075 5:1 6:-0.327067 7:0.581 
512 1:0.9444 2:0.42212 3:0.416 4:0.17275 5:0.9957 6:-0.135067 7:0.4142 
512 1:-0.0244 2:0.19828 3:0.412 4:0.50375 5:0.5649 6:-0.531467 7:0.499 
512 1:-0.3334 2:0.05564 3:0.316333 4:0.36075 5:0.8332 6:-0.357467 7:0.4014 
512 1:-0.2972 2:0.02596 3:0.115 4:0.232 5:0.9957 6:0.124267 7:0.5338 
512 1:-0.0476 2:-0.07896 3:-0.488667 4:-0.231 5:-0.3906 6:-0.616 7:0.2356 
512 1:0.375 2:-0.04084 3:-0.822667 4:0.39325 5:0.4849 6:-0.3368 7:0.2836 
512 1:0.6364 2:0.15616 3:-0.797333 4:-0.153 5:0.4849 6:-0.0505333 7:0.2012 
512 1:0.1112 2:0.08324 3:0.293667 4:0.31175 5:0.0794 6:0.0096 7:0.4866 
512 1:0.262 2:0.58812 3:-0.798667 4:-0.00975 5:0.0794 6:-0.167467 7:0.2008 
512 1:-0.1082 2:0.3986 3:-0.42 4:0.2455 5:1 6:0.202 7:0.7254 
512 1:-0.421 2:0.51368 3:-0.209667 4:0.34 5:0.8904 6:-0.373867 7:0.6572 
512 1:0.1852 2:0.10904 3:-0.013 4:-0.30325 5:-0.2082 6:-0.5456 7:0.7146 
512 1:0.9178 2:0.6994 3:-0.405667 4:0.51775 5:0.3026 6:-0.225867 7:0.2624 
512 1:0.952 2:0.9216 3:-0.678333 4:-0.27725 5:0.1972 6:-0.120533 7:0.369 
512 1:-0.1304 2:0.19828 3:0.042 4:0.335 5:0.8332 6:-0.1988 7:0.662 
512 1:-0.0496 2:0.54848 3:0.714667 4:-0.111 5:0.4849 6:-0.0804 7:0.5324 
512 2:-1 3:-0.0443333 4:0.00525 5:-0.9014 6:-0.656933 7:0.98 
512 1:-0.0572 2:0.3986 3:0.03 4:-0.35925 5:-0.0541 6:-0.344 7:0.2612 
512 1:0.2728 2:-0.22164 3:-0.554667 4:0.131 5:0.6391 6:-0.318133 7:0.34 
512 1:-0.2572 2:0.02596 3:0.323 4:0.24425 5:0.9957 6:-0.0546667 7:0.7216 
512 1:-0.077 2:-0.28328 3:-0.463 4:0.25875 5:0.0794 6:-0.319333 7:0.312 
512 1:-0.3874 2:0.55672 3:-0.052 4:0.1715 5:0.7081 6:0.4308 7:0.5388 
512 1:-0.1904 2:0.41056 3:-0.0693333 4:0.16725 5:0.8904 6:-0.0136 7:0.5364 
512 1:-0.4872 2:-0.07896 3:0.737 4:-0.17325 5:0.3979 6:0.0348 7:0.86 
512 1:0.3334 2:0.2364 3:-0.0263333 4:0.27175 5:0.7081 6:-0.0942667 7:0.2936 
512 1:-0.3422 2:0.28756 3:0.324 4:0.01775 5:0.3979 6:-0.224133 7:0.2356 
512 2:0.10904 3:-0.416667 4:0.232 5:1 6:-0.229733 7:0.2854 
512 1:0.5798 2:1 3:0.0703333 4:-0.89375 5:-0.9014 6:1 7:0.3084 
512 1:0.9376 2:0.3736 3:0.364333 4:0.24625 5:0.7081 6:0.227733 7:0.2194 
512 1:-0.5518 2:0.02596 3:-0.397333 4:0.417 5:1 6:-0.300267 7:0.3692 
512 1:0.3334 2:-0.44548 3:-0.363 4:0.398 5:0.8332 6:-0.256 7:0.34 
512 1:-0.5714 2:0.15616 3:0.42 4:0.12925 5:0.7726 6:0.453067 7:0.67 
512 1:-0.9412 2:-0.56056 3:0.297333 4:0.17675 5:-0.2082 6:0.0393333 7:0.6534 
512 1:0.1076 2:0.4334 3:-0.210667 4:0.12425 5:0.8904 6:0.1328 7:0.3102 
512 1:-0.9354 2:-0.72276 3:0.415333 4:0.32225 5:-0.6137 6:-0.632667 7:0.05 
512 1:0.647 2:0.05564 3:-0.404333 4:0.59625 5:0.1972 6:-0.348 7:0.3114 
512 1:-0.2712 2:0.79992 3:0.292667 4:0.39725 5:0.6391 6:-0.346533 7:0.4386 
512 1:-0.0556 2:0.41056 3:0.449 4:0.3485 5:0.8904 6:-0.323333 7:0.5036 
512 1:-0.4958 2:0.36048 3:0.255667 4:0.26925 5:0.6391 6:-0.0265333 7:0.595 
512 1:0.0746 2:0.4334 3:0.483333 4:0.0595 5:0.5649 6:-0.383867 7:0.3828 
512 1:-0.6886 2:0.30324 3:-0.226 4:-0.19875 5:0.8332 6:-0.108667 7:0.2666 
512 1:-0.2 2:-0.72276 3:-0.579333 4:-0.18375 5:-0.2082 6:0.374267 7:0.17 
512 1:0.1956 2:0.86912 3:-0.37 4:0.1355 5:1 6:-0.5356 7:0.3586 
512 1:1 2:-1 3:-0.02 4:0.052 5:-0.0541 6:-0.4048 7:0.48 
512 1:0.5714 2:0.2364 3:-0.66 4:0.5255 5:0.5649 6:-0.549067 7:0.3336 
512 1:0.2 2:-0.12112 3:-0.218667 4:0.20875 5:0.3026 6:-0.479333 7:0.5 
512 1:-0.4188 2:0.41056 3:-0.814 4:-0.0995 5:0.1972 6:0.115467 7:0.283 
512 1:0.2942 2:0.3986 3:-0.682333 4:0.49475 5:0.4849 6:-0.5032 7:0.3872 
512 1:-0.5542 2:0.44436 3:0.422 4:0.087 5:1 6:-0.213733 7:0.5892 
512 2:-0.56056 3:0.698667 4:0.001 5:0.0794 6:-0.221733 7:0.7 
512 1:-0.1112 2:-0.44548 3:-0.618 4:0.6595 5:-0.6137 6:0.688267 7:0.145 
512 1:-0.122 2:0.4334 3:0.0173333 4:0.16625 5:1 6:-0.0814667 7:0.7572 
512 1:0.1304 2:0.46544 3:-0.263 4:-0.11475 5:-0.9014 6:1 7:0.2288 
512 1:0.984 2:0.92812 3:-0.140667 4:0.08725 5:1 6:0.1812 7:0.444 
512 1:0.0204 2:0.28756 3:0.0543333 4:-0.15175 5:0.0794 6:-0.0154667 7:0.1638 
512 2:-1 3:0.547 4:0.1945 5:1 6:-0.122133 7:0.34 
512 1:0.8888 2:1 3:0.598333 4:0.3495 5:0.3979 6:0.19 7:0.53 
512 2:-1 3:0.432333 4:0.3005 5:0.8332 6:-0.228 7:0.82 
512 1:-0.25 2:-0.56056 3:0.497 4:0.01175 5:0.6391 6:-0.452933 7:0.78 
512 1:1 2:-1 3:-0.470667 4:0.41525 5:-0.0541 6:-0.294533 7:0.56 
512 1:-0.5 2:-0.56056 3:-0.018 4:-0.0265 5:-0.6137 6:-0.455333 7:0.2134 
512 1:-0.8334 2:-1 3:-0.647667 4:0.481 5:-0.9014 6:-0.42 7:0.16 
512 1:-0.5 2:-1 3:0.32 4:-0.06575 5:0.5649 6:-0.164667 7:0.96 
512 1:-0.25 2:-0.56056 3:0.575 4:0.41275 5:0.1972 6:-0.126133 7:0.8266 
512 1:-0.6666 2:-0.35624 3:0.0653333 4:-0.449 5:0.1972 6:-0.363067 7:0.204 
512 1:-0.3684 2:-0.28328 3:0.341333 4:0.274 5:-0.3906 6:-0.5224 7:0.308 
512 1:-0.4 2:-0.28328 3:-0.0303333 4:0.22475 5:0.0794 6:-0.2916 7:0.2534 
512 1:-0.1428 2:-0.56056 3:0.497667 4:0.344 5:0.6391 6:-0.527067 7:0.8334 
512 2:-1 3:-0.863667 4:-0.431 5:-0.9014 6:-0.654667 7:0.32 
512 2:-1 3:0.184 4:0.17025 5:-0.6137 6:-0.618 7:0.52 
512 1:-0.1516 2:0.05564 3:0.225667 4:-0.154 5:0.4849 6:0.0236 7:0.2672 
512 1:-0.1112 2:-0.44548 3:0.173667 4:0.28325 5:0.6391 6:-0.618533 7:0.6 
512 1:-0.9726 2:-0.72276 3:-0.472333 4:0.35475 5:0.0794 6:-0.3664 7:0.62 
512 1:0.1428 2:-0.44548 3:-0.611333 4:0.66 5:-0.3906 6:0.5152 7:0.315 
512 1:1 2:-0.72276 3:-0.0846667 4:0.145 5:-0.6137 6:-0.164 7:0.19 
512 1:0.8962 2:1 3:-0.677333 4:-0.07025 5:1 6:-0.1908 7:0.2864 
512 1:1 2:-1 3:0.465333 4:0.4335 5:0.3979 6:-0.371333 7:0.42 
512 1:-0.374 2:0.4334 3:0.00133333 4:0.362 5:1 6:-0.2476 7:0.4684 
512 1:-0.1112 2:0.51368 3:-0.0466667 4:0.2925 5:1 6:-0.485067 7:0.4928 
512 1:1 2:-0.04084 3:-0.342 4:0.253 5:1 6:-0.0486667 7:0.129 
512 1:0.3334 2:-0.72276 3:0.474333 4:0.3305 5:0.9444 6:-0.174267 7:0.48 
512 1:-0.2 2:-0.72276 3:0.261 4:-0.125 5:0.0794 6:-0.4568 7:0.08 
512 1:-0.6 2:-1 3:0.212333 4:0.0595 5:0.0794 6:-0.7164 7:0.4 
512 2:-0.72276 3:-0.766333 4:0.37325 5:0.7081 6:0.243067 7:0.16 
512 1:-0.5 2:0.15616 3:0.247333 4:0.26075 5:0.6391 6:0.362 7:0.6478 
512 2:-0.72276 3:-0.542667 4:0.081 5:0.8332 6:-0.158267 7:0.72 
512 1:0.9586 2:1 3:-0.590333 4:0.30775 5:0.7081 6:-0.468933 7:0.2834 
512 1:0.0848 2:0.38628 3:-0.383 4:0.26375 5:0.8332 6:-0.0992 7:0.34 
512 1:0.1112 2:-0.35624 3:-0.04 4:0.47075 5:0.1972 6:-0.125333 7:0.228 
512 1:-0.1112 2:-0.44548 3:0.331667 4:0.3145 5:0.3026 6:-0.169467 7:0.365 
512 1:-0.3178 2:0.51368 3:-0.389333 4:0.0325 5:0.6391 6:-0.215867 7:0.389 
512 1:-0.4286 2:-0.72276 3:0.372 4:0.51025 5:-0.2082 6:-0.0597333 7:0.82 
6.158247854235923 1:0.8934 2:1 3:0.467 4:-0.2225 5:0.3979 6:0.0665333 7:0.4784 
512 1:0.3334 2:-0.72276 3:-0.049 4:0.48075 5:0.3026 6:-0.0933333 7:0.51 
512 1:0.3334 2:-0.72276 3:0.169667 4:0.24 5:0.4849 6:-0.092 7:0.55 
512 1:-0.4286 2:-0.72276 3:0.354 4:0.16225 5:-0.6137 6:0.5296 7:0.16 
512 1:0.4674 2:0.99344 3:-0.750667 4:0.053 5:0.7081 6:0.0724 7:0.2168 
512 1:0.4166 2:1 3:-0.862333 4:0.0055 5:1 6:-0.191333 7:0.2382 
512 2:-0.28328 3:0.0726667 4:0.1775 5:0.3979 6:-0.206 7:0.66 
512 1:0.1112 2:-0.35624 3:-0.0943333 4:0.32975 5:-0.2082 6:0.219333 7:0.676 
512 1:-0.3072 2:0.65084 3:-0.286333 4:0.01225 5:0.8332 6:-0.0484 7:0.402 
512 1:-0.3334 2:-0.56056 3:0.34 4:0.17775 5:-0.9014 6:0.134267 7:0.7866 
512 1:0.7306 2:1 3:-0.129667 4:-0.0905 5:1 6:-0.322 7:0.208 
512 2:-1 3:0.39 4:-0.081 5:-0.3906 6:0.191467 7:0.44 
512 1:-0.6666 2:-0.56056 3:0.445333 4:-0.31775 5:-0.6137 6:-0.406 7:0.6534 
512 2:-0.56056 3:-0.829 4:0.276 5:0.9957 6:-0.212133 7:0.4934 
512 1:0.1666 2:-0.22164 3:-0.016 4:0.14925 5:0.1972 6:-0.453067 7:0.4742 
512 1:0.149 2:0.31832 3:0.0183333 4:0.29775 5:0.7081 6:-0.3996 7:0.3838 
512 1:0.804 2:0.53144 3:0.191 4:0.2165 5:0.7726 6:0.1128 7:0.2648 
512 1:0.9184 2:1 3:-0.472 4:0.11575 5:1 6:-0.479067 7:0.2838 
512 1:1 2:-1 3:0.65 4:-0.01775 5:0.4849 6:-0.435733 7:0.22 
512 1:0.8442 2:1 3:0.447667 4:0.0205 5:1 6:-0.166267 7:0.4344 
512 1:0.1112 2:0.36048 3:-0.385333 4:0.0175 5:0.9444 6:0.678667 7:0.2306 
512 1:0.3334 2:-0.72276 3:-0.927667 4:-0.3405 5:-0.9014 6:0.489333 7:0.27 
512 1:0.0408 2:0.57272 3:0.628667 4:0.037 5:-0.3906 6:-0.0208 7:0.5768 
512 1:-0.1112 2:-0.44548 3:-0.443667 4:0.1065 5:-0.3906 6:0.4416 7:0.255 
512 1:-0.3334 2:-1 3:0.156667 4:0.037 5:0.3979 6:-0.5392 7:0.7 
512 1:-0.5 2:-1 3:-0.404667 4:0.34175 5:0.0794 6:-0.540133 7:0.5 
512 1:-0.5 2:-1 3:-0.965333 4:0.18575 5:-0.9014 6:-0.540933 7:0.48 
512 1:-0.7298 2:-0.35624 3:0.502667 4:-0.36475 5:0.7081 6:-0.332533 7:0.452 
512 1:-0.5 2:-1 3:-0.885667 4:0.4295 5:-0.6137 6:0.462667 7:0.16 
512 2:-0.35624 3:-0.960667 4:0.31625 5:0.7081 6:-0.378667 7:0.636 
512 1:-0.149 2:0.19828 3:0.0263333 4:0.17525 5:0.9444 6:-0.143467 7:0.654 
512 1:1 2:-1 3:-0.0196667 4:0.30275 5:0.1972 6:-0.464933 7:0.46 
512 1:-0.5322 2:0.47556 3:-0.380667 4:0.4085 5:0.9444 6:-0.578133 7:0.733 
506.9878473893581 1:1 2:-1 3:-0.193667 4:0.21625 5:0.0794 6:-0.553733 7:0.54 
512 2:0.15616 3:0.423333 4:0.21525 5:1 6:-0.506267 7:0.5044 
512 2:-1 3:-0.900333 4:0.37725 5:0.4849 6:-0.301733 7:0.34 
512 1:0.875 2:1 3:-0.141667 4:0.0225 5:1 6:-0.442933 7:0.2522 
512 1:-0.2084 2:0.17776 3:0.447 4:0.244 5:-0.3906 6:-0.501867 7:0.5768 
512 2:-0.56056 3:0.378333 4:-0.2645 5:-0.6137 6:-0.420933 7:0.2534 
512 1:-0.6666 2:-1 3:0.463333 4:0.3085 5:-0.2082 6:-0.464667 7:0.36 
31.44991272089829 1:1 2:-0.56056 3:-0.558667 4:0.26475 5:0.7726 6:-0.664 7:0.3734 
512 2:-0.56056 3:0.432333 4:0.17525 5:0.5649 6:0.0873333 7:0.8334 
512 1:-0.5 2:-0.72276 3:-0.458 4:0.09975 5:-0.3906 6:-0.661333 7:0.75 
512 1:-0.2 2:-0.72276 3:0.0433333 4:0.205 5:-0.2082 6:-0.109067 7:0.44 
512 1:-0.2 2:-0.72276 3:-0.173 4:-0.032 5:-0.2082 6:-0.0297333 7:0.05 
512 1:-0.5 2:-0.56056 3:-0.00733333 4:-0.126 5:0.0794 6:-0.0642667 7:0.5866 
512 1:-0.2728 2:-0.44548 3:-0.904667 4:0.0215 5:0.6391 6:-0.3952 7:0.275 
512 1:-0.2 2:-0.72276 3:0.599333 4:0.46925 5:-0.2082 6:-0.147067 7:0.75 
512 1:-0.2 2:-0.72276 3:0.632 4:-0.21275 5:0.1972 6:-0.1976 7:0.77 
512 1:-0.3034 2:0.3736 3:-0.330667 4:0.2645 5:1 6:0.0328 7:0.6104 
512 2:-1 3:-0.602333 4:0.6075 5:-0.3906 6:-0.505067 7:0.62 
512 1:0.2 2:-0.56056 3:-0.618667 4:0.62775 5:-0.3906 6:0.472267 7:0.38 
512 1:-0.3334 2:-0.56056 3:0.682667 4:0.50625 5:-0.9014 6:-0.5924 7:0.7534 
512 1:0.913 2:0.67588 3:0.490667 4:0.07925 5:0.9957 6:0.1544 7:0.4534 
512 1:-0.5604 2:0.19828 3:0.280667 4:-0.2805 5:-0.0541 6:-0.154133 7:0.387 
512 1:-0.6666 2:-1 3:0.667333 4:-0.296 5:0.1972 6:-0.337867 7:0.86 
512 1:0.89 2:0.85388 3:-0.364 4:0.463 5:0.7726 6:-0.0656 7:0.251 
512 1:-0.3116 2:0.58812 3:-0.425667 4:-0.21275 5:0.5649 6:0.248667 7:0.4456 
512 1:-0.3914 2:-0.22164 3:-0.206 4:0.43775 5:0.7081 6:-0.211333 7:0.4114 
512 1:-0.5334 2:-0.22164 3:0.112333 4:0.0395 5:0.5649 6:-0.193067 7:0.2714 
512 1:0.5 2:-0.56056 3:0.463667 4:-0.12825 5:0.3979 6:0.515733 7:0.14 
512 1:1 2:-0.56056 3:0.599 4:0.085 5:0.0794 6:0.615467 7:0.5934 
512 1:-0.2308 2:0.28756 3:-0.857 4:-0.052 5:0.1972 6:-0.208 7:0.34 
512 1:1 2:-0.35624 3:-0.177667 4:0.18575 5:0.7081 6:-0.421067 7:0.232 
512 1:-0.5 2:-0.72276 3:-0.666667 4:0.227 5:0.1972 6:-0.432533 7:0.32 
512 2:-0.44548 3:-0.431667 4:0.36675 5:0.6391 6:0.0592 7:0.415 
512 1:0.4476 2:0.95008 3:-0.189667 4:-0.3105 5:0.1972 6:-0.130267 7:0.2488 
512 2:-0.72276 3:0.532 4:0.3785 5:0.0794 6:-0.5628 7:0.84 
512 1:-0.1594 2:0.34692 3:0.517667 4:0.076 5:0.5649 6:0.0604 7:0.3752 
512 1:0.979 2:1 3:-0.496667 4:0.13725 5:0.7726 6:-0.319067 7:0.2574 
512 1:-0.6364 2:-0.72276 3:0.622667 4:-0.20325 5:-0.2082 6:-0.3076 7:0.41 
512 1:-0.5 2:-1 3:0.381667 4:0.11025 5:0.5649 6:-0.1828 7:0.72 
512 1:-0.4122 2:0.80872 3:-0.937 4:0.355 5:0.4849 6:-0.6816 7:0.3508 
512 1:0.8888 2:0.13328 3:-0.879333 4:0.25225 5:0.8904 6:-0.3464 7:0.1988 
512 1:-0.8796 2:-0.35624 3:0.600333 4:0.03325 5:0.3979 6:0.0854667 7:0.288 
512 1:1 2:-1 3:-0.392667 4:-0.30825 5:-0.2082 6:-0.480933 7:0.48 
512 1:0.25 2:0.19828 3:-0.308 4:-0.19825 5:-0.0541 6:-0.105867 7:0.3056 
512 2:-0.56056 3:-0.991333 4:-0.1935 5:0.3026 6:-0.395467 7:0.64 
512 1:-0.8206 2:-0.22164 3:0.398 4:-0.06875 5:0.7726 6:-0.298267 7:0.44 
512 1:-0.923 2:-1 3:-0.0743333 4:-0.56725 5:-0.9014 6:-0.2516 7:0.02 
512 1:0.5438 2:0.79092 3:-0.338667 4:0.032 5:0.5649 6:-0.492 7:0.1614 
512 1:0.077 2:-0.22164 3:-0.101 4:0.1565 5:0.9444 6:-0.5412 7:0.0972 
512 1:0.8182 2:0.63772 3:-0.297 4:0.15775 5:0.6391 6:-0.295333 7:0.199 
512 1:-0.2 2:-0.72276 3:0.437 4:0.36825 5:0.9444 6:-0.238933 7:0.5 
512 1:-0.3888 2:-0.04084 3:0.115333 4:-0.403 5:0.3026 6:0.316133 7:0.2146 
512 1:-0.5 2:-1 3:-0.172 4:-0.612 5:-0.6137 6:-0.4936 7:0.84 
512 1:-0.4604 2:0.57272 3:0.411333 4:-0.06625 5:1 6:0.228533 7:0.426 
512 1:0.5 2:-0.56056 3:-0.854667 4:0.07775 5:0.5649 6:-0.569067 7:0.4134 
512 1:1 2:-1 3:-0.646667 4:0.33375 5:0.3026 6:-0.236267 7:0.5 
512 1:-0.9436 2:-0.44548 3:-0.06 4:-0.501 5:-0.6137 6:0.148933 7:0.24 
512 1:-0.7648 2:-0.72276 3:-0.762667 4:0.0875 5:-0.3906 6:-0.3344 7:0.4 
512 1:0.8682 2:0.77708 3:0.150667 4:-0.14375 5:0.5649 6:0.141067 7:0.2772 
512 2:-0.56056 3:-0.385 4:0.291 5:0.3979 6:-0.4984 7:0.1934 
512 1:1 2:-1 3:-0.482333 4:0.64125 5:-0.9014 6:0.816 7:0.42 
512 1:-0.8334 2:-1 3:0.525 4:-0.6855 5:-0.9014 6:0.461333 7:0.18 
512 2:-0.72276 3:-0.215667 4:0.66875 5:-0.3906 6:0.0706667 7:0.51 
512 1:-0.6666 2:-0.72276 3:-0.650333 4:-0.35 5:0.0794 6:-0.244 7:0.62 
512 1:-0.2728 2:-0.16824 3:-0.354667 4:0.00475 5:0.8904 6:-0.172133 7:0.75 
512 1:-0.7142 2:-0.28328 3:-0.276667 4:-0.5985 5:-0.3906 6:0.504533 7:0.308 
512 1:-0.8 2:-1 3:0.051 4:0.7095 5:-0.9014 6:-0.531067 7:0.06 
512 1:-0.3334 2:-1 3:-0.279667 4:0.6485 5:-0.6137 6:-0.320933 7:0.66 
512 1:1 2:-1 3:-0.510667 4:0.6065 5:-0.6137 6:-0.0316 7:0.6 
-512 1:-0.3334 2:-1 3:0.434333 4:0.386 5:0.0794 6:-0.4812 7:0.38 
-512 1:-0.282 2:0.05564 3:0.461667 4:0.38625 5:0.9957 6:-0.530133 7:0.44 
-512 1:0.75 2:0.33288 3:-0.0266667 4:0.0915 5:1 6:-0.168533 7:0.2386 
-359.2724002023283 1:-0.9968 2:-1 3:-0.248667 4:-0.37175 5:-0.9014 6:-0.74 7:0.12 
-512 1:-0.282 2:0.05564 3:0.598 4:-0.0495 5:0.6391 6:-0.283867 7:0.3542 
-512 1:0.3636 2:0.79992 3:0.149667 4:-0.111 5:0.6391 6:0.165467 7:0.3898 
-512 2:0.02596 3:-0.523333 4:0.3 5:0.6391 6:0.0558667 7:0.3466 
-282.0246879037148 1:-0.9966 2:-1 3:-0.313667 4:-0.029 5:-0.9014 6:-0.402267 7:0.14 
-512 1:-0.3334 2:-1 3:0.654667 4:0.2055 5:0.7726 6:-0.2236 7:0.74 
-512 1:0.5 2:-0.56056 3:-0.711 4:0.62875 5:0.3979 6:-0.734 7:0.41 
-512 1:-0.4166 2:-0.22164 3:0.0296667 4:0.17175 5:0.9957 6:-0.3296 7:0.6914 
-512 1:1 2:-1 3:-0.953667 4:0.28575 5:-0.3906 6:-0.449067 7:0.34 
-512 1:-0.2728 2:-0.44548 3:-0.732667 4:0.256 5:0.0794 6:-0.429467 7:0.4266 
-512 1:-0.3334 2:-0.72276 3:0.471 4:-0.084 5:0.8904 6:-0.0568 7:0.49 
-512 1:-0.4334 2:0.13328 3:0.435333 4:0.19725 5:0.0794 6:-0.308 7:0.3784 
-512 1:-0.5 2:-1 3:0.524333 4:-0.16375 5:0.7081 6:-0.0737333 7:0.88 
-512 1:0.5 2:-0.56056 3:-0.566 4:0.11375 5:0.3979 6:-0.599867 7:0.35 
-512 1:0.4 2:-0.22164 3:-0.550333 4:0.13175 5:0.4849 6:0.2192 7:0.1766 
-512 1:0.7334 2:0.02596 3:0.0163333 4:0.3975 5:-0.0541 6:0.0978667 7:0.2934 
-512 1:0.3334 2:-0.72276 3:0.441 4:-0.1505 5:-0.9014 6:-0.809733 7:0.5 
-401.772550618345 1:-0.3334 2:-1 3:0.478333 4:0.54075 5:-0.6137 6:-0.536 7:0.7 
-512 1:0.3438 2:0.78172 3:0.282 4:0.08825 5:0.5649 6:0.239067 7:0.6808 
-512 1:-0.4928 2:0.42212 3:0.236 4:0.057 5:0.9957 6:-0.259467 7:0.584 
-512 1:-0.375 2:-0.35624 3:-0.330333 4:0.21775 5:-0.0541 6:-0.576133 7:0.66 
-512 1:-0.4202 2:0.19828 3:0.416667 4:-0.106 5:-0.0541 6:-0.675067 7:0.745 
-512 1:-0.3824 2:0.2178 3:0.347333 4:0.1035 5:-0.3906 6:-0.157067 7:0.6904 
-67.73600103512995 1:-0.5094 2:0.30324 3:-0.441 4:-0.35475 5:0.8904 6:-0.1388 7:0.71 
-512 1:-0.3926 2:0.66976 3:-0.285333 4:0.07075 5:1 6:-0.333067 7:0.3182 
-512 1:-0.9966 2:-1 3:0.266333 4:-0.30975 5:-0.9014 6:-0.344 7:0.08 
-512 1:1 2:-1 3:-0.402333 4:0.49375 5:-0.9014 6:-0.416 7:0.86 
-512 1:-0.3334 2:-0.72276 3:0.253667 4:-0.00725 5:0.0794 6:-0.0708 7:0.76 
-512 1:-0.3766 2:0.27124 3:-0.154 4:0.1145 5:1 6:-0.0222667 7:0.5454 
-512 1:0.9016 2:1 3:0.008 4:0.1515 5:0.9957 6:-0.419333 7:0.4344 
-512 1:-0.5 2:-0.56056 3:0.519333 4:-0.0905 5:0.3026 6:-0.100133 7:0.58 
-512 1:-0.25 2:-0.56056 3:0.233333 4:0.51825 5:0.0794 6:-0.664133 7:0.56 
-512 1:-0.5 2:-0.72276 3:-0.969 4:0.10475 5:0.5649 6:-0.517733 7:0.54 
-512 1:-0.625 2:-0.12112 3:0.231333 4:0.17625 5:0.7726 6:-0.383867 7:0.7334 
-512 1:-0.6522 2:-0.44548 3:-0.148 4:0.3255 5:0.5649 6:-0.248933 7:0.8 
-512 1:0.8096 2:0.17776 3:0.0513333 4:-0.05475 5:0.5649 6:-0.407733 7:0.3554 
-512 1:1 2:0.13328 3:0.574667 4:0.26125 5:0.3979 6:-0.3956 7:0.392 
-512 2:-1 3:-0.433 4:0.182 5:-0.0541 6:0.543067 7:0.14 
-512 1:0.5136 2:0.33288 3:-0.365 4:0.06325 5:0.3026 6:-0.245333 7:0.1444 
-512 1:-0.4286 2:-0.72276 3:0.604333 4:0.0035 5:-0.6137 6:-0.0309333 7:0.46 
-512 1:-0.3076 2:0.15616 3:0.0986667 4:0.0445 5:0.9957 6:-0.5276 7:0.45 
-512 1:-0.4706 2:-0.12112 3:0.0843333 4:0.10575 5:0.9957 6:0.3068 7:0.4622 
-512 1:-0.099 2:0.48544 3:-0.181667 4:-0.22725 5:1 6:-0.126933 7:0.5052 
-512 1:-0.5 2:-1 3:-0.275 4:-0.4745 5:-0.2082 6:-0.181733 7:0.42 
-512 1:-0.077 2:-0.28328 3:-0.0156667 4:0.35575 5:0.5649 6:-0.346267 7:0.28 
-452.7299553382666 1:-0.5 2:-1 3:-0.269333 4:-0.53675 5:-0.3906 6:-0.4408 7:0.42 
-512 1:-0.5 2:-1 3:-0.269333 4:-0.59725 5:-0.2082 6:-0.412933 7:0.42 
-512 1:-0.0974 2:0.79092 3:-0.144333 4:-0.36675 5:0.3026 6:-0.124133 7:0.3424 
-94.2272727441905 1:-0.9958 2:-1 3:-0.787 4:0.652 5:-0.9014 6:0.4404 7:0.04 
-512 1:0.2 2:-0.56056 3:0.515667 4:0.078 5:0.7726 6:0.211067 7:0.65 
-512 1:-0.3714 2:-0.04084 3:0.142667 4:-0.295 5:-0.3906 6:-0.131733 7:0.652 
-52.49783577310894 1:-0.2444 2:0.13328 3:-0.907667 4:-0.05725 5:0.0794 6:-0.6872 7:0.5458 
-512 1:0.9018 2:1 3:0.449667 4:0.259 5:0.8332 6:-0.419867 7:0.725 
-512 1:-0.625 2:-0.12112 3:0.208 4:0.1205 5:0.7726 6:-0.2428 7:0.74 
-512 1:-0.2 2:-0.00604 3:0.063 4:0.22125 5:0.8332 6:0.034 7:0.4764 
-512 1:-0.1112 2:0.38628 3:0.425667 4:-0.16825 5:-0.0541 6:-0.0258667 7:0.365 
-512 1:-0.5 2:-1 3:-0.0596667 4:0.39025 5:-0.0541 6:-0.358133 7:0.54 
-512 1:0.3334 2:-0.72276 3:0.451 4:0.28175 5:0.3979 6:-0.301733 7:0.38 
-246.2381426127293 1:-0.3334 2:-1 3:0.701 4:0.1495 5:0.6391 6:-0.198267 7:0.38 
-512 1:0.4546 2:-0.16824 3:-0.266333 4:-0.02775 5:0.1972 6:0.459867 7:0.712 
-512 1:0.4566 2:0.93452 3:0.0103333 4:0.03125 5:0.7726 6:-0.148133 7:0.3322 
-512 1:0.3158 2:0.28756 3:-0.285 4:-0.10325 5:-0.9014 6:-0.5836 7:0.3154 
-512 1:-0.4286 2:-0.72276 3:-0.0903333 4:-0.08425 5:-0.3906 6:0.170933 7:0.42 
-512 1:1 2:-1 3:-0.618333 4:0.595 5:-0.9014 6:0.576 7:0.06 
-512 2:-1 3:-0.624667 4:0.06775 5:-0.6137 6:-0.345333 7:0.7 
-409.2464841059003 2:-1 3:-0.609 4:0.59925 5:-0.9014 6:0.576 7:0.18 
-512 1:-0.5556 2:-0.72276 3:0.305 4:0.2775 5:0.0794 6:-0.0753333 7:0.82 
-512 1:1 2:-1 3:0.669333 4:0.1265 5:-0.6137 6:0.0209333 7:0.52 
-512 1:0.3846 2:-0.12112 3:0.252333 4:0.0225 5:0.0794 6:-0.2648 7:0.5572 
-512 1:0.8334 2:0.95312 3:0.282333 4:0.28825 5:0.1972 6:-0.618933 7:0.4492 
-512 1:-0.5 2:-0.72276 3:-0.0243333 4:0.15075 5:-0.0541 6:-0.256933 7:0.61 
-512 1:0.3334 2:-0.72276 3:-0.985667 4:-0.13075 5:-0.6137 6:-0.159733 7:0.1 
-512 1:1 2:-1 3:0.177333 4:0.40875 5:-0.2082 6:-0.00266667 7:0.92 
-512 1:0.829 2:0.86912 3:0.140667 4:-0.113 5:1 6:-0.156267 7:0.3124 
-333.5735639036945 1:-0.6 2:-1 3:-0.535333 4:0.62375 5:0.0794 6:-0.236 7:0.76 
-512 1:1 2:-0.72276 3:-0.277333 4:0.469 5:0.6391 6:-0.1724 7:0.09 
-512 1:-0.5 2:-1 3:0.326667 4:-0.076 5:-0.0541 6:-0.491467 7:0.68 
-512 1:-0.5 2:-1 3:0.466 4:0.13225 5:-0.3906 6:-0.2872 7:0.7 
-512 1:0.75 2:-0.22164 3:-0.97 4:0.3775 5:0.9957 6:-0.264133 7:0.2742 
-512 1:0.8 2:-0.12112 3:0.281 4:0.2555 5:0.1972 6:-0.272133 7:0.1866 
-512 1:0.6364 2:-0.12112 3:-0.972667 4:0.39375 5:0.4849 6:-0.529733 7:0.42 
-512 1:-0.5 2:-1 3:-0.510667 4:0.6035 5:0.0794 6:-0.167733 7:0.82 
-512 2:-1 3:0.723667 4:0.4095 5:0.4849 6:-0.3164 7:0.8 
-512 1:1 2:-0.72276 3:-0.581667 4:0.3795 5:0.1972 6:-0.4788 7:0.08 
-512 1:-0.1428 2:-0.56056 3:0.0696667 4:0.04425 5:0.7726 6:0.140267 7:0.2266 
-295.1232440272109 1:-0.5156 2:0.46544 3:-0.506667 4:0.119 5:0.9957 6:-0.164933 7:0.5022 
-512 1:0.0834 2:0.30324 3:-0.821 4:0.284 5:1 6:-0.032 7:0.5746 
-512 1:-0.2858 2:0.60292 3:0.0783333 4:-0.07125 5:0.7081 6:-0.2948 7:0.488 
-512 1:-0.5 2:-1 3:0.120333 4:0.0655 5:0.3979 6:-0.506 7:0.58 
-512 1:-0.3334 2:-0.56056 3:-0.189667 4:0.21825 5:0.6391 6:-0.4928 7:0.54 
-512 2:-1 3:-0.286 4:0.28925 5:-0.6137 6:-0.687733 7:0.68 
-73.0139108551155 1:-0.4636 2:0.6994 3:-0.417667 4:0.452 5:0.8904 6:-0.383067 7:0.37 
-512 1:-0.5 2:-1 3:0.42 4:0.414 5:-0.3906 6:-0.530133 7:0.76 
-512 2:-1 3:0.403 4:-0.501 5:-0.9014 6:-0.0564 7:0.84 
-512 1:-0.4616 2:-0.22164 3:0.063 4:0.41825 5:-0.2082 6:-0.608933 7:0.6142 
-512 1:0.5 2:-0.56056 3:0.0723333 4:-0.06925 5:0.0794 6:0.0664 7:0.2866 
-512 1:-0.3334 2:-1 3:-0.0343333 4:0.5385 5:-0.6137 6:0.701333 7:0.66 
-512 2:0.08324 3:-0.76 4:-0.092 5:0.1972 6:-0.0424 7:0.26 
-512 1:-0.4312 2:0.3736 3:0.128 4:0.2155 5:0.4849 6:0.235333 7:0.502 
-512 1:0.091 2:-0.00604 3:-0.733333 4:0.16475 5:0.9957 6:-0.144267 7:0.3284 
-512 1:-0.3334 2:-1 3:-0.00266667 4:0.176 5:-0.3906 6:-0.497867 7:0.44 
-512 1:-0.3334 2:-1 3:0.461 4:0.34875 5:0.1972 6:-0.748 7:0.66 
-512 1:0.2052 2:0.54004 3:-0.538 4:0.38625 5:0.8332 6:0.0484 7:0.451 
-512 1:-0.2942 2:0.4334 3:-0.782333 4:-0.1025 5:0.8332 6:-0.160133 7:0.4476 
-512 1:-0.0666 2:-0.22164 3:-0.371333 4:-0.233 5:0.3026 6:0.153067 7:0.3534 
-512 1:1 2:-1 3:0.252333 4:-0.0525 5:-0.6137 6:0.120267 7:0.4 
-512 1:-0.6 2:-0.44548 3:0.612 4:0.38425 5:0.1972 6:-0.0590667 7:0.5734 
-512 1:0.9334 2:0.78636 3:-0.317333 4:0.1845 5:1 6:-0.1136 7:0.5412 
-512 1:-0.3024 2:0.08324 3:0.415 4:0.097 5:0.7726 6:-0.1556 7:0.328 
-512 1:-0.9958 2:-1 3:0.02 4:-0.21625 5:-0.9014 6:-0.647067 7:0.1 
-512 1:0.8666 2:1 3:-0.14 4:0.11 5:1 6:-0.118933 7:0.318 
-512 1:1 2:0.2364 3:0.065 4:0.10175 5:0.6391 6:0.08 7:0.2046 
-68.91584245726986 2:-1 3:0.091 4:-0.046 5:-0.2082 6:-0.106267 7:0.18 
-512 1:-0.1538 2:-0.04084 3:-0.595667 4:-0.11125 5:0.7081 6:0.191733 7:0.2128 
-512 1:-0.4 2:0.27124 3:-0.142667 4:-0.0065 5:1 6:0.00213333 7:0.5618 
-512 1:-0.5 2:-1 3:-0.559667 4:0.64275 5:0.0794 6:-0.1544 7:0.96 
-512 1:0.9616 2:0.57272 3:-0.734333 4:0.1275 5:0.9957 6:-0.389733 7:0.6088 
-512 1:-0.1112 2:-0.16824 3:-0.0966667 4:0.11225 5:-0.0541 6:-0.504133 7:0.1174 
-512 2:-1 3:0.166333 4:0.3285 5:-0.9014 6:-0.7284 7:0.58 
-512 1:-0.4 2:-0.56056 3:-0.568 4:0.0575 5:-0.0541 6:0.1124 7:0.68 
-512 1:0.6908 2:1 3:-0.376 4:0.008 5:1 6:-0.0998667 7:0.347 
-512 1:-0.36 2:0.27124 3:0.43 4:0.25975 5:0.8332 6:-0.529467 7:0.3534 
-512 1:0.7692 2:0.53144 3:0.313333 4:0.147 5:0.8332 6:-0.431067 7:0.654 
-512 1:0.921 2:1 3:-0.01 4:0.18975 5:1 6:-0.259333 7:0.55 
-512 1:0.54 2:1 3:0.316333 4:0.039 5:0.8332 6:-0.448667 7:0.3228 
-512 1:-0.5 2:-1 3:-0.501667 4:0.5895 5:0.0794 6:-0.134 7:0.94 
-512 1:-0.434 2:0.36048 3:0.619333 4:0.00725 5:0.0794 6:-0.2108 7:0.7046 
-512 1:0.8298 2:0.50448 3:-0.848 4:0.13675 5:0.8904 6:0.0889333 7:0.1568 
-512 1:-0.1924 2:0.2178 3:-0.182667 4:0.09975 5:0.0794 6:-0.198133 7:0.241 
-512 1:-0.3334 2:-1 3:-0.126333 4:0.19925 5:0.3979 6:0.0508 7:0.54 
-512 1:-0.3182 2:0.08324 3:-0.048 4:-0.169 5:-0.2082 6:-0.322 7:0.5742 
-512 1:0.6666 2:-0.35624 3:0.0316667 4:0.14 5:0.5649 6:0.0526667 7:0.3 
-512 1:-0.7 2:-0.56056 3:0.708 4:0.30375 5:0.3979 6:-0.694267 7:0.8734 
-512 1:-0.2 2:-0.44548 3:0.123333 4:0.50875 5:0.7726 6:-0.375467 7:0.25 
-512 1:-0.2728 2:-0.44548 3:-0.190333 4:0.2815 5:-0.2082 6:-0.6784 7:0.425 
-512 1:0.4074 2:0.17776 3:0.373 4:0.06325 5:0.5649 6:-0.084 7:0.3472 
-512 1:0.8948 2:0.87284 3:-0.468333 4:-0.00825 5:1 6:-0.3824 7:0.2238 
-512 1:0.8396 2:1 3:0.269667 4:0.29425 5:1 6:-0.5508 7:0.4974 
-512 1:-0.3696 2:0.34692 3:0.483 4:0.39875 5:0.0794 6:0.434 7:0.5846 
-512 1:0.5 2:-0.56056 3:-0.537667 4:0.1975 5:0.4849 6:-0.565467 7:0.16 
-512 1:-0.6 2:-0.72276 3:0.813667 4:0.32775 5:0.0794 6:-0.7448 7:0.64 
-512 1:-0.4238 2:0.13328 3:-0.621333 4:0.27375 5:0.3979 6:-0.348667 7:0.5152 
-512 1:-0.5 2:-0.72276 3:0.451667 4:-0.316 5:-0.2082 6:-0.605067 7:0.77 
-512 1:0.898 2:0.81304 3:0.652 4:-0.04775 5:0.6391 6:0.0110667 7:0.455 
-512 1:-0.5 2:-1 3:0.273 4:0.276 5:-0.0541 6:-0.0894667 7:0.98 
-512 2:-1 3:0.422 4:0.34775 5:0.8332 6:-0.279867 7:0.8 
-512 2:-1 3:0.616333 4:0.066 5:0.6391 6:0.0184 7:0.92 
-512 1:-0.4546 2:-0.28328 3:0.092 4:0.41475 5:0.4849 6:0.164267 7:0.684 
-512 1:0.25 2:0.19828 3:-0.759333 4:0.32625 5:0.3979 6:-0.302 7:0.1822 
-512 1:0.7142 2:-0.00604 3:0.403667 4:-0.079 5:-0.0541 6:0.145733 7:0.525 
-512 1:-0.4312 2:0.3736 3:0.724333 4:0.3365 5:0.1972 6:0.427867 7:0.2716 
-409.8034024586095 1:-0.9968 2:-1 3:-0.366667 4:0.434 5:-0.9014 6:-0.187067 7:0.06 
-512 1:0.7142 2:-0.28328 3:-0.703333 4:0.22375 5:0.5649 6:-0.134133 7:0.42 
-512 1:-0.48 2:0.02596 3:-0.0306667 4:0.3985 5:1 6:-0.204133 7:0.6354 
-512 2:-1 3:0.302667 4:0.0255 5:0.9957 6:-0.233333 7:0.72 
-512 1:-0.997 2:-1 3:-0.001 4:0.2145 5:-0.9014 6:-0.0986667 7:0.1 
-512 1:-0.0834 2:-0.04084 3:-0.0346667 4:0.01075 5:-0.2082 6:-0.5736 7:0.214 
-512 1:-0.3684 2:-0.28328 3:-0.812 4:0.013 5:0.0794 6:-0.562533 7:0.488 
-512 2:-0.72276 3:0.357 4:-0.14425 5:0.1972 6:0.1948 7:0.47 
-512 1:0.2 2:-0.56056 3:-0.427667 4:0.06875 5:1 6:-0.272 7:0.16 
-512 1:0.1666 2:-0.22164 3:0.557333 4:0.3825 5:0.7726 6:-0.0765333 7:0.0914 
-512 1:-0.3734 2:0.54004 3:0.245333 4:0.16525 5:0.4849 6:0.2108 7:0.4896 
-512 1:-0.1852 2:-0.04084 3:0.444667 4:0.01375 5:0.0794 6:-0.629467 7:0.431 
-512 1:0.9216 2:1 3:0.0456667 4:0.1295 5:1 6:-0.5052 7:0.5002 
-512 1:0.7514 2:1 3:0.284 4:-0.08525 5:0.5649 6:-0.4404 7:0.3666 
-304.1337495048246 1:-0.2162 2:0.62416 3:-0.248667 4:0.43675 5:-0.2082 6:-0.648267 7:0.6116 
-512 1:-0.75 2:-1 3:-0.977 4:0.3535 5:0.3026 6:-0.543333 7:0.72 
-512 1:-0.1388 2:0.3736 3:-0.372333 4:0.015 5:-0.2082 6:-0.477067 7:0.4166 
-512 2:-1 3:0.308667 4:0.353 5:-0.3906 6:-0.0152 7:0.34 
-512 1:-0.3334 2:-0.56056 3:-0.700667 4:0.2465 5:0.0794 6:-0.398667 7:0.33 
-512 1:0.1428 2:-0.44548 3:-0.142667 4:0.4505 5:0.5649 6:0.142933 7:0.205 
-512 1:-0.994 2:-1 3:-0.137333 4:0.0945 5:-0.9014 6:-0.3436 7:0.12 
-512 1:0.1428 2:0.27124 3:-0.255667 4:-0.137 5:0.6391 6:-0.6164 7:0.129 
-174.1612350357645 1:-0.3334 2:-0.72276 3:0.595 4:0.25675 5:-0.9014 6:-0.3396 7:0.58 
-512 1:-0.5918 2:-0.07896 3:0.287333 4:0.26125 5:0.7081 6:-0.407467 7:0.664 
-512 1:-0.5 2:-1 3:-0.504333 4:0.1105 5:0.4849 6:-0.444133 7:0.6 
-512 1:0.3334 2:-0.00604 3:-0.714333 4:0.32825 5:0.7081 6:-0.196667 7:0.3116 
-512 1:-0.409 2:0.02596 3:0.365 4:0.37175 5:-0.2082 6:1 7:0.3554 
-512 1:-0.1346 2:0.52268 3:0.604667 4:-0.239 5:-0.9014 6:0.2124 7:0.3168 
-512 1:-0.5064 2:0.17776 3:0.232333 4:-0.0705 5:0.7081 6:0.0412 7:0.7106 
-512 1:0.8368 2:0.52268 3:-0.225333 4:0.2425 5:0.5649 6:-0.513067 7:0.2332 
-512 2:-1 3:-0.905 4:0.104 5:0.0794 6:-0.0977333 7:0.28 
-512 2:-1 3:-0.905 4:0.25675 5:0.0794 6:-0.192667 7:0.28 
-512 1:1 2:-0.56056 3:-0.438 4:0.1885 5:0.7081 6:-0.3232 7:0.16 
-512 1:-0.9968 2:-1 3:-0.257 4:0.03825 5:-0.9014 6:-0.0364 7:0.12 
-512 1:-0.983 2:-1 3:-0.812 4:-0.07975 5:-0.6137 6:0.957333 7:0.2 
-512 1:0.5556 2:0.05564 3:0.244667 4:-0.04175 5:0.1972 6:0.264133 7:0.2658 
-512 1:0.657 2:1 3:-0.129333 4:-0.03475 5:1 6:-0.399867 7:0.216 
-512 1:-0.5 2:-0.56056 3:0.660667 4:0.102 5:-0.2082 6:-0.538933 7:0.7334 
-512 1:-0.9964 2:-1 3:-0.319333 4:-0.21025 5:-0.6137 6:-0.780667 7:0.28 
-512 1:-0.1724 2:-0.00604 3:-0.0806667 4:0.271 5:0.1972 6:-0.582933 7:0.4984 
-512 1:1 2:-0.72276 3:0.617 4:0.04625 5:0.3026 6:-0.503467 7:0.15 
-512 1:0.55 2:0.65084 3:-0.953 4:-0.12225 5:0.6391 6:-0.351467 7:0.4024 
-512 1:-0.4 2:-0.56056 3:-0.608667 4:-0.04 5:-0.2082 6:-0.2904 7:0.48 
-186.8946588663449 1:-0.3704 2:0.13328 3:0.258333 4:0.20175 5:-0.3906 6:0.0544 7:0.2138 
-424.7243912675962 1:-0.4418 2:0.27124 3:0.705667 4:0.12575 5:-0.0541 6:-0.403067 7:0.5166 
-512 1:0.0588 2:-0.12112 3:0.145 4:-0.272 5:0.7726 6:-0.2836 7:0.7424 
-512 1:-0.2 2:-0.44548 3:0.395667 4:0.28625 5:0.1972 6:-0.335467 7:0.675 
-25.19970435460337 1:-0.9966 2:-1 3:-0.381667 4:-0.075 5:-0.6137 6:-0.795333 7:0.28 
-512 1:-0.5 2:-1 3:0.572667 4:0.21475 5:-0.0541 6:-0.658267 7:0.86 
-512 1:-0.5 2:-1 3:0.572667 4:0.36025 5:-0.0541 6:-0.400533 7:0.86 
-512 1:0.3846 2:-0.12112 3:0.0863333 4:0.216 5:0.8332 6:-0.5228 7:0.2422 
-512 1:-0.2052 2:0.3736 3:0.110333 4:0.04075 5:0.9957 6:0.0629333 7:0.578 
-512 1:-0.1578 2:-0.16824 3:-0.331333 4:0.326 5:0.7726 6:-0.540933 7:0.4026 
-512 1:1 2:-1 3:-0.322 4:-0.10125 5:-0.3906 6:-0.231467 7:0.2 
-512 1:-0.125 2:-0.22164 3:0.002 4:0.02375 5:0.6391 6:-0.3316 7:0.2542 
-512 1:-0.1786 2:0.2542 3:0.165333 4:0.3995 5:0.4849 6:-0.286133 7:0.319 
-512 1:0.7 2:0.13328 3:0.293 4:0.3635 5:0.5649 6:0.538667 7:0.1718 
-512 1:0.8606 2:1 3:-0.059 4:0.227 5:0.8904 6:-0.334133 7:0.2658 
-512 1:0.1 2:-0.04084 3:0.702333 4:0.044 5:0.0794 6:-0.0870667 7:0.5574 
-512 2:-1 3:0.311667 4:0.52375 5:-0.6137 6:-0.631333 7:0.72 
-512 1:-0.3334 2:-0.56056 3:0.00633333 4:-0.75075 5:-0.6137 6:-0.2516 7:0.4934 
-512 1:1 2:-1 3:-0.264667 4:0.3435 5:-0.3906 6:-0.428267 7:0.48 
-512 1:-0.2 2:-0.44548 3:0.352 4:0.3565 5:0.0794 6:-0.522 7:0.56 
-512 1:-0.5 2:-0.72276 3:0.515333 4:0.47325 5:-0.0541 6:-0.0268 7:0.84 
-512 1:-0.2692 2:0.45504 3:0.0613333 4:0.21175 5:1 6:-0.303733 7:0.3988 
-512 1:-0.5162 2:0.08324 3:0.641 4:0.01575 5:0.0794 6:0.174667 7:0.6018 
-512 1:-0.4 2:-0.28328 3:-0.134667 4:0.34175 5:0.7081 6:-0.5044 7:0.64 
-512 1:-0.5172 2:-0.22164 3:0.021 4:0.10575 5:0.0794 6:0.239333 7:0.3686 
-512 1:-0.3334 2:-0.35624 3:-0.896333 4:0.00725 5:0.3979 6:0.515467 7:0.12 
-512 2:-0.72276 3:-0.0986667 4:-0.01875 5:0.8332 6:-0.4432 7:0.26 
-512 1:-0.9938 2:-1 3:0.165667 4:-0.14825 5:-0.9014 6:-0.4564 7:0.14 
-512 1:0.8462 2:-0.00604 3:0.174667 4:0.4985 5:0.1972 6:-0.5476 7:0.2284 
-512 1:-0.2858 2:0.42212 3:0.129 4:0.2525 5:0.7726 6:-0.406133 7:0.3648 
-512 1:0.3334 2:0.27124 3:-0.301333 4:0.28725 5:1 6:-0.1612 7:0.167 
-512 1:-0.4 2:-0.56056 3:0.176 4:-0.11575 5:-0.9014 6:0.934267 7:0.88 
-512 1:0.0606 2:0.42212 3:-0.771667 4:0.35175 5:1 6:0.0376 7:0.504 
-512 1:-0.1428 2:-0.56056 3:-0.536333 4:0.197 5:0.3026 6:0.138133 7:0.6466 
-512 1:1 2:-1 3:-0.932 4:0.012 5:-0.6137 6:-0.504 7:0.54 
-512 1:-0.282 2:0.33288 3:-0.774 4:0.318 5:0.9957 6:-0.4396 7:0.4772 
-512 1:-0.25 2:-0.56056 3:-0.0933333 4:0.35125 5:-0.2082 6:-0.108267 7:0.6266 
-512 1:1 2:0.34692 3:-0.439333 4:0.31925 5:0.7726 6:-0.3072 7:0.1636 
-512 1:-0.3334 2:-1 3:0.213333 4:-0.294 5:-0.3906 6:-0.354933 7:0.92 
-512 1:0.8416 2:1 3:-0.0726667 4:0.02575 5:-0.2082 6:0.834667 7:0.3328 
-512 1:-0.3334 2:-0.44548 3:-0.0376667 4:0.01025 5:0.8332 6:-0.568533 7:0.2534 
-512 1:1 2:-0.56056 3:-0.873 4:0.1015 5:0.5649 6:-0.191467 7:0.1466 
-512 1:-0.3334 2:-1 3:-0.952 4:0.271 5:-0.3906 6:0.480267 7:0.68 
-512 1:0.8948 2:0.15616 3:-0.305667 4:0.44225 5:0.6391 6:0.0166667 7:0.2876 
-512 1:1 2:-0.07896 3:-0.462667 4:-0.52725 5:-0.6137 6:-0.0350667 7:0.128 
-512 1:0.931 2:0.61016 3:0.173 4:0.00225 5:0.9957 6:-0.433733 7:0.4076 
-512 1:0.6364 2:0.52268 3:0.234333 4:-0.18125 5:0.1972 6:0.264267 7:0.328 
-512 1:0.76 2:0.67588 3:-0.262667 4:-0.02825 5:0.8904 6:0.0694667 7:0.3214 
-512 1:0.6 2:0.10904 3:-0.329 4:0.05625 5:0.7081 6:-0.117733 7:0.131 
-512 2:-1 3:0.618 4:-0.39375 5:-0.6137 6:-0.4124 7:0.92 
-512 1:-0.4186 2:0.28756 3:0.589 4:0.471 5:0.0794 6:0.393333 7:0.5634 
-512 1:0.2 2:0.3986 3:-0.739667 4:0.24425 5:-0.3906 6:-0.2064 7:0.2852 
-512 2:-1 3:0.0446667 4:0.39275 5:-0.6137 6:-0.00933333 7:0.8 
-512 1:-0.0624 2:0.08324 3:-0.872667 4:-0.03175 5:0.4849 6:-0.2684 7:0.5458 
-512 1:-0.0196 2:0.28756 3:-0.773667 4:0.24275 5:1 6:0.0252 7:0.3928 
-512 2:-1 3:-0.930667 4:0.4305 5:-0.3906 6:-0.0957333 7:0.4 
-512 1:-0.3044 2:-0.16824 3:-0.212667 4:-0.0595 5:-0.2082 6:-0.401333 7:0.57 
-9.232652136628179 2:-1 3:0.494333 4:0.6755 5:-0.9014 6:0.068 7:0.86 
-512 1:-0.25 2:-0.56056 3:0.251333 4:0.23075 5:-0.3906 6:-0.165867 7:0.4666 
-512 1:0.25 2:-0.35624 3:0.280667 4:0.469 5:-0.3906 6:0.287733 7:0.432 
-512 1:-0.3636 2:-0.22164 3:0.148 4:0.35225 5:0.7726 6:-0.0745333 7:0.3886 
-456.3220442376549 1:-0.4146 2:-0.00604 3:0.048 4:0.5345 5:-0.9014 6:0.0986667 7:0.5666 
-512 1:0.8 2:0.4334 3:-0.199333 4:0.1655 5:0.7726 6:0.0953333 7:0.4778 
-512 1:0.7894 2:0.57272 3:-0.324 4:-0.30375 5:0.0794 6:0.0866667 7:0.2396 
-512 1:-0.4 2:-0.56056 3:-0.644667 4:0.1325 5:-0.0541 6:-0.3596 7:0.52 
-512 1:-0.1666 2:-0.07896 3:0.535 4:0.03875 5:-0.0541 6:-0.620133 7:0.394 
-512 1:1 2:-1 3:0.157333 4:0.06575 5:-0.0541 6:0.318267 7:0.22 
-512 1:-0.1428 2:-0.56056 3:0.443 4:0.3325 5:-0.2082 6:0.245333 7:0.5534 
-512 1:-0.1428 2:-0.56056 3:0.386 4:-0.0405 5:0.6391 6:-0.2036 7:0.7266 
-512 1:-0.3334 2:-0.28328 3:-0.465667 4:-0.6235 5:0.5649 6:-0.251733 7:0.3034 
-512 1:-0.1428 2:-0.00604 3:0.420667 4:0.0885 5:-0.2082 6:-0.579067 7:0.4716 
-512 1:-0.5556 2:-0.72276 3:-0.119667 4:-0.1255 5:-0.0541 6:-0.433733 7:0.67 
-512 1:0.5264 2:0.34692 3:0.047 4:-0.0215 5:0.1972 6:0.0112 7:0.2978 
-512 1:-0.3334 2:-0.72276 3:-0.436667 4:0.108 5:-0.2082 6:-0.2984 7:0.51 
-512 1:0.024 2:0.66356 3:-0.578333 4:0.1825 5:0.3979 6:-0.348133 7:0.3218 
-512 1:0.5 2:-0.28328 3:-0.963333 4:0.447 5:-0.2082 6:-0.549733 7:0.2266 
-512 1:0.3334 2:0.05564 3:-0.942667 4:0.18475 5:0.3026 6:-0.0996 7:0.2662 
-512 1:-0.1112 2:-0.44548 3:-0.304 4:0.128 5:0.0794 6:-0.5344 7:0.15 
-512 1:-0.1034 2:0.02596 3:-0.798333 4:-0.003 5:0.4849 6:0.0913333 7:0.277 
-512 1:-0.1724 2:-0.00604 3:-0.879 4:0.21675 5:0.9444 6:-0.0872 7:0.3784 
-512 1:-0.2 2:-0.72276 3:-0.465 4:0.1315 5:-0.9014 6:-0.402267 7:0.52 
-512 1:-0.6 2:-1 3:-0.463667 4:-0.23775 5:0.0794 6:-0.238667 7:0.5 
-512 1:-0.7142 2:-0.22164 3:-0.447667 4:0.25925 5:-0.3906 6:1 7:0.185 
-512 1:0.6868 2:0.6994 3:-0.423667 4:0.006 5:-0.0541 6:0.1084 7:0.3612 
-512 1:-0.0526 2:-0.12112 3:0.622333 4:-0.23775 5:0.3979 6:-0.2624 7:0.6178 
-512 1:0.3334 2:-0.07896 3:0.526333 4:-0.16975 5:-0.2082 6:0.143333 7:0.76 
-512 1:-0.25 2:-0.28328 3:-0.243333 4:0.207 5:0.0794 6:-0.471733 7:0.57 
-512 2:-1 3:0.263 4:0.02725 5:0.1972 6:-0.237067 7:0.4 
-512 2:-1 3:0.263 4:0.54475 5:-0.0541 6:0.4088 7:0.4 
-512 1:0.3334 2:-0.72276 3:0.474 4:-0.05825 5:0.5649 6:-0.07 7:0.39 
-512 1:0.647 2:0.33288 3:0.688333 4:0.20825 5:0.5649 6:-0.159467 7:0.345 
-512 2:-1 3:-0.433667 4:0.335 5:-0.6137 6:0.0802667 7:0.28 
-512 1:0.647 2:0.05564 3:-0.666 4:0.16325 5:0.5649 6:-0.282133 7:0.2642 
-512 1:-0.4054 2:-0.04084 3:0.0703333 4:0.25925 5:0.8332 6:-0.0682667 7:0.229 
-512 1:1 2:0.08324 3:-0.414333 4:-0.017 5:0.7726 6:-0.0156 7:0.2216 
-512 1:-0.2666 2:-0.04084 3:0.318667 4:-0.04175 5:1 6:-0.633733 7:0.4928 
-512 1:-0.1428 2:-0.28328 3:0.636667 4:-0.3735 5:-0.0541 6:-0.104133 7:0.305 
-512 1:-0.6 2:-1 3:-0.603667 4:0.102 5:0.5649 6:-0.534133 7:0.5 
-512 2:-1 3:0.602333 4:0.11725 5:0.6391 6:-0.139067 7:0.82 
-512 2:-1 3:-0.202667 4:0.367 5:-0.6137 6:-0.476667 7:0.58 
-512 1:-0.125 2:0.49508 3:0.303667 4:-0.037 5:1 6:0.140267 7:0.4896 
-512 1:-0.4074 2:-0.16824 3:0.125333 4:0.0445 5:0.4849 6:-0.3072 7:0.6286 
-512 1:-0.514 2:0.30324 3:-0.397 4:-0.22975 5:0.9444 6:-0.2624 7:0.6676 
-512 1:1 2:-0.35624 3:0.234667 4:0.2465 5:-0.3906 6:-0.00666667 7:0.376 
-512 1:0.2728 2:0.05564 3:-0.232333 4:0.30125 5:1 6:-0.2576 7:0.1646 
-512 1:1 2:-0.44548 3:-0.125333 4:0.377 5:0.4849 6:-0.180267 7:0.465 
-512 1:1 2:-1 3:0.437 4:0.298 5:0.3979 6:-0.149067 7:0.76 
-512 1:-0.6214 2:0.38628 3:0.559 4:0.247 5:0.9444 6:-0.299733 7:0.6876 
-512 1:-0.375 2:-0.35624 3:0.323333 4:0.67025 5:0.0794 6:-0.4584 7:0.48 
-512 1:-0.3422 2:0.28756 3:0.0176667 4:-0.239 5:0.6391 6:-0.0901333 7:0.5528 
-512 1:0.1428 2:-0.44548 3:-0.226 4:0.17775 5:-0.6137 6:-0.693333 7:0.28 
-512 1:-0.5 2:-0.72276 3:-0.0903333 4:0.02075 5:-0.2082 6:-0.387733 7:0.43 
-512 1:0.8164 2:0.79544 3:0.196333 4:-0.33725 5:0.4849 6:0.4784 7:0.3386 
-512 1:-0.5 2:-0.72276 3:0.591 4:0.28125 5:0.0794 6:-0.33 7:0.68 
-512 1:1 2:-1 3:-0.995333 4:0.63675 5:-0.9014 6:-0.361333 7:0.52 
-512 1:0.8148 2:0.99616 3:-0.589 4:-0.163 5:1 6:-0.171733 7:0.336 
-512 1:-0.1764 2:-0.22164 3:0.57 4:0.23 5:0.0794 6:0.2132 7:0.8572 
-512 1:-0.3334 2:-0.56056 3:0.384 4:0.12925 5:-0.2082 6:-0.506267 7:0.7134 
-512 1:0.86 2:0.81304 3:0.733667 4:0.33775 5:0.3979 6:-0.0689333 7:0.3874 
-512 1:0.853 2:0.93452 3:-0.254333 4:-0.08525 5:0.9444 6:-0.199067 7:0.4586 
-512 1:0.2 2:-0.56056 3:-0.434333 4:-0.06775 5:-0.3906 6:-0.00853333 7:0.4134 
-512 1:0.6666 2:-0.35624 3:-0.000666667 4:0.12525 5:0.6391 6:0.1168 7:0.115 
-512 1:1 2:-1 3:0.091 4:-0.0425 5:-0.9014 6:-0.0342667 7:0.52 
-512 1:1 2:0.34692 3:-0.287333 4:0.67075 5:0.7081 6:-0.305333 7:0.1836 
-512 1:-0.647 2:-0.28328 3:0.202667 4:0.15125 5:0.8904 6:-0.1044 7:0.8266 
-512 1:-0.234 2:0.15616 3:-0.349333 4:-0.553 5:-0.3906 6:0.360267 7:0.7858 
-512 1:-0.5556 2:-0.72276 3:0.775 4:-0.19025 5:-0.3906 6:-0.1608 7:0.67 
-512 1:-0.5076 2:0.10904 3:-0.0413333 4:-0.27575 5:0.8332 6:-0.39 7:0.645 
-512 1:0.5698 2:0.7162 3:-0.472333 4:0.24825 5:1 6:-0.4156 7:0.2482 
-512 1:-0.4286 2:-0.72276 3:-0.94 4:0.02325 5:0.3026 6:-0.3804 7:0.36 
-512 1:-0.1428 2:0.08324 3:0.492 4:0.043 5:1 6:-0.512 7:0.2986 
-512 1:-0.3334 2:-1 3:-0.249667 4:0.59575 5:-0.6137 6:0.701333 7:0.78 
-512 1:-0.0744 2:0.61016 3:-0.559333 4:-0.103 5:0.0794 6:0.523867 7:0.4762 
-512 1:-0.584 2:0.30324 3:-0.259333 4:0.059 5:0.9444 6:-0.622933 7:0.6584 
-512 1:-0.5 2:-0.72276 3:0.499 4:0.3345 5:0.0794 6:-0.480267 7:0.84 
-512 1:0.7096 2:0.58812 3:-0.392333 4:0.1665 5:0.8904 6:-0.2924 7:0.358 
-512 1:-0.5 2:-0.72276 3:0.490667 4:0.5685 5:-0.0541 6:-0.234267 7:0.87 
-512 1:-0.4616 2:-0.22164 3:-0.044 4:0.04825 5:1 6:-0.0644 7:0.5486 
-512 1:-0.3334 2:-1 3:0.766 4:-0.20825 5:0.7081 6:-0.1008 7:0.78 
-512 1:0.9234 2:1 3:-0.191 4:0.0415 5:1 6:-0.138533 7:0.3962 
-512 1:-0.25 2:-0.56056 3:0.513667 4:0.654 5:-0.2082 6:-0.13 7:0.4334 
-512 1:-0.1578 2:-0.16824 3:0.701667 4:-0.7985 5:-0.6137 6:-0.5104 7:0.8658 
-512 1:0.1272 2:0.3736 3:-0.837 4:0.3275 5:0.8332 6:-0.179867 7:0.21 
-512 1:-0.5384 2:-0.28328 3:-0.0266667 4:-0.09475 5:1 6:0.136267 7:0.66 
-512 1:-0.9946 2:-1 3:-0.551667 4:-0.25225 5:-0.6137 6:0.836933 7:0.02 
-512 1:-0.303 2:0.53144 3:-0.835 4:0.033 5:0.7726 6:0.477467 7:0.499 
-512 1:-0.077 2:-0.28328 3:0.685667 4:0.03475 5:0.3026 6:-0.300133 7:0.324 
-512 1:-0.469 2:0.36048 3:-0.649333 4:0.074 5:1 6:-0.202933 7:0.4592 
-512 1:-0.9978 2:-1 3:-0.0123333 4:0.10275 5:-0.9014 6:-0.330267 7:0.1 
-512 1:0.759 2:0.7162 3:-0.133667 4:-0.125 5:1 6:-0.2256 7:0.3712 
-512 1:-0.3334 2:-1 3:0.293 4:0.21125 5:0.1972 6:-0.394933 7:0.94 
-512 1:0.625 2:0.02596 3:0.0996667 4:-0.12225 5:0.8332 6:0.0913333 7:0.391 
-512 1:-0.4238 2:0.13328 3:-0.432667 4:-0.23125 5:0.6391 6:-0.2484 7:0.6258 
-512 1:-0.092 2:0.74776 3:-0.844667 4:0.03025 5:0.5649 6:-0.1032 7:0.4534 
-512 1:-0.2112 2:0.33288 3:0.134667 4:0.18025 5:0.3979 6:-0.2156 7:0.2046 
-512 1:-0.9948 2:-1 3:-0.152333 4:-0.08025 5:-0.9014 6:-0.138267 7:0.1 
-512 2:-1 3:0.625333 4:0.081 5:-0.9014 6:-0.5276 7:0.62 
-299.1897639556832 1:-0.4762 2:-0.04084 3:-0.32 4:0.3345 5:0.6391 6:-0.275867 7:0.388 
-512 1:-0.36 2:-0.16824 3:0.117 4:0.30525 5:0.6391 6:0.555867 7:0.395 
-512 1:0.9528 2:1 3:-0.124667 4:0.146 5:1 6:-0.0788 7:0.4908 
-512 2:-0.72276 3:0.171333 4:0.492 5:0.3979 6:-0.598 7:0.46 
-512 1:1 2:0.2364 3:0.138333 4:0.0345 5:0.3026 6:-0.306 7:0.5314 
-512 1:-0.2632 2:0.2178 3:0.469333 4:0.348 5:0.8904 6:-0.237733 7:0.5124 
-512 1:0.119 2:0.54004 3:-0.510667 4:0.37975 5:1 6:-0.174 7:0.4034 
-512 1:-0.3334 2:-0.56056 3:-0.659 4:0.31175 5:0.4849 6:-0.1604 7:0.62 
-512 1:0.6666 2:-0.07896 3:-0.183667 4:0.3785 5:0.3979 6:0.0190667 7:0.244 
-512 1:-0.3186 2:0.53144 3:-0.413 4:0.298 5:0.4849 6:-0.359733 7:0.3206 
-512 1:-0.0962 2:0.64436 3:-0.427333 4:0.3 5:-0.0541 6:-0.211867 7:0.238 
-512 1:-0.5 2:-1 3:-0.759 4:0.374 5:-0.3906 6:0.269867 7:0.42 
-512 1:-0.2 2:-0.72276 3:0.578333 4:0.27075 5:-0.3906 6:-0.252267 7:0.58 
-512 1:0.7614 2:1 3:-0.306 4:0.288 5:1 6:-0.475333 7:0.3412 
-512 1:0.9262 2:1 3:-0.158 4:0.152 5:0.8332 6:-0.2248 7:0.2326 
-512 2:-1 3:0.429 4:-0.55725 5:-0.2082 6:0.426267 7:0.28 
-512 1:-0.25 2:-0.12112 3:-0.28 4:-0.33725 5:0.4849 6:-0.452933 7:0.48 
-512 1:-0.5294 2:-0.44548 3:-0.402 4:0.37425 5:0.6391 6:0.0452 7:0.585 
-512 1:0.3764 2:0.66356 3:0.039 4:-0.61775 5:-0.0541 6:0.113733 7:0.1186 
-512 1:0.7518 2:0.915 3:-0.081 4:-0.01 5:0.9957 6:-0.321867 7:0.2042 
-512 1:-0.3658 2:0.02596 3:0.305333 4:0.11375 5:0.1972 6:-0.423733 7:0.5892 
-512 1:-0.1428 2:-0.12112 3:-0.937667 4:-0.1855 5:0.3979 6:-0.233733 7:0.3956 
-512 1:-0.3968 2:0.17776 3:0.437 4:0.50375 5:0.4849 6:-0.361867 7:0.2568 
-512 1:-0.2 2:-0.72276 3:0.522333 4:0.1915 5:0.3026 6:-0.296533 7:0.81 
-266.9746794292229 1:-0.9956 2:-1 3:-0.375667 4:0.128 5:-0.9014 6:0.0182667 7:0.04 
-512 1:-0.2 2:-0.28328 3:-0.0493333 4:-0.1635 5:0.1972 6:-0.302667 7:0.308 
-512 1:0.68 2:0.2178 3:-0.968333 4:0.071 5:0.7726 6:0.182533 7:0.245 
-512 1:1 2:-1 3:-0.001 4:-0.0745 5:0.0794 6:-0.307467 7:0.18 
-66.91073719745951 1:-0.3334 2:-1 3:-0.825667 4:0.3075 5:-0.3906 6:-0.107733 7:0.38 
-512 1:-0.4286 2:-0.72276 3:-0.567667 4:0.01825 5:0.5649 6:-0.0802667 7:0.65 
-512 1:-0.1428 2:-0.56056 3:-0.149667 4:-0.36875 5:0.0794 6:-0.0784 7:0.2866 
-512 1:-0.4286 2:-0.72276 3:-0.705 4:-0.37 5:-0.0541 6:0.5248 7:0.15 
-512 1:0.6966 2:1 3:-0.251 4:-0.0365 5:1 6:-0.306533 7:0.3622 
-512 1:-0.5 2:-0.44548 3:0.329667 4:0.42075 5:0.6391 6:-0.305467 7:0.745 
-430.2306845470232 1:-0.6292 2:0.33288 3:0.456333 4:0.14 5:0.9957 6:-0.287733 7:0.6258 
-512 1:0.0188 2:0.31832 3:0.457 4:-0.52225 5:0.0794 6:0.192133 7:0.4716 
-512 1:-0.3846 2:-0.44548 3:0.349 4:0.2475 5:0.6391 6:-0.124533 7:0.27 
-512 1:0.9716 2:0.9738 3:-0.003 4:0.2335 5:1 6:-0.0845333 7:0.5054 
-512 1:0.5556 2:0.05564 3:-0.327333 4:-0.18 5:0.8332 6:0.0217333 7:0.2636 
-512 1:-0.08 2:0.2542 3:0.0803333 4:0.29225 5:0.8904 6:-0.4976 7:0.306 
-512 1:1 2:-1 3:-0.036 4:0.28275 5:0.7081 6:-0.235867 7:0.56 
-512 1:-0.6 2:-1 3:0.570667 4:-0.087 5:0.3979 6:-0.3236 7:0.84 
-512 1:-0.3334 2:-0.72276 3:0.177333 4:0.00325 5:0.3026 6:-0.4596 7:0.69 
-512 1:0.0434 2:0.27124 3:-0.396333 4:-0.42725 5:-0.0541 6:-0.190533 7:0.1322 
-512 1:0.5384 2:0.19828 3:-0.873 4:0.2275 5:0.4849 6:-0.551733 7:0.41 
-512 1:-0.22 2:0.46544 3:-0.515333 4:0.104 5:1 6:-0.3752 7:0.2426 
-512 2:-0.72276 3:-0.14 4:-0.01075 5:-0.0541 6:-0.442533 7:0.1 
-512 1:0.8666 2:0.05564 3:-0.416 4:0.143 5:-0.0541 6:-0.0973333 7:0.1572 
-512 1:-0.2 2:-0.00604 3:0.374 4:0.06825 5:-0.6137 6:-0.226 7:0.2366 
-512 1:0.913 2:0.2364 3:-0.266667 4:0.3015 5:0.9957 6:-0.2196 7:0.4584 
-512 1:-0.5172 2:0.05564 3:-0.444333 4:-0.1535 5:0.8332 6:-0.221867 7:0.6416 
-512 1:-0.2122 2:0.02596 3:0.00133333 4:0.346 5:0.6391 6:-0.502933 7:0.197 
-512 1:0.4286 2:0.6994 3:-0.856333 4:-0.26425 5:-0.6137 6:-0.212667 7:0.1992 
-512 1:-0.2 2:-0.16824 3:0.712667 4:0.28125 5:0.7081 6:0.00146667 7:0.54 
-512 2:-1 3:0.125667 4:0.164 5:0.3979 6:-0.2428 7:0.56 
-89.52142445677237 1:-0.9978 2:-1 3:-0.644 4:0.60075 5:-0.9014 6:0.4404 7:0.08 
-512 1:-0.2858 2:-0.35624 3:0.547 4:-0.30325 5:-0.9014 6:-0.332933 7:0.872 
-512 1:-0.0846 2:0.66976 3:-0.575667 4:0.098 5:0.1972 6:-0.1672 7:0.3112 
-512 1:-0.2728 2:-0.44548 3:0.461333 4:0.0785 5:-0.9014 6:0.207067 7:0.5066 
-512 1:0.3334 2:-0.00604 3:0.0616667 4:-0.206 5:-0.6137 6:-0.5804 7:0.26 
-512 1:-0.3846 2:-0.44548 3:-0.649 4:0.22075 5:0.3026 6:-0.112267 7:0.49 
-512 1:0.7692 2:0.2542 3:-0.677667 4:-0.27525 5:0.7726 6:-0.0644 7:0.5506 
-512 1:0.7372 2:1 3:-0.506 4:0.05225 5:0.8904 6:-0.519867 7:0.327 
-512 1:0.5294 2:0.46544 3:-0.855333 4:0.4645 5:0.9957 6:-0.478533 7:0.278 
-512 1:0.8718 2:1 3:-0.507667 4:0.12725 5:1 6:0.0126667 7:0.3338 
-512 1:-0.2858 2:-0.07896 3:0.172 4:0.12725 5:0.7081 6:-0.343867 7:0.222 
-512 1:-0.3334 2:-0.35624 3:-0.491333 4:0.3195 5:0.6391 6:-0.0072 7:0.26 
-512 1:-0.0666 2:-0.22164 3:-0.457333 4:0.284 5:0.7081 6:-0.223333 7:0.3514 
-512 1:0.452 2:1 3:-0.269667 4:-0.048 5:0.5649 6:-0.2224 7:0.2682 
-512 1:0.9008 2:0.95912 3:-0.257667 4:-0.0385 5:1 6:-0.1696 7:0.312 
-512 1:0.6098 2:0.3986 3:-0.798667 4:0.312 5:1 6:-0.395467 7:0.1594 
-512 1:-0.1898 2:0.38628 3:-0.209333 4:-0.257 5:0.0794 6:0.530933 7:0.5046 
-512 2:-0.72276 3:0.0103333 4:0.0245 5:0.9444 6:-0.360667 7:0.32 
-512 1:0.6818 2:0.44436 3:0.418333 4:0.276 5:0.9957 6:-0.464267 7:0.5206 
-512 1:-0.4736 2:-0.35624 3:-0.898 4:0.395 5:-0.0541 6:0.0478667 7:0.6334 
-512 1:-0.3192 2:0.38628 3:-0.0446667 4:0.05725 5:1 6:-0.390533 7:0.5086 
-512 2:-1 3:0.261333 4:-0.0275 5:0.9957 6:-0.1644 7:0.42 
-512 1:-0.1428 2:-0.28328 3:-0.0263333 4:0.24 5:0.6391 6:-0.394133 7:0.36 
-512 1:1 2:-0.56056 3:-0.351 4:0.34775 5:0.7726 6:-0.4104 7:0.2534 
-512 1:-0.1666 2:-0.35624 3:-0.255333 4:-0.1945 5:0.0794 6:-0.3708 7:0.472 
-512 1:0.1666 2:-0.22164 3:-0.663 4:0.21175 5:0.6391 6:0.0176 7:0.1342 
-512 1:-0.3446 2:0.73752 3:-0.258 4:0.217 5:0.9957 6:-0.454533 7:0.2362 
-512 1:-0.9958 2:-1 3:-0.067 4:-0.093 5:-0.9014 6:0.0044 7:0.04 
-512 1:-0.3334 2:-0.72276 3:0.513 4:0.09375 5:-0.9014 6:-0.540933 7:0.77 
-512 1:-0.353 2:-0.04084 3:0.236 4:0.2755 5:0.7081 6:-0.257867 7:0.2236 
-512 1:-0.3334 2:-0.12112 3:-0.00166667 4:0.41025 5:0.3979 6:-0.302533 7:0.2156 
-512 1:0.6364 2:-0.12112 3:-0.340667 4:0.10225 5:0.8904 6:-0.0445333 7:0.2044 
-512 1:-0.1428 2:-0.56056 3:0.626333 4:0.31175 5:-0.2082 6:0.602933 7:0.54 
-512 1:-0.3334 2:-1 3:-0.877 4:0.1625 5:0.6391 6:-0.136533 7:0.64 
-512 2:0.05564 3:0.444667 4:-0.4925 5:-0.6137 6:0.971067 7:0.1558 
-512 2:-1 3:0.231 4:0.03375 5:0.1972 6:-0.413867 7:0.34 
-512 1:-0.2174 2:0.5956 3:-0.573333 4:-0.041 5:0.4849 6:0.0396 7:0.4494 
-512 1:-0.2728 2:-0.00604 3:-0.216667 4:0.142 5:-0.9014 6:0.2476 7:0.685 
-512 1:-0.3334 2:-1 3:0.476333 4:-0.51075 5:-0.3906 6:-0.476533 7:0.56 
-512 1:1 2:-1 3:0.450333 4:-0.164 5:-0.2082 6:-0.731733 7:0.56 
-512 1:-0.2 2:0.19828 3:-0.188333 4:0.26225 5:0.0794 6:-0.3424 7:0.6878 
-512 1:0.7836 2:1 3:-0.0676667 4:0.1485 5:1 6:-0.3472 7:0.4486 
-512 1:-0.1476 2:0.74268 3:-0.403333 4:0.11825 5:-0.0541 6:-0.0808 7:0.4136 
-512 1:0.762 2:0.44436 3:-0.0776667 4:0.12725 5:0.1972 6:0.0914667 7:0.2036 
-512 1:1 2:-1 3:0.305 4:0.3325 5:-0.3906 6:-0.486133 7:0.44 
-512 1:-0.3334 2:-0.56056 3:-0.111667 4:0.3405 5:-0.2082 6:-0.264933 7:0.6134 
-512 1:0.8032 2:0.60292 3:-0.673333 4:0.19025 5:0.8332 6:-0.244533 7:0.4182 
-512 1:-0.2 2:-0.72276 3:-0.161333 4:-0.1645 5:-0.0541 6:0.160933 7:0.39 
-512 1:0.077 2:-0.22164 3:-0.191333 4:0.0995 5:0.0794 6:-0.364933 7:0.2086 
-512 1:0.3334 2:-0.72276 3:0.574333 4:0.63475 5:-0.9014 6:-0.401333 7:0.6 
-512 1:1 2:-0.56056 3:0.200333 4:0.11825 5:0.4849 6:-0.0426667 7:0.32 
-512 1:-0.3044 2:-0.16824 3:0.197667 4:0.19575 5:0.4849 6:-0.155467 7:0.155 
-512 1:-0.25 2:-0.12112 3:-0.447333 4:0.159 5:0.4849 6:-0.224267 7:0.5444 
-512 1:0.7972 2:0.92812 3:-0.25 4:0.1585 5:1 6:-0.218533 7:0.2686 
-512 1:-0.2904 2:0.3986 3:-0.159667 4:0.31425 5:0.4849 6:-0.259067 7:0.4514 
-512 1:-0.1428 2:-0.56056 3:-0.035 4:-0.16725 5:-0.3906 6:0.236 7:0.64 
-512 1:0.577 2:0.48544 3:-0.312333 4:0.237 5:0.7726 6:-0.6332 7:0.3012 
-512 1:0.85 2:0.8838 3:0.027 4:0.30175 5:0.4849 6:-0.1524 7:0.4414 
-512 1:0.837 2:1 3:-0.401667 4:0.338 5:1 6:-0.2748 7:0.2282 
-512 1:-0.2602 2:0.5956 3:0.157333 4:0.19725 5:0.0794 6:-0.0458667 7:0.6698 
-512 1:-0.5 2:-1 3:0.178 4:0.2215 5:0.4849 6:-0.337067 7:0.82 
-512 1:0.3256 2:0.61724 3:-0.442667 4:0.3875 5:0.9957 6:-0.101333 7:0.3972 
-512 1:0.3334 2:-0.72276 3:-0.981333 4:0.46475 5:0.6391 6:-0.5824 7:0.14 
-512 1:0.6 2:0.33288 3:-0.522333 4:0.06125 5:0.3979 6:-0.259067 7:0.305 
-512 1:-0.3334 2:-0.56056 3:0.041 4:-0.158 5:-0.6137 6:0.0844 7:0.7134 
-512 1:-0.4814 2:0.49508 3:-0.626333 4:-0.076 5:1 6:-0.0290667 7:0.495 
-512 1:0.125 2:-0.12112 3:-0.564667 4:-0.1935 5:0.0794 6:0.00146667 7:0.2874 
-512 1:1 2:-1 3:-0.376 4:0.387 5:-0.9014 6:-0.337733 7:0.78 
-512 1:0.6642 2:0.87652 3:-0.512333 4:0.176 5:0.8904 6:-0.2828 7:0.2438 
-512 1:-0.372 2:0.31832 3:0.048 4:-0.27375 5:0.9957 6:0.138133 7:0.5352 
-512 1:0.6578 2:0.65724 3:0.444667 4:0.20175 5:1 6:-0.439067 7:0.2316 
-512 1:0.75 2:-0.22164 3:-0.214 4:0.64725 5:-0.3906 6:-0.330667 7:0.34 
-512 1:-0.3334 2:-1 3:-0.306 4:-0.2895 5:0.3026 6:-0.1664 7:0.34 
-512 1:1 2:-1 3:0.082 4:0.46025 5:-0.6137 6:-0.413333 7:0.7 
-512 1:-0.209 2:0.58812 3:-0.835667 4:-0.0005 5:0.7081 6:-0.276933 7:0.5236 
-512 1:-0.5238 2:-0.35624 3:0.111333 4:0.4025 5:0.4849 6:0.328267 7:0.75 
-512 1:-0.9956 2:-1 3:-0.110667 4:0.07575 5:-0.9014 6:-0.523067 7:0.12 
-367.613324293857 1:-0.9956 2:-1 3:-0.0656667 4:0.04975 5:-0.9014 6:-0.5116 7:0.08 
-512 1:0.6 2:-0.44548 3:0.313333 4:-0.6905 5:-0.6137 6:0.326267 7:0.26 
-512 1:-0.5384 2:-0.00604 3:-0.651 4:0.22475 5:0.8904 6:-0.382933 7:0.609 
-512 1:-0.25 2:-0.56056 3:-0.426333 4:0.19025 5:0.7081 6:-0.462267 7:0.2134 
-512 1:-0.3846 2:-0.44548 3:0.37 4:0.24825 5:0.0794 6:-0.637333 7:0.7 
-512 1:0.4444 2:0.02596 3:0.153333 4:0.12125 5:-0.2082 6:0.375333 7:0.21 
-512 1:-0.2942 2:-0.28328 3:0.187333 4:0.47225 5:-0.3906 6:0.184 7:0.18 
-512 1:0.037 2:0.05564 3:-0.475 4:0.215 5:0.8904 6:-0.0344 7:0.6314 
-512 2:-1 3:0.560667 4:0.51825 5:-0.0541 6:-0.385867 7:0.26 
-512 1:-0.2308 2:-0.07896 3:0.673 4:0.06475 5:-0.2082 6:-0.134 7:0.33 
-512 1:-0.2 2:-0.44548 3:0.0646667 4:0.272 5:0.3979 6:-0.218133 7:0.105 
-512 1:1 2:0.05564 3:0.0313333 4:-0.1665 5:0.5649 6:-0.4596 7:0.422 
-512 1:-0.5 2:-1 3:-0.583667 4:0.57225 5:0.0794 6:-0.134 7:0.76 
-512 2:-0.12112 3:-0.363667 4:0.036 5:0.7081 6:-0.212933 7:0.6066 
-512 1:0.8884 2:1 3:0.32 4:0.21725 5:0.8904 6:-0.3252 7:0.4362 
-512 1:0.2 2:-0.56056 3:0.282 4:0.29525 5:0.7081 6:-0.273467 7:0.18 
-512 1:0.0526 2:0.47556 3:-0.804667 4:0.409 5:1 6:0.0877333 7:0.4804 
-512 1:0.9148 2:0.79992 3:-0.545333 4:0.29925 5:1 6:-0.2004 7:0.4388 
-512 1:1 2:-1 3:-0.928 4:0.299 5:0.9444 6:-0.4284 7:0.24 
-512 1:-0.997 2:-1 3:-0.336 4:0.19075 5:-0.9014 6:-0.365733 7:0.14 
-512 1:-0.091 2:0.08324 3:-0.891 4:0.02575 5:0.0794 6:-0.667867 7:0.452 
-512 1:-0.125 2:-0.22164 3:0.307 4:-0.6805 5:-0.6137 6:0.132667 7:0.65 
-512 1:0.1516 2:0.17776 3:-0.388 4:0.59025 5:-0.6137 6:0.0456 7:0.1312 
-512 1:0.3334 2:-0.00604 3:-0.797333 4:-0.4225 5:0.1972 6:0.161467 7:0.2134 
-512 1:0.3438 2:0.50448 3:-0.550333 4:0.105 5:0.0794 6:-0.5352 7:0.3496 
-512 2:-1 3:0.227333 4:0.148 5:-0.3906 6:-0.576 7:0.8 
-512 1:-0.5126 2:0.46544 3:-0.459333 4:-0.0665 5:1 6:0.242667 7:0.5088 
-512 1:-0.3636 2:-0.22164 3:0.252667 4:0.21125 5:0.7726 6:-0.0586667 7:0.3514 
-512 1:-0.2 2:-0.44548 3:0.302333 4:0.29 5:0.0794 6:-0.162933 7:0.565 
-512 1:1 2:-0.35624 3:-0.332667 4:0.17025 5:0.7081 6:-0.239467 7:0.356 
-512 1:0.3334 2:-0.72276 3:0.612667 4:0.2325 5:0.4849 6:-0.0266667 7:0.65 
-512 1:0.7648 2:0.36048 3:0.0736667 4:-0.051 5:0.5649 6:-0.365067 7:0.2042 
-512 1:-0.1428 2:-0.56056 3:0.133333 4:0.339 5:0.0794 6:-0.192667 7:0.2 
-512 1:0.5136 2:0.8874 3:0.674 4:0.20825 5:0.5649 6:0.146533 7:0.6076 
-512 1:-0.3824 2:0.2178 3:0.401667 4:-0.243 5:0.0794 6:-0.336133 7:0.518 
-512 1:0.7142 2:0.49508 3:0.278667 4:-0.1195 5:0.4849 6:0.430533 7:0.3934 
-512 1:0.2 2:-0.56056 3:0.346333 4:-0.40575 5:0.5649 6:-0.477333 7:0.04 
-512 1:-0.1708 2:0.13328 3:0.415 4:0.14075 5:0.9957 6:-0.5528 7:0.4624 
-512 1:-0.3124 2:-0.04084 3:0.188 4:0.11675 5:0.8332 6:0.2072 7:0.389 
-512 1:0.6924 2:0.2364 3:-0.682333 4:0.14175 5:0.5649 6:-0.568 7:0.3876 
-512 2:-1 3:0.195333 4:0.3005 5:-0.0541 6:0.0178667 7:0.4 
-512 2:-1 3:0.231 4:0.66375 5:-0.0541 6:-0.2788 7:0.56 
-512 1:-0.6572 2:-0.28328 3:0.182 4:0.18 5:1 6:-0.200267 7:0.82 
-512 2:-0.72276 3:0.729667 4:0.5325 5:-0.6137 6:-0.488667 7:0.76 
-512 1:1 2:-0.72276 3:0.068 4:0.08625 5:-0.2082 6:-0.375333 7:0.28 
-512 1:-0.2882 2:0.74776 3:-0.299 4:-0.29275 5:0.3979 6:0.378 7:0.4864 
-512 2:-0.72276 3:-0.279667 4:0.35525 5:0.3979 6:-0.617867 7:0.41 
-512 1:0.8 2:-0.12112 3:0.335667 4:0.162 5:-0.6137 6:-0.513333 7:0.1222 
-512 1:1 2:-1 3:0.368333 4:-0.2085 5:0.0794 6:-0.3192 7:0.16 
-512 1:0.2592 2:0.77708 3:-0.114 4:-0.109 5:0.7081 6:0.168667 7:0.199 
-512 1:0.7894 2:0.77708 3:-0.344 4:0.20175 5:0.9957 6:-0.471067 7:0.2644 
-512 1:0.7248 2:0.81732 3:0.220667 4:0.13625 5:1 6:-0.572933 7:0.3128 
-512 1:-0.3334 2:-0.28328 3:-0.981333 4:0.139 5:0.3026 6:-0.206133 7:0.3466 
-512 1:-0.3514 2:-0.00604 3:0.401333 4:0.2205 5:0.8904 6:-0.575467 7:0.6584 
-512 1:1 2:-1 3:0.1 4:0.44275 5:0.4849 6:-0.323067 7:0.26 
-512 1:1 2:-0.00604 3:0.160333 4:0.16125 5:0.7726 6:0.150533 7:0.4886 
-512 1:0.6 2:-0.00604 3:0.164667 4:0.14275 5:0.8904 6:0.0904 7:0.5314 
-512 1:0.4444 2:0.02596 3:-0.805667 4:0.157 5:0.7081 6:-0.332533 7:0.428 
-512 1:0.6666 2:0.7528 3:-0.580667 4:-0.24775 5:0.3026 6:0.116933 7:0.293 
-512 1:-0.0976 2:0.44436 3:-0.427 4:0.28 5:1 6:-0.445467 7:0.2108 
-512 1:-0.3334 2:-0.72276 3:0.377 4:-0.353 5:0.1972 6:-0.166533 7:0.37 
-512 1:-0.5 2:-0.72276 3:0.148667 4:0.46325 5:0.4849 6:-0.0952 7:0.72 
-512 1:0.5966 2:1 3:-0.105333 4:-0.023 5:0.0794 6:-0.635867 7:0.1904 
-512 1:0.721 2:0.44436 3:0.123333 4:-0.03375 5:0.8904 6:-0.427867 7:0.1616 
-512 1:0.8718 2:0.7162 3:0.0656667 4:0.15625 5:0.8904 6:-0.00293333 7:0.4232 
-512 1:-0.559 2:0.33288 3:-0.474333 4:0.1535 5:0.8904 6:-0.180933 7:0.667 
-512 1:-0.2196 2:0.38628 3:0.323667 4:0.41475 5:0.4849 6:-0.1436 7:0.7388 
-512 1:-0.4814 2:-0.22164 3:0.072 4:0.131 5:0.3979 6:-0.1976 7:0.7566 
-512 1:-0.3334 2:-1 3:0.352667 4:0.0065 5:-0.6137 6:-0.664267 7:0.5 
-512 1:0.3334 2:-0.28328 3:-0.035 4:0.05225 5:0.7726 6:-0.5152 7:0.16 
-512 1:0.7242 2:0.5648 3:0.414667 4:0.04425 5:0.3026 6:-0.371067 7:0.3216 
-512 1:-0.5 2:-0.72276 3:0.448333 4:0.3885 5:0.7726 6:-0.3672 7:0.79 
-512 1:0.0424 2:0.78172 3:0.104333 4:0.00625 5:0.6391 6:0.123467 7:0.3258 
-512 2:-1 3:-0.325 4:0.35775 5:-0.0541 6:-0.0822667 7:0.42 
-512 1:1 2:-0.56056 3:0.0746667 4:-0.061 5:-0.2082 6:-0.076 7:0.12 
-2.252452252862034 1:-0.5 2:-1 3:0.042 4:-0.35975 5:-0.3906 6:0.242933 7:0.66 
-512 1:-0.5 2:-1 3:0.042 4:-0.165 5:-0.6137 6:-0.712667 7:0.66 
-512 1:-0.4572 2:0.17776 3:0.235 4:0.33875 5:1 6:0.0478667 7:0.6518 
-512 1:0.7568 2:0.947 3:-0.813 4:-0.15325 5:-0.0541 6:0.150133 7:0.256 
-512 1:-0.1 2:-0.12112 3:-0.453667 4:0.24825 5:0.7726 6:-0.2164 7:0.2866 
-512 1:-0.3334 2:-1 3:0.0136667 4:0.03025 5:0.3026 6:-0.138533 7:0.46 
-512 1:1 2:-0.28328 3:0.284333 4:-0.1255 5:0.0794 6:0.2292 7:0.37 
-512 1:-0.4722 2:0.17776 3:-0.237 4:0.0415 5:0.9957 6:0.0352 7:0.6352 
-512 1:0.862 2:0.87284 3:0.334333 4:-0.21225 5:0.3979 6:0.4128 7:0.3096 
-512 1:1 2:-1 3:-0.932667 4:-0.223 5:-0.6137 6:-0.252667 7:0.26 
-512 1:-0.375 2:-0.35624 3:-0.484667 4:0.12875 5:-0.2082 6:0.328667 7:0.2 
-512 1:0.6924 2:0.2364 3:-0.730667 4:0.15975 5:0.3979 6:-0.1988 7:0.3896 
-512 1:-0.041 2:0.42212 3:-0.751 4:0.32775 5:1 6:0.0473333 7:0.4606 
-512 1:-0.5218 2:0.2364 3:0.269333 4:-0.09625 5:0.9444 6:0.339733 7:0.3164 
-512 1:1 2:-1 3:-0.035 4:0.28425 5:-0.2082 6:-0.678667 7:0.46 
-512 1:-0.5556 2:-0.72276 3:0.394667 4:0.62625 5:-0.2082 6:-0.578667 7:0.81 
-512 1:1 2:-0.56056 3:-0.531667 4:-0.05725 5:-0.3906 6:-0.2048 7:0.2734 
-512 1:-0.5 2:-1 3:-0.619 4:0.6195 5:0.0794 6:-0.196533 7:0.86 
-512 1:0.25 2:-0.35624 3:-0.698333 4:0.33225 5:-0.2082 6:-0.3956 7:0.5 
-512 2:-1 3:-0.731667 4:0.1235 5:-0.9014 6:-0.537333 7:0.86 
-512 1:0.75 2:0.2178 3:-0.242667 4:0.0225 5:0.7081 6:-0.0593333 7:0.317 
-512 1:-0.2 2:-0.44548 3:-0.00533333 4:0.16025 5:0.3026 6:-0.494667 7:0.665 
-512 1:-0.1 2:-0.12112 3:0.178 4:0.058 5:0.8332 6:-0.154 7:0.5934 
-512 1:-0.02 2:0.55672 3:-0.528 4:0.375 5:0.0794 6:-0.2252 7:0.4946 
-512 1:1 2:-1 3:-0.932333 4:-0.03625 5:-0.6137 6:0.500667 7:0.28 
-512 1:-0.0556 2:0.13328 3:-0.458 4:0.0345 5:0.3026 6:-0.4692 7:0.228 
-512 1:-0.25 2:-0.56056 3:0.275 4:0.249 5:-0.0541 6:-0.622133 7:0.4466 
-512 1:-0.103 2:0.64436 3:-0.552333 4:0.16125 5:0.5649 6:-0.219333 7:0.371 
-512 1:0.75 2:0.2178 3:0.172667 4:0.27075 5:0.7726 6:-0.0508 7:0.22 
-512 1:0.6962 2:0.68188 3:0.461667 4:0.07875 5:0.8332 6:-0.0530667 7:0.3568 
-259.6393046466461 1:-0.6 2:-1 3:0.117333 4:-0.266 5:-0.2082 6:-0.378267 7:0.5 
-512 1:-0.3334 2:-1 3:0.778667 4:-0.27425 5:0.3026 6:0.0904 7:0.54 
-288.4423620848718 1:-0.998 2:-1 3:0.476333 4:-0.22875 5:-0.9014 6:-0.390667 7:0.14 
-512 2:-1 3:-0.832333 4:0.14375 5:0.6391 6:-0.175067 7:0.22 
-512 1:0.055 2:0.54848 3:-0.632667 4:-0.0855 5:0.1972 6:-0.169467 7:0.4226 
-512 1:-0.996 2:-1 3:-0.467667 4:0.40675 5:-0.9014 6:0.0950667 7:0.08 
-512 1:-0.1666 2:-0.35624 3:-0.689 4:-0.05675 5:0.1972 6:-0.3488 7:0.304 
-512 2:-1 3:-0.693667 4:0.4325 5:-0.6137 6:0.4944 7:0.1 
-512 2:-1 3:-0.903333 4:0.52325 5:0.3979 6:-0.585867 7:0.26 
-58.32271866328925 1:-0.3658 2:0.02596 3:0.536 4:0.519 5:0.6391 6:-0.649067 7:0.1708 
-512 1:-0.1686 2:0.44436 3:-0.502333 4:0.1795 5:0.7081 6:-0.158667 7:0.4846 
-512 1:0.1112 2:-0.35624 3:-0.0916667 4:-0.20925 5:0.3979 6:-0.181067 7:0.52 
-512 1:0.1904 2:0.28756 3:0.184333 4:0.159 5:0.9957 6:-0.448533 7:0.32 
-162.7444016740575 1:-0.5676 2:-0.16824 3:-0.015 4:0.1445 5:1 6:0.130133 7:0.505 
-512 1:-0.5 2:-1 3:-0.285333 4:0.46375 5:0.3026 6:-0.567333 7:0.8 
-512 1:0.5142 2:0.58812 3:0.101667 4:0.30825 5:0.6391 6:-0.131867 7:0.2674 
-512 1:-0.0244 2:0.19828 3:-0.139 4:-0.93825 5:-0.9014 6:0.576 7:0.1578 
-512 1:-0.1708 2:0.13328 3:-0.139667 4:0.09925 5:-0.6137 6:0.49 7:0.1462 
-512 1:-0.3334 2:-1 3:0.741667 4:-0.20575 5:0.3979 6:0.0072 7:0.9 
-512 1:0.054 2:0.46544 3:-0.476333 4:0.29725 5:1 6:-0.0597333 7:0.4928 
-512 1:0.9354 2:0.36048 3:-0.0196667 4:0.18725 5:0.7081 6:-0.183067 7:0.4968 
-512 1:0.6 2:-0.44548 3:0.501667 4:0.43775 5:0.3026 6:0.231333 7:0.515 
-512 1:-0.6 2:-1 3:-0.778333 4:0.4345 5:-0.0541 6:-0.510133 7:0.64 
-512 1:1 2:-1 3:-0.420667 4:0.411 5:-0.2082 6:-0.00493333 7:0.52 
-512 1:-0.125 2:-0.22164 3:0.433333 4:-0.5785 5:-0.3906 6:0.4136 7:0.65 
-512 1:0.3684 2:0.85776 3:-0.314 4:0.13525 5:0.3979 6:-0.267733 7:0.3618 
-512 1:-0.2592 2:-0.07896 3:0.119333 4:0.47525 5:0.7081 6:-0.230933 7:0.578 
-512 1:0.4286 2:-0.07896 3:-0.595333 4:0.02075 5:0.6391 6:0.1136 7:0.06 
-241.5950463168286 1:-0.5 2:-1 3:0.427 4:-0.456 5:-0.6137 6:-0.588933 7:0.62 
-512 2:-1 3:-0.796 4:-0.40975 5:-0.9014 6:0.0110667 7:0.64 
-118.2486293326632 1:-0.2608 2:0.13328 3:0.0306667 4:-0.39425 5:-0.6137 6:-0.138 7:0.5962 
-512 1:-0.2278 2:0.46544 3:0.717333 4:0.28175 5:0.9957 6:-0.425467 7:0.4158 
-512 1:-0.6 2:-0.22164 3:0.197667 4:-0.0385 5:0.5649 6:-0.0456 7:0.72 
-512 1:0.85 2:0.72164 3:-0.632667 4:0.09325 5:1 6:-0.225467 7:0.4338 
-512 1:-0.1112 2:0.19828 3:0.408667 4:-0.07625 5:0.5649 6:0.6424 7:0.593 
-512 1:0.647 2:0.61016 3:0.536333 4:0.418 5:0.6391 6:0.636533 7:0.2432 
-512 1:0.119 2:0.54004 3:-0.0196667 4:0.246 5:1 6:0.1092 7:0.3582 
