svm_type c_svc
kernel_type rbf
gamma 8
nr_class 2
total_sv 9499
rho 0.913292
label 1 0
probA -2.82578
probB 0.916109
nr_sv 2718 6781
SV
8 1:0.702 2:1 3:0.722 4:1 5:1 6:0.87 7:-0.3314 8:-0.7656 9:-0.4104 10:-0.7283 11:-0.6801 
8 1:0.066 2:0.46 3:0.454 4:0.542 5:0.638 6:0.804 7:-0.3817 8:-0.8689 9:-0.413 10:-0.808 11:-0.7011 
2.792245604093674 1:0.096 2:0.552 3:0.426 4:0.45 5:0.632 6:0.686 7:-0.4581 8:-0.8714 9:-0.5546 10:-0.895 11:-0.8468 
8 1:-0.528 2:0.144 3:-0.324 4:-0.152 5:0.128 6:0.158 7:-0.4553 8:-0.778 9:-0.5161 10:-0.8475 11:-0.7651 
8 1:-0.412 2:0.234 3:-0.042 4:-0.038 5:0.24 6:0.274 7:-0.373 8:-0.733 9:-0.4435 10:-0.7136 11:-0.739 
8 1:-0.474 2:0.21 3:-0.13 4:-0.054 5:0.214 6:0.146 7:-0.2569 8:-0.7505 9:-0.3375 10:-0.6574 11:-0.6201 
8 1:1 2:1 3:1 4:1 5:1 6:1 7:-1 8:-1 9:-1 10:-1 11:-1 
8 1:-0.694 2:0.078 3:-0.596 4:-0.136 5:0.144 6:0.024 7:-0.3382 8:-0.6604 9:-0.4069 10:-0.7883 11:-0.6953 
8 1:-0.164 2:0.328 3:0.166 4:0.132 5:0.368 6:0.4 7:-0.3496 8:-0.8977 9:-0.4288 10:-0.8092 11:-0.7012 
8 1:0.014 2:0.48 3:0.21 4:0.338 5:0.596 6:0.582 7:-0.3866 8:-0.9623 9:-0.427 10:-0.8297 11:-0.7192 
8 1:-0.49 2:0.176 3:-0.168 4:-0.128 5:0.184 6:0.116 7:-0.3713 8:-0.8433 9:-0.4686 10:-0.8013 11:-0.7496 
3.224663616353704 1:0.408 2:0.656 3:0.79 4:0.754 5:0.794 6:0.88 7:-0.3411 8:-0.8752 9:-0.4416 10:-0.7697 11:-0.7216 
8 1:-0.052 2:0.424 3:0.308 4:0.102 5:0.39 6:0.394 7:-0.4658 8:-0.8565 9:-0.5274 10:-0.8522 11:-0.8036 
8 1:0.824 2:0.88 3:0.834 4:0.914 5:0.942 6:0.914 7:1 8:-1 9:-1 10:-1 11:-1 
5.302993183692529 1:0.03 2:0.48 3:0.316 4:0.318 5:0.528 6:0.578 7:-0.4395 8:-0.9833 9:-0.5672 10:-0.8999 11:-0.8229 
8 1:0.794 2:0.88 3:0.928 4:0.906 5:0.928 6:0.99 7:-0.4769 8:-0.9955 9:-0.5185 10:-0.9011 11:-0.8026 
3.74529129712043 1:-0.338 2:0.22 3:-0.104 4:0.58 5:0.692 6:0.798 7:-0.4062 8:-0.8156 9:-0.4562 10:-0.8122 11:-0.7386 
2.00392261600743 1:0.34 2:0.562 3:0.34 4:1 5:1 6:1 7:1 8:-0.0131 9:-1 10:-1 11:-1 
5.248110708320484 1:-0.408 2:0.278 3:-0.408 4:-0.59 5:0.012 6:-0.59 7:1 8:1 9:1 10:-1 11:1 
8 1:0.07 2:0.598 3:0.148 4:0.262 5:0.55 6:0.314 7:-0.3793 8:-0.848 9:-0.4807 10:-0.8236 11:-0.7729 
8 1:-0.712 2:0.088 3:-0.592 4:-0.12 5:0.308 6:0.142 7:-0.587 8:-0.9727 9:-0.6396 10:-0.8585 11:-0.9306 
0.1587682002735052 1:-0.224 2:0.694 3:-0.22 4:0.326 5:0.818 6:0.31 7:-0.3535 8:-0.7421 9:-0.4219 10:-0.7592 11:-0.709 
8 1:-0.486 2:0.232 3:-0.486 4:-0.298 5:0.196 6:-0.298 7:1 8:1 9:1 10:1 11:1 
2.282024602030808 1:1 2:1 3:0.744 4:1 5:1 6:0.86 7:-0.2631 8:-0.6693 9:-0.3261 10:-0.6524 11:-0.6018 
1.850125069589764 1:-0.36 2:0.534 3:-0.394 4:0.116 5:0.542 6:-0.056 7:-0.3516 8:-0.5956 9:-0.4022 10:-0.807 11:-0.6666 
8 1:-0.22 2:0.322 3:-0.012 4:0.092 5:0.314 6:0.356 7:-0.2267 8:-0.8545 9:-0.3964 10:-0.8333 11:-0.6214 
0.3304469729128674 1:-0.556 2:0.498 3:-0.412 4:0.034 5:0.538 6:0.062 7:-0.2887 8:-0.9022 9:-0.3391 10:-0.7182 11:-0.626 
8 1:-0.4 2:0.2 3:-0.136 4:0.03 5:0.17 6:0.246 7:-0.354 8:-0.8507 9:-0.4159 10:-0.7306 11:-0.6991 
8 1:-0.83 2:0.03 3:-0.764 4:-0.508 5:-0.026 6:-0.402 7:-0.4536 8:-0.7828 9:-0.5 10:-0.7354 11:-0.8169 
8 1:0.314 2:0.648 3:0.614 4:0.486 5:0.66 6:0.72 7:-0.33 8:-0.7642 9:-0.4036 10:-0.7326 11:-0.6894 
8 1:-0.34 2:0.258 3:-0.288 4:-0.032 5:0.276 6:0.112 7:-0.4612 8:-0.8478 9:-0.5639 10:-0.8783 11:-0.8024 
8 1:-0.56 2:0.14 3:-0.44 4:-0.08 5:0.21 6:0.134 7:-0.2895 8:-0.7533 9:-0.3603 10:-0.706 11:-0.6377 
7.00064157349709 1:-0.202 2:0.366 3:0.064 4:0.092 5:0.442 6:0.23 7:-0.6001 8:-0.8952 9:-0.613 10:-0.901 11:-0.9014 
8 1:-0.014 2:0.506 3:0.182 4:0.144 5:0.416 6:0.328 7:-0.3799 8:-0.8712 9:-0.4399 10:-0.7551 11:-0.7406 
8 1:0.374 2:0.602 3:0.702 4:0.788 5:0.822 6:0.944 7:-0.329 8:-0.841 9:-0.4361 10:-0.8137 11:-0.7088 
0.5653981945484788 1:-0.3 2:0.376 3:0.026 4:0.218 5:0.472 6:0.346 7:-0.3554 8:-0.8635 9:-0.4271 10:-0.8301 11:-0.6892 
1.818223693318771 1:-0.788 2:0.538 3:-0.754 4:0.126 5:0.88 6:0.042 7:-0.5259 8:-0.9555 9:-0.4964 10:-0.4338 11:-0.7775 
2.420663816423902 1:0.878 2:0.926 3:0.92 4:0.934 5:0.93 6:0.988 7:-0.559 8:-1 9:-0.5001 10:1 11:-0.9416 
8 1:-0.83 2:0.114 3:-0.734 4:-0.414 5:0.182 6:-0.294 7:-0.3757 8:-0.8408 9:-0.4133 10:-0.7966 11:-0.707 
8 1:1 2:1 3:1 4:1 5:1 6:1 7:-1 8:-1 9:-1 10:-1 11:-1 
0.2650513177561399 1:-0.442 2:0.216 3:-0.082 4:-0.062 5:0.216 6:0.234 7:-0.3564 8:-0.7731 9:-0.44 10:-0.7471 11:-0.7286 
8 1:0.448 2:0.696 3:0.648 4:0.492 5:0.646 6:0.67 7:-0.2898 8:-0.8793 9:-0.3646 10:-0.7021 11:-0.6433 
8 1:-0.804 2:0.014 3:-0.614 4:-0.46 5:-0.03 6:-0.258 7:-0.3177 8:-0.8138 9:-0.404 10:-0.7587 11:-0.6847 
8 1:-0.448 2:0.22 3:-0.108 4:-0.034 5:0.244 6:0.204 7:-0.3733 8:-0.7214 9:-0.4359 10:-0.701 11:-0.7346 
2.244408398376741 1:0.06 2:0.572 3:0.194 4:0.234 5:0.516 6:0.332 7:-0.3398 8:-0.8257 9:-0.4802 10:-0.8354 11:-0.7703 
3.375788405522591 1:0.136 2:0.636 3:0.242 4:0.244 5:0.53 6:0.296 7:-0.345 8:-0.8599 9:-0.4454 10:-0.476 11:-0.6726 
1.915873439507241 1:-0.716 2:0.548 3:-0.772 4:-0.1 5:0.59 6:-0.298 7:0.1592 8:-0.6632 9:-0.3892 10:1 11:0.112 
8 1:1 2:1 3:0.918 4:1 5:1 6:0.994 7:-0.4553 8:-0.9746 9:-0.4906 10:-0.869 11:-0.7792 
5.017231183415328 1:-0.372 2:0.324 3:-0.134 4:0.158 5:0.416 6:0.34 7:-0.4324 8:-0.8577 9:-0.5474 10:-0.8811 11:-0.8301 
4.023481380705458 1:-0.616 2:0.108 3:-0.366 4:-0.2 5:0.11 6:0.04 7:0.1588 8:-0.8306 9:-0.3888 10:-0.8844 11:-0.3932 
8 1:-0.706 2:-0.014 3:-0.674 4:-0.304 5:-0.018 6:-0.194 7:-0.194 8:-0.8834 9:-0.2973 10:-0.7262 11:-0.5182 
8 1:0.788 2:0.868 3:0.962 4:0.878 5:0.894 6:0.982 7:-0.4159 8:-0.908 9:-0.5401 10:-0.9103 11:-0.8141 
8 1:-0.3 2:0.806 3:-0.45 4:0.604 5:1 6:0.232 7:-0.4294 8:-0.8447 9:-0.4944 10:-0.8129 11:-0.7851 
8 1:-0.618 2:0.02 3:-0.52 4:0.002 5:0.166 6:0.28 7:-0.3208 8:-0.8059 9:-0.3883 10:-0.7098 11:-0.6656 
8 1:-0.408 2:0.278 3:-0.408 4:-0.59 5:0.012 6:-0.59 7:1 8:1 9:1 10:-1 11:1 
8 1:0.704 2:1 3:0.402 4:1 5:1 6:0.74 7:-0.3863 8:-0.7593 9:-0.4427 10:-0.7524 11:-0.7225 
8 1:-0.334 2:0.24 3:-0.076 4:0.13 5:0.316 6:0.376 7:-0.2383 8:-0.791 9:-0.3261 10:-0.6243 11:-0.6035 
8 1:-0.832 2:0.254 3:-0.78 4:-0.478 5:0.244 6:-0.374 7:-0.3422 8:-0.8198 9:-0.3957 10:-0.783 11:-0.6795 
8 1:-0.756 2:0.062 3:-0.434 4:-0.282 5:0.108 6:0.046 7:-0.3442 8:-0.7534 9:-0.5694 10:-0.8876 11:-0.8375 
8 1:-0.874 2:0.094 3:-0.77 4:-0.546 5:0.038 6:-0.368 7:-0.3829 8:-0.8543 9:-0.4423 10:-0.811 11:-0.7365 
8 1:-0.208 2:0.238 3:0.062 4:0.254 5:0.36 6:0.564 7:-0.413 8:-0.8031 9:-0.4618 10:-0.8171 11:-0.7561 
8 1:0.198 2:0.534 3:0.25 4:0.558 5:0.652 6:0.744 7:-0.3598 8:-0.8404 9:-0.3714 10:-0.7429 11:-0.6685 
0.6397336481176813 1:-0.438 2:0.12 3:-0.276 4:0.116 5:0.268 6:0.404 7:-0.3748 8:-0.7309 9:-0.3176 10:-0.6993 11:-0.6137 
8 1:0.888 2:0.924 3:0.972 4:1 5:1 6:0.996 7:-0.5563 8:-0.9516 9:-0.6125 10:-0.9747 11:-0.903 
8 1:-0.514 2:0.128 3:-0.296 4:-0.05 5:0.16 6:0.22 7:-0.355 8:-0.8042 9:-0.444 10:-0.7576 11:-0.7271 
2.096647939198363 1:-0.562 2:0.134 3:-0.49 4:0.102 5:0.35 6:0.226 7:-0.0056 8:-0.8851 9:0.8724 10:1 11:0.2929 
1.978647790028857 1:-0.362 2:0.242 3:-0.17 4:0.008 5:0.24 6:0.228 7:1 8:-0.7009 9:-0.0616 10:-0.8378 11:0.7244 
8 1:0.268 2:0.598 3:0.668 4:0.426 5:0.576 6:0.728 7:-0.3594 8:-0.7713 9:-0.4246 10:-0.6982 11:-0.7077 
8 1:-0.47 2:0.026 3:-0.298 4:-0.024 5:0.222 6:0.184 7:-0.3705 8:-0.7186 9:-0.4783 10:-0.8307 11:-0.7582 
8 1:-0.884 2:-0.054 3:-0.84 4:-0.62 5:-0.218 6:-0.54 7:-0.261 8:-0.7155 9:-0.3506 10:-0.6909 11:-0.6324 
8 1:1 2:1 3:0.92 4:1 5:1 6:0.962 7:-0.4167 8:-0.8291 9:-0.464 10:-0.8231 11:-0.7514 
8 1:-0.152 2:0.344 3:0.282 4:0.438 5:0.58 6:0.644 7:-0.2986 8:-0.883 9:-0.388 10:-0.7873 11:-0.6629 
8 1:0.872 2:0.924 3:0.914 4:1 5:1 6:0.996 7:-0.4661 8:-0.9986 9:-0.4983 10:-0.9082 11:-0.7815 
8 1:-0.902 2:-0.008 3:-0.834 4:-0.64 5:-0.124 6:-0.494 7:-0.3029 8:-0.831 9:-0.4131 10:-0.7506 11:-0.6907 
8 1:-0.28 2:0.27 3:-0.03 4:0.312 5:0.46 6:0.448 7:-0.3939 8:-0.8318 9:-0.3604 10:-0.7782 11:-0.6223 
8 1:1 2:1 3:0.97 4:1 5:1 6:0.992 7:-0.4576 8:-0.8838 9:-0.6316 10:-0.9794 11:-0.9197 
8 1:0.066 2:0.388 3:0.456 4:0.6 5:0.672 6:0.89 7:-0.3418 8:-0.9395 9:-0.4054 10:-0.7982 11:-0.6841 
8 1:0.01 2:0.366 3:0.328 4:0.236 5:0.482 6:0.476 7:-0.4338 8:-0.8366 9:-0.6182 10:-0.928 11:-0.9973 
8 1:-0.802 2:0.018 3:-0.786 4:-0.358 5:0.068 6:-0.358 7:1 8:1 9:1 10:1 11:1 
8 1:0.57 2:0.762 3:0.83 4:0.768 5:0.882 6:0.916 7:-0.397 8:-0.8994 9:-0.5335 10:-0.8777 11:-0.816 
8 1:0.986 2:1 3:0.976 4:1 5:1 6:0.992 7:-0.4738 8:-0.9782 9:-0.5126 10:-0.8778 11:-0.8065 
6.967977836482595 1:-0.36 2:0.532 3:-0.02 4:0.074 5:0.576 6:0.178 7:-0.3108 8:-0.7709 9:-0.3795 10:-0.7102 11:-0.6569 
8 1:-0.34 2:0.218 3:-0.124 4:0.236 5:0.414 6:0.398 7:-0.409 8:-0.8069 9:-0.3918 10:-0.7204 11:-0.6676 
5.128403646271184 1:0.044 2:0.51 3:0.378 4:0.214 5:0.514 6:0.55 7:-0.4717 8:-0.8641 9:-0.5346 10:-0.8584 11:-0.8205 
8 1:-0.482 2:0.018 3:-0.312 4:-0.028 5:0.222 6:0.202 7:-0.3589 8:-0.713 9:-0.4619 10:-0.8169 11:-0.7414 
2.322624489135516 1:-0.454 2:0.224 3:0.028 4:0.104 5:0.422 6:0.598 7:-0.3799 8:-0.886 9:-0.4881 10:-0.8304 11:-0.7808 
8 1:-0.588 2:0.01 3:-0.424 4:0.162 5:0.284 6:0.312 7:-0.3586 8:-0.7072 9:-0.3707 10:-0.75 11:-0.6491 
8 1:0.328 2:0.604 3:0.86 4:0.802 5:0.842 6:0.966 7:-0.4672 8:-0.8542 9:-0.4868 10:-0.8606 11:-0.7823 
8 1:0.89 2:0.956 3:0.93 4:1 5:1 6:0.996 7:-0.441 8:-1 9:-0.4774 10:-0.88 11:-0.7656 
0.3319739468036638 1:0.944 2:0.962 3:0.986 4:1 5:1 6:0.998 7:-0.648 8:-1 9:-0.7109 10:-1 11:-1 
8 1:1 2:1 3:1 4:1 5:1 6:1 7:-1 8:-1 9:-1 10:-1 11:-1 
7.090961140979498 1:-0.766 2:0.544 3:-0.828 4:0.06 5:0.66 6:-0.226 7:-0.4015 8:-0.7478 9:-0.4525 10:-0.7463 11:-0.7447 
2.263701814136139 1:-0.166 2:0.702 3:-0.142 4:0.214 5:0.752 6:0.244 7:-0.4327 8:-0.8779 9:-0.5355 10:-0.8538 11:-0.8547 
1.605544958539476 1:0.556 2:1 3:0.396 4:0.832 5:1 6:0.644 7:-0.1997 8:-0.666 9:-0.2925 10:-0.6502 11:-0.5379 
8 1:-0.796 2:-0.136 3:-0.68 4:-0.348 5:-0.074 6:-0.076 7:-0.4425 8:-0.8533 9:-0.5414 10:-0.9103 11:-0.8642 
8 1:0.116 2:0.502 3:0.518 4:0.552 5:0.696 6:0.794 7:-0.4076 8:-0.8236 9:-0.4709 10:-0.7948 11:-0.7523 
2.387785161843931 1:-0.56 2:0.012 3:-0.34 4:0.092 5:0.22 6:0.344 7:-0.3422 8:-0.5605 9:1 10:1 11:1 
8 1:0.958 2:1 3:0.914 4:1 5:1 6:0.992 7:-0.4346 8:-0.977 9:-0.4793 10:-0.8577 11:-0.7649 
8 1:-0.192 2:0.308 3:0.062 4:0.3 5:0.442 6:0.558 7:-0.4149 8:-0.7803 9:-0.4341 10:-0.8041 11:-0.7235 
2.784122110290934 1:-0.368 2:0.77 3:-0.23 4:-0.042 5:0.698 6:-0.064 7:-0.3817 8:-0.8164 9:-0.5072 10:-0.8696 11:-0.762 
1.981512704787129 1:0.71 2:1 3:0.428 4:1 5:1 6:0.752 7:-0.1075 8:-0.5569 9:-0.1486 10:-0.4448 11:-0.4353 
0.1079380771744191 1:0.052 2:0.482 3:0.29 4:0.48 5:0.684 6:0.694 7:-0.5312 8:-0.9646 9:-0.6286 10:-0.9925 11:-0.9106 
8 1:-0.22 2:0.322 3:-0.03 4:0.236 5:0.386 6:0.422 7:-0.2882 8:-0.8078 9:-0.3399 10:-0.7394 11:-0.6228 
5.763331746374065 1:-0.022 2:0.466 3:0.134 4:0.33 5:0.468 6:0.48 7:-0.2784 8:-0.8377 9:-0.3269 10:-0.7003 11:-0.6174 
8 1:-0.542 2:0.294 3:-0.426 4:0.114 5:0.438 6:0.122 7:-0.326 8:-0.7213 9:-0.392 10:-0.757 11:-0.5866 
2.241550385732764 1:-0.482 2:0.04 3:-0.14 4:0.22 5:0.362 6:0.542 7:-0.3329 8:-0.8502 9:-0.4095 10:-0.7777 11:-0.6792 
8 1:-0.594 2:0.044 3:-0.35 4:-0.036 5:0.218 6:0.28 7:-0.4047 8:-0.8351 9:-0.4357 10:-0.7821 11:-0.7339 
8 1:-0.808 2:0.02 3:-0.666 4:-0.216 5:0.178 6:0.068 7:-0.3205 8:-0.7876 9:-0.5393 10:-0.8535 11:-0.8003 
1.687118637532815 1:-0.102 2:0.616 3:0.09 4:1 5:1 6:0.776 7:-0.3704 8:-0.8613 9:-0.4321 10:-0.8045 11:-0.7087 
4.230805479567743 1:-0.054 2:0.428 3:0.05 4:0.536 5:0.694 6:0.798 7:-0.5353 8:-1 9:-0.5651 10:-0.9276 11:-0.8544 
8 1:-0.458 2:0.264 3:-0.396 4:0.006 5:0.284 6:0.142 7:-0.3371 8:-0.8835 9:-0.4213 10:-0.7687 11:-0.6969 
0.6300696879956519 1:-0.586 2:0.182 3:-0.472 4:-0.184 5:0.256 6:0.104 7:-0.4658 8:-0.8472 9:-0.6178 10:-0.6135 11:-0.8354 
5.804353068106364 1:0.396 2:0.794 3:0.584 4:0.798 5:0.954 6:0.866 7:-0.3611 8:-0.7828 9:-0.4338 10:-0.7561 11:-0.7094 
1.298325985392286 1:0.154 2:0.538 3:0.124 4:0.382 5:0.572 6:0.566 7:-0.5142 8:-0.4509 9:-0.6392 10:-0.9297 11:-0.8788 
8 1:0.082 2:0.49 3:0.316 4:0.206 5:0.432 6:0.434 7:-0.287 8:-0.7992 9:-0.3617 10:-0.6321 11:-0.6532 
0.9443236510429017 1:-0.178 2:0.394 3:-0.092 4:0.64 5:0.714 6:0.634 7:-0.0046 8:-0.8256 9:0.0437 10:-0.5562 11:-0.2768 
0.8854794265908923 1:0.988 2:0.992 3:0.984 4:1 5:1 6:0.998 7:-0.6439 8:-1 9:-0.71 10:-1 11:-1 
8 1:-0.502 2:0.218 3:-0.098 4:-0.002 5:0.358 6:0.388 7:-0.3375 8:-0.8813 9:-0.4098 10:-0.7769 11:-0.6808 
5.011672121382584 1:-0.142 2:0.44 3:-0.082 4:0.344 5:0.608 6:0.4 7:-0.1796 8:-0.7769 9:-0.4475 10:-0.707 11:-0.7496 
8 1:-0.728 2:0.07 3:-0.68 4:-0.338 5:0.064 6:-0.214 7:-0.4277 8:-0.8062 9:-0.5423 10:-0.7972 11:-0.8091 
8 1:-0.66 2:0.004 3:-0.608 4:-0.152 5:0.014 6:-0.134 7:-0.6113 8:1 9:1 10:1 11:1 
8 1:-0.588 2:0.012 3:-0.588 4:-0.034 5:0.116 6:-0.034 7:1 8:1 9:1 10:1 11:1 
8 1:0.27 2:0.576 3:0.836 4:0.69 5:0.758 6:0.926 7:-0.4161 8:-0.857 9:-0.465 10:-0.8423 11:-0.759 
8 1:-0.28 2:0.72 3:-0.252 4:0.212 5:0.786 6:0.064 7:-0.4021 8:-0.8563 9:-0.4767 10:-0.824 11:-0.7563 
8 1:-0.148 2:0.326 3:0.218 4:0.18 5:0.384 6:0.56 7:-0.4058 8:-0.8422 9:-0.4605 10:-0.7626 11:-0.7408 
8 1:1 2:1 3:0.974 4:1 5:1 6:0.996 7:-0.5207 8:-1 9:-0.5529 10:-0.896 11:-0.8531 
0.003130934996872568 1:0.758 2:1 3:0.716 4:0.702 5:0.972 6:0.558 7:-0.3999 8:-0.8015 9:-0.4541 10:-0.7695 11:-0.7426 
8 1:0.682 2:0.834 3:0.894 4:0.876 5:0.924 6:0.944 7:-0.4419 8:-0.8479 9:-0.4955 10:-0.7664 11:-0.7917 
8 1:-0.164 2:0.454 3:0.086 4:0.258 5:0.502 6:0.414 7:-0.3203 8:-0.7673 9:-0.3962 10:-0.7446 11:-0.6755 
0.3324844034812321 1:-0.042 2:1 3:-0.34 4:1 5:1 6:0.3 7:-0.433 8:-0.6355 9:-0.4658 10:-0.7631 11:-0.762 
1.222690881373373 1:-0.088 2:0.27 3:0.232 4:0.794 5:0.816 6:0.754 7:-0.2868 8:-0.8659 9:-0.3289 10:-0.8389 11:-0.7084 
1.871437055294874 1:0.358 2:0.548 3:0.614 4:0.84 5:0.84 6:0.902 7:-0.5771 8:-0.8511 9:-0.5294 10:-0.0743 11:-0.9721 
8 1:-0.702 2:0.116 3:-0.58 4:-0.352 5:0.132 6:-0.156 7:-0.2945 8:-0.8007 9:-0.3815 10:-0.7205 11:-0.6605 
8 1:-0.76 2:0.026 3:-0.76 4:-0.566 5:-0.01 6:-0.566 7:-0.5016 8:-0.6551 9:1 10:1 11:1 
8 1:-0.76 2:0.026 3:-0.76 4:-0.566 5:-0.01 6:-0.566 7:1 8:1 9:1 10:1 11:1 
8 1:0.934 2:0.96 3:0.986 4:0.97 5:0.974 6:0.998 7:-0.498 8:-0.9649 9:-0.5328 10:-0.9211 11:-0.8387 
5.45913330869777 1:-0.834 2:-0.048 3:-0.76 4:-0.554 5:-0.134 6:-0.438 7:1 8:-0.9359 9:0.2057 10:-0.843 11:1 
8 1:0.244 2:0.708 3:0.344 4:0.462 5:0.626 6:0.594 7:-0.3784 8:-0.8522 9:-0.3995 10:-0.8051 11:-0.6902 
8 1:0.624 2:0.786 3:0.8 4:0.66 5:0.75 6:0.816 7:-0.3534 8:-0.94 9:-0.4265 10:-0.8241 11:-0.7257 
8 1:-0.084 2:0.382 3:0.534 4:0.472 5:0.584 6:0.774 7:-0.4047 8:-0.8708 9:-0.4465 10:-0.8303 11:-0.731 
5.3914753787889 1:-0.798 2:0.02 3:-0.736 4:-0.324 5:0.146 6:-0.184 7:-0.4004 8:1 9:-0.0479 10:-0.4581 11:-0.4434 
8 1:0.766 2:0.86 3:0.952 4:0.832 5:0.856 6:0.968 7:-0.4618 8:-1 9:-0.5308 10:-0.9135 11:-0.8162 
8 1:-0.048 2:0.426 3:0.294 4:0.098 5:0.384 6:0.376 7:-0.4664 8:-0.8584 9:-0.5297 10:-0.856 11:-0.8052 
8 1:0.586 2:0.752 3:0.876 4:0.742 5:0.772 6:0.822 7:-0.4801 8:-0.8513 9:-0.5002 10:-0.8332 11:-0.8054 
8 1:1 2:1 3:0.968 4:1 5:1 6:0.994 7:-0.4739 8:-1 9:-0.5097 10:-0.8734 11:-0.8106 
8 1:0.53 2:1 3:0.222 4:1 5:1 6:0.47 7:-0.4133 8:-0.7645 9:-0.4853 10:-0.7883 11:-0.7786 
3.783527301705382 1:0.772 2:1 3:0.576 4:0.774 5:1 6:0.768 7:-0.332 8:-0.9037 9:-0.405 10:-0.7894 11:-0.6767 
8 1:-0.39 2:0.118 3:-0.17 4:0.314 5:0.428 6:0.492 7:-0.154 8:-0.781 9:-0.1781 10:-0.6252 11:-0.6288 
1.315611542903541 1:-0.2 2:0.48 3:-0.046 4:0.398 5:0.556 6:0.38 7:-0.3829 8:-0.829 9:-0.4219 10:-0.7626 11:-0.6939 
8 1:-0.63 2:0.14 3:-0.5 4:-0.114 5:0.31 6:0.11 7:-0.2962 8:-0.8468 9:-0.5506 10:-0.9431 11:-0.9215 
6.472634944840092 1:0.726 2:0.836 3:0.688 4:0.972 5:0.976 6:0.98 7:-0.7819 8:-0.9153 9:-0.7363 10:-0.8791 11:-0.9031 
8 1:0.41 2:0.608 3:0.89 4:1 5:1 6:0.99 7:-0.4185 8:-1 9:-0.475 10:-0.8715 11:-0.7617 
8 1:1 2:1 3:0.986 4:1 5:1 6:0.998 7:-0.5728 8:-1 9:-0.6388 10:-1 11:-0.9313 
8 1:-0.45 2:0.29 3:-0.288 4:-0.018 5:0.384 6:0.224 7:-0.3983 8:-0.8742 9:-0.4624 10:-0.8494 11:-0.7332 
8 1:0.17 2:0.638 3:0.362 4:0.4 5:0.654 6:0.556 7:-0.4311 8:-0.8348 9:-0.4871 10:-0.8238 11:-0.7911 
0.9219622357092145 1:0.476 2:0.614 3:0.958 4:0.672 5:0.762 6:0.976 7:-0.7292 8:-1 9:-0.7707 10:-1 11:-0.993 
8 1:-0.25 2:0.266 3:-0.022 4:0.152 5:0.472 6:0.502 7:-0.2949 8:-0.7939 9:-0.4655 10:-0.8124 11:-0.7405 
2.491697394847757 1:0.582 2:1 3:0.378 4:0.988 5:1 6:0.624 7:-0.3931 8:-0.8224 9:-0.4552 10:-0.8036 11:-0.7336 
8 1:-0.632 2:0.03 3:-0.58 4:-0.06 5:0.21 6:0.196 7:-0.2874 8:-0.847 9:-0.3576 10:-0.7169 11:-0.6363 
1.869162829672089 1:0.412 2:1 3:0.47 4:0.918 5:1 6:0.708 7:-0.0371 8:-0.5259 9:-0.1555 10:-0.5503 11:-0.3837 
3.312558380421069 1:0.398 2:0.804 3:0.506 4:0.65 5:0.854 6:0.672 7:-0.348 8:-0.7956 9:-0.425 10:-0.7592 11:-0.6971 
4.660186636994287 1:-0.136 2:0.548 3:0.08 4:0.186 5:0.54 6:0.374 7:-0.3904 8:-0.8818 9:-0.4449 10:-0.8022 11:-0.7201 
5.587631612376163 1:0.314 2:0.618 3:0.536 4:0.636 5:0.716 6:0.75 7:-0.3049 8:-0.7345 9:-0.3007 10:-0.5695 11:-0.6179 
6.274743543839612 1:1 2:1 3:0.95 4:1 5:1 6:0.988 7:-0.1195 8:-0.616 9:-0.2137 10:-0.5551 11:-0.4795 
8 1:-0.564 2:0.182 3:-0.378 4:-0.14 5:0.232 6:0.088 7:-0.4657 8:-0.8251 9:-0.5623 10:-0.8552 11:-0.8425 
8 1:-0.734 2:0.028 3:-0.458 4:-0.594 5:-0.126 6:-0.464 7:-0.2229 8:-0.8321 9:-0.4058 10:-0.7776 11:-0.6465 
8 1:0.96 2:1 3:0.978 4:1 5:1 6:0.994 7:-0.4606 8:-0.9787 9:-0.5041 10:-0.8681 11:-0.7969 
8 1:0.32 2:0.608 3:0.32 4:0.298 5:0.432 6:0.298 7:1 8:-0.9964 9:1 10:1 11:1 
2.234367712378033 1:-0.006 2:0.458 3:0.122 4:0.36 5:0.578 6:0.546 7:0.2507 8:-0.726 9:-0.3178 10:-0.9149 11:-0.4081 
8 1:1 2:1 3:0.788 4:1 5:1 6:0.956 7:-0.3398 8:-0.8012 9:-0.4192 10:-0.753 11:-0.6905 
8 1:-0.62 2:0.404 3:-0.54 4:-0.132 5:0.348 6:-0.204 7:-0.3506 8:-0.3498 9:-0.3849 10:-0.735 11:-0.6628 
4.304875624106463 1:0.458 2:0.934 3:0.208 4:0.552 5:0.784 6:0.702 7:-0.3305 8:-0.8739 9:-0.4028 10:-0.7875 11:-0.6736 
8 1:0.308 2:0.604 3:0.618 4:0.272 5:0.572 6:0.382 7:-0.4125 8:-0.8533 9:-0.3848 10:-0.804 11:-0.6939 
4.555072514793335 1:0.122 2:0.546 3:0.334 4:0.376 5:0.624 6:0.546 7:-0.8643 8:-1 9:-0.522 10:-0.8686 11:-0.8686 
0.2339174626643396 1:0.332 2:0.598 3:0.622 4:0.794 5:0.906 6:0.912 7:-0.4196 8:-0.9005 9:-0.5466 10:-0.8845 11:-0.8325 
0.4532177894870297 1:-0.148 2:0.348 3:0.36 4:0.068 5:0.27 6:0.512 7:-0.4533 8:-0.9384 9:-0.503 10:-0.8805 11:-0.7935 
0.8585692617873817 1:-0.086 2:0.42 3:0.35 4:0.122 5:0.408 6:0.416 7:-0.4932 8:-0.8698 9:-0.5002 10:-0.7787 11:-0.808 
0.08405925116837659 1:0.388 2:0.75 3:0.588 4:0.356 5:0.66 6:0.608 7:-0.5738 8:-0.935 9:-0.5513 10:-0.8921 11:-0.8494 
0.439798976584108 1:-0.386 2:0.226 3:0.062 4:0.156 5:0.38 6:0.442 7:-0.4314 8:-0.8812 9:-0.5361 10:-0.8809 11:-0.8591 
0.4712533600315322 1:-0.606 2:0.244 3:-0.45 4:-0.088 5:0.34 6:0.16 7:-0.4746 8:-0.8875 9:-0.5453 10:-0.8735 11:-0.8356 
8 1:-0.296 2:0.378 3:0.032 4:0.224 5:0.478 6:0.352 7:-0.3576 8:-0.8688 9:-0.4334 10:-0.8363 11:-0.6941 
8 1:0.09 2:0.45 3:0.298 4:0.45 5:0.524 6:0.558 7:-0.3195 8:-0.8787 9:-0.3724 10:-0.7748 11:-0.6495 
8 1:0.584 2:0.752 3:0.732 4:0.646 5:0.688 6:0.778 7:-0.3392 8:-0.7919 9:-0.4128 10:-0.9641 11:-0.6875 
3.110727058260847 1:-0.77 2:0.016 3:-0.8 4:-0.572 5:-0.146 6:-0.5 7:0.0187 8:0.9295 9:-0.2611 10:-0.5907 11:-0.4873 
8 1:1 2:1 3:1 4:1 5:1 6:1 7:-1 8:-1 9:-1 10:-1 11:-1 
8 1:-0.834 2:0.108 3:-0.83 4:-0.386 5:-0.02 6:-0.4 7:-0.2922 8:-0.6132 9:-0.3522 10:-0.7186 11:-0.6451 
8 1:-0.6 2:0.152 3:-0.3 4:-0.404 5:0.124 6:-0.214 7:-0.3837 8:-0.8488 9:-0.5363 10:-0.9011 11:-0.7784 
8 1:1 2:1 3:1 4:1 5:1 6:1 7:-1 8:-1 9:-1 10:-1 11:-1 
8 1:-0.496 2:0.182 3:-0.16 4:-0.14 5:0.172 6:0.158 7:-0.292 8:-0.7728 9:-0.3428 10:-0.6576 11:-0.6362 
2.169857801102936 1:-0.882 2:-0.12 3:-0.814 4:-0.516 5:-0.066 6:-0.394 7:-0.368 8:1 9:-0.1441 10:0.4148 11:-0.5867 
0.03530810601865818 1:-0.206 2:0.492 3:-0.136 4:0.318 5:0.598 6:0.398 7:-0.186 8:-0.8274 9:-0.2387 10:-0.5627 11:-0.5203 
8 1:0.33 2:0.53 3:0.61 4:0.952 5:0.952 6:0.982 7:-0.4499 8:-0.8846 9:-0.571 10:-0.8921 11:-0.8337 
8 1:0.08 2:0.496 3:0.432 4:0.42 5:0.594 6:0.668 7:-0.3216 8:-0.8664 9:-0.4033 10:-0.7152 11:-0.6731 
8 1:-0.182 2:0.342 3:0.206 4:0.154 5:0.338 6:0.46 7:-0.3251 8:-0.8432 9:-0.395 10:-0.7822 11:-0.6708 
8 1:-0.812 2:0.036 3:-0.812 4:-0.244 5:0.192 6:-0.244 7:1 8:1 9:-0.4164 10:1 11:1 
8 1:0.954 2:0.972 3:0.99 4:0.982 5:0.984 6:0.998 7:-0.5073 8:-0.973 9:-0.5409 10:-0.924 11:-0.8445 
1.929965584234975 1:0.314 2:0.524 3:0.52 4:0.954 5:0.952 6:0.95 7:-0.2854 8:-0.876 9:-0.3537 10:-0.5348 11:-0.6273 
8 1:0.934 2:0.96 3:0.988 4:0.97 5:0.974 6:0.998 7:-0.5003 8:-0.9684 9:-0.5356 10:-0.9182 11:-0.8376 
8 1:0.04 2:0.404 3:0.47 4:0.642 5:0.716 6:0.884 7:-0.2039 8:-1 9:-0.295 10:-0.6938 11:-0.5738 
8 1:-0.598 2:0.168 3:-0.434 4:-0.186 5:0.26 6:0.112 7:-0.4875 8:-0.791 9:-0.5461 10:-0.8607 11:-0.8423 
8 1:0.686 2:0.812 3:0.766 4:0.914 5:0.926 6:0.952 7:-0.4548 8:-0.9712 9:-0.4797 10:-0.7154 11:-0.7689 
8 1:0.05 2:0.532 3:0.228 4:0.366 5:0.682 6:0.646 7:-0.3113 8:-0.7986 9:-0.4842 10:-0.8265 11:-0.7588 
8 1:-0.006 2:0.596 3:0.05 4:0.412 5:0.71 6:0.306 7:-0.2907 8:-0.7567 9:-0.3572 10:-0.7023 11:-0.6386 
7.977044204125468 1:0.694 2:1 3:0.594 4:0.91 5:1 6:0.548 7:-0.3981 8:-0.7981 9:-0.4645 10:-0.7902 11:-0.7416 
5.327544717210491 1:0.352 2:0.788 3:0.374 4:0.47 5:0.768 6:0.52 7:-0.2491 8:-0.7353 9:-0.2686 10:-0.6896 11:-0.5494 
8 1:-0.22 2:0.31 3:-0.006 4:0.304 5:0.448 6:0.534 7:-0.4059 8:-0.7759 9:-0.4171 10:-0.7725 11:-0.7081 
4.801233331555503 1:-0.148 2:0.358 3:0.012 4:0.05 5:0.276 6:0.228 7:-0.102 8:-0.6591 9:-0.4458 10:-0.7909 11:-0.693 
8 1:-0.406 2:0.23 3:-0.342 4:-0.04 5:0.308 6:0.108 7:-0.411 8:-0.6991 9:-0.4575 10:-0.6174 11:-0.7621 
8 1:-0.828 2:0.022 3:-0.636 4:-0.386 5:0.022 6:-0.128 7:-0.2766 8:-0.8402 9:-0.3735 10:-0.7413 11:-0.6433 
1.400597078185826 1:1 2:1 3:0.602 4:1 5:1 6:0.634 7:-0.326 8:-0.7599 9:-0.4005 10:-0.7267 11:-0.6764 
3.958733177490305 1:0.504 2:0.742 3:0.598 4:0.65 5:0.782 6:0.71 7:-0.5338 8:-0.9831 9:-0.5616 10:-0.8645 11:-0.8589 
8 1:-0.734 2:0.006 3:-0.802 4:-0.36 5:0.128 6:-0.132 7:-0.2511 8:-0.7412 9:-0.4323 10:-0.8184 11:-0.7001 
0.4668998864036797 1:-0.492 2:0.284 3:-0.394 4:0.086 5:0.36 6:0.178 7:-0.3701 8:-0.619 9:-0.4125 10:-0.3555 11:-0.701 
8 1:1 2:1 3:0.932 4:1 5:1 6:0.998 7:-1 8:-1 9:-1 10:-1 11:-1 
2.822250012585327 1:-0.362 2:0.774 3:-0.432 4:0.738 5:1 6:0.378 7:-0.5479 8:-0.7234 9:-0.6191 10:-0.9407 11:-0.959 
8 1:-0.622 2:0.174 3:-0.482 4:0.04 5:0.43 6:0.268 7:-0.5245 8:-0.9224 9:-0.6422 10:-1 11:-0.8645 
8 1:-0.764 2:0.074 3:-0.764 4:-0.228 5:0.208 6:-0.228 7:1 8:1 9:1 10:1 11:1 
8 1:-0.726 2:-0.016 3:-0.57 4:-0.142 5:0.08 6:0.116 7:-0.2887 8:-0.7843 9:-0.3398 10:-0.6885 11:-0.6238 
4.654249191216176 1:-0.78 2:-0.004 3:-0.71 4:-0.642 5:-0.086 6:-0.582 7:-0.3767 8:-0.69 9:-0.3738 10:1 11:-0.7087 
8 1:-0.196 2:0.394 3:0.01 4:0.294 5:0.506 6:0.484 7:-0.3006 8:-0.7416 9:-0.3879 10:-0.7253 11:-0.6657 
4.7909486702095 1:-0.486 2:0.062 3:-0.304 4:0.144 5:0.262 6:0.394 7:-0.4074 8:-0.6348 9:-0.1064 10:-0.4428 11:-0.4374 
2.63073274198157 1:0.34 2:0.636 3:0.258 4:0.474 5:0.618 6:0.408 7:-0.1783 8:-0.1865 9:-0.1964 10:-0.5415 11:-0.5046 
3.906011529853068 1:-0.032 2:0.466 3:0.152 4:0.27 5:0.538 6:0.454 7:-0.5701 8:-0.6484 9:-0.5451 10:-0.9743 11:-0.8219 
8 1:0.228 2:0.604 3:0.396 4:0.756 5:0.846 6:0.79 7:-0.3356 8:-0.7977 9:-0.4134 10:-0.7616 11:-0.6803 
8 1:-0.242 2:0.288 3:-0.242 4:0.158 5:0.402 6:0.158 7:1 8:0.6622 9:1 10:1 11:1 
2.710429386323482 1:0.748 2:1 3:0.772 4:0.234 5:0.642 6:0.184 7:-0.3833 8:-0.7562 9:-0.4079 10:-0.7295 11:-0.7084 
1.03023997239289 1:-0.024 2:0.492 3:0.12 4:0.358 5:0.502 6:0.478 7:-0.2905 8:-0.8575 9:-0.3621 10:-0.738 11:-0.6484 
0.2278541637278522 1:0.252 2:0.634 3:0.54 4:0.476 5:0.568 6:0.586 7:-0.409 8:-0.8211 9:-0.4719 10:-0.8061 11:-0.7532 
8 1:0.378 2:0.66 3:0.654 4:0.59 5:0.684 6:0.702 7:-0.2652 8:-0.7884 9:-0.3081 10:-0.6693 11:-0.5944 
1.790369809849474 1:-0.54 2:0.176 3:-0.33 4:0.024 5:0.328 6:0.278 7:0.3392 8:-0.33 9:0.7457 10:-0.4863 11:0.2834 
2.982976196895703 1:-0.01 2:0.592 3:0.264 4:0.446 5:0.72 6:0.558 7:-0.1421 8:-0.5849 9:-0.2126 10:-0.5294 11:-0.4875 
8 1:-0.196 2:0.312 3:-0.008 4:0.016 5:0.242 6:0.202 7:-0.4195 8:-0.8452 9:-0.4924 10:-0.8573 11:-0.7624 
8 1:-0.688 2:0.062 3:-0.494 4:-0.304 5:0.094 6:0.006 7:-0.4155 8:-0.8264 9:-0.5487 10:-0.819 11:-0.8403 
8 1:-0.28 2:0.324 3:0.14 4:0.176 5:0.408 6:0.526 7:-0.3103 8:-0.8014 9:-0.3901 10:-0.7215 11:-0.6723 
8 1:-0.794 2:0.078 3:-0.794 4:-0.334 5:0.152 6:-0.334 7:1 8:1 9:1 10:1 11:1 
8 1:1 2:1 3:1 4:1 5:1 6:1 7:-1 8:-1 9:-1 10:-1 11:-1 
8 1:-0.198 2:0.376 3:0.15 4:-0.024 5:0.31 6:0.304 7:-0.3529 8:-0.789 9:-0.4283 10:-0.7637 11:-0.7108 
8 1:-0.552 2:0.17 3:-0.242 4:-0.312 5:0.192 6:0.072 7:-0.4763 8:-0.8515 9:-0.566 10:-0.9011 11:-0.8435 
7.263390468199567 1:0.876 2:0.924 3:0.804 4:1 5:1 6:0.884 7:-0.648 8:-0.8103 9:-0.6309 10:-0.8495 11:-0.9365 
2.018203882298381 1:0.408 2:0.636 3:0.43 4:0.87 5:0.882 6:0.87 7:-0.5052 8:0.466 9:-0.5367 10:-0.5754 11:-0.8651 
8 1:0.024 2:0.458 3:0.292 4:0.154 5:0.318 6:0.666 7:-0.3586 8:-0.8371 9:-0.4213 10:-0.7878 11:-0.7035 
8 1:-0.52 2:-0.004 3:-0.44 4:0.042 5:0.192 6:0.184 7:-0.3075 8:-0.5938 9:-0.4505 10:-0.8196 11:-0.7637 
8 1:1 2:1 3:0.986 4:1 5:1 6:0.998 7:-0.4918 8:-1 9:-0.525 10:-0.8925 11:-0.8245 
1.857378733036544 1:0.008 2:0.62 3:0.05 4:0.444 5:0.64 6:0.63 7:-0.359 8:-0.8673 9:-0.421 10:-0.8068 11:-0.6891 
1.705606951040363 1:0.674 2:0.804 3:0.87 4:0.946 5:0.952 6:0.984 7:-0.466 8:-1 9:-0.5017 10:-0.887 11:-0.7945 
6.085087815834735 1:-0.59 2:0.154 3:-0.344 4:-0.124 5:0.234 6:0.24 7:-0.4129 8:-0.8576 9:-0.5763 10:-0.8998 11:-0.8128 
8 1:0.488 2:0.804 3:0.736 4:0.626 5:0.852 6:0.848 7:-0.3573 8:-0.8222 9:-0.5331 10:-0.8828 11:-0.8108 
8 1:0.124 2:0.514 3:0.528 4:0.456 5:0.59 6:0.738 7:-0.3554 8:-0.8349 9:-0.4086 10:-0.7879 11:-0.6903 
8 1:0.832 2:0.9 3:0.936 4:0.954 5:0.962 6:0.996 7:-0.4454 8:-0.9672 9:-0.4796 10:-0.8721 11:-0.7634 
1.089124506993858 1:0.824 2:0.89 3:0.918 4:0.894 5:0.906 6:0.892 7:-0.4095 8:-0.8908 9:-0.4801 10:-0.8613 11:-0.7599 
8 1:-0.492 2:0.508 3:-0.43 4:-0.088 5:0.458 6:-0.16 7:-0.3311 8:-0.5849 9:-0.3506 10:-0.7176 11:-0.6343 
8 1:0.002 2:0.476 3:0.326 4:0.294 5:0.55 6:0.604 7:-0.3716 8:-0.8175 9:-0.4762 10:-0.8053 11:-0.7362 
8 1:0.012 2:0.48 3:0.244 4:0.332 5:0.522 6:0.536 7:-0.3382 8:-0.8716 9:-0.4178 10:-0.7465 11:-0.7045 
8 1:-0.924 2:-0.092 3:-0.886 4:-0.7 5:-0.234 6:-0.668 7:-0.249 8:-0.8256 9:-0.4049 10:-0.7795 11:-0.6499 
8 1:0.192 2:0.55 3:0.598 4:0.376 5:0.556 6:0.696 7:-0.4603 8:-0.9001 9:-0.4946 10:-0.8452 11:-0.7912 
5.896590198563669 1:-0.62 2:0.29 3:-0.496 4:0.056 5:0.488 6:0.124 7:-0.4239 8:-0.8548 9:-0.5027 10:-0.8523 11:-0.7862 
1.898954886400663 1:-0.274 2:0.516 3:-0.272 4:0.572 5:0.882 6:0.468 7:0.1191 8:-0.44 9:-0.0019 10:-0.272 11:-0.2753 
4.960012554635926 1:0.838 2:0.906 3:0.828 4:0.972 5:0.976 6:0.97 7:-0.1034 8:-1 9:-0.1766 10:-0.7773 11:-0.4399 
2.133666219570856 1:0.692 2:0.824 3:0.792 4:0.408 5:0.54 6:0.652 7:-0.295 8:-0.8416 9:-0.3786 10:-0.7258 11:-0.6647 
8 1:1 2:1 3:0.996 4:1 5:1 6:0.998 7:-0.565 8:-1 9:-0.5897 10:-1 11:-0.9521 
8 1:1 2:1 3:0.96 4:1 5:1 6:0.992 7:-0.8918 8:-1 9:-1 10:-1 11:-1 
6.698123512287401 1:0.884 2:1 3:0.784 4:1 5:1 6:0.858 7:-0.3472 8:-0.7718 9:-0.4253 10:-0.7457 11:-0.6945 
1.914456073036338 1:-0.51 2:0.952 3:-0.652 4:0.032 5:0.784 6:-0.198 7:1 8:0.3492 9:-0.3148 10:-0.7789 11:-0.3851 
8 1:-0.636 2:0.106 3:-0.272 4:-0.218 5:0.146 6:0.038 7:-0.2613 8:-0.7246 9:-0.3079 10:-0.656 11:-0.5845 
8 1:-0.382 2:0.194 3:-0.158 4:0.156 5:0.35 6:0.404 7:-0.41 8:-0.846 9:-0.4746 10:-0.8023 11:-0.7558 
6.25630982284176 1:0.274 2:0.77 3:0.276 4:0.634 5:0.826 6:0.592 7:-0.3057 8:-0.7953 9:-0.3494 10:-0.7296 11:-0.6269 
8 1:-0.784 2:-0.032 3:-0.784 4:-0.316 5:-0.028 6:-0.316 7:1 8:-0.9047 9:1 10:1 11:1 
1.287702394271928 1:0.46 2:0.678 3:0.736 4:0.746 5:0.772 6:0.844 7:-0.6427 8:-0.6407 9:-0.6168 10:-0.6576 11:-0.9274 
2.126818202965342 1:-0.386 2:0.224 3:-0.03 4:-0.044 5:0.204 6:0.284 7:0.0628 8:-0.6774 9:0.4055 10:0.1213 11:0.0078 
5.179834039566024 1:-0.86 2:-0.042 3:-0.814 4:-0.45 5:0.01 6:-0.474 7:-0.0894 8:-0.6203 9:-0.3298 10:-0.8138 11:-0.5194 
3.037476329608778 1:0.474 2:1 3:-0.132 4:1 5:1 6:0.524 7:-0.2648 8:-0.725 9:-0.3494 10:-0.6609 11:-0.6258 
8 1:-0.394 2:0.212 3:-0.116 4:0.092 5:0.356 6:0.372 7:-0.5538 8:-0.8853 9:-0.5478 10:-0.8449 11:-0.8769 
3.471552345942338 1:0.296 2:0.812 3:0.508 4:0.564 5:0.822 6:0.688 7:-0.2597 8:-0.3062 9:-0.339 10:-0.5517 11:-0.6097 
1.936756655290926 1:0.312 2:0.85 3:0.476 4:0.642 5:0.892 6:0.692 7:0.1471 8:1 9:-0.0051 10:-0.0213 11:-0.2377 
8 1:-0.268 2:0.302 3:-0.104 4:0.178 5:0.528 6:0.464 7:-0.2994 8:-0.7914 9:-0.4747 10:-0.8186 11:-0.7492 
8 1:0.114 2:0.574 3:0.556 4:0.722 5:0.842 6:0.826 7:-0.4007 8:-0.8285 9:-0.487 10:-0.8125 11:-0.7569 
8 1:-0.632 2:0.08 3:-0.48 4:-0.254 5:0.112 6:-0.036 7:-0.3257 8:-0.9089 9:-0.4017 10:-0.7908 11:-0.687 
8 1:-0.698 2:0.048 3:-0.592 4:-0.174 5:0.16 6:0.04 7:0.2189 8:-0.8147 9:1 10:0.9962 11:1 
8 1:-0.426 2:0.212 3:-0.36 4:-0.134 5:0.216 6:-0.056 7:-0.33 8:1 9:-0.3947 10:-0.8161 11:-0.6881 
8 1:-0.05 2:0.4 3:0.468 4:0.208 5:0.432 6:0.608 7:-0.4008 8:-0.8211 9:-0.4683 10:-0.8053 11:-0.7435 
8 1:-0.482 2:0.24 3:-0.266 4:0.05 5:0.348 6:0.294 7:-0.3192 8:-0.7517 9:-0.3928 10:-0.7295 11:-0.6775 
8 1:0.34 2:0.618 3:0.76 4:0.724 5:0.78 6:0.874 7:-0.3646 8:-0.7603 9:-0.4159 10:-0.7543 11:-0.7161 
8 1:0.864 2:0.908 3:0.92 4:0.914 5:0.942 6:0.99 7:-0.838 8:-1 9:-1 10:-1 11:-1 
8 1:-0.68 2:0.152 3:-0.426 4:-0.256 5:0.184 6:-0.034 7:-0.3212 8:-0.8255 9:-0.469 10:-0.818 11:-0.7463 
2.707551605167516 1:0.272 2:0.62 3:0.462 4:0.586 5:0.676 6:0.668 7:-0.4241 8:-0.8215 9:-0.4767 10:-0.8325 11:-0.7586 
8 1:-0.378 2:0.292 3:-0.176 4:0.096 5:0.372 6:0.33 7:-0.3077 8:-0.7555 9:-0.381 10:-0.7136 11:-0.6637 
2.458985179149607 1:-0.598 2:0.234 3:-0.346 4:-0.196 5:0.292 6:0.002 7:-0.4726 8:-0.8096 9:-0.4566 10:-0.8146 11:-0.7514 
8 1:-0.584 2:0.108 3:-0.396 4:-0.142 5:0.168 6:0.18 7:-0.3146 8:-0.6425 9:-0.3865 10:-0.7164 11:-0.6698 
0.3346748700638778 1:-0.402 2:0.542 3:-0.42 4:0.284 5:0.69 6:0.214 7:-0.2345 8:-0.7679 9:-0.3322 10:-0.6769 11:-0.6193 
8 1:0.814 2:0.872 3:0.91 4:1 5:1 6:0.986 7:-0.5715 8:-0.963 9:-0.669 10:-0.9607 11:-0.97 
0.4334764746674654 1:0.168 2:0.61 3:0.336 4:0.12 5:0.34 6:0.59 7:-0.3495 8:-0.8448 9:-0.4105 10:-0.7861 11:-0.6856 
8 1:1 2:1 3:1 4:1 5:1 6:1 7:-1 8:-1 9:-1 10:-1 11:-1 
8 1:-0.062 2:0.68 3:-0.012 4:0.308 5:0.686 6:0.358 7:-0.2104 8:-0.7051 9:-0.3381 10:-0.6569 11:-0.5845 
8 1:0.794 2:0.858 3:0.794 4:0.914 5:0.942 6:0.914 7:1 8:-1 9:-1 10:-1 11:-1 
8 1:0.906 2:0.936 3:0.978 4:1 5:1 6:0.996 7:-0.5596 8:-0.9479 9:-0.6192 10:-0.9805 11:-0.9092 
8 1:1 2:1 3:1 4:0.906 5:0.938 6:0.906 7:1 8:-1 9:1 10:1 11:1 
8 1:-0.82 2:0.01 3:-0.68 4:-0.504 5:0.012 6:-0.306 7:-0.4289 8:-0.7414 9:-0.4846 10:-0.7846 11:-0.8253 
0.5920507522470664 1:-0.616 2:0.394 3:-0.626 4:0.142 5:0.56 6:0.074 7:-0.3985 8:-0.8104 9:-0.5468 10:-0.8643 11:-0.8144 
8 1:-0.588 2:0.17 3:-0.544 4:-0.534 5:0.092 6:-0.37 7:-0.4577 8:-0.6935 9:-0.5816 10:-0.9435 11:-0.8742 
8 1:0.044 2:0.602 3:0.216 4:0.502 5:0.67 6:0.558 7:-0.3819 8:-0.7794 9:-0.4322 10:-0.7998 11:-0.7144 
2.332665742885975 1:0.424 2:1 3:0.262 4:1 5:1 6:0.646 7:-0.2567 8:-0.7575 9:-0.3075 10:-0.669 11:-0.5967 
8 1:-0.142 2:0.442 3:0.182 4:0.396 5:0.622 6:0.644 7:-0.453 8:-0.7741 9:-0.4439 10:-0.7508 11:-0.7419 
2.305861811751537 1:0.064 2:0.74 3:-0.126 4:0.326 5:0.67 6:0.212 7:-0.4382 8:-0.7987 9:-0.492 10:-0.7922 11:-0.7762 
8 1:-0.708 2:-0.042 3:-0.612 4:-0.168 5:0.228 6:0.122 7:-0.3648 8:-0.8344 9:-0.541 10:-0.867 11:-0.8081 
8 1:-0.686 2:-0.124 3:-0.686 4:-0.176 5:0.126 6:-0.176 7:1 8:1 9:1 10:1 11:1 
0.8210650468091075 1:0.966 2:0.98 3:0.994 4:0.754 5:0.774 6:0.862 7:-0.6264 8:-1 9:-0.752 10:-1 11:-1 
8 1:1 2:1 3:0.98 4:1 5:1 6:0.996 7:-0.5309 8:-1 9:-0.5635 10:-0.9069 11:-0.8639 
8 1:-0.026 2:0.414 3:0.282 4:0.188 5:0.408 6:0.462 7:-0.3741 8:-0.8524 9:-0.4608 10:-0.814 11:-0.734 
8 1:0.16 2:0.568 3:0.42 4:0.49 5:0.646 6:0.632 7:-0.3308 8:-0.8566 9:-0.4135 10:-0.7379 11:-0.6953 
1.91541103325674 1:-0.288 2:0.672 3:-0.42 4:0.416 5:0.9 6:0.14 7:0.0834 8:-0.8693 9:0.6083 10:0.7169 11:0.1477 
8 1:-0.574 2:0.134 3:-0.372 4:-0.026 5:0.218 6:0.1 7:-0.3656 8:-0.7376 9:-0.4111 10:-0.7568 11:-0.6998 
0.8279127880934127 1:0.542 2:1 3:0.246 4:0.744 5:1 6:0.632 7:0.108 8:-0.4989 9:0.0363 10:-0.3443 11:-0.2099 
3.4628544400506 1:0.068 2:0.708 3:0.082 4:0.754 5:0.912 6:0.46 7:-0.3854 8:-0.8826 9:-0.4361 10:-0.8243 11:-0.7114 
8 1:-0.926 2:-0.066 3:-0.926 4:-0.612 5:-0.154 6:-0.604 7:1 8:-0.2163 9:1 10:1 11:1 
8 1:0.91 2:0.948 3:0.96 4:1 5:1 6:0.994 7:-0.4171 8:-1 9:-0.4572 10:-0.8499 11:-0.7638 
8 1:1 2:1 3:0.76 4:1 5:1 6:0.854 7:-0.5603 8:-0.9932 9:-0.5796 10:-0.9548 11:-0.8794 
8 1:-0.084 2:0.376 3:-0.084 4:0.324 5:0.486 6:0.324 7:1 8:1 9:1 10:1 11:1 
8 1:1 2:1 3:1 4:1 5:1 6:1 7:-1 8:-1 9:-1 10:-1 11:-1 
5.41109367885475 1:-0.674 2:0.244 3:-0.548 4:-0.13 5:0.358 6:0.044 7:-0.3757 8:-0.7688 9:-0.4458 10:-0.751 11:-0.7218 
8 1:-0.454 2:0.162 3:-0.454 4:-0.18 5:0.072 6:-0.18 7:1 8:1 9:1 10:1 11:1 
8 1:-0.304 2:0.31 3:-0.158 4:0.018 5:0.244 6:0.176 7:-0.345 8:-0.656 9:-0.5251 10:-0.8105 11:-0.7913 
8 1:0.104 2:0.532 3:0.54 4:0.316 5:0.572 6:0.672 7:-0.4628 8:-0.8827 9:-0.5163 10:-0.8615 11:-0.8011 
8 1:1 2:1 3:0.996 4:1 5:1 6:1 7:-1 8:-1 9:-1 10:-1 11:-1 
6.741831217343038 1:0.064 2:0.546 3:0.168 4:0.646 5:0.774 6:0.728 7:-0.3174 8:-0.8273 9:-0.402 10:-0.7678 11:-0.6597 
8 1:1 2:1 3:1 4:1 5:1 6:1 7:-1 8:-1 9:-1 10:-1 11:-1 
8 1:1 2:1 3:0.97 4:1 5:1 6:0.99 7:-0.2388 8:-0.6467 9:-0.3063 10:-0.6293 11:-0.5846 
8 1:-0.582 2:0.232 3:-0.452 4:-0.204 5:0.14 6:-0.092 7:-0.16 8:-0.8308 9:-0.1078 10:-0.4258 11:-0.4578 
8 1:0.616 2:0.776 3:0.888 4:0.724 5:0.794 6:0.934 7:-0.4221 8:-1 9:-0.477 10:-0.865 11:-0.7575 
8 1:0.398 2:1 3:0.46 4:1 5:1 6:0.698 7:-0.3622 8:-0.8142 9:-0.4133 10:-0.7909 11:-0.6902 
7.990316342847751 1:0.196 2:0.796 3:0.212 4:0.88 5:1 6:0.594 7:-0.2121 8:-0.7824 9:-0.366 10:-0.7292 11:-0.6258 
0.05913081675372622 1:-0.318 2:0.42 3:0.074 4:-0.272 5:0.298 6:-0.084 7:-0.4434 8:-0.8741 9:-0.4941 10:-0.811 11:-0.7847 
8 1:-0.094 2:0.43 3:-0.076 4:0.178 5:0.46 6:0.354 7:-0.4953 8:-0.9134 9:-0.6169 10:-0.9315 11:-0.8887 
8 1:-0.596 2:0.16 3:-0.492 4:-0.372 5:0.146 6:-0.142 7:-0.441 8:-0.8617 9:-0.5712 10:-0.9228 11:-0.8757 
7.69340108186231 1:-0.134 2:0.354 3:0.258 4:0.262 5:0.466 6:0.636 7:-0.4304 8:-0.8901 9:-0.5094 10:-0.8717 11:-0.8026 
8 1:0.186 2:0.562 3:0.586 4:0.576 5:0.732 6:0.672 7:-0.4034 8:-0.7781 9:-0.4729 10:-0.7461 11:-0.7559 
8 1:0.834 2:0.912 3:0.834 4:1 5:1 6:1 7:1 8:1 9:1 10:1 11:1 
8 1:-0.768 2:-0.052 3:-0.768 4:0.026 5:0.216 6:0.026 7:1 8:1 9:1 10:1 11:1 
1.660003193641699 1:0.184 2:0.436 3:0.368 4:0.976 5:0.976 6:0.954 7:-0.7832 8:-0.0486 9:-0.7838 10:-1 11:-1 
2.039787212246884 1:-0.41 2:0.778 3:-0.378 4:0.156 5:0.818 6:-0.012 7:-0.3828 8:-0.8977 9:-0.1494 10:-0.7685 11:-0.6463 
8 1:-0.596 2:0.19 3:-0.534 4:-0.348 5:0.174 6:-0.212 7:-0.3924 8:-0.8028 9:-0.5608 10:-0.8672 11:-0.8399 
8 1:-0.124 2:0.406 3:0.096 4:0.094 5:0.418 6:0.316 7:-0.4121 8:-0.8938 9:-0.4519 10:-0.7943 11:-0.7525 
1.069870494260594 1:-0.202 2:0.424 3:-0.036 4:0.208 5:0.374 6:0.228 7:-0.3927 8:-0.7322 9:-0.4687 10:-0.8368 11:-0.767 
1.942750640092477 1:0.6 2:0.766 3:0.606 4:0.942 5:0.952 6:0.942 7:-0.4922 8:-1 9:-0.5144 10:-0.529 11:-0.8181 
4.444480508819369 1:-0.55 2:0.812 3:-0.604 4:0.206 5:0.96 6:-0.062 7:-0.4265 8:-0.7341 9:-0.5428 10:-0.8233 11:-0.8099 
8 1:1 2:1 3:1 4:1 5:1 6:1 7:-1 8:-1 9:-1 10:-1 11:-1 
8 1:-0.63 2:0.3 3:-0.61 4:0.186 5:0.588 6:0.182 7:-0.3658 8:-0.7445 9:-0.4653 10:-0.831 11:-0.744 
5.471579075065183 1:0.288 2:0.54 3:0.438 4:0.854 5:0.878 6:0.912 7:-0.3614 8:-0.5507 9:-0.3556 10:-0.5842 11:-0.6717 
8 1:0.88 2:0.928 3:0.938 4:0.99 5:0.992 6:0.998 7:-0.4545 8:-0.973 9:-0.4887 10:-0.8889 11:-0.761 
8 1:0.068 2:0.404 3:0.442 4:0.542 5:0.628 6:0.792 7:-0.3589 8:-0.8878 9:-0.423 10:-0.8015 11:-0.6974 
0.5207234474649939 1:-0.854 2:0.322 3:-0.806 4:-0.202 5:0.374 6:-0.202 7:-0.4039 8:-0.8806 9:-0.5345 10:-0.8601 11:-0.7944 
8 1:-0.33 2:0.162 3:-0.066 4:0.208 5:0.356 6:0.62 7:-0.3125 8:-0.7147 9:-0.3221 10:-0.6868 11:-0.6119 
8 1:0.316 2:0.602 3:0.316 4:0.4 5:0.558 6:0.4 7:1 8:-0.8438 9:1 10:1 11:1 
8 1:0.938 2:0.964 3:0.972 4:0.964 5:0.972 6:0.994 7:-0.4621 8:-0.9678 9:-0.4967 10:-0.89 11:-0.8042 
8 1:0.862 2:0.914 3:0.95 4:0.94 5:0.952 6:0.99 7:-0.4407 8:-1 9:-0.4967 10:-0.8865 11:-0.781 
8 1:-0.488 2:0.198 3:-0.26 4:-0.304 5:0.134 6:-0.01 7:-0.4597 8:-0.7998 9:-0.3754 10:-0.5551 11:-0.7127 
8 1:-0.03 2:0.368 3:0.336 4:0.524 5:0.602 6:0.79 7:-0.3645 8:-0.8185 9:-0.3794 10:-0.7486 11:-0.6727 
8 1:1 2:1 3:0.932 4:1 5:1 6:0.998 7:-1 8:-1 9:-1 10:-1 11:-1 
8 1:1 2:1 3:0.932 4:1 5:1 6:0.998 7:-1 8:-1 9:-1 10:-1 11:-1 
7.71831633012104 1:-0.872 2:0.014 3:-0.738 4:-0.634 5:-0.122 6:-0.468 7:-0.236 8:-0.7519 9:-0.3842 10:-0.771 11:-0.641 
3.270511040134537 1:-0.164 2:0.276 3:0.024 4:0.318 5:0.56 6:0.582 7:-0.3555 8:-0.8343 9:-0.4932 10:-0.8102 11:-0.7879 
8 1:-0.854 2:-0.034 3:-0.72 4:-0.59 5:-0.16 6:-0.452 7:-0.2911 8:-0.7455 9:-0.3861 10:-0.6936 11:-0.6497 
4.0334385406919 1:-0.288 2:0.274 3:-0.068 4:0.198 5:0.404 6:0.454 7:-0.1306 8:-0.7614 9:-0.179 10:-0.4968 11:-0.4711 
8 1:0.654 2:0.782 3:0.872 4:0.892 5:0.884 6:0.962 7:-0.3784 8:-0.8173 9:-0.6116 10:-0.8777 11:-0.8381 
8 1:-0.5 2:0.118 3:-0.5 4:-0.146 5:0.034 6:-0.146 7:1 8:1 9:1 10:1 11:1 
8 1:-0.278 2:0.282 3:-0.024 4:-0.062 5:0.256 6:0.208 7:-0.5161 8:-0.8261 9:-0.5414 10:-0.8336 11:-0.839 
8 1:-0.028 2:0.502 3:0.348 4:0.132 5:0.42 6:0.328 7:-0.3154 8:-0.78 9:-0.4381 10:-0.7685 11:-0.6846 
8 1:0.77 2:0.864 3:0.9 4:1 5:1 6:0.966 7:-0.5695 8:-1 9:-0.6955 10:-0.9656 11:-0.9251 
0.527820757708742 1:-0.446 2:0.108 3:-0.206 4:0.128 5:0.256 6:0.444 7:-0.4577 8:-0.6417 9:-0.3464 10:-0.7269 11:-0.6513 
8 1:0.434 2:0.666 3:0.528 4:0.702 5:0.752 6:0.802 7:-0.4229 8:-0.8719 9:-0.4238 10:-0.8387 11:-0.7258 
1.739276421045558 1:0.176 2:0.496 3:0.438 4:0.42 5:0.514 6:0.7 7:-0.2945 8:1 9:-0.3972 10:-0.7796 11:-0.6796 
7.803735369701675 1:-0.82 2:0.156 3:-0.786 4:-0.55 5:0.094 6:-0.528 7:-0.3134 8:-0.6306 9:-0.3621 10:-0.6989 11:-0.6352 
0.1196420437971191 1:0.306 2:1 3:-0.186 4:1 5:1 6:0.544 7:-0.258 8:-0.7023 9:-0.3344 10:-0.6388 11:-0.6147 
8 1:-0.66 2:0.11 3:-0.342 4:-0.252 5:0.122 6:0.026 7:-0.29 8:-0.7865 9:-0.4366 10:-0.784 11:-0.7061 
8 1:0.616 2:1 3:0.544 4:1 5:1 6:0.77 7:-0.368 8:-0.7905 9:-0.4381 10:-0.7614 11:-0.7143 
1.819994107772013 1:0.57 2:0.73 3:0.776 4:0.828 5:0.818 6:0.892 7:-0.216 8:-0.8057 9:0.8654 10:-0.7652 11:-0.6805 
7.351857824739128 1:-0.09 2:0.426 3:-0.078 4:0.308 5:0.582 6:0.42 7:-0.3546 8:-0.9875 9:-0.3931 10:-0.8055 11:-0.686 
8 1:-0.74 2:0.012 3:-0.74 4:-0.218 5:0.094 6:-0.218 7:1 8:1 9:1 10:1 11:1 
1.013362418568439 1:0.86 2:1 3:-0.102 4:1 5:1 6:0.418 7:-0.3051 8:-0.4479 9:-0.4579 10:-0.8057 11:-0.7338 
8 1:-0.788 2:0.062 3:-0.798 4:-0.348 5:0.1 6:-0.264 7:-0.3617 8:-0.8635 9:-0.4362 10:-0.8137 11:-0.7085 
4.908597611357735 1:-0.31 2:0.152 3:-0.008 4:0.266 5:0.364 6:0.57 7:-0.4391 8:-0.7853 9:-0.4141 10:-0.7592 11:-0.7074 
8 1:0.184 2:0.504 3:0.43 4:0.712 5:0.766 6:0.874 7:-0.4579 8:-0.9544 9:-0.4932 10:-0.8769 11:-0.7771 
8 1:1 2:1 3:1 4:1 5:1 6:1 7:-1 8:-1 9:-1 10:-1 11:-1 
8 1:-0.686 2:0.06 3:-0.434 4:-0.312 5:0.078 6:-0.046 7:-0.3216 8:-0.7447 9:-0.3759 10:-0.8112 11:-0.6561 
2.837566568241026 1:-0.138 2:0.608 3:-0.178 4:0.468 5:0.688 6:0.344 7:-0.217 8:-0.8916 9:-0.3807 10:-0.5188 11:-0.6466 
8 1:-0.504 2:0.236 3:-0.49 4:-0.062 5:0.276 6:0.014 7:-0.3421 8:-0.8591 9:-0.4654 10:-0.8165 11:-0.7214 
2.146591893308087 1:-0.552 2:0.044 3:-0.36 4:0.042 5:0.198 6:0.362 7:-0.3909 8:-0.7574 9:-0.3568 10:-0.7289 11:-0.652 
8 1:-0.412 2:0.232 3:-0.034 4:-0.118 5:0.22 6:0.144 7:-0.3882 8:-0.8484 9:-0.462 10:-0.8067 11:-0.7448 
8 1:-0.164 2:0.328 3:0.166 4:0.132 5:0.368 6:0.4 7:-0.375 8:-0.9107 9:-0.4537 10:-0.8284 11:-0.7277 
8 1:-0.392 2:0.206 3:-0.072 4:-0.054 5:0.246 6:0.234 7:-0.4376 8:-0.8749 9:-0.5349 10:-0.8143 11:-0.7881 
5.790571520698466 1:0.76 2:1 3:0.124 4:0.966 5:1 6:0.336 7:-0.3993 8:-0.8195 9:-0.5277 10:-0.879 11:-0.7948 
8 1:-0.106 2:0.374 3:0.162 4:0.224 5:0.536 6:0.574 7:-0.3114 8:-0.8069 9:-0.4829 10:-0.8314 11:-0.7568 
8 1:-0.664 2:-0.044 3:-0.374 4:-0.2 5:0.064 6:0.128 7:-0.2872 8:-0.7051 9:-0.354 10:-0.7007 11:-0.6458 
8 1:0.09 2:0.614 3:0.332 4:0.52 5:0.75 6:0.602 7:-0.3122 8:-0.7792 9:-0.3936 10:-0.7339 11:-0.6652 
5.486241709679207 1:0.502 2:0.906 3:0.498 4:0.816 5:0.978 6:0.742 7:-0.3082 8:-0.8221 9:-0.3571 10:-0.7397 11:-0.6357 
3.070383047975892 1:-0.052 2:0.576 3:0.04 4:0.294 5:0.494 6:0.426 7:-0.3251 8:-0.825 9:-0.3137 10:-0.6855 11:-0.6021 
6.871143829041682 1:0.538 2:0.912 3:0.624 4:1 5:1 6:0.894 7:-0.4307 8:-0.8374 9:-0.5048 10:-0.8731 11:-0.7982 
3.650951202337522 1:0.022 2:0.358 3:0.382 4:0.542 5:0.622 6:0.866 7:-0.3528 8:-0.8425 9:-0.4088 10:-0.7827 11:-0.6838 
8 1:1 2:1 3:1 4:1 5:1 6:1 7:-1 8:-1 9:-1 10:-1 11:-1 
8 1:-0.022 2:0.562 3:0.098 4:0.496 5:0.668 6:0.66 7:-0.3073 8:-0.785 9:-0.386 10:-0.6749 11:-0.6606 
8 1:1 2:1 3:1 4:1 5:1 6:1 7:-1 8:-1 9:-1 10:-1 11:-1 
8 1:-0.686 2:0.092 3:-0.346 4:-0.216 5:0.136 6:0.112 7:-0.4328 8:-0.8546 9:-0.5641 10:-0.7826 11:-0.8182 
8 1:-0.552 2:0.3 3:-0.36 4:-0.06 5:0.396 6:0.154 7:-0.3436 8:-0.6425 9:-0.4226 10:-0.7527 11:-0.7046 
8 1:-0.452 2:0.202 3:-0.142 4:0.056 5:0.306 6:0.348 7:-0.2897 8:-0.7759 9:-0.3515 10:-0.6781 11:-0.6375 
8 1:-0.398 2:0.174 3:-0.398 5:0.146 7:1 8:0.893 9:1 10:1 11:1 
8 1:-0.508 2:0.114 3:-0.508 4:-0.126 5:0.06 6:-0.126 7:1 8:-0.9396 9:1 10:1 11:1 
8 1:-0.156 2:0.33 3:-0.012 4:0.126 5:0.33 6:0.3 7:-0.2593 8:-0.6914 9:-0.4631 10:-0.7733 11:-0.7332 
3.948572453575057 1:-0.722 2:0.018 3:-0.626 4:-0.43 5:-0.034 6:-0.272 7:-0.4952 8:1 9:1 10:1 11:-0.0659 
1.961986450952168 1:-0.814 2:0.2 3:-0.862 4:-0.004 5:0.622 6:-0.096 7:1 8:0.1136 9:0.895 10:0.5207 11:0.7202 
8 1:1 2:1 3:0.98 4:1 5:1 6:1 7:-0.4915 8:-1 9:-0.5265 10:-0.9296 11:-0.8198 
1.971064137755735 1:-0.154 2:0.278 3:-0.154 4:0.706 5:0.748 6:0.706 7:1 8:-0.5735 9:1 10:-1 11:-1 
1.016831637791503 1:-0.266 2:0.574 3:-0.246 4:0.736 5:0.956 6:0.442 7:-0.3701 8:-0.6601 9:-0.465 10:-0.7529 11:-0.7572 
1.916129680750635 1:0.092 2:0.46 3:0.42 4:0.374 5:0.452 6:0.686 7:1 8:-0.9192 9:0.6037 10:-0.8604 11:-0.3579 
4.117601413527676 1:0.352 2:0.654 3:0.352 4:0.942 5:0.964 6:0.942 7:1 8:-0.8875 9:-1 10:-1 11:-1 
2.025162605577799 1:1 2:1 3:0.82 4:0.894 5:1 6:0.458 7:-0.3045 8:-0.6162 9:-0.3369 10:-0.6518 11:-0.6226 
2.839963727183872 1:-0.15 2:0.32 3:0.042 4:0.674 5:0.756 6:0.888 7:-0.4342 8:-0.8409 9:-0.4833 10:-0.8392 11:-0.7676 
5.659332726954502 1:0.524 2:0.72 3:0.93 4:0.694 5:0.744 6:0.962 7:-0.4046 8:-0.9041 9:-0.4654 10:-0.823 11:-0.7499 
7.716353821466854 1:1 2:1 3:0.894 4:1 5:1 6:0.946 7:-0.2212 8:-0.6246 9:-0.2811 10:-0.5817 11:-0.5549 
5.781103089955996 1:-0.246 2:0.45 3:-0.122 4:-0.084 5:0.372 6:0.046 7:-0.3764 8:-0.8979 9:-0.4367 10:-0.7745 11:-0.7224 
8 1:-0.916 2:-0.036 3:-0.852 4:-0.656 5:-0.158 6:-0.518 7:-0.2816 8:-0.7945 9:-0.3973 10:-0.7423 11:-0.6816 
8 1:0.14 2:0.576 3:0.318 4:0.68 5:0.824 6:0.794 7:-0.3292 8:-0.7613 9:-0.3966 10:-0.7468 11:-0.6717 
1.960009093159141 1:-0.274 2:0.308 3:-0.054 4:0.032 5:0.334 6:0.276 7:1 8:1 9:0.1058 10:1 11:1 
8 1:0.162 2:0.58 3:0.536 4:0.49 5:0.666 6:0.626 7:-0.3389 8:-0.8676 9:-0.4095 10:-0.7365 11:-0.6947 
8 1:0.87 2:0.912 3:0.962 4:1 5:1 6:0.996 7:-0.5669 8:-0.9575 9:-0.6267 10:-0.9876 11:-0.9169 
2.58764051176595 1:-0.238 2:0.376 3:0.082 4:0.344 5:0.574 6:0.59 7:1 8:-0.2742 9:0.7891 10:0.1335 11:0.7205 
8 1:-0.61 3:-0.478 4:-0.012 5:0.222 6:0.268 7:-0.2544 8:-0.7668 9:-0.4381 10:-0.7987 11:-0.7117 
8 1:-0.606 2:0.1 3:-0.342 4:-0.226 5:0.098 6:-0.066 7:-0.1564 8:-0.8521 9:-0.3858 10:-0.7609 11:-0.6669 
2.262259536427504 1:0.522 2:0.714 3:0.522 4:0.772 5:0.794 6:0.772 7:-1 8:-0.6183 9:-0.8004 10:-1 11:-1 
4.600244939898502 1:-0.076 2:0.37 3:0.234 4:0.248 5:0.532 6:0.632 7:-0.3182 8:-0.8114 9:-0.4855 10:-0.839 11:-0.7617 
6.179461441712897 1:1 2:1 3:0.98 4:1 5:1 6:0.996 7:-0.5216 8:-1 9:-0.5538 10:-0.8967 11:-0.8539 
5.772226968348029 1:-0.644 2:0.274 3:-0.53 4:-0.138 5:0.376 6:0.046 7:-0.4243 8:-0.8655 9:-0.4742 10:-0.8419 11:-0.7559 
8 1:0.734 2:1 3:0.698 4:0.884 5:1 6:0.792 7:-0.4297 8:-0.7999 9:-0.4805 10:-0.7758 11:-0.7663 
8 1:0.052 2:0.522 3:0.206 4:0.442 5:0.57 6:0.566 7:-0.2796 8:-0.8255 9:-0.3561 10:-0.7462 11:-0.6436 
8 1:0.87 2:0.916 3:0.94 4:0.974 5:0.976 6:0.996 7:-0.5188 8:-0.965 9:-0.562 10:-0.9339 11:-0.8544 
8 1:-0.886 2:-0.022 3:-0.886 4:-0.434 5:0.034 6:-0.434 7:1 8:1 9:1 10:1 11:1 
8 1:0.83 2:0.884 3:0.83 4:0.914 5:0.942 6:0.914 7:1 8:-1 9:-1 10:-1 11:-1 
8 1:-0.59 2:0.222 3:-0.43 4:-0.186 5:0.262 6:0.01 7:-0.4943 8:-0.8322 9:-0.5339 10:-0.8267 11:-0.8089 
8 1:0.162 2:0.504 3:0.574 4:0.408 5:0.516 6:0.698 7:-0.4073 8:-0.8751 9:-0.4797 10:-0.8585 11:-0.7561 
8 1:-0.638 2:0.458 3:-0.628 4:-0.176 5:0.452 6:-0.248 7:-0.3081 8:-0.8162 9:-0.3984 10:-0.7852 11:-0.6703 
1.41736494219302 1:-0.362 2:0.302 3:-0.13 4:0.21 5:0.408 6:0.43 7:-0.0145 8:-0.8117 9:-0.1819 10:-0.5075 11:-0.4181 
8 1:0.268 2:0.616 3:0.636 4:0.44 5:0.65 6:0.728 7:-0.4814 8:-0.8767 9:-0.5274 10:-0.8603 11:-0.8144 
1.908299473020927 1:0.282 2:0.538 3:0.424 4:0.954 5:0.952 6:0.798 7:1 8:-0.7904 9:0.5482 10:-0.1707 11:0.5305 
8 1:0.742 2:0.846 3:0.994 4:0.946 5:0.952 6:0.998 7:-0.5276 8:-1 9:-0.5607 10:-0.9412 11:-0.874 
8 1:0.758 2:0.854 3:0.86 4:0.892 5:0.904 6:0.93 7:-0.4241 8:-0.8464 9:-0.434 10:-0.9113 11:-0.8164 
8 1:0.76 2:0.856 3:0.858 4:0.892 5:0.906 6:0.93 7:-0.4234 8:-0.8311 9:-0.4319 10:-0.9145 11:-0.8211 
8 1:0.934 2:0.96 3:0.986 4:0.97 5:0.974 6:0.996 7:-0.4952 8:-0.9646 9:-0.5294 10:-0.9126 11:-0.8317 
5.456881315980455 1:0.59 2:0.702 3:0.598 4:0.642 5:0.74 6:0.658 7:1 8:-1 9:1 10:-1 11:1 
2.026713056049517 1:0.544 2:1 3:0.274 4:0.942 5:1 6:0.528 7:-0.4067 8:-0.8548 9:-0.4703 10:-0.8968 11:-0.7495 
4.878142639420727 1:0.196 2:0.49 3:0.724 4:0.658 5:0.734 6:0.902 7:-0.3279 8:-0.9811 9:-0.3931 10:-0.7806 11:-0.6697 
8 1:-0.626 2:0.348 3:-0.64 4:-0.144 5:0.384 6:-0.196 7:-0.0648 8:-0.7991 9:-0.4606 10:-0.7562 11:-0.7438 
7.463838978789536 1:1 2:1 3:0.988 4:1 5:1 6:0.998 7:-0.5629 8:-1 9:-0.5919 10:-0.9305 11:-0.89 
8 1:-0.786 2:-0.012 3:-0.776 4:-0.466 5:-0.082 6:-0.464 7:-0.2792 8:-0.9027 9:-0.3342 10:-0.7724 11:-0.5962 
1.160838865179197 1:-0.01 2:1 3:-0.112 4:0.674 5:1 6:0.34 7:-0.4221 8:-0.7906 9:-0.5982 10:-0.9407 11:-0.8517 
3.634734141043989 1:0.184 2:0.492 3:0.292 4:0.806 5:0.834 6:0.886 7:-0.2643 8:-0.9581 9:-0.414 10:-0.8003 11:-0.6754 
7.571687232133608 1:-0.346 2:1 3:-0.506 4:0.876 5:1 6:0.226 7:-0.3613 8:-0.8599 9:-0.4051 10:-0.8045 11:-0.684 
8 1:-0.358 2:0.374 3:-0.216 4:0.016 5:0.41 6:0.238 7:-0.3433 8:-0.7518 9:-0.3831 10:-0.7664 11:-0.6695 
8 1:0.94 2:0.964 3:0.976 4:1 5:1 6:0.994 7:-0.5112 8:-0.9992 9:-0.5452 10:-0.8974 11:-0.8433 
5.901944121951622 1:-0.454 2:0.33 3:-0.21 4:-0.008 5:0.39 6:0.246 7:-0.3668 8:-0.6027 9:-0.4624 10:-0.6764 11:-0.7258 
8 1:-0.376 2:0.192 3:-0.14 4:0.03 5:0.252 6:0.304 7:-0.2965 8:-0.7674 9:-0.359 10:-0.6882 11:-0.6446 
1.982449595266751 1:0.272 2:0.6 3:0.598 4:0.236 5:0.432 6:0.454 7:0.8106 8:-0.6504 9:-0.266 10:-0.7358 11:-0.3005 
8 1:-0.55 2:0.228 3:-0.316 4:-0.168 5:0.266 6:0.062 7:-0.4898 8:-0.852 9:-0.5406 10:-0.8543 11:-0.8266 
2.276595639202518 1:-0.442 2:0.232 3:-0.162 4:-0.52 5:0.014 6:-0.292 7:-0.398 8:-0.8911 9:-0.4918 10:-0.8135 11:-0.7694 
7.830391456395711 1:0.604 2:0.752 3:0.866 4:0.898 5:0.906 6:0.972 7:-0.9281 8:-1 9:-0.6951 10:-0.8766 11:-0.9561 
2.178104997071606 1:0.376 2:0.77 3:0.572 4:0.456 5:0.708 6:0.588 7:-0.4265 8:-0.822 9:-0.4852 10:-0.8389 11:-0.7881 
8 1:-0.668 2:0.114 3:-0.452 4:-0.226 5:0.282 6:-0.014 7:-0.3336 8:-0.8379 9:-0.2848 10:-0.683 11:-0.4349 
8 1:0.966 2:1 3:0.36 4:1 5:1 6:0.6 7:-0.3823 8:-0.8974 9:-0.443 10:-0.8356 11:-0.7419 
3.937833834353663 1:-0.816 2:0.16 3:-0.764 4:-0.47 5:0.078 6:-0.424 7:-0.3362 8:0.1411 9:-0.3321 10:-0.7031 11:-0.5852 
8 1:0.21 2:0.536 3:0.21 4:0.42 5:0.564 6:0.42 7:1 8:-1 9:1 10:1 11:1 
8 1:0.534 2:0.728 3:0.828 4:0.658 5:0.73 6:0.896 7:-0.3874 8:-0.8925 9:-0.446 10:-0.818 11:-0.7232 
8 1:0.424 2:0.692 3:0.324 4:0.2 5:0.488 6:0.118 7:1 8:1 9:1 10:1 11:1 
8 1:0.838 2:0.906 3:0.89 4:0.972 5:0.976 6:0.98 7:-0.4805 8:-0.9798 9:-0.5112 10:-0.8673 11:-0.8065 
8 1:-0.354 2:0.198 3:-0.29 4:0.42 5:0.542 6:0.616 7:-0.3756 8:-0.8634 9:-0.4429 10:-0.7848 11:-0.7495 
8 1:0.796 2:0.876 3:0.844 4:0.888 5:0.902 6:0.92 7:-0.4562 8:-0.7015 9:-0.4728 10:-0.8757 11:-0.8213 
8 1:-0.638 2:0.09 3:-0.542 4:-0.304 5:0.13 6:-0.154 7:-0.3027 8:-0.8297 9:-0.4048 10:-0.774 11:-0.6759 
8 1:-0.558 2:0.164 3:-0.442 4:-0.08 5:0.32 6:0.212 7:-0.5482 8:-0.8825 9:-0.5533 10:-0.906 11:-0.8478 
8 1:-0.024 2:0.324 3:0.374 4:0.566 5:0.63 6:0.898 7:-0.3417 8:-0.8783 9:-0.4092 10:-0.7972 11:-0.6806 
8 1:0.178 2:0.572 3:0.472 4:0.254 5:0.472 6:0.532 7:-0.3043 8:-0.7955 9:-0.3363 10:-0.6864 11:-0.6323 
8 1:0.074 2:0.468 3:0.398 4:0.264 5:0.454 6:0.548 7:-0.4525 8:-1 9:-0.5357 10:-0.9349 11:-0.7963 
8 1:-0.422 2:0.084 3:-0.234 4:0.014 5:0.322 6:0.324 7:-0.3345 8:-0.8641 9:-0.4416 10:-0.7858 11:-0.7211 
8 1:0.546 2:0.782 3:0.89 4:0.7 5:0.878 6:0.938 7:-0.391 8:-0.8801 9:-0.5578 10:-0.9482 11:-0.8264 
8 1:-0.732 2:0.062 3:-0.59 4:-0.354 5:0.074 6:-0.076 7:-0.3446 8:-0.7295 9:-0.3894 10:-0.7294 11:-0.6736 
1.895260767016662 1:0.83 2:0.884 3:0.878 4:0.914 5:0.942 6:0.926 7:0.4988 8:-1 9:-1 10:-1 11:-1 
1.959477601815149 1:0.036 2:0.762 3:0.338 4:0.614 5:0.95 6:0.666 7:-0.317 8:-0.7566 9:-0.3888 10:-0.7143 11:-0.6685 
3.304739298526559 1:0.722 2:0.856 3:0.814 4:0.7 5:0.83 6:0.78 7:-0.762 8:-0.9258 9:-1 10:-1 11:-1 
8 1:0.296 2:0.58 3:0.454 4:0.578 5:0.642 6:0.622 7:-0.4289 8:-0.6775 9:-0.5095 10:-0.8194 11:-0.8153 
3.527760798110835 1:-0.464 2:0.232 3:-0.128 4:-0.364 5:0.134 6:-0.158 7:-0.4655 8:-0.8551 9:-0.5258 10:-0.8659 11:-0.8312 
8 1:0.976 2:1 3:0.662 4:1 5:1 6:0.84 7:-0.3673 8:-0.7785 9:-0.4302 10:-0.7493 11:-0.7108 
0.8462752785883285 1:0.042 2:1 3:0.086 4:0.724 5:1 6:0.424 7:-0.3806 8:-0.7892 9:-0.4253 10:-0.7537 11:-0.7123 
8 1:1 2:1 3:1 4:1 5:1 6:1 7:-1 8:-1 9:-1 10:-1 11:-1 
5.271445925976805 1:0.474 2:0.932 3:0.518 4:1 5:1 6:0.836 7:-0.4265 8:-0.8419 9:-0.4961 10:-0.8671 11:-0.7948 
8 1:-0.73 2:0.044 3:-0.644 4:-0.078 5:0.216 6:0.126 7:-0.2902 8:0.8244 9:-0.3351 10:-0.6845 11:-0.6143 
2.790524835138584 1:0.584 2:1 3:0.412 4:0.686 5:1 6:0.688 7:-0.3906 8:-0.7851 9:-0.4577 10:-0.7789 11:-0.7357 
0.7105426909421246 1:0.68 2:1 3:0.712 4:1 5:1 6:0.856 7:-0.349 8:-0.7611 9:-0.4177 10:-0.7345 11:-0.6955 
8 1:0.74 2:0.86 3:0.74 4:0.652 5:0.764 6:0.652 7:1 8:1 9:1 10:1 11:1 
8 1:0.142 2:1 3:0.106 4:1 5:1 6:0.582 7:-0.3881 8:-0.7944 9:-0.4425 10:-0.7737 11:-0.7233 
8 1:0.406 2:0.632 3:0.802 4:0.766 5:0.872 6:0.928 7:-0.392 8:-0.8954 9:-0.5309 10:-0.8751 11:-0.8123 
4.707455601862614 1:0.854 2:1 3:0.61 4:1 5:1 6:0.866 7:-0.3552 8:-0.8477 9:-0.4198 10:-0.8018 11:-0.6936 
2.917249884103884 1:0.038 2:0.482 3:0.41 4:0.292 5:0.56 6:0.64 7:0.7403 8:-0.3522 9:0.1418 10:-0.268 11:0.0495 
8 1:0.33 2:0.642 3:0.618 4:0.502 5:0.694 6:0.808 7:-0.4443 8:-0.8711 9:-0.5102 10:-0.8366 11:-0.7904 
1.993848627592942 1:0.362 2:0.654 3:0.512 4:0.492 5:0.662 6:0.674 7:0.1561 8:-0.2086 9:0.285 10:0.3315 11:-0.1713 
2.789102911547834 1:-0.324 2:0.816 3:-0.404 4:0.818 5:1 6:0.412 7:-0.366 8:-0.7909 9:-0.4389 10:-0.7691 11:-0.7157 
0.9921824455778107 1:0.25 2:0.704 3:0.366 4:0.306 5:0.582 6:0.332 7:-0.4323 8:-0.8443 9:-0.4707 10:-0.8175 11:-0.748 
2.09633161847642 1:-0.152 2:0.482 3:-0.004 4:0.588 5:0.73 6:0.61 7:-0.3903 8:-0.8186 9:-0.4799 10:-0.8526 11:-0.8042 
1.387536931853963 1:0.504 2:1 3:0.492 4:1 5:1 6:0.802 7:0.0995 8:-0.324 9:0.0752 10:-0.2116 11:-0.2091 
6.745333816679764 1:0.724 2:1 3:0.738 4:0.848 5:1 6:0.844 7:-0.4307 8:-0.8087 9:-0.4848 10:-0.7835 11:-0.7694 
8 1:0.742 2:0.846 3:0.794 4:0.946 5:0.952 6:0.958 7:-0.1795 8:-1 9:-0.2084 10:-0.5471 11:-0.5065 
1.364840453648679 1:-0.04 2:0.366 3:0.192 4:0.418 5:0.64 6:0.642 7:-0.3734 8:-0.8482 9:-0.4933 10:-0.8176 11:-0.7921 
8 1:0.652 2:0.776 3:0.74 4:0.922 5:0.93 6:0.918 7:-0.488 8:-1 9:-0.5579 10:-0.9435 11:-0.8416 
8 1:0.508 2:0.672 3:0.586 4:0.948 5:0.952 6:0.956 7:-0.2816 8:-1 9:-0.3167 10:-0.7198 11:-0.6099 
8 1:-0.456 2:-0.004 3:-0.24 4:-0.068 5:0.156 6:0.204 7:-0.381 8:-0.703 9:-0.4669 10:-0.8188 11:-0.7486 
8 1:1 2:1 3:0.956 4:1 5:1 6:0.998 7:-0.5386 8:-1 9:-0.5736 10:-0.9767 11:-0.8669 
8 1:-0.122 2:0.386 3:0.196 4:0.308 5:0.49 6:0.576 7:-0.3569 8:-0.8803 9:-0.4025 10:-0.8045 11:-0.6858 
8 1:0.384 2:0.626 3:0.708 4:0.722 5:0.758 6:0.934 7:-0.4038 8:-0.9344 9:-0.4348 10:-0.6889 11:-0.7067 
5.963510154762262 1:0.936 2:1 3:0.684 4:1 5:1 6:0.834 7:-0.2364 8:-0.868 9:-0.3201 10:-0.7368 11:-0.571 
8 1:0.042 2:0.524 3:0.356 4:0.13 5:0.366 6:0.3 7:-0.36 8:-0.8166 9:-0.3863 10:-0.7215 11:-0.6892 
8 1:0.224 2:0.624 3:0.546 4:0.396 5:0.598 6:0.614 7:-0.3536 8:-0.8741 9:-0.4178 10:-0.7484 11:-0.7019 
8 1:0.154 2:0.838 3:0.268 4:0.79 5:1 6:0.628 7:-0.3534 8:-0.8359 9:-0.4057 10:-0.7784 11:-0.6839 
8 1:0.744 2:0.836 3:0.878 4:0.856 5:0.88 6:0.976 7:-0.3926 8:-0.9235 9:-0.4445 10:-0.8487 11:-0.7291 
3.830087407878924 1:-0.394 2:0.218 3:-0.584 4:-0.1 5:0.196 6:-0.122 7:-0.4095 8:-0.8335 9:-0.1643 10:-0.8944 11:-0.8884 
0.1233979333095223 1:-0.692 2:0.15 3:-0.744 4:-0.37 5:0.064 6:-0.414 7:-0.3 8:-0.8617 9:-0.3816 10:-0.7846 11:-0.6549 
8 1:-0.384 2:0.492 3:-0.42 4:0.456 5:0.694 6:0.252 7:-0.1984 8:-0.7402 9:-0.3627 10:-0.7168 11:-0.61 
8 1:0.456 2:0.67 3:0.798 4:0.644 5:0.698 6:0.894 7:-0.357 8:-0.8465 9:-0.4146 10:-0.7984 11:-0.7019 
8 1:-0.57 2:0.116 3:-0.256 4:0.01 5:0.324 6:0.304 7:-0.5044 8:-0.7964 9:-0.5397 10:-0.8494 11:-0.8248 
0.5959571134868847 1:0.174 2:0.96 3:0.158 4:0.656 5:1 6:0.468 7:-0.4174 8:-0.7812 9:-0.4928 10:-0.8002 11:-0.7817 
3.932495306884442 1:-0.166 2:0.304 3:0.12 4:0.304 5:0.43 6:0.5 7:-0.4007 8:1 9:-0.2936 10:-0.542 11:-0.6357 
2.228748344002584 1:0.166 2:0.896 3:0.218 4:0.73 5:0.912 6:0.49 7:-0.3565 8:-0.8325 9:-0.3945 10:-0.7909 11:-0.6885 
8 1:-0.412 2:0.41 3:-0.248 4:0.016 5:0.442 6:0.08 7:-0.4044 8:-0.8418 9:-0.4708 10:-0.833 11:-0.7496 
8 1:-0.644 2:0.194 3:-0.472 4:0.208 5:0.402 6:0.136 7:-0.2689 8:-0.8215 9:-0.3798 10:-0.6796 11:-0.6756 
8 1:0.892 2:0.93 3:0.944 4:1 5:1 6:0.994 7:-0.4552 8:-0.9864 9:-0.5243 10:-0.9089 11:-0.8046 
8 1:0.934 2:0.96 3:0.988 4:0.97 5:0.974 6:0.998 7:-0.4983 8:-0.9622 9:-0.5335 10:-0.9229 11:-0.8386 
8 1:-0.366 2:0.274 3:-0.278 4:0.112 5:0.446 6:0.432 7:-0.4952 8:-0.8458 9:-0.4986 10:-0.8373 11:-0.8043 
3.908089961166378 1:-0.704 2:0.126 3:-0.47 4:-0.44 5:0.066 6:-0.234 7:-0.3973 8:-0.7128 9:-0.4891 10:-0.8353 11:-0.7775 
8 1:1 2:1 3:1 4:1 5:1 6:1 7:-1 8:-1 9:-1 10:-1 11:-1 
8 1:-0.632 2:0.088 3:-0.302 4:-0.158 5:0.166 6:0.236 7:-0.4583 8:-0.8521 9:-0.5668 10:-0.8766 11:-0.847 
8 1:0.266 2:0.59 3:0.454 4:0.398 5:0.568 6:0.52 7:-0.3907 8:-0.7536 9:-0.4342 10:-0.7631 11:-0.7203 
8 1:0.92 2:0.952 3:0.924 4:1 5:1 6:0.998 7:-0.4957 8:-1 9:-0.53 10:-0.9236 11:-0.8208 
2.49482214475721 1:-0.152 2:0.25 3:0.108 4:0.214 5:0.46 6:0.57 7:-0.3634 8:-0.816 9:-0.524 10:-0.846 11:-0.8148 
8 1:0.024 2:0.65 3:0.254 4:0.518 5:0.798 6:0.568 7:-0.3455 8:-0.787 9:-0.4189 10:-0.7542 11:-0.694 
3.059955988795751 1:0.338 2:0.574 3:0.822 4:0.898 5:0.918 6:0.968 7:-0.3626 8:-0.8437 9:-0.4559 10:-0.8349 11:-0.7301 
6.552021613444642 1:-0.214 2:0.298 3:-0.588 4:0.188 5:0.396 6:0.138 7:-0.3813 8:-0.9609 9:-0.4568 10:-0.834 11:-0.723 
8 1:-0.584 2:0.172 3:-0.358 4:-0.28 5:0.18 6:-0.064 7:-0.433 8:-0.8626 9:-0.4913 10:-0.8576 11:-0.7287 
8 1:-0.152 2:0.25 3:0.108 4:0.214 5:0.46 6:0.57 7:-0.3558 8:-0.8081 9:-0.5274 10:-0.8413 11:-0.8037 
2.972001807239018 1:0.248 2:0.628 3:0.566 4:0.768 5:0.854 6:0.802 7:-0.4141 8:-0.8448 9:-0.4485 10:-0.8362 11:-0.7405 
8 1:0.372 2:1 3:0.408 4:1 5:1 6:0.72 7:-0.363 8:-0.7763 9:-0.4047 10:-0.772 11:-0.684 
8 1:-0.212 2:0.38 3:-0.102 4:0.136 5:0.408 6:0.296 7:-0.3363 8:-0.8621 9:-0.4349 10:-0.7519 11:-0.7135 
8 1:0.024 2:0.608 3:0.144 4:0.458 5:0.696 6:0.624 7:-0.4248 8:-0.8933 9:-0.4779 10:-0.8543 11:-0.7464 
8 1:0.82 2:0.886 3:0.934 4:0.948 5:0.96 6:0.99 7:-0.4339 8:-0.9949 9:-0.4991 10:-0.884 11:-0.7797 
8 1:0.732 2:0.818 3:0.88 4:1 5:1 6:0.99 7:-0.5363 8:-0.9311 9:-0.632 10:-0.9268 11:-0.9342 
8 1:-0.744 2:0.168 3:-0.556 4:-0.368 5:0.166 6:-0.232 7:-0.3437 8:-0.7768 9:-0.4652 10:-0.7953 11:-0.737 
8 1:-0.658 2:0.202 3:-0.484 4:-0.112 5:0.358 6:0.11 7:-0.385 8:-0.7494 9:-0.4994 10:-0.8156 11:-0.7786 
8 1:-0.794 2:0.128 3:-0.716 4:-0.05 5:0.352 6:0.134 7:-0.2967 8:-0.7419 9:-0.3423 10:-0.7052 11:-0.6223 
8 1:0.756 2:0.856 3:0.95 4:0.972 5:0.976 6:0.994 7:-0.4388 8:-1 9:-0.4741 10:-0.8752 11:-0.7679 
8 1:1 2:1 3:1 4:1 5:1 6:1 7:-1 8:-1 9:-1 10:-1 11:-1 
1.504750809779286 1:0.026 2:0.406 3:0.364 4:0.51 5:0.598 6:0.776 7:-0.3925 8:-0.8624 9:-0.4192 10:-0.8157 11:-0.7077 
8 1:-0.672 2:0.046 3:-0.494 4:-0.27 5:0.024 6:-0.034 7:-0.3193 8:-0.8626 9:-0.4181 10:-0.8068 11:-0.6995 
8 1:-0.698 2:0.136 3:-0.544 4:-0.29 5:0.15 6:0.004 7:-0.2892 8:-0.8252 9:-0.3526 10:-0.7362 11:-0.6401 
8 1:-0.542 2:0.1 3:-0.422 4:-0.074 5:0.174 6:0.138 7:-0.4234 8:-0.9599 9:-0.4758 10:-0.4923 11:-0.7695 
0.03555332297712706 1:-0.152 2:0.25 3:0.108 4:0.214 5:0.46 6:0.57 7:-0.3619 8:-0.8168 9:-0.5289 10:-0.8516 11:-0.8081 
1.774046433075304 1:-0.53 2:0.146 3:-0.448 4:0.076 5:0.324 6:0.262 7:-0.3719 8:-0.8875 9:-0.3971 10:-0.8078 11:-0.7229 
8 1:-0.534 2:0.372 3:-0.446 4:-0.168 5:0.352 6:-0.118 7:-0.4968 8:-0.816 9:-0.5589 10:-0.8395 11:-0.8371 
8 1:1 2:1 3:0.952 4:1 5:1 6:0.988 7:-0.4212 8:-0.9007 9:-0.5039 10:-0.8712 11:-0.7971 
0.7066303149870591 1:-0.236 2:0.528 3:-0.12 4:0.4 5:0.736 6:0.354 7:-0.0663 8:-0.6578 9:0.0956 10:-0.2848 11:-0.1688 
8 1:-0.698 2:0.122 3:-0.578 4:-0.496 5:-0.006 6:-0.362 7:-0.3518 8:-0.8355 9:-0.4686 10:-0.8398 11:-0.7331 
8 1:-0.154 2:0.434 3:-0.054 4:0.332 5:0.498 6:0.414 7:-0.2424 8:-0.8146 9:-0.3023 10:-0.7129 11:-0.5837 
8 1:-0.472 2:0.268 3:-0.288 4:-0.088 5:0.332 6:0.144 7:-0.5164 8:-0.8571 9:-0.5508 10:-0.8259 11:-0.8471 
0.02649126806250781 1:-0.474 2:0.614 3:-0.23 4:-0.08 5:0.592 6:0.028 7:-0.4003 8:-0.833 9:-0.529 10:-0.8833 11:-0.7829 
8 1:0.014 2:0.486 3:0.31 4:0.406 5:0.576 6:0.632 7:-0.3517 8:-0.8455 9:-0.3935 10:-0.7878 11:-0.6779 
3.599862986749477 1:-0.176 2:0.58 3:-0.02 4:0.698 5:0.952 6:0.444 7:-0.3234 8:-0.7488 9:-0.387 10:-0.7062 11:-0.6689 
8 1:-0.818 2:0.072 3:-0.818 4:-0.534 5:0.09 6:-0.534 7:1 8:1 9:1 10:1 11:1 
1.76724695478295 1:0.882 2:0.924 3:0.93 4:1 5:1 6:0.978 7:-0.425 8:-0.8232 9:-0.6633 10:-0.8962 11:-0.9053 
8 1:1 2:1 3:0.948 4:1 5:1 6:0.984 7:-0.411 8:-0.9189 9:-0.4807 10:-0.8647 11:-0.76 
8 1:1 2:1 3:0.776 4:1 5:1 6:0.902 7:-0.3485 8:-0.7778 9:-0.4209 10:-0.7463 11:-0.6971 
8 1:-0.724 2:0.468 3:-0.628 4:-0.332 5:0.42 6:-0.258 7:-0.4191 8:-0.8284 9:-0.5443 10:-0.861 11:-0.8034 
8 1:-0.55 2:0.186 3:-0.25 4:-0.186 5:0.198 6:0.09 7:-0.2285 8:-0.8428 9:-0.5314 10:-0.8413 11:-0.8137 
8 1:-0.442 2:0.222 3:-0.05 4:0.018 5:0.362 6:0.386 7:-0.4164 8:-0.7964 9:-0.439 10:-0.865 11:-0.6032 
8 1:-0.472 2:0.214 3:-0.196 4:-0.034 5:0.298 6:0.274 7:-0.3503 8:-0.8802 9:-0.4368 10:-0.7465 11:-0.7118 
8 1:-0.776 2:-0.058 3:-0.684 4:-0.388 5:-0.118 6:-0.364 7:-0.2477 8:-0.805 9:-0.4376 10:-0.8025 11:-0.6899 
1.233088465599876 1:-0.562 2:0.55 3:-0.34 4:-0.246 5:0.474 6:-0.158 7:-0.4019 8:-0.8254 9:-0.5462 10:-0.8784 11:-0.8087 
2.853435166975393 1:-0.152 2:0.308 3:0.05 4:0.296 5:0.414 6:0.59 7:-0.3515 8:-0.9038 9:-0.1765 10:-0.0754 11:-0.619 
8 1:-0.758 2:-0.032 3:-0.628 4:-0.148 5:0.124 6:0.182 7:-0.381 8:-0.7213 9:-0.4309 10:-0.7821 11:-0.6907 
8 1:-0.77 2:0.03 3:-0.77 4:-0.236 5:0.044 6:-0.236 7:1 8:1 9:1 10:1 11:-1 
6.155304167309192 1:-0.162 2:0.382 3:-0.002 4:0.324 5:0.568 6:0.58 7:-0.3539 8:-0.885 9:-0.4697 10:-0.8676 11:-0.6917 
8 1:-0.582 2:0.12 3:-0.41 4:-0.136 5:0.168 6:0.142 7:-0.374 8:-0.8444 9:-0.4642 10:-0.8573 11:-0.7375 
8 1:0.3 2:1 3:0.294 4:0.948 5:1 6:0.588 7:-0.3314 8:-0.824 9:-0.3723 10:-0.7493 11:-0.6551 
8 1:0.144 2:0.572 3:0.354 4:0.474 5:0.596 6:0.598 7:-0.4 8:-0.8224 9:-0.4342 10:-0.8372 11:-0.7202 
8 1:0.35 2:0.644 3:0.804 4:0.634 5:0.746 6:0.836 7:-0.3407 8:-0.8032 9:-0.4183 10:-0.7511 11:-0.6904 
8 1:0.834 2:0.894 3:0.936 4:0.956 5:0.964 6:0.988 7:-0.433 8:-0.9834 9:-0.4887 10:-0.8816 11:-0.772 
6.390708174317861 1:-0.842 2:-0.012 3:-0.836 4:-0.02 5:0.308 6:-0.034 7:1 8:-0.533 9:1 10:0.8538 11:1 
8 1:-0.208 2:0.344 3:-0.092 4:0.714 5:0.818 6:0.752 7:-0.3971 8:-0.8296 9:-0.4347 10:-0.7841 11:-0.7186 
8 1:-0.716 2:0.09 3:-0.612 4:-0.416 5:0.098 6:-0.162 7:-0.4624 8:-0.8485 9:-0.5833 10:-0.9063 11:-0.8821 
8 1:0.574 2:0.778 3:0.95 4:0.75 5:0.846 6:0.892 7:-0.216 8:-0.648 9:-0.2939 10:-0.6304 11:-0.5637 
8 1:-0.852 2:-0.056 3:-0.882 4:-0.642 5:-0.026 6:-0.47 7:-0.353 8:-0.4737 9:-0.3274 10:-0.6605 11:-0.6125 
8 1:-0.458 2:0.178 3:-0.284 4:-0.04 5:0.186 6:0.234 7:-0.3819 8:-0.8493 9:-0.4558 10:-0.8086 11:-0.7296 
8 1:0.85 2:0.91 3:0.944 4:0.902 5:0.926 6:0.988 7:-0.4738 8:-0.991 9:-0.5139 10:-0.8905 11:-0.7914 
8 1:1 2:1 3:0.99 4:1 5:1 6:1 7:-0.5197 8:-1 9:-0.5547 10:-0.9579 11:-0.848 
2.456865960209889 1:-0.686 2:0.454 3:-0.484 4:-0.122 5:0.586 6:0.034 7:-0.3563 8:-0.8799 9:-0.4424 10:-0.7691 11:-0.7269 
5.854465694993279 1:-0.336 2:0.258 3:-0.424 4:-0.072 5:0.212 6:-0.01 7:-0.4306 8:-0.9641 9:-0.5813 10:-0.9308 11:-0.7993 
1.514936168072481 1:0.392 2:0.912 3:0.572 4:0.834 5:0.982 6:0.782 7:-0.0308 8:-0.8713 9:-0.0722 10:-0.5404 11:-0.346 
8 1:-0.612 2:0.168 3:-0.564 4:-0.262 5:0.142 6:-0.202 7:-0.4388 8:-0.6597 9:-0.3219 10:-0.6542 11:-0.6995 
3.389905183346951 1:-0.122 2:0.582 3:0.234 4:0.36 5:0.696 6:0.514 7:-0.4048 8:-0.8706 9:-0.4328 10:-0.7731 11:-0.7434 
8 1:0.614 2:0.774 3:0.79 4:0.786 5:0.826 6:0.93 7:-0.3904 8:-0.9364 9:-0.4283 10:-0.8206 11:-0.714 
2.858638114520604 1:-0.794 2:0.008 3:-0.742 4:-0.476 5:-0.016 6:-0.362 7:-0.0851 8:-0.4036 9:0.0219 10:-0.3596 11:-0.4376 
8 1:1 2:1 3:0.922 4:1 5:1 6:0.994 7:-0.4628 8:-0.9722 9:-0.5029 10:-0.8823 11:-0.7904 
0.9150799351725492 1:-0.674 2:0.09 3:-0.532 4:-0.218 5:0.14 6:-0.006 7:-0.0577 8:-0.2948 9:-0.285 10:-0.9013 11:-0.5547 
8 1:-0.384 2:0.252 3:-0.006 4:0.114 5:0.406 6:0.446 7:-0.4483 8:-0.9316 9:-0.5148 10:-0.8492 11:-0.7641 
3.320373080573511 1:-0.712 2:0.062 3:-0.622 4:-0.036 5:0.276 6:-0.04 7:0.0712 8:-0.7399 9:1 10:-0.4322 11:1 
7.472629574874964 1:0.582 2:1 3:0.128 4:1 5:1 6:0.522 7:-0.3185 8:-0.8107 9:-0.3903 10:-0.7695 11:-0.662 
8 1:0.534 2:0.652 3:0.668 4:0.92 5:0.944 6:0.992 7:-0.671 8:-0.9025 9:-0.6432 10:-1 11:-0.9358 
8 1:0.048 2:0.438 3:0.152 4:0.544 5:0.604 6:0.634 7:-0.447 8:-0.9091 9:-0.5139 10:-0.8795 11:-0.8073 
8 1:0.956 2:0.97 3:0.956 4:1 5:1 6:1 7:-1 8:-1 9:-1 10:-1 11:-1 
7.057232484797831 1:-0.488 2:0.18 3:-0.326 4:0.168 5:0.376 6:0.448 7:-0.3116 8:-0.3478 9:-0.3577 10:-0.7129 11:-0.6388 
8 1:-0.222 2:0.686 3:-0.324 4:0.372 5:0.814 6:0.252 7:-0.3545 8:-0.7411 9:-0.4316 10:-0.7504 11:-0.6969 
8 1:0.126 2:0.534 3:0.394 4:0.358 5:0.554 6:0.536 7:-0.3466 8:-0.8637 9:-0.4187 10:-0.7448 11:-0.7037 
5.462014662701685 1:-0.376 2:0.28 3:-0.082 4:-0.064 5:0.236 6:0.174 7:-0.4452 8:-0.743 9:-0.2851 10:-0.7641 11:-0.8309 
8 1:0.532 2:0.69 3:0.764 4:0.74 5:0.818 6:0.888 7:-0.4332 8:-0.8653 9:-0.5863 10:-0.939 11:-0.8763 
4.695550249331165 1:0.56 2:0.732 3:0.708 4:0.894 5:0.906 6:0.952 7:-0.451 8:-0.8782 9:-0.5027 10:-0.6814 11:-0.7941 
1.521184761211541 1:-0.848 2:0.4 3:-0.792 4:-0.736 5:0.18 6:-0.74 7:-0.3598 8:0.1434 9:-0.3381 10:-0.7042 11:-0.6289 
8 1:0.396 2:0.668 3:0.396 4:0.434 5:0.602 6:0.434 7:1 8:1 9:1 10:1 11:1 
5.423286886866686 1:-0.482 2:0.04 3:-0.14 4:0.216 5:0.358 6:0.538 7:-0.3219 8:-0.8275 9:-0.3977 10:-0.7627 11:-0.6649 
7.090492081624493 1:-0.172 2:0.574 3:-0.112 4:0.314 5:0.584 6:0.364 7:-0.3941 8:-0.7987 9:-0.4298 10:-0.7831 11:-0.7087 
8 1:0.836 2:0.9 3:0.94 4:0.962 5:0.968 6:0.996 7:-0.4589 8:-0.9875 9:-0.496 10:-0.8874 11:-0.7755 
8 1:-0.124 2:0.4 3:0.176 4:0.34 5:0.522 6:0.576 7:-0.3648 8:-0.8844 9:-0.4 10:-0.7878 11:-0.6871 
8 1:0.482 2:0.694 3:0.482 4:0.58 5:0.626 6:0.6 7:1 8:1 9:1 10:1 11:1 
0.07682785020697859 1:0.278 2:0.714 3:0.41 4:0.656 5:0.852 6:0.7 7:-0.5219 8:-0.9619 9:-0.5284 10:-0.7726 11:-0.8353 
0.1820219445454466 1:-0.682 2:0.12 3:-0.422 4:-0.656 5:-0.092 6:-0.534 7:-0.3417 8:-0.8498 9:-0.3415 10:-0.6596 11:-0.6699 
8 1:-0.694 2:0.07 3:-0.694 4:-0.398 5:-0.048 6:-0.398 7:1 8:1 9:1 10:1 11:1 
8 1:0.83 2:0.896 3:0.982 4:0.978 5:0.976 6:0.986 7:-0.4922 8:-1 9:-0.5122 10:-0.9216 11:-0.8601 
8 1:-0.64 2:0.054 3:-0.694 4:-0.382 5:-0.066 6:-0.27 7:-0.301 8:-0.8133 9:-0.3929 10:-0.6941 11:-0.5894 
8 1:-0.452 2:0.26 3:-0.166 4:-0.158 5:0.202 6:0.13 7:-0.2711 8:-0.7385 9:-0.3166 10:-0.6307 11:-0.6111 
8 1:-0.598 2:0.518 3:-0.574 4:-0.04 5:0.564 6:-0.08 7:-0.3782 8:-0.757 9:-0.3973 10:-0.7634 11:-0.6772 
2.005899387600241 1:0.63 2:1 3:0.496 4:1 5:1 6:0.648 7:-0.2627 8:-0.8455 9:-0.3322 10:-0.6642 11:-0.6247 
6.69048913970728 1:-0.782 2:-0.054 3:-0.774 4:-0.126 5:0.3 6:0.052 7:-0.3011 8:-0.8028 9:-0.4459 10:-0.7876 11:-0.7205 
8 1:-0.478 2:0.21 3:-0.396 4:-0.16 5:0.214 6:-0.06 7:-0.4818 8:-0.8838 9:-0.5435 10:-0.8359 11:-0.8309 
8 1:1 2:1 3:0.982 4:1 5:1 6:0.998 7:-0.5398 8:-1 9:-0.6018 10:-0.9412 11:-0.9124 
8 1:0.956 2:0.974 3:0.972 4:0.976 5:0.982 6:0.994 7:-0.4686 8:-0.9753 9:-0.5018 10:-0.8949 11:-0.806 
8 1:1 2:1 3:1 4:1 5:1 6:1 7:-1 8:-1 9:-1 10:-1 11:-1 
8 1:-0.59 2:0.16 3:-0.44 4:-0.394 5:0.138 6:-0.16 7:-0.4751 8:-0.8851 9:-0.5883 10:-0.9203 11:-0.8833 
1.923658536511693 1:0.354 2:0.632 3:0.468 4:0.452 5:0.588 6:0.586 7:-0.4966 8:-0.79 9:1 10:-0.6652 11:1 
2.488133799571102 1:-0.812 2:0.044 3:-0.776 4:-0.618 5:-0.028 6:-0.562 7:-0.1278 8:-0.4444 9:-0.4731 10:-0.8478 11:1 
8 1:-0.614 2:0.146 3:-0.512 4:-0.34 5:0.15 6:-0.244 7:-0.4748 8:-0.9017 9:-0.5574 10:-0.8786 11:-0.8528 
8 1:-0.816 2:0.04 3:-0.664 4:-0.486 5:0.026 6:-0.306 7:-0.2167 8:-0.7646 9:-0.3463 10:-0.6986 11:-0.63 
5.673809472598508 1:-0.002 2:0.278 3:0.322 4:0.928 5:0.93 6:0.972 7:-0.4922 8:-0.9593 9:-0.559 10:-0.8691 11:-0.8336 
3.344666156916444 1:0.014 2:1 3:-0.312 4:0.934 5:1 6:0.286 7:-0.2999 8:-0.7051 9:-0.4539 10:-0.9006 11:-0.7155 
1.249599361217954 1:0.464 2:0.68 3:0.55 4:0.748 5:0.79 6:0.816 7:-0.5923 8:-1 9:-0.6287 10:-0.9789 11:-0.9384 
5.031815263054651 1:0.796 2:0.88 3:0.934 4:0.918 5:0.938 6:0.99 7:-0.467 8:-0.9914 9:-0.5112 10:-0.8923 11:-0.7942 
8 1:-0.784 2:0.044 3:-0.784 4:-0.48 5:0.022 6:-0.48 7:1 8:1 9:1 10:1 11:1 
8 1:0.198 2:1 3:0.436 4:0.876 5:1 6:0.646 7:-0.3724 8:-0.7966 9:-0.442 10:-0.7714 11:-0.7211 
1.913210014958751 1:-0.312 2:1 3:-0.696 4:0.594 5:1 6:-0.328 7:1 8:-0.567 9:1 10:-1 11:-0.9882 
8 1:0.778 2:0.862 3:0.96 4:0.872 5:0.904 6:0.986 7:-0.3776 8:-1 9:-0.4524 10:-0.8389 11:-0.7272 
1.357213635667698 1:0.38 2:0.878 3:0.748 4:0.988 5:1 6:0.85 7:-0.4367 8:-0.9324 9:-0.4839 10:-0.8526 11:-0.7815 
6.811233690373279 1:-0.72 2:0.06 3:-0.566 4:-0.124 5:0.254 6:0.108 7:1 8:1 9:1 10:-1 11:1 
8 1:-0.718 2:0.106 3:-0.486 4:-0.42 6:-0.262 7:-0.3613 8:-0.8442 9:-0.4654 10:-0.8195 11:-0.7535 
8 1:-0.518 2:0.204 3:-0.244 4:-0.006 5:0.364 6:0.288 7:-0.3063 8:-0.6207 9:-0.345 10:-0.6716 11:-0.6261 
3.695105318654371 1:0.696 2:0.816 3:0.69 4:0.974 5:0.976 6:0.972 7:-0.4748 8:1 9:-0.5121 10:-0.9218 11:-0.8071 
4.135695298259106 1:0.3 2:0.962 3:0.204 4:0.592 5:0.842 6:0.464 7:-0.3893 8:-0.8709 9:-0.439 10:-0.8255 11:-0.7191 
8 1:1 2:1 3:0.674 4:1 5:1 6:0.88 7:-0.0834 8:-0.4829 9:-0.1363 10:-0.4358 11:-0.4165 
3.471115973038621 1:0.152 2:0.552 3:0.044 4:0.494 5:0.662 6:0.678 7:-0.5079 8:-1 9:-0.7226 10:-0.9738 11:-0.9411 
1.712880672520837 1:0.22 2:0.538 3:0.412 4:1 5:1 6:0.734 7:-0.3547 8:-0.6916 9:-0.4197 10:-0.8391 11:-0.7566 
8 1:0.742 2:0.846 3:0.928 4:0.946 5:0.952 6:0.986 7:-0.4882 8:-1 9:-0.5172 10:-0.8558 11:-0.8153 
8 1:0.91 2:0.944 3:0.952 4:0.952 5:0.962 6:0.992 7:-0.4803 8:-0.9844 9:-0.5186 10:-0.8844 11:-0.7907 
8 1:-0.114 2:0.394 3:-0.114 4:0.254 5:0.488 6:0.254 7:1 8:1 9:1 10:1 11:1 
8 1:-0.57 2:0.132 3:-0.57 4:-0.062 5:0.29 6:-0.062 7:1 8:1 9:1 10:1 11:1 
8 1:1 2:1 3:0.974 4:1 5:1 6:0.994 7:-0.494 8:-0.9921 9:-0.5213 10:-0.9029 11:-0.8347 
8 1:-0.112 2:0.35 3:-0.112 4:0.2 5:0.398 6:0.2 7:1 8:1 9:1 10:1 11:1 
2.178858603995902 1:0.296 2:1 3:-0.024 4:1 5:1 6:0.54 7:-0.4009 8:-0.7978 9:-0.4711 10:-0.7796 11:-0.7469 
8 1:1 2:1 3:0.906 4:1 5:1 6:0.886 7:-0.3889 8:-0.801 9:-0.4561 10:-0.778 11:-0.7337 
2.339044402839271 1:-0.212 2:1 3:-0.4 4:0.468 5:1 6:-0.234 7:-0.3058 8:-0.5607 9:-0.4633 10:-0.7874 11:-0.7513 
4.319573847262794 1:-0.398 2:0.104 3:-0.12 4:0.25 5:0.35 6:0.59 7:-0.3127 8:-0.8017 9:-0.4851 10:-0.8382 11:-0.7514 
3.573448251795614 1:-0.622 2:0.904 3:-0.812 4:-0.052 5:0.7 6:-0.526 7:1 8:-1 9:1 10:1 11:1 
7.693503545807369 1:1 2:1 3:0.914 4:1 5:1 6:0.986 7:-0.0683 8:-0.5312 9:-0.1507 10:-0.5764 11:-0.4112 
8 1:-0.582 2:0.126 3:-0.388 4:-0.138 5:0.16 6:0.208 7:-0.3743 8:-0.8992 9:-0.4671 10:-0.8192 11:-0.7424 
2.230164158674115 1:-0.624 2:0.53 3:-0.624 4:0.524 5:0.922 6:0.234 7:-0.391 8:-0.61 9:-0.4232 10:-0.7482 11:-0.6952 
2.454862715912674 1:-0.586 2:0.104 3:-0.544 4:0.062 5:0.31 6:0.144 7:0.3429 8:-0.3797 9:-0.5186 10:-0.8308 11:-0.7007 
8 1:-0.336 2:0.226 3:-0.084 4:-0.048 5:0.154 6:0.198 7:-0.4434 8:-0.8029 9:-0.4958 10:-0.8365 11:-0.7663 
8 1:0.278 2:0.538 3:0.556 4:0.528 5:0.616 6:0.882 7:-0.3691 8:-0.8827 9:-0.4309 10:-0.8106 11:-0.7048 
8 1:-0.578 2:0.23 3:-0.434 4:-0.068 5:0.3 6:0.002 7:-0.3741 8:-0.8219 9:-0.4421 10:-0.7598 11:-0.6728 
8 1:0.906 2:0.936 3:0.98 4:1 5:1 6:0.996 7:-0.559 8:-0.9482 9:-0.6184 10:-0.9798 11:-0.9085 
3.330625862279643 1:-0.482 2:0.196 3:-0.168 4:-0.132 5:0.222 6:0.242 7:-0.1565 8:-0.7364 9:-0.1759 10:-0.6671 11:-0.4693 
8 1:1 2:1 3:0.954 4:1 5:1 6:0.99 7:-0.454 8:-1 9:-0.4891 10:-0.8908 11:-0.7823 
8 1:-0.802 2:0.046 3:-0.72 4:-0.128 5:0.212 6:0.102 7:-0.4492 8:-0.7703 9:-0.4931 10:-0.8068 11:-0.7737 
8 1:-0.58 2:0.084 3:-0.362 4:-0.264 5:0.082 6:0.044 7:-0.2715 8:-0.1308 9:-0.5219 10:-0.7986 11:-0.8073 
8 1:0.666 2:0.798 3:0.666 4:0.73 5:0.734 6:0.73 7:1 8:1 9:1 10:1 11:1 
8 1:-0.216 2:0.35 3:-0.154 4:0.096 5:0.418 6:0.27 7:-0.4024 8:-0.8783 9:-0.3975 10:-0.8189 11:-0.7126 
8 1:-0.062 2:0.478 3:0.148 4:0.446 5:0.592 6:0.602 7:-0.4303 8:-0.8046 9:-0.4354 10:-0.7941 11:-0.7227 
8 1:-0.044 2:0.528 3:0.042 4:0.26 5:0.458 6:0.522 7:-0.294 8:-0.7703 9:-0.3345 10:-0.7133 11:-0.6125 
3.655912143251319 1:1 2:1 3:0.918 4:1 5:1 6:0.994 7:-0.4499 8:-0.9741 9:-0.486 10:-0.8655 11:-0.7738 
7.837317187685616 1:-0.432 2:0.488 3:-0.438 4:-0.036 5:0.502 6:0.012 7:-0.4143 8:-0.7878 9:-0.5872 10:-0.8993 11:-0.8956 
4.203774052213863 1:-0.758 2:0.346 3:-0.742 4:-0.064 5:0.37 6:-0.166 7:-0.3235 8:-0.4833 9:-0.3595 10:-0.7253 11:-0.6361 
2.226254860285747 1:-0.588 2:0.17 3:-0.55 4:-0.14 5:0.26 6:-0.02 7:-0.1299 8:-0.7279 9:1 10:-0.398 11:-0.4952 
8 1:0.818 2:0.892 3:0.886 4:0.92 5:0.928 6:0.98 7:1 8:-0.8818 9:1 10:-0.9433 11:0.2224 
8 1:0.126 2:0.458 3:0.414 4:0.494 5:0.582 6:0.786 7:-0.356 8:-0.8448 9:-0.3994 10:-0.7445 11:-0.6967 
8 1:-0.058 2:0.508 3:0.074 4:0.346 5:0.516 6:0.44 7:-0.3039 8:-0.8088 9:-0.3456 10:-0.7344 11:-0.6358 
5.617148676046512 1:-0.484 2:0.514 3:-0.556 4:0.188 5:0.682 6:0.01 7:-0.2991 8:-0.8761 9:-0.3695 10:-0.7907 11:-0.6399 
8 1:0.832 2:0.896 3:0.92 4:0.89 5:0.914 6:0.988 7:-0.3982 8:-1 9:-0.4645 10:-0.8528 11:-0.7429 
8 1:0.556 2:0.78 3:0.756 4:0.802 5:0.87 6:0.92 7:-0.4175 8:-0.985 9:-0.4511 10:-0.7893 11:-0.7419 
8 1:0.702 2:0.82 3:0.988 4:0.93 5:0.94 6:0.998 7:-0.4938 8:-0.9671 9:-0.5278 10:-0.9178 11:-0.8357 
6.447202898555441 1:-0.024 2:0.424 3:0.056 4:0.232 5:0.452 6:0.356 7:-0.4857 8:-0.9553 9:-0.5458 10:-0.895 11:-0.8324 
0.6532712940279468 1:0.436 2:0.79 3:0.552 4:0.708 5:0.854 6:0.764 7:-0.3105 8:-0.8462 9:-0.3644 10:-0.7493 11:-0.6417 
8 1:0.392 2:0.618 3:0.392 4:0.866 5:0.882 6:0.866 7:1 8:-0.6817 9:1 10:1 11:1 
1.903541284256958 1:0.76 2:0.856 3:0.918 4:0.754 5:0.774 6:0.846 7:-0.5316 8:-0.9728 9:-0.5617 10:-0.9367 11:-0.8468 
8 1:0.034 2:0.692 3:0.028 4:0.654 5:0.812 6:0.448 7:-0.3761 8:-0.8174 9:-0.4211 10:-0.8006 11:-0.6951 
8 1:0.336 2:0.584 3:0.386 4:0.638 5:0.67 6:0.766 7:-0.2652 8:-0.6748 9:-0.3808 10:-0.6551 11:-0.6443 
8 1:0.262 2:0.604 3:0.616 4:0.512 5:0.672 6:0.794 7:-0.4163 8:-0.7797 9:-0.4708 10:-0.7734 11:-0.7549 
8 1:0.888 2:0.93 3:0.906 4:1 5:1 6:0.988 7:-0.4614 8:-1 9:-0.5415 10:-0.9227 11:-0.8222 
8 1:0.02 2:0.474 3:0.282 4:0.518 5:0.636 6:0.652 7:-0.384 8:-0.8547 9:-0.4406 10:-0.8184 11:-0.7198 
8 1:0.452 2:0.664 3:0.72 4:0.646 5:0.692 6:0.904 7:-0.3822 8:-0.9202 9:-0.4394 10:-0.8286 11:-0.7254 
2.087769502987231 1:0.112 2:0.996 3:-0.068 4:0.582 5:1 6:0.164 7:-0.3364 8:-0.6908 9:-0.4634 10:-0.8236 11:-0.7553 
4.351500451367528 1:-0.43 2:0.272 3:-0.202 4:-0.208 5:0.278 6:0.168 7:-0.4685 8:-0.8333 9:-0.2687 10:-0.8286 11:-0.6411 
8 1:0.104 2:0.54 3:0.248 4:0.674 5:0.782 6:0.642 7:-0.3473 8:-0.8408 9:-0.4172 10:-0.8336 11:-0.7188 
3.260027041628224 1:-0.204 2:0.672 3:-0.242 4:0.58 5:0.95 6:0.34 7:-0.4681 8:-0.8116 9:-0.4841 10:-0.8534 11:-0.7706 
1.566097538712812 1:-0.348 2:0.488 3:-0.694 4:0.19 5:0.568 6:-0.066 7:-0.3125 8:-0.8002 9:-0.3981 10:-0.7936 11:-0.6708 
8 1:1 2:1 3:0.968 4:1 5:1 6:0.988 7:-0.4519 8:-0.8882 9:-0.4963 10:-0.8623 11:-0.7858 
8 1:0.618 2:0.774 3:0.7 4:0.756 5:0.794 6:0.876 7:-0.4099 8:-0.9856 9:-0.4722 10:-0.8367 11:-0.7474 
4.197023123863933 1:-0.402 2:0.354 3:-0.09 4:-0.176 5:0.318 6:0.016 7:-0.4678 8:-0.8221 9:-0.5179 10:-0.8545 11:-0.8026 
3.717164987064438 1:-0.332 2:0.32 3:-0.126 4:0.194 5:0.42 6:0.42 7:-0.2263 8:-0.7512 9:-0.288 10:-0.6635 11:-0.5766 
0.7693576908791041 1:-0.532 2:0.276 3:-0.218 4:0.026 5:0.43 6:0.304 7:-0.4126 8:-0.8448 9:-0.4555 10:-0.9352 11:-0.7312 
8 1:1 2:1 3:0.996 4:1 5:1 6:0.998 7:-0.7632 8:-1 9:-1 10:-1 11:-1 
8 1:0.8 2:0.874 3:0.944 4:0.94 5:0.95 6:0.988 7:-0.4514 8:-0.9999 9:-0.5063 10:-0.8967 11:-0.7906 
8 1:0.018 2:0.462 3:0.332 4:0.202 5:0.406 6:0.532 7:-0.3427 8:-0.7847 9:-0.4078 10:-0.7416 11:-0.6997 
8 1:-0.396 2:0.258 3:-0.032 4:-0.004 5:0.314 6:0.332 7:-0.3762 8:-0.8775 9:-0.4512 10:-0.823 11:-0.7174 
8 1:1 2:1 3:1 4:1 5:1 6:1 7:-1 8:-1 9:-1 10:-1 11:-1 
8 1:-0.828 2:-0.082 3:-0.828 4:-0.512 5:-0.152 6:-0.512 7:1 8:0.1418 9:1 10:1 11:1 
2.032244129416352 1:0.23 2:0.578 3:0.384 4:0.758 5:0.84 6:0.89 7:-0.5806 8:-1 9:-0.6106 10:-0.9836 11:-0.8865 
8 1:-0.722 2:0.012 3:-0.59 4:-0.202 5:0.102 6:0.08 7:-0.4192 8:-0.7955 9:-0.5348 10:-0.7989 11:-0.827 
3.35412027401834 1:0.666 2:1 3:0.416 4:0.54 5:0.94 6:0.556 7:-0.3152 8:-0.7362 9:-0.3715 10:-0.7108 11:-0.6502 
8 1:0.658 2:0.798 3:0.884 4:0.78 5:0.822 6:0.956 7:-0.4556 8:-1 9:-0.4932 10:-0.8853 11:-0.7724 
8 1:0.394 2:0.704 3:0.756 4:0.656 5:0.776 6:0.818 7:-0.3734 8:-0.8467 9:-0.4639 10:-0.7952 11:-0.7355 
1.555985163973078 1:-0.79 2:0.166 3:-0.546 4:-0.328 5:0.178 6:-0.078 7:-0.3406 8:-0.4535 9:-0.444 10:-0.7644 11:-0.728 
2.99843396752017 1:-0.172 2:0.482 3:-0.006 4:0.418 5:0.688 6:0.518 7:-0.4625 8:-0.8162 9:-0.5241 10:-0.831 11:-0.8006 
1.871096314695446 1:-0.82 2:-0.032 3:-0.766 4:-0.354 5:-0.004 6:-0.266 7:-0.1346 8:-0.3426 9:0.0033 10:-0.4224 11:-0.1399 
0.08083153670570314 1:0.484 2:0.936 3:0.452 4:0.916 5:1 6:0.76 7:0.1173 8:-0.857 9:0.0591 10:-0.3684 11:-0.1986 
2.167093235238648 1:0.258 2:0.898 3:0.152 4:0.744 5:0.84 6:0.518 7:-0.1311 8:-0.85 9:-0.2597 10:-0.6742 11:-0.5709 
2.348949249731482 1:-0.736 2:0.524 3:-0.796 4:0.02 5:0.74 6:-0.152 7:-0.036 8:-0.795 9:-0.3367 10:-0.862 11:-0.7467 
8 1:-0.154 2:0.42 3:-0.136 4:0.262 5:0.438 6:0.352 7:-0.2224 8:-0.7829 9:-0.2797 10:-0.6155 11:-0.5671 
8 1:-0.134 2:0.316 3:0.106 4:0.43 5:0.536 6:0.686 7:-0.3473 8:-0.7804 9:-0.4444 10:-0.7702 11:-0.739 
8 1:-0.076 2:0.37 3:0.25 4:0.102 5:0.3 6:0.406 7:-0.4071 8:-0.8915 9:-0.4673 10:-0.8741 11:-0.7406 
8 1:0.302 2:0.588 3:0.772 4:0.588 5:0.668 6:0.83 7:-0.3816 8:-0.8979 9:-0.4423 10:-0.8226 11:-0.7184 
1.996055674926345 1:-0.226 2:0.802 3:-0.194 4:0.394 5:0.914 6:0.222 7:-0.4099 8:-0.8532 9:-0.4728 10:-0.8401 11:-0.752 
8 1:-0.096 2:0.382 3:0.244 4:0.204 5:0.42 6:0.504 7:-0.3362 8:-0.8176 9:-0.4257 10:-0.7594 11:-0.7026 
2.828627819477529 1:0.212 2:0.434 3:0.42 4:0.694 5:0.67 6:0.684 7:-0.3096 8:-0.7565 9:0.2576 10:-0.6991 11:-0.4594 
8 1:-0.57 2:0.288 3:-0.502 4:0.138 5:0.416 6:0.178 7:-0.3092 8:-0.7939 9:-0.3753 10:-0.7097 11:-0.6581 
6.346901075290204 1:-0.748 2:0.286 3:-0.634 4:-0.134 5:0.346 6:-0.22 7:-0.2665 8:-0.8032 9:-0.3228 10:-0.5209 11:-0.5541 
8 1:0.098 2:0.538 3:0.42 4:0.246 5:0.536 6:0.578 7:-0.47 8:-0.8621 9:-0.5315 10:-0.8545 11:-0.818 
8 1:0.934 2:0.96 3:0.986 4:0.97 5:0.974 6:0.998 7:-0.4979 8:-0.969 9:-0.5321 10:-0.92 11:-0.837 
7.814115320797925 1:-0.186 2:0.356 3:-0.116 4:0.298 5:0.572 6:0.486 7:-0.6165 8:-0.9816 9:-0.6405 10:-0.974 11:-0.974 
8 1:-0.624 2:0.15 3:-0.624 4:-0.4 5:0.12 6:-0.4 7:1 8:1 9:1 10:1 11:1 
0.3892044666898906 1:0.624 2:0.776 3:0.582 4:0.92 5:0.928 6:0.906 7:-0.5536 8:1 9:-0.5879 10:-0.8476 11:-0.8776 
8 1:-0.776 2:0.074 3:-0.618 4:-0.382 5:0.06 6:-0.144 7:-0.3447 8:-0.8104 9:-0.4136 10:-0.7597 11:-0.6931 
8 1:-0.604 2:0.116 3:-0.542 4:-0.318 5:0.038 6:-0.148 7:-0.374 8:-0.8515 9:-0.4914 10:-0.8703 11:-0.6665 
6.683426223289879 1:0.29 2:0.876 3:0.348 4:0.946 5:1 6:0.708 7:-0.2988 8:-0.8019 9:-0.3427 10:-0.7294 11:-0.6231 
8 1:0.91 2:0.948 3:0.968 4:1 5:1 6:0.994 7:-0.4749 8:-1 9:-0.5102 10:-0.8728 11:-0.8108 
6.058185014534498 1:-0.338 2:0.362 3:0.016 4:0.118 5:0.472 6:0.422 7:-0.4501 8:-0.8053 9:-0.5393 10:-0.8655 11:-0.824 
2.635046330281047 1:-0.654 2:0.286 3:-0.45 4:-0.128 5:0.334 6:0.048 7:-0.427 8:-0.8748 9:-0.4808 10:-0.8563 11:-0.8002 
8 1:0.956 2:0.97 3:0.956 4:1 5:1 6:1 7:-1 8:-1 9:-1 10:-1 11:-1 
2.870421559178929 1:0.09 2:0.36 3:0.26 4:0.952 5:0.952 6:0.974 7:-0.9049 8:-0.9676 9:-0.6254 10:-0.9081 11:-1 
8 1:-0.496 2:0.356 3:-0.382 4:0.136 5:0.434 6:0.14 7:-0.3274 8:-0.5986 9:-0.3418 10:-0.7359 11:-0.6284 
8 1:0.226 2:0.572 3:0.474 4:0.346 5:0.536 6:0.608 7:-0.2239 8:-0.8486 9:-0.3296 10:-0.6704 11:-0.6131 
8 1:0.686 2:0.806 3:0.852 4:0.928 5:0.936 6:0.966 7:-0.4786 8:-1 9:-0.5055 10:-0.8074 11:-0.8003 
1.53256225229346 1:-0.424 2:0.696 3:-0.4 4:0.472 5:0.886 6:0.252 7:-0.3871 8:-0.664 9:-0.2543 10:-0.7084 11:-0.5576 
8 1:-0.404 2:0.228 3:-0.026 4:-0.09 5:0.232 6:0.16 7:-0.3482 8:-0.8504 9:-0.4258 10:-0.7917 11:-0.7011 
3.693157962840839 1:-0.626 2:0.134 3:-0.368 4:-0.108 5:0.328 6:0.036 7:-0.5147 8:-0.5508 9:-0.1977 10:-0.298 11:-0.622 
8 1:-0.796 2:0.058 3:-0.636 4:-0.668 5:-0.012 6:-0.514 7:-0.4291 8:-0.8211 9:-0.4325 10:-0.8465 11:-0.6983 
4.872847488136647 1:0.788 2:0.868 3:0.85 4:0.978 5:0.976 6:0.982 7:-0.4568 8:-0.5347 9:-0.5708 10:-0.9872 11:-0.8218 
3.770219163139699 1:0.424 2:1 3:0.152 4:0.824 5:1 6:0.436 7:-0.3687 8:-0.8359 9:-0.425 10:-0.79 11:-0.709 
1.107389687274179 1:0.482 2:1 3:0.254 4:0.902 5:0.994 6:0.538 7:0.0152 8:-0.8496 9:-0.1604 10:-0.5513 11:-0.5414 
8 1:-0.714 2:0.06 3:-0.616 4:-0.176 5:0.216 6:0.07 7:-0.3873 8:-0.7471 9:-0.4394 10:-0.8044 11:-0.7218 
8 1:0.884 2:1 3:0.622 4:1 5:1 6:0.82 7:-0.3094 8:-0.6881 9:-0.3553 10:-0.6544 11:-0.6426 
2.51209259117286 1:-0.292 2:0.736 3:-0.436 4:0.33 5:0.918 6:0.124 7:-0.3869 8:-0.7954 9:-0.4473 10:-0.7845 11:-0.722 
8 1:0.718 2:1 3:0.736 4:1 5:1 6:0.868 7:-0.349 8:-0.763 9:-0.4181 10:-0.7357 11:-0.6959 
8 1:0.762 2:1 3:0.736 4:1 5:1 6:0.868 7:-0.349 8:-0.7611 9:-0.417 10:-0.7344 11:-0.6951 
6.70631961633481 1:-0.662 2:0.116 3:-0.51 4:0.026 5:0.296 6:0.288 7:-0.0425 8:-0.8101 9:-0.1428 10:-0.5698 11:-0.4283 
1.161463602172976 1:-0.406 2:0.106 3:-0.154 4:0.348 5:0.45 6:0.608 7:-0.0771 8:-0.8074 9:-0.1707 10:-0.6721 11:-0.4016 
8 1:0.918 2:0.952 3:0.966 4:0.96 5:0.97 6:0.992 7:-0.4942 8:-0.9852 9:-0.531 10:-0.8873 11:-0.8346 
8 1:-0.466 2:0.228 3:-0.132 4:-0.184 5:0.244 6:0.042 7:-0.4215 8:-0.8205 9:-0.4647 10:-0.871 11:-0.8213 
2.497178942006229 1:-0.19 2:0.356 3:0.314 4:0.13 5:0.396 6:0.456 7:-0.4398 8:-0.8871 9:-0.5353 10:-0.9134 11:-0.816 
8 1:0.136 2:0.754 3:0.26 4:0.932 5:1 6:0.7 7:-0.2991 8:-0.8094 9:-0.3615 10:-0.7454 11:-0.6371 
8 1:0.618 2:0.774 3:0.7 4:0.756 5:0.794 6:0.876 7:-0.4117 8:-0.9863 9:-0.4776 10:-0.841 11:-0.7511 
2.406201534048567 1:0.252 2:1 3:0.116 4:0.916 5:1 6:0.372 7:-0.3812 8:-0.9243 9:-0.4499 10:-0.8428 11:-0.7189 
8 1:0.838 2:0.906 3:0.972 4:0.972 5:0.976 6:0.996 7:-0.4896 8:-1 9:-0.5246 10:-0.9277 11:-0.8179 
8 1:0.502 2:0.648 3:0.734 4:0.928 5:0.93 6:0.99 7:-0.503 8:-0.9414 9:-0.6018 10:-0.9308 11:-0.8728 
8 1:-0.082 2:0.392 3:0.176 4:0.326 5:0.472 6:0.552 7:-0.2821 8:-0.7807 9:-0.3548 10:-0.6854 11:-0.6419 
8 1:-0.504 2:0.108 3:-0.276 4:-0.096 5:0.128 6:0.21 7:-0.4372 8:-0.7955 9:-0.412 10:-0.7915 11:-0.678 
2.813843317605154 1:-0.098 2:0.57 3:0.076 4:0.406 5:0.686 6:0.382 7:-0.4682 8:-0.5637 9:-0.507 10:-0.8392 11:-0.7922 
1.807112595707963 1:-0.084 2:0.29 3:0.326 4:0.492 5:0.588 6:0.854 7:-0.3596 8:-0.874 9:-0.4237 10:-0.8024 11:-0.6979 
5.745718350746901 1:0.022 2:0.608 3:0.082 4:0.422 5:0.602 6:0.442 7:-0.2941 8:-0.8193 9:-0.337 10:-0.7261 11:-0.6275 
4.982336005722095 1:0.838 2:1 3:0.466 4:1 5:1 6:0.602 7:-0.4129 8:-0.7831 9:-0.4829 10:-0.8295 11:-0.7579 
8 1:1 2:1 3:0.98 4:1 5:1 6:0.996 7:-0.4804 8:-1 9:-0.5145 10:-0.8828 11:-0.8153 
8 1:0.37 2:0.738 3:0.698 4:0.576 5:0.748 6:0.764 7:-0.3545 8:-0.7892 9:-0.4301 10:-0.7572 11:-0.6995 
2.082136417385196 1:-0.686 2:0.034 3:-0.542 4:-0.208 5:0.106 6:-0.052 7:-0.3354 8:-0.6352 9:-0.3359 10:1 11:0.3872 
8 1:-0.666 2:0.152 3:-0.666 4:-0.376 5:0.174 6:-0.376 7:1 8:1 9:1 10:-1 11:1 
0.4052873396331381 1:-0.626 2:0.074 3:-0.23 4:-0.078 5:0.194 6:0.256 7:-0.3584 8:-0.8391 9:-0.4326 10:-0.7824 11:-0.7078 
2.77379922591512 1:0.198 2:0.53 3:0.524 4:0.278 5:0.396 6:0.632 7:-0.2203 8:-0.592 9:-0.324 10:-0.783 11:-0.589 
8 1:-0.61 2:0.394 3:-0.596 4:0.022 5:0.498 6:-0.028 7:-0.4029 8:-0.8258 9:-0.4974 10:-0.8552 11:-0.7746 
4.523386480264072 1:0.54 2:0.766 3:0.712 4:0.432 5:0.58 6:0.754 7:-0.3028 8:-0.8438 9:-0.3711 10:-0.7103 11:-0.6531 
3.84251251859133 1:-0.65 2:0.414 3:-0.58 4:-0.16 5:0.458 6:-0.038 7:-0.4151 8:-0.8224 9:-0.5529 10:-0.8655 11:-0.8183 
8 1:0.524 2:0.68 3:0.75 4:1 5:1 6:0.976 7:-0.4508 8:-1 9:-0.5247 10:-0.9212 11:-0.7913 
2.250454875380763 1:-0.506 2:0.23 3:-0.452 4:-0.456 5:0.116 6:-0.368 7:-0.7377 8:-0.9088 9:0.5985 10:-1 11:-0.8351 
8 1:-0.598 2:0.092 3:-0.386 4:-0.358 5:0.064 6:-0.056 7:-0.3109 8:-0.8314 9:-0.3847 10:-0.8318 11:-0.7048 
2.919781252517529 1:0.11 2:0.472 3:-0.296 4:0.236 5:0.386 6:0.116 7:-0.2878 8:-0.9288 9:-0.3588 10:-0.7623 11:-0.646 
3.396596741041254 1:-0.036 2:0.472 3:0.418 4:0.024 5:0.38 6:0.33 7:-0.4774 8:-0.8535 9:-0.5384 10:-0.8558 11:-0.8228 
8 1:0.794 2:0.858 3:0.794 4:0.914 5:0.942 6:0.914 7:1 8:-1 9:-1 10:-1 11:-1 
8 1:-0.466 2:0.148 3:-0.28 4:0.03 5:0.248 6:0.276 7:-0.3937 8:-0.1207 9:-0.4478 10:-0.7974 11:-0.7142 
8 1:0.302 2:1 3:0.02 4:1 5:1 6:0.286 7:-0.3871 8:-0.8866 9:-0.4584 10:-0.8405 11:-0.7298 
8 1:1 2:1 3:1 4:1 5:1 6:1 7:-1 8:-1 9:-1 10:-1 11:-1 
8 1:0.184 2:0.508 3:0.496 4:0.556 5:0.638 6:0.792 7:-0.4037 8:-0.8547 9:-0.4473 10:-0.8239 11:-0.7326 
8 1:0.272 2:0.62 3:0.548 4:0.37 5:0.554 6:0.656 7:-0.3467 8:-0.8633 9:-0.3778 10:-0.6929 11:-0.6741 
8 1:-0.574 2:0.172 3:-0.328 4:-0.24 5:0.202 6:0.048 7:-0.3645 8:-0.8212 9:-0.4942 10:-0.8499 11:-0.7705 
8 1:0.872 2:0.92 3:0.888 4:1 5:1 6:0.988 7:-0.4714 8:-1 9:-0.5728 10:-0.9536 11:-0.8438 
3.650842215379587 1:-0.172 2:0.326 3:-0.122 4:0.008 5:0.246 6:0.158 7:-0.3682 8:-0.8223 9:-0.1701 10:-0.4994 11:-0.4598 
8 1:-0.382 2:0.232 3:-0.068 4:-0.1 5:0.144 6:0.224 7:-0.3463 8:-0.7522 9:-0.4142 10:-0.7532 11:-0.7019 
8 1:-0.63 2:0.106 3:-0.48 4:-0.29 5:0.112 6:-0.054 7:-0.3326 8:-0.8239 9:-0.4087 10:-0.8017 11:-0.6805 
1.519673223876651 1:0.016 2:0.556 3:0.222 4:0.268 5:0.6 6:0.686 7:-0.5448 8:-0.8419 9:-0.5532 10:-0.8705 11:-0.8531 
8 1:-0.338 2:0.266 3:-0.118 4:-0.068 5:0.19 6:0.13 7:-0.3515 8:-0.7714 9:-0.5095 10:-0.8365 11:-0.8018 
8 1:0.8 2:0.862 3:0.842 4:0.958 5:0.97 6:0.958 7:1 8:-1 9:-1 10:-1 11:-1 
8 1:-0.09 2:0.408 3:0.132 4:0.336 5:0.502 6:0.544 7:-0.3316 8:-0.7081 9:-0.3859 10:-0.6964 11:-0.6648 
0.8383196856956006 1:-0.67 2:0.2 3:-0.494 4:-0.214 5:0.2 6:-0.004 7:-0.456 8:-0.8535 9:-0.5466 10:-0.8733 11:-0.8273 
8 1:0.922 2:0.946 3:0.932 4:0.958 5:0.97 6:0.958 7:1 8:-0.8875 9:-1 10:-1 11:-1 
2.178247911445105 1:0.684 2:0.81 3:0.758 4:0.864 5:0.882 6:0.812 7:1 8:-1 9:1 10:-0.5757 11:0.3544 
8 1:0.81 2:0.888 3:0.944 4:0.846 5:0.876 6:0.962 7:-0.3735 8:-0.9914 9:-0.4298 10:-0.8211 11:-0.7199 
8 1:0.838 2:0.906 3:0.92 4:0.972 5:0.976 6:0.986 7:-0.4776 8:-0.9986 9:-0.509 10:-0.8658 11:-0.8044 
3.927482417528781 1:0.818 2:0.892 3:0.936 4:1 5:1 6:0.96 7:-0.5736 8:-1 9:-0.6981 10:-0.9823 11:-0.9348 
8 1:-0.446 2:0.214 3:-0.222 4:-0.082 5:0.244 6:0.206 7:-0.1813 8:-0.7522 9:-0.1881 10:-0.6878 11:-0.4885 
6.116529148164917 1:0.6 2:0.738 3:0.886 4:0.76 5:0.838 6:0.942 7:-0.4957 8:-0.9092 9:-0.6371 10:-0.9822 11:-0.9267 
8 1:-0.74 2:0.064 3:-0.568 4:-0.432 5:0.034 6:-0.228 7:-0.2373 8:-0.7441 9:-0.3839 10:-0.7408 11:-0.665 
8 1:-0.336 2:0.272 3:0.084 4:-0.066 5:0.224 6:0.286 7:-0.2858 8:-0.8399 9:-0.2991 10:-0.682 11:-0.6012 
8 1:0.91 2:0.948 3:0.938 4:1 5:1 6:0.986 7:-0.4212 8:-0.9253 9:-0.457 10:-0.8473 11:-0.7503 
8 1:-0.522 2:0.236 3:-0.502 4:0.006 5:0.292 6:0.124 7:-0.3249 8:-0.777 9:-0.3981 10:-0.7569 11:-0.6735 
8 1:0.096 2:0.576 3:0.402 4:0.434 5:0.658 6:0.69 7:-0.3819 8:-0.8136 9:-0.4546 10:-0.7828 11:-0.7291 
8 1:0.208 2:0.566 3:0.432 4:0.44 5:0.614 6:0.648 7:-0.4338 8:-0.8589 9:-0.5145 10:-0.853 11:-0.791 
8 1:0.964 2:0.976 3:0.934 4:0.958 5:0.97 6:0.992 7:-0.8411 8:-1 9:-1 10:-1 11:-1 
0.8710374964305433 1:0.012 2:0.584 3:0.058 4:0.646 5:0.764 6:0.536 7:-0.3835 8:-0.8906 9:-0.4458 10:-0.8326 11:-0.7183 
3.750344917750441 1:0.118 2:0.476 3:0.55 4:0.628 5:0.692 6:0.79 7:-0.4626 8:-0.8737 9:-0.4851 10:-0.8613 11:-0.7811 
3.663930671290791 1:-0.662 2:0.216 3:-0.612 4:-0.288 5:0.178 6:-0.132 7:-0.2844 8:-0.8629 9:-0.3499 10:-0.7152 11:-0.6338 
7.583148822108146 1:-0.302 2:0.564 3:-0.374 4:0.12 5:0.554 6:0.026 7:-0.3567 8:-0.9001 9:-0.4206 10:-0.8078 11:-0.6938 
8 1:0.856 2:0.924 3:0.922 4:1 5:1 6:0.984 7:-0.3329 8:-0.7635 9:-0.4044 10:-0.7298 11:-0.6808 
8 1:0.33 2:0.756 3:0.362 4:0.554 5:0.68 6:0.552 7:-0.4061 8:-0.91 9:-0.4634 10:-0.8604 11:-0.7453 
2.870160120938823 1:0.806 2:0.878 3:0.96 4:0.862 5:0.902 6:0.976 7:-0.45 8:-0.9216 9:-0.5776 10:-0.9207 11:-0.8745 
8 1:0.314 2:0.596 3:0.618 4:0.572 5:0.636 6:0.806 7:-0.3757 8:-0.9328 9:-0.4689 10:-0.8907 11:-0.7225 
8 1:0.496 2:0.694 3:0.878 4:0.92 5:0.928 6:0.988 7:-0.3939 8:-1 9:-0.4158 10:-0.8299 11:-0.7136 
8 1:-0.802 2:0.078 3:-0.704 4:-0.3 5:0.134 6:-0.14 7:-0.2549 8:-0.7682 9:-0.3291 10:-0.7426 11:-0.608 
8 1:0.074 2:0.468 3:0.398 4:0.264 5:0.454 6:0.548 7:-0.4174 8:-1 9:-0.5007 10:-0.8999 11:-0.7612 
5.373004378932818 1:-0.522 2:0.334 3:-0.496 4:0.346 5:0.702 6:0.37 7:-0.3739 8:-0.8387 9:-0.4593 10:-0.6765 11:-0.7675 
8 1:-0.12 2:0.416 3:0.158 5:0.392 6:0.252 7:-0.3379 8:-0.8237 9:-0.4323 10:-0.7963 11:-0.7269 
8 1:1 2:1 3:1 4:1 5:1 6:1 7:-1 8:-1 9:-1 10:-1 11:-1 
8 1:-0.298 2:0.424 3:-0.184 4:0.188 5:0.524 6:0.19 7:-0.4824 8:-0.8891 9:-0.5297 10:-0.8564 11:-0.8226 
8 1:-0.658 2:-0.058 3:-0.524 4:-0.24 5:-0.026 6:-0.114 7:-0.3724 8:-0.6996 9:-0.4936 10:-0.8878 11:-0.7312 
5.700375529538272 1:1 2:1 3:0.974 4:1 5:1 6:0.996 7:-0.5271 8:-1 9:-0.7242 10:-1 11:-0.9907 
3.154582511824923 1:-0.2 2:0.198 3:-0.076 4:0.87 5:0.882 6:0.924 7:-0.3994 8:-0.9238 9:-0.4721 10:-0.8703 11:-0.7396 
8 1:0.576 2:0.738 3:0.888 4:0.67 5:0.708 6:0.972 7:-0.4475 8:-0.873 9:-0.5285 10:-0.8511 11:-0.8009 
8 1:0.184 2:0.542 3:0.524 4:0.324 5:0.484 6:0.582 7:-0.44 8:-0.8606 9:-0.5027 10:-0.8637 11:-0.7826 
4.25355016958637 1:-0.32 2:0.244 3:-0.126 4:0.024 5:0.29 6:0.286 7:-0.173 8:0.0312 9:-0.1828 10:-0.5979 11:-0.476 
8 1:-0.754 2:0.022 3:-0.686 4:-0.476 5:-0.104 6:-0.384 7:-0.3235 8:-0.848 9:-0.479 10:-0.7218 11:-0.7209 
4.972899297086581 1:-0.456 2:0.32 3:-0.32 4:-0.11 5:0.31 6:0.036 7:-0.1895 8:-0.7936 9:-0.1946 10:-0.5716 11:-0.4791 
6.836961485598117 1:0.45 2:0.694 3:0.708 4:0.64 5:0.724 6:0.76 7:-0.1937 8:-0.7937 9:-0.2645 10:-0.6539 11:-0.521 
8 1:0.496 2:0.706 3:0.496 4:0.376 5:0.466 6:0.376 7:1 8:1 9:1 10:1 11:1 
8 1:1 2:1 3:0.986 4:1 5:1 6:0.99 7:-0.8923 8:-1 9:-1 10:-1 11:-1 
8 1:-0.68 2:0.234 3:-0.49 4:-0.386 5:0.194 6:-0.29 7:-0.3233 8:-0.78 9:-0.4114 10:-0.7503 11:-0.6953 
8 1:-0.68 2:0.034 3:-0.68 4:-0.076 5:0.208 6:-0.076 7:1 8:1 9:1 10:1 11:1 
0.3791152707921707 1:0.406 2:0.666 3:0.602 4:0.38 5:0.552 6:0.716 7:-0.2467 8:-0.8059 9:-0.1951 10:-0.6037 11:-0.5334 
8 1:0.068 2:0.506 3:0.508 4:0.274 5:0.492 6:0.67 7:-0.3418 8:-0.8636 9:-0.4202 10:-0.7465 11:-0.7044 
0.5315223409328284 1:0.738 2:0.86 3:0.84 4:0.816 5:0.886 6:0.862 7:-0.7609 8:-0.9965 9:-0.7497 10:-1 11:-1 
3.496092209567871 1:-0.198 2:0.302 3:0.232 4:0.014 5:0.216 6:0.332 7:-0.3847 8:-0.8076 9:-0.4182 10:-0.5126 11:-0.7441 
1.813063768454884 1:0.016 2:0.712 3:0.116 4:0.38 5:0.776 6:0.356 7:-0.2069 8:-0.9846 9:0.546 10:0.2409 11:0.3874 
0.1588925055718848 1:-0.172 2:0.478 3:-0.142 4:0.486 5:0.69 6:0.52 7:-0.4128 8:-0.8676 9:-0.4785 10:-0.7512 11:-0.7476 
8 1:1 2:1 3:0.982 4:1 5:1 6:0.996 7:-0.5281 8:-1 9:-0.5604 10:-0.9034 11:-0.8606 
0.6433615463169985 1:0.75 2:0.854 3:0.954 4:0.608 5:0.654 6:0.722 7:-0.5111 8:-1 9:-0.5725 10:-0.9341 11:-0.8727 
8 1:1 2:1 3:1 4:1 5:1 6:1 7:-1 8:-1 9:-1 10:-1 11:-1 
1.967510001404288 1:-0.47 2:0.24 3:-0.078 4:0.156 5:0.392 6:0.388 7:-0.261 8:-0.7595 9:-0.3125 10:-0.6557 11:-0.5969 
8 1:0.738 2:0.83 3:0.694 4:0.628 5:0.766 6:0.78 7:-0.4891 8:-1 9:-0.6062 10:-0.9539 11:-0.8884 
8 1:-0.88 2:-0.078 3:-0.88 4:-0.428 5:-0.09 6:-0.428 7:1 8:-0.0145 9:1 10:1 11:1 
8 1:1 2:1 3:1 4:1 5:1 6:1 7:-1 8:-1 9:-1 10:-1 11:-1 
5.245918407591613 1:0.408 2:1 3:-0.02 4:1 5:1 6:0.508 7:-0.3086 8:-0.8589 9:-0.475 10:-0.8084 11:-0.7457 
6.330969937268849 1:-0.592 2:0.166 3:-0.6 4:-0.15 5:0.272 6:-0.15 7:0.5521 8:1 9:1 10:1 11:1 
8 1:0.86 2:0.914 3:0.86 4:0.756 5:0.754 6:0.756 7:1 8:-0.9523 9:1 10:1 11:1 
8 1:-0.356 2:0.28 3:-0.212 4:-0.034 5:0.328 6:0.22 7:-0.4203 8:-0.8449 9:-0.4266 10:-0.8099 11:-0.7345 
8 1:0.12 2:0.438 3:0.464 4:0.39 5:0.592 6:0.658 7:-0.3818 8:-0.9119 9:-0.4861 10:-0.8279 11:-0.7641 
7.839942824157079 1:0.16 2:1 3:-0.016 4:0.9 5:1 6:0.474 7:-0.3868 8:-0.8559 9:-0.4542 10:-0.8315 11:-0.7274 
8 1:1 2:1 3:1 4:1 5:1 6:1 7:-1 8:-1 9:-1 10:-1 11:-1 
8 1:-0.8 2:0.082 3:-0.784 4:-0.338 5:0.116 6:-0.226 7:-0.3563 8:-0.8575 9:-0.4352 10:-0.8126 11:-0.7049 
3.627168550346156 1:0.622 2:1 3:0.628 4:1 5:1 6:0.846 7:-0.4188 8:-0.8148 9:-0.4951 10:-0.8621 11:-0.7962 
8 1:-0.22 2:0.35 3:-0.186 4:0.178 5:0.484 6:0.266 7:-0.3858 8:-0.7533 9:-0.4353 10:-0.741 11:-0.7317 
8 1:0.238 2:0.516 3:0.238 4:0.87 5:0.882 6:0.87 7:1 8:-0.3203 9:1 10:1 11:1 
8 1:-0.612 2:0.098 3:-0.396 4:-0.018 5:0.262 6:0.316 7:-0.3561 8:-0.9009 9:-0.4451 10:-0.7875 11:-0.7174 
8 1:-0.712 2:0.356 3:-0.626 4:-0.286 5:0.336 6:-0.246 7:-0.3129 8:-0.7771 9:-0.35 10:-0.6983 11:-0.6348 
8 1:-0.832 2:0.032 3:-0.702 4:-0.358 5:0.078 6:-0.168 7:-0.2972 8:-0.6554 9:-0.3351 10:-0.6649 11:-0.6175 
2.135016791008986 1:-0.89 2:-0.048 3:-0.876 4:0.32 5:0.526 6:0.32 7:0.913 8:-0.8459 9:1 10:-0.9194 11:1 
8 1:0.79 2:0.87 3:0.896 4:0.862 5:0.894 6:0.98 7:-0.3821 8:-1 9:-0.4481 10:-0.8364 11:-0.7266 
8 1:1 2:1 3:0.966 4:1 5:1 6:0.994 7:-0.4884 8:-1 9:-0.5193 10:-0.8742 11:-0.8158 
8 1:-0.742 2:-0.026 3:-0.634 4:-0.258 5:0.022 6:-0.06 7:-0.3522 8:-0.7577 9:-0.331 10:-0.5181 11:-0.6373 
3.668410196977624 1:0.194 2:0.458 3:0.438 4:0.928 5:0.946 6:0.932 7:-0.7241 8:-0.9759 9:-0.8325 10:-0.9237 11:-1 
3.959533185019172 1:1 2:1 3:0.618 4:1 5:1 6:0.806 7:-0.4039 8:-0.8088 9:-0.4836 10:-0.8116 11:-0.7581 
8 1:0.83 2:0.896 3:0.974 4:0.978 5:0.976 6:0.98 7:-0.4801 8:-1 9:-0.5027 10:-0.8998 11:-0.851 
1.483140189580553 1:0.444 2:0.856 3:0.464 4:0.746 5:0.914 6:0.714 7:-0.3033 8:-0.8191 9:-0.3515 10:-0.7343 11:-0.6307 
8 1:0.184 2:0.548 3:0.184 4:0.688 5:0.756 6:0.688 7:1 8:1 9:1 10:1 11:1 
8 1:-0.202 2:0.406 3:0.068 4:0.078 5:0.348 6:0.29 7:-0.3297 8:-0.7892 9:-0.4109 10:-0.7454 11:-0.6924 
8 1:-0.394 2:0.426 3:-0.35 4:0.062 5:0.402 6:0.088 7:-0.347 8:-0.7803 9:-0.3838 10:-0.7104 11:-0.6698 
8 1:-0.428 2:0.326 3:-0.184 4:-0.036 5:0.326 6:0.17 7:-0.4014 8:-0.6402 9:-0.5208 10:-0.8356 11:-0.7799 
1.967704366493628 1:-0.406 2:0.25 3:-0.276 4:-0.02 5:0.356 6:0.228 7:1 8:-0.3296 9:-0.5822 10:-0.9239 11:-0.8741 
4.542832627455712 1:0.26 2:0.556 3:0.446 4:0.45 5:0.524 6:0.696 7:-0.3925 8:1 9:-0.4401 10:-0.8691 11:-0.7423 
8 1:0.372 2:0.61 3:0.672 4:0.624 5:0.688 6:0.87 7:-0.5035 8:-0.8425 9:-0.4578 10:-0.815 11:-0.7552 
8 1:0.472 2:0.696 3:0.856 4:0.828 5:0.872 6:0.938 7:-0.3972 8:-0.8515 9:-0.4639 10:-0.8509 11:-0.7587 
8 1:-0.924 2:-0.184 3:-0.924 4:-0.366 5:0.026 6:-0.366 7:1 8:1 9:1 10:-1 11:1 
8 1:-0.022 2:0.434 3:0.15 4:0.102 5:0.342 6:0.336 7:-0.3885 8:-0.8521 9:-0.4014 10:-0.7204 11:-0.7047 
1.164751489402933 1:-0.232 2:0.324 3:0.176 4:0.202 5:0.4 6:0.556 7:-0.456 8:-0.8661 9:-0.5948 10:-0.6934 11:-0.8538 
8 1:-0.398 2:0.132 3:-0.026 4:0.024 5:0.234 6:0.384 7:-0.4582 8:-0.7669 9:-0.4632 10:-0.8331 11:-0.7526 
8 1:-0.66 2:0.114 3:-0.324 4:-0.332 5:0.026 6:-0.102 7:-0.3119 8:-0.8367 9:-0.4324 10:-0.7797 11:-0.6882 
8 1:1 2:1 3:0.994 4:1 5:1 6:0.996 7:-0.5598 8:-1 9:-0.605 10:-1 11:-0.8955 
8 1:-0.514 2:0.116 3:-0.288 4:-0.146 5:0.088 6:0.102 7:-0.3508 8:-0.6925 9:-0.4935 10:-0.8152 11:-0.7646 
8 1:1 2:1 3:1 4:1 5:1 6:1 7:-1 8:-1 9:-1 10:-1 11:-1 
8 1:1 2:1 3:1 4:1 5:1 6:1 7:-1 8:-1 9:-1 10:-1 11:-1 
2.194271096954759 1:0.338 2:1 3:0.042 4:0.842 5:1 6:0.544 7:-0.3916 8:-0.782 9:-0.4614 10:-0.7716 11:-0.7378 
8 1:-0.482 2:0.494 3:-0.428 4:0.032 5:0.59 6:-0.028 7:-0.4906 8:-0.927 9:-0.5668 10:-0.8385 11:-0.877 
4.363671004561047 1:-0.196 2:0.35 3:0.224 4:0.032 5:0.324 6:0.39 7:-0.4125 8:-0.8256 9:-0.5023 10:-0.7936 11:-0.7654 
1.693486795819682 1:-0.572 2:0.12 3:-0.472 4:0.012 5:0.248 6:0.204 7:-0.3563 8:-0.8122 9:-0.448 10:-0.7377 11:-0.7325 
8 1:0.336 2:0.584 3:0.386 4:0.638 5:0.67 6:0.766 7:-0.2623 8:-0.6655 9:-0.3811 10:-0.6503 11:-0.6435 
1.762519437903881 1:0.838 2:1 3:0.052 4:1 5:1 6:0.118 7:-0.4075 8:-0.7753 9:-0.4709 10:-0.7573 11:-0.7482 
8 1:-0.294 2:0.262 3:0.094 4:0.046 5:0.29 6:0.38 7:-0.2323 8:-0.7568 9:-0.4168 10:-0.7323 11:-0.6642 
8 1:-0.594 2:0.132 3:-0.562 4:-0.312 5:0.136 6:-0.226 7:-0.3613 8:-0.899 9:-0.4455 10:-0.8054 11:-0.723 
8 1:-0.508 2:0.526 3:-0.532 4:-0.034 5:0.55 6:-0.106 7:-0.3436 8:-0.7938 9:-0.4305 10:-0.7736 11:-0.7016 
8 1:-0.782 2:0.284 3:-0.8 4:-0.208 5:0.284 6:-0.27 7:-0.2503 8:-0.7816 9:-0.4073 10:-0.8571 11:-0.6702 
8 1:-0.562 2:0.216 3:-0.41 4:-0.186 5:0.256 6:0.08 7:-0.3301 8:-0.8522 9:-0.3787 10:-0.7216 11:-0.6418 
8 1:-0.38 2:0.252 3:-0.09 4:-0.092 5:0.246 6:0.102 7:-0.3532 8:-0.8384 9:-0.4334 10:-0.7941 11:-0.7096 
8 1:0.5 2:0.784 3:0.618 4:0.798 5:0.882 6:0.828 7:-0.3716 8:-0.7427 9:-0.4323 10:-0.7654 11:-0.7084 
8 1:-0.284 2:0.222 3:0.156 4:0.214 5:0.356 6:0.564 7:-0.3822 8:-0.8721 9:-0.436 10:-0.8193 11:-0.7168 
0.3177740315492866 1:0.65 2:0.79 3:0.874 4:0.822 5:0.858 6:0.974 7:-0.4386 8:-0.8844 9:-0.4626 10:-0.8501 11:-0.7504 
8 1:-0.882 2:-0.084 3:-0.866 4:-0.57 5:-0.102 6:-0.494 7:-0.0623 8:-0.7731 9:-0.3788 10:-0.7079 11:-0.652 
7.536725296625981 1:-0.546 2:0.214 3:-0.208 4:-0.478 5:0.006 6:-0.278 7:-0.2758 8:-0.7364 9:-0.3144 10:-0.6636 11:-0.6014 
1.173666903033418 1:-0.398 2:0.022 3:-0.134 4:0.464 5:0.52 6:0.688 7:-0.0976 8:-0.8373 9:-0.1988 10:-0.4912 11:-0.408 
8 1:-0.108 2:0.354 3:0.29 4:0.29 5:0.45 6:0.546 7:-0.2941 8:-0.7399 9:-0.2738 10:-0.471 11:-0.607 
8 1:-0.658 2:0.118 3:-0.32 4:-0.33 5:0.028 6:-0.098 7:-0.3178 8:-0.8396 9:-0.4407 10:-0.7873 11:-0.6927 
8 1:-0.592 2:0.094 3:-0.342 4:-0.186 5:0.138 6:0.16 7:-0.4287 8:-0.8816 9:-0.5661 10:-0.8324 11:-0.8306 
5.471167242249271 1:-0.648 2:0.104 3:-0.322 4:-0.482 5:-0.02 6:-0.316 7:-0.2719 8:-0.8189 9:-0.4076 10:-0.7767 11:-0.6676 
8 1:0.224 2:0.6 3:0.552 4:0.408 5:0.594 6:0.628 7:-0.3263 8:-0.8784 9:-0.4035 10:-0.7315 11:-0.6836 
8 1:-0.572 2:0.196 3:-0.502 4:-0.024 5:0.264 6:0.128 7:-0.3075 8:-0.8319 9:-0.3149 10:-0.7543 11:-0.669 
5.227000015036129 1:-0.788 2:0.152 3:-0.784 4:-0.32 5:0.184 6:-0.236 7:-0.354 8:-0.8752 9:-0.424 10:-0.8063 11:-0.698 
2.80639295162101 1:0.49 2:0.72 3:0.628 4:1 5:1 6:0.96 7:-0.6102 8:-1 9:-0.6891 10:-1 11:-1 
3.832557249190839 1:-0.102 2:0.488 3:0.178 4:-0.012 5:0.436 6:0.308 7:-0.4754 8:-0.752 9:-0.4216 10:-0.7401 11:-0.73 
8 1:-0.404 2:0.228 3:-0.026 4:-0.098 5:0.232 6:0.16 7:-0.3462 8:-0.8514 9:-0.4245 10:-0.7925 11:-0.6999 
8 1:-0.56 2:0.124 3:-0.326 4:-0.076 5:0.172 6:0.106 7:-0.3568 8:-0.7382 9:-0.4074 10:-0.7648 11:-0.6908 
3.518617774711102 1:-0.192 2:0.43 3:0.132 4:0.188 5:0.474 6:0.388 7:-0.3981 8:-0.8441 9:-0.4225 10:-0.6604 11:-0.7326 
8 1:-0.636 2:0.056 3:-0.458 4:-0.156 5:0.09 6:0.066 7:-0.4116 8:-0.773 9:-0.5201 10:-0.866 11:-0.7984 
7.430590024876868 1:0.328 2:1 3:0.34 4:0.828 5:1 6:0.456 7:-0.3153 8:-0.7132 9:-0.3543 10:-0.6979 11:-0.6386 
1.220616128008766 1:-0.726 2:0.166 3:-0.446 4:-0.362 5:0.196 6:-0.152 7:-0.3284 8:-0.7985 9:-0.3814 10:-0.7618 11:-0.6676 
1.131655436432762 1:0.248 2:0.888 3:0.392 4:0.498 5:0.948 6:0.434 7:-0.5062 8:-0.9195 9:-0.5134 10:-0.8482 11:-0.8114 
1.337335285249437 1:-0.658 2:0.132 3:-0.476 4:0.014 5:0.322 6:0.318 7:-0.3891 8:-0.7111 9:-0.4866 10:-0.8256 11:-0.7696 
8 1:-0.908 2:-0.28 3:-0.908 4:-0.28 5:0.02 6:-0.28 7:1 8:-1 9:1 10:1 11:1 
2.031580860563668 1:-0.074 2:0.416 3:0.124 4:0.762 5:0.834 6:0.852 7:-0.7855 8:-1 9:-0.7375 10:-0.9223 11:-0.9928 
1.955643730482605 1:-0.216 2:0.314 3:0.016 4:0.124 5:0.352 6:0.296 7:-0.3284 8:-0.173 9:-0.1348 10:-0.258 11:-0.4899 
8 1:-0.416 2:0.184 3:-0.36 4:0.138 5:0.462 6:0.294 7:-0.3774 8:-0.7602 9:-0.4528 10:-0.7853 11:-0.7238 
8 1:-0.386 2:0.246 3:0.02 4:-0.128 5:0.18 6:0.204 7:-0.3763 8:-0.803 9:-0.4354 10:-0.7494 11:-0.728 
8 1:-0.274 2:0.274 3:-0.204 4:0.054 5:0.308 6:0.198 7:-0.2876 8:-0.7134 9:-0.4024 10:-0.7395 11:-0.6766 
7.994116684789867 1:0.936 2:0.96 3:0.986 4:0.97 5:0.974 6:0.998 7:-0.4983 8:-0.9623 9:-0.5329 10:-0.9181 11:-0.8374 
8 1:0.934 2:0.96 3:0.986 4:0.97 5:0.974 6:0.998 7:-0.4985 8:-0.9616 9:-0.5335 10:-0.921 11:-0.8389 
8 1:0.358 2:0.536 3:0.658 4:0.506 5:0.628 6:0.688 7:-0.3513 8:-0.8004 9:-0.3431 10:-0.7551 11:-0.6439 
8 1:-0.054 2:0.436 3:0.406 4:0.422 5:0.622 6:0.754 7:-0.3996 8:-0.7622 9:-0.4149 10:-0.7145 11:-0.7256 
8 1:0.936 2:0.96 3:0.988 4:0.97 5:0.974 6:0.998 7:-0.4991 8:-0.9653 9:-0.5335 10:-0.9214 11:-0.839 
8 1:-0.42 2:0.222 3:-0.052 4:-0.118 5:0.218 6:0.136 7:-0.3588 8:-0.8555 9:-0.4368 10:-0.8014 11:-0.7126 
8 1:-0.51 2:0.224 3:-0.474 4:-0.07 5:0.362 6:0.124 7:1 8:-0.85 9:1 10:1 11:1 
4.490472057587821 1:0.38 2:0.602 3:0.372 4:0.72 5:0.782 6:0.93 7:-0.3446 8:-0.9475 9:-0.4116 10:-0.7965 11:-0.6866 
8 1:0.036 2:0.634 3:0.082 4:0.228 5:0.532 6:0.254 7:-0.3936 8:-0.9246 9:-0.4608 10:-0.8339 11:-0.7302 
5.469152766570554 1:-0.296 2:0.396 3:-0.034 4:0.064 5:0.458 6:0.368 7:-0.3676 8:-0.7802 9:-0.4506 10:-0.7882 11:-0.7297 
2.850705309527733 1:-0.752 2:0.144 3:-0.694 4:-0.454 5:-0.004 6:-0.414 7:-0.3312 8:-0.8234 9:-0.367 10:-0.7633 11:-0.6522 
4.91709367364405 1:0.816 2:0.898 3:0.938 4:0.724 5:0.796 6:0.892 7:-0.3126 8:-0.8986 9:-0.3796 10:-0.7026 11:-0.6609 
8 2:0.472 3:0.362 4:0.398 5:0.572 6:0.636 7:-0.3628 8:-0.8776 9:-0.4057 10:-0.8016 11:-0.6898 
1.596255646866072 1:-0.66 2:0.08 3:-0.296 4:-0.14 5:0.174 6:0.114 7:-0.1888 8:-0.743 9:-0.4453 10:-0.8005 11:-0.7182 
1.472333725404997 1:-0.244 2:0.558 3:-0.22 4:0.416 5:0.794 6:0.488 7:-0.2098 8:-0.9215 9:-0.0258 10:-0.9051 11:-0.8561 
8 1:-0.118 2:0.398 3:0.284 4:0.39 5:0.536 6:0.67 7:-0.4538 8:-0.9258 9:-0.5259 10:-0.8361 11:-0.8064 
8 1:1 2:1 3:0.986 4:1 5:1 6:0.998 7:-0.4901 8:-1 9:-0.5235 10:-0.8922 11:-0.8232 
0.5534223726595007 1:-0.574 2:0.23 3:-0.26 4:-0.28 5:0.222 6:-0.026 7:-0.3466 8:-0.5722 9:-0.5437 10:-0.8775 11:-0.82 
3.628927090774027 1:-0.416 2:0.294 3:-0.13 4:-0.04 5:0.334 6:0.262 7:-0.2669 8:-0.8126 9:-0.3675 10:-0.4007 11:-0.7197 
8 1:-0.754 2:0.222 3:-0.776 4:-0.264 5:0.162 6:-0.344 7:-0.369 8:-0.6801 9:-0.4474 10:-0.7531 11:-0.7227 
